title,0,1,2,3,4,5,6,7,8,9,10,11,12,13,14,15,16,17,18,19,20,21,22,23,24,25,26,27,28,29,30,31,32,33,34,35,36,37,38,39,40,41,42,43,44,45,46,47,48,49,50,51,52,53,54,55,56,57,58,59,60,61,62,63
random,-0.5006353,-0.20687895,0.31576544,0.13015614,-0.8441663,0.9738497,-0.45164505,-0.27284175,-0.45325708,0.06668942,-0.9838695,-0.87310266,0.3024521,-0.4944146,0.52540123,-0.17077747,-0.18578832,-0.105809204,-0.05587906,-0.4844213,-0.96647775,-0.28530028,0.11420695,0.1738882,1.6701552,0.5343343,-0.5860139,0.62194365,-0.1920047,0.43792567,-0.55352455,-0.5049849,-0.083020575,0.21504614,-0.56451684,1.100669,0.12233787,0.6106283,-0.169606,-0.6730098,-0.8354798,0.3640906,-0.11872294,-0.30871978,-0.005618544,0.011390755,1.0562648,-0.75019145,-1.0212057,-0.447322,0.5883293,0.33085266,-1.0028441,-0.4440109,-0.16772555,-0.41090137,0.4723608,1.1885957,0.36032662,-0.8614542,0.6870619,0.061261695,-0.5011931,-0.770324
random,-0.60178155,-0.6325279,0.5906458,0.33083674,-1.9526023,1.5737859,-0.92421323,-0.6766461,-1.806885,0.99615777,-2.489379,-1.4771218,0.81172323,-1.8379507,1.1659561,-0.390714,-0.569904,-0.55837953,0.37914634,-1.0184262,-1.9903153,-0.51745415,-0.114905685,0.15382911,4.105723,1.3216237,-0.5229435,1.2043341,-0.62873465,0.6755097,-1.0999229,-1.7618318,-0.056286845,0.43222255,-1.0027827,3.1512861,0.8141236,1.682286,-0.4879312,-1.9198358,-2.2104166,0.7709763,0.15722045,-0.63704723,-0.15547223,0.24364704,1.7225233,-1.7924789,-2.927477,-0.667806,1.725325,0.4813342,-1.6216218,-1.7361157,-0.71414024,-0.9646271,1.2088579,2.6879313,0.9613833,-1.3693359,1.4898229,-0.17878945,-0.62496454,-1.5800529
random,0.7488623,-1.8790581,0.9903788,-1.0963752,-1.0057116,0.6472945,1.0322295,1.1750636,-2.5928197,2.588659,-7.2458954,3.7511425,0.6572741,-4.241285,0.44641617,2.0532773,-3.8533423,-4.244647,1.7469599,-0.64898705,0.010843263,0.08858155,-2.9665408,-0.9183568,5.281659,0.16708286,-2.0591798,2.3756819,-0.8728124,-2.0945652,-3.4515429,-2.2165701,1.6810389,-2.1343966,-3.2976017,4.5437975,5.940943,3.8135781,0.68698436,-2.5900667,-4.029559,-1.198248,-0.25179327,-1.7381902,3.6325364,-1.7756661,3.7474723,-1.6245663,-8.915452,-4.6854897,4.616413,2.668501,1.6519859,-3.8225477,-3.8555655,-3.4445207,2.562497,4.87402,-1.2285173,-4.2380557,2.8842232,-1.1053532,-1.2654802,-3.948984
random,-0.0712559,-0.02894978,0.11466568,0.014992608,-0.26318642,0.35827127,-0.17750907,-0.11211911,-0.19772679,0.06895459,-0.34144285,-0.27168533,0.08669808,-0.1638777,0.24323836,-0.04797755,-0.0367887,-0.093903795,0.084011845,-0.10751825,-0.42554545,-0.06935724,0.10531107,0.09182454,0.44211307,0.21153173,-0.25612426,0.2331111,-0.055444203,0.15880422,-0.22094987,-0.11687364,0.0013515106,0.091957465,-0.16030066,0.36162683,0.07480315,0.2825678,-0.06464174,-0.23049691,-0.2305252,0.16152726,-0.04898181,-0.0755538,-0.08868684,0.03377789,0.37129065,-0.2408224,-0.3695837,-0.16924277,0.2266262,0.11337145,-0.34734863,-0.16746837,-0.13522872,-0.095885016,0.25962994,0.38160682,0.077511474,-0.29839003,0.19574702,-0.007537128,-0.034241624,-0.17708911
random,-0.23168226,-0.13551706,0.2213825,0.23873247,-0.6084456,0.66983825,-0.43438712,-0.2851879,-0.34559956,0.029478373,-0.84128475,-0.67259204,0.263817,-0.33393735,0.38954222,-0.14745054,-0.12739238,-0.15782714,0.08441165,-0.32739657,-0.9032348,-0.23961928,0.09931189,0.16470645,1.3164177,0.3944162,-0.47269827,0.5243513,-0.03825157,0.40823698,-0.4559774,-0.4077694,-0.020766024,0.17321625,-0.41653997,0.9120254,0.25711814,0.5860031,-0.15458772,-0.58676714,-0.63323116,0.2663418,0.013640979,-0.3023797,0.06847868,0.039728846,0.8649024,-0.6409354,-0.83059734,-0.40528712,0.50405407,0.30939814,-0.7412799,-0.5070605,-0.14981665,-0.28510484,0.49504697,0.9990705,0.20524532,-0.7479508,0.4504057,-0.012747511,-0.37453952,-0.6121035
random,-0.29877365,-0.11778322,0.1971568,0.06633681,-0.49399087,0.57800514,-0.26089758,-0.14586629,-0.24033266,0.0064685955,-0.5640508,-0.5368771,0.19935387,-0.25987652,0.3202574,-0.12456421,-0.10242927,-0.031893335,-0.04816733,-0.2964762,-0.5559804,-0.11479022,0.033974696,0.08644003,0.9375334,0.25840476,-0.31938556,0.34163606,-0.15046868,0.30455014,-0.33455136,-0.295697,-0.04343841,0.13742736,-0.36219108,0.5990549,0.006249013,0.3087876,-0.08017468,-0.34906653,-0.5066039,0.20136164,-0.10295265,-0.16438136,0.006898193,-0.04112816,0.65913624,-0.39579728,-0.55899477,-0.27354962,0.3231895,0.13009197,-0.6664562,-0.22070278,-0.050964437,-0.22572656,0.24903314,0.7272031,0.16505764,-0.52001286,0.4208361,0.06461366,-0.30525973,-0.4488401
random,-0.1928532,-0.09162233,0.19804884,0.06716652,-0.5040734,0.58580935,-0.33681855,-0.107047476,-0.298278,0.024441617,-0.6311551,-0.5286482,0.19214807,-0.25165242,0.41856503,-0.08135655,-0.11986592,-0.18447241,0.06486164,-0.17276907,-0.6958819,-0.19023767,0.06694656,0.1159968,0.93961126,0.32453373,-0.38333666,0.44541582,-0.110852286,0.26672444,-0.4370038,-0.33818626,-0.02196397,0.20043369,-0.33598074,0.6620091,0.09894869,0.4361018,-0.057510443,-0.4623384,-0.55603266,0.2574311,-0.0037059996,-0.11502522,-0.047738228,0.03961168,0.58818823,-0.39404485,-0.69884187,-0.22470944,0.46688777,0.16754578,-0.61012894,-0.31132036,-0.19106597,-0.19699928,0.37260205,0.73069245,0.20246184,-0.46597573,0.41200185,0.048724152,-0.17658442,-0.4197067
random,-0.2797556,-0.14542411,0.2146868,0.14663526,-0.62589854,0.7122296,-0.37024942,-0.22246026,-0.30837667,0.024810674,-0.8065966,-0.6472516,0.23342869,-0.3022661,0.3849123,-0.12921669,-0.07949445,-0.13987671,0.048517983,-0.2259154,-0.8059294,-0.17533194,0.10448222,0.13857558,1.1484269,0.4045101,-0.52277225,0.47391748,-0.12247027,0.3297995,-0.47749147,-0.3322239,-0.033250656,0.15562865,-0.41093728,0.7828355,0.16920298,0.50447565,-0.11794878,-0.49959117,-0.5553109,0.27328628,-0.05256313,-0.24942298,-0.025889946,0.05864143,0.791612,-0.5333729,-0.824509,-0.32753468,0.5411956,0.26422352,-0.75591654,-0.37518406,-0.17991902,-0.249745,0.47711077,0.8430847,0.22565868,-0.67022115,0.42388722,0.056384146,-0.31197163,-0.5402641
random,-0.51462954,-0.5303826,0.3984399,0.82743216,-1.877159,1.8363632,-1.4683493,-0.8456221,-0.7819243,0.19834945,-2.595286,-1.7404726,0.65368736,-0.79542214,1.0508281,-0.20537518,-0.13575722,-0.63906294,0.5806231,-0.39967555,-2.7176712,-0.6543764,0.37182507,0.53627926,3.765179,1.5219235,-1.6939265,1.5363947,-0.23755208,0.94167775,-1.6392453,-1.1915177,-0.09940327,0.33417326,-1.1363004,2.6855927,1.0967457,1.8151878,-0.54675496,-1.5056639,-1.6889893,0.82155687,0.30052322,-0.861245,-0.075531885,0.28405523,2.380244,-2.0608397,-2.8020825,-1.1652676,1.8316473,0.83752257,-1.974871,-1.6637211,-0.6413579,-0.7203323,1.7508494,2.6784058,0.89731354,-2.1638184,0.9490516,-0.09771278,-0.82030815,-1.802929
random,-0.35168186,-0.318562,0.22507632,0.21508373,-0.80667204,0.92430454,-0.56447315,-0.4421164,-0.6371226,0.12736076,-1.2142398,-0.78661877,0.3292429,-0.5888731,0.6564394,-0.31079093,-0.15006565,-0.25526878,0.1197122,-0.54312533,-1.1895403,-0.17907055,0.13821897,0.20883663,1.7803512,0.5822406,-0.59911907,0.6302939,-0.25949287,0.5502492,-0.6711706,-0.66466445,0.05140398,0.21086217,-0.43435958,1.3994116,0.2060316,0.7548218,-0.1833499,-0.7087614,-0.92451495,0.38064045,-0.029336004,-0.35895386,-0.11392637,0.0006432356,1.2093042,-1.0086389,-1.1631789,-0.4948015,0.72477895,0.15070936,-1.1193976,-0.85488236,-0.13213862,-0.31837583,0.6529253,1.3710197,0.32959834,-0.97432715,0.5874043,-0.02305143,-0.3610841,-0.6817285
random,-0.11309022,-0.05741306,0.09968852,0.10756022,-0.36087155,0.287599,-0.23801704,-0.2187448,-0.32360736,0.15944289,-0.5373633,-0.399254,0.22369705,-0.38670528,0.30283037,-0.11952594,-0.097388476,-0.10829189,0.07303621,-0.22479315,-0.48586887,-0.16717577,-0.039852373,0.07854832,0.9040877,0.25213766,-0.15914533,0.2617895,-0.08995026,0.19271146,-0.2564082,-0.36534882,0.0041960487,0.119670294,-0.24448824,0.66700935,0.2098645,0.36141947,-0.10548952,-0.3764259,-0.48609546,0.18194908,0.006976839,-0.18502454,-0.05081957,-0.020144919,0.47808138,-0.48182788,-0.61446494,-0.2215076,0.35815495,0.08065425,-0.3655488,-0.40729588,-0.16811045,-0.21094522,0.24580333,0.6893341,0.16990475,-0.34115565,0.34237382,-0.020703454,-0.2422193,-0.37021852
random,-0.3583198,-0.20586097,0.36134142,0.1019703,-1.7836133,1.4958175,-1.0414106,-0.47170916,-1.3406174,0.16607045,-2.110425,-1.8842868,0.8119083,-1.2923379,1.0375918,-0.5354641,-0.28245544,-0.30821478,0.10228205,-1.0536478,-2.234911,-1.1263742,0.027426383,0.72311115,3.266167,1.1635112,-0.7589535,1.5646815,-0.21886277,0.724265,-1.0819726,-1.1673576,0.030257264,0.77574116,-1.3080776,2.4050388,0.56529397,1.3682638,-0.67083097,-1.7317342,-1.8861436,0.8535622,0.07866031,-1.0833374,0.20636088,0.36162794,1.9319507,-1.4185752,-1.8972676,-0.9018522,1.4618208,0.43683067,-1.9464928,-1.2407471,-0.86977875,-0.4753334,0.9790813,2.0744252,1.0365795,-1.4329262,1.5605619,-0.0240657,-1.0245706,-1.7164879
random,-0.10587477,-0.08223831,0.07098461,0.055848774,-0.24369116,0.28830162,-0.14329529,-0.10105904,-0.12637004,0.041289773,-0.31852856,-0.24159072,0.0704337,-0.14054935,0.13290307,-0.06756744,-0.028191712,-0.025842546,0.04624802,-0.14544168,-0.35273126,-0.09170843,0.067578316,0.11177563,0.45790178,0.17921282,-0.19521363,0.17968695,-0.06835002,0.17454258,-0.16694222,-0.14396927,-0.013871668,0.071853824,-0.14593865,0.3462471,0.047577642,0.20440227,-0.098146275,-0.18778872,-0.20480849,0.1312417,-0.018982213,-0.08511822,-0.009649411,-0.019505428,0.34864277,-0.26559255,-0.28853863,-0.13962086,0.15634438,0.09254118,-0.28600308,-0.15454482,-0.022894375,-0.10866838,0.21785055,0.3278458,0.10340623,-0.31104913,0.14163436,-0.037814133,-0.107739925,-0.21845885
random,-0.52075326,-0.9815563,0.5903259,0.3599692,-1.5826064,1.3807881,-0.7955431,-0.42397082,-1.7923044,1.3133062,-2.5442266,-1.0379505,0.9111677,-1.6451892,1.0100124,-0.4794273,-0.8935222,-0.502602,0.76409394,-0.7916677,-1.9833276,-0.25429568,-0.30484152,-0.29939377,4.324094,1.1171116,0.14407723,0.940415,-0.86470973,0.5093934,-0.89408094,-2.1771514,0.0646272,0.06173985,-0.83517355,3.1554203,0.57205176,1.5342541,-0.15643269,-1.9379902,-2.2550728,0.51571405,0.5960994,-0.032945827,0.19866975,-0.057312082,1.587579,-1.8407322,-3.0490139,-0.81709397,1.3710141,0.41465634,-1.0816971,-1.8633628,-0.5036767,-1.3742942,1.141375,2.9820204,0.5792335,-1.4665402,1.346762,-0.39991018,-0.4814001,-1.2529215
random,-0.19072267,-0.078131415,0.1866482,0.07348939,-0.49582538,0.5601001,-0.23627228,-0.13518405,-0.26610482,0.019977186,-0.5662152,-0.49557438,0.20795104,-0.26176915,0.28458205,-0.020520354,-0.11596048,-0.10848466,0.019160673,-0.16769628,-0.55741125,-0.09815093,0.049931347,0.114900135,0.8776637,0.25303435,-0.32441384,0.3873402,-0.081178546,0.24317813,-0.33698964,-0.24403168,-0.08298658,0.108430795,-0.33407858,0.5358055,0.11392983,0.3629724,-0.06390282,-0.36156085,-0.4758753,0.19910559,-0.06346417,-0.19753484,-0.023519494,0.07217622,0.53223014,-0.2837665,-0.56122804,-0.19399211,0.41206548,0.2136059,-0.5599092,-0.21278724,-0.1662953,-0.20831552,0.27998993,0.5959648,0.14502971,-0.41403514,0.4002719,0.08217231,-0.18892077,-0.4343808
random,-0.28623554,-0.20972115,0.24329655,0.2520256,-0.85920846,0.85291636,-0.48791105,-0.23190892,-0.41951635,0.07561464,-0.99658406,-0.8259562,0.30400246,-0.3838497,0.42116162,-0.058498118,-0.13030386,-0.26933223,0.08190274,-0.2155998,-0.94883096,-0.19573206,0.060575623,0.16626613,1.540991,0.52304834,-0.58584666,0.5973626,-0.105573274,0.35648808,-0.57824224,-0.47491932,-0.13006245,0.18513802,-0.48196557,1.0330169,0.3348453,0.6806954,-0.16744472,-0.7061973,-0.77297395,0.3251415,0.0149945,-0.42635244,-0.04143476,0.23513362,0.8104961,-0.5836678,-1.0610207,-0.27347675,0.8068668,0.3694206,-0.8467074,-0.5507036,-0.2987701,-0.32643005,0.5978599,0.97247887,0.37490886,-0.67772835,0.5677323,0.09472334,-0.38953227,-0.74511725
random,-0.46368164,-0.37346968,0.34989986,0.24649604,-1.2063522,1.2491332,-0.8112569,-0.32987297,-0.93176407,0.250312,-1.7129142,-1.2978058,0.5428025,-0.8438731,0.9293573,-0.25002098,-0.43804112,-0.43936306,0.24283333,-0.51233083,-1.6651775,-0.42924625,-0.0025523368,0.31142598,2.7584488,0.7336724,-0.6385804,1.0664656,-0.3016038,0.60371184,-1.0410159,-1.0925695,-0.02711373,0.37321717,-0.76725537,1.9771277,0.42521095,1.1044756,-0.17367576,-1.2745291,-1.6616759,0.556808,0.14952758,-0.46160752,0.016742768,0.001964014,1.4707165,-1.1828891,-1.8056556,-0.46742874,1.2505419,0.3314405,-1.3804176,-1.1900668,-0.43554452,-0.6645065,0.8875588,1.9963405,0.65713996,-1.1150656,1.2403392,0.11230119,-0.58180666,-1.1318785
random,-0.122055165,-0.044600923,0.123162664,0.07713498,-0.4649625,0.47737595,-0.29621148,-0.19069524,-0.3509377,0.09413211,-0.5673792,-0.55465764,0.26016083,-0.35419002,0.3353824,-0.09979185,-0.09092304,-0.13093661,0.04922759,-0.15281819,-0.58496374,-0.17445199,0.06408859,0.21653722,0.79112446,0.27026075,-0.24269962,0.35498393,-0.112588316,0.18226483,-0.32961157,-0.16308622,-0.12881558,0.193698,-0.2740227,0.5497961,0.112440616,0.39556423,-0.09027495,-0.4154418,-0.470242,0.26209757,-0.06566862,-0.2087287,-0.14513785,0.028321141,0.44535032,-0.2829902,-0.5377757,-0.14617153,0.4349334,0.11944297,-0.5053114,-0.25161576,-0.199086,-0.17692591,0.30852783,0.58116245,0.17503433,-0.34674013,0.44952664,-0.0217142,-0.13960926,-0.40876812
random,-0.5839295,-0.49679592,0.6696495,0.5726525,-1.650444,1.4348257,-0.8225002,-0.4827332,-1.2908691,0.5519458,-2.16723,-1.449086,0.89103466,-1.1420234,0.88652647,-0.2577628,-0.5279826,-0.49212632,0.2556913,-0.63005525,-1.9055322,-0.42534742,-0.27479872,0.10341135,3.6844928,0.97934616,-0.49574685,1.2430648,-0.3203192,0.5298655,-0.95509785,-1.2844647,-0.21366334,0.31317416,-0.9975492,2.5851164,0.8068506,1.4799458,-0.33839878,-1.6756724,-1.8847055,0.5482756,0.12987417,-0.7872555,0.17221925,0.20983404,1.5048661,-1.3178935,-2.519616,-0.63857895,1.5235133,0.6818846,-1.4065691,-1.4904424,-0.46988222,-0.9589123,0.9602434,2.3934555,0.6240897,-1.3298862,1.5358834,-0.015859256,-0.8285057,-1.5052774
random,-0.67704016,-0.39874396,0.5898328,0.20370279,-1.759868,1.3647178,-0.84935224,-0.5864478,-1.6128713,1.0313557,-2.2547574,-1.5740862,0.8273943,-1.6481243,1.5296366,-0.49685568,-0.3386645,-0.8492534,0.2192638,-0.69623846,-1.7920215,-0.6103855,-0.029557701,0.14889279,3.5221226,1.3652436,-0.89676803,0.8979845,-0.663233,0.5698835,-1.1711965,-1.5781982,0.014793761,0.76755744,-0.9262737,2.679161,0.76822335,1.5035342,-0.24710345,-1.9269259,-1.8663895,0.8371827,-0.04600184,-0.39756337,-0.4448403,0.122093715,1.7292191,-1.6717783,-3.097421,-0.8766605,1.7700456,0.34964716,-1.4692882,-1.3837816,-0.94629496,-1.0171952,1.0781344,2.6534004,0.80017185,-1.1788622,1.414458,0.092524365,-0.8218709,-1.4838653
random,-0.28223935,-0.41801238,0.35698634,0.21095984,-1.155672,1.1031284,-0.6314645,-0.41730595,-1.1159505,0.49347126,-1.5711493,-1.0049549,0.52038383,-0.9490264,0.75246,-0.17334989,-0.46551883,-0.51142913,0.28093898,-0.32254422,-1.405636,-0.16002041,-0.14079213,0.14578213,2.3463671,0.8222029,-0.5415161,0.9098864,-0.22767027,0.44072372,-0.83303744,-0.95430595,-0.06920964,0.20969747,-0.64702094,1.8370184,0.44804764,1.1459818,-0.054729696,-1.0463876,-1.3808129,0.5103409,0.110236764,-0.4457045,-0.2273759,0.34387645,1.0715972,-0.9736974,-1.8754222,-0.47712108,1.2023746,0.39685434,-1.0521618,-1.0057104,-0.5899651,-0.56650186,0.7659379,1.704846,0.3136288,-0.7578356,1.0043526,0.017389774,-0.2122406,-0.8693044
random,-0.24412762,-0.1365614,0.21627122,0.110406704,-0.6099989,0.6604139,-0.27088857,-0.20495641,-0.3842909,0.07055256,-0.75051826,-0.6317396,0.29828677,-0.38728115,0.37694108,-0.13143301,-0.15219906,-0.12379144,0.031948578,-0.28444684,-0.696156,-0.19424501,0.013559673,0.1411943,1.1659065,0.35056147,-0.33614278,0.49257317,-0.1567016,0.29160538,-0.38945794,-0.3347131,-0.041578226,0.18830381,-0.43328723,0.7599085,0.15093023,0.45008555,-0.115484454,-0.50305396,-0.60335857,0.24834356,-0.0794932,-0.31341824,0.011602673,0.09119,0.7044837,-0.4489186,-0.71356124,-0.31523275,0.49484733,0.25085586,-0.70384467,-0.3852001,-0.17654361,-0.22672744,0.3470486,0.7972913,0.15570027,-0.52388304,0.49591148,0.038232442,-0.37039155,-0.54219246
random,-0.60618603,-0.4943492,0.50309944,0.6571526,-1.3272746,1.5691607,-0.9226049,-0.4571941,-0.43722886,0.07219374,-1.9247218,-1.1859549,0.47763816,-0.4067754,0.80754405,-0.14505698,-0.31284094,-0.46281493,0.3531983,-0.35608926,-1.9202845,-0.4258059,0.14633605,0.15962374,3.087533,1.0465803,-1.1726665,1.1222506,-0.18896268,0.72272116,-1.1633565,-1.0667723,-0.11481185,0.14262366,-0.84313416,2.0376873,0.6546789,1.2953024,-0.33805266,-1.1615337,-1.4211264,0.4906442,0.20570478,-0.47738242,0.15539274,0.21501751,1.6726809,-1.5328863,-2.026635,-0.9156148,1.2388625,0.80500764,-1.4738654,-1.2592376,-0.2389748,-0.6738095,1.2052686,2.1859748,0.42963067,-1.5535789,0.74018556,-0.04757706,-0.76747125,-1.2211936
random,-0.42745623,-0.7788742,0.27738816,0.42466655,-1.5555182,1.5026274,-0.9560646,-0.49207142,-1.3995632,1.0466193,-2.4980817,-1.2040142,0.7184496,-1.3540515,0.65339303,0.015049974,-0.9863346,-0.7443456,0.69704384,0.06980246,-1.9526873,-0.10880775,-0.20373623,0.23280942,3.5863078,1.1760732,-0.6833575,1.1391944,-0.4758158,0.31302607,-1.3226058,-1.5336652,-0.24783202,-0.048522905,-0.8029078,2.733854,0.9542077,1.8145217,0.01803689,-1.4257336,-1.99348,0.6724546,0.45389166,-0.3836945,-0.3037116,0.3972333,1.3256823,-1.5221275,-3.1028686,-0.4727464,2.067159,0.8528031,-0.85313785,-1.681347,-0.9294524,-1.1287366,1.4977881,2.5139563,0.58351785,-1.1157376,1.3785292,-0.12185055,-0.20030841,-1.3322212
random,-0.38441116,-0.29942825,0.3430551,0.22727181,-0.8082719,0.55750144,-0.34383866,-0.089958936,-0.7884972,0.4243699,-1.1681017,-0.59352195,0.47380742,-0.69975126,0.7078465,-0.43057615,-0.27162138,-0.23805386,0.28071588,-0.5106252,-1.0511004,-0.4901889,-0.17621021,0.17169872,2.0211666,0.5491351,-3.0509764e-05,0.6240785,-0.40359405,0.26598626,-0.54428935,-1.0334555,0.10071471,0.35025772,-0.38696355,1.4741652,0.22667436,0.63016516,-0.3080991,-1.1272528,-1.1225269,0.34810355,0.23366165,-0.05597697,0.2481256,-0.1568933,0.8581408,-0.9012804,-1.2012712,-0.3967789,0.70720714,0.21870269,-0.66597253,-0.87641674,-0.09189972,-0.5082265,0.5571389,1.2652413,0.44956046,-0.60491425,0.8399871,-0.19235939,-0.50139713,-0.8097639
random,-0.5941993,-0.37004438,0.30325544,0.29488546,-0.9609622,1.0855548,-0.5768724,-0.3218234,-0.62873966,0.2242565,-1.3075514,-1.0427314,0.46155438,-0.71414024,0.48431998,-0.15222685,-0.40569735,-0.22296132,-0.0027879106,-0.47980353,-1.0553855,-0.23438063,0.0293546,0.17222358,2.216206,0.56980973,-0.4322787,0.56393677,-0.3004654,0.40224704,-0.6801412,-0.6859977,-0.15315558,0.04990424,-0.6111975,1.416642,0.2976583,0.7444188,-0.14995767,-0.8562153,-1.1659949,0.34743473,0.0628164,-0.44335335,0.044271097,0.05511301,1.0921942,-0.9566744,-1.3085302,-0.49196935,0.80606294,0.3847505,-1.0144523,-0.7513024,-0.23935834,-0.64680064,0.60095185,1.5361788,0.36597016,-0.943497,0.9514529,-0.005571407,-0.6892739,-0.98238397
random,-0.28533852,-0.19830967,0.43128756,0.28859428,-0.7930504,0.8259442,-0.48618773,-0.56892353,-0.86800206,0.49400792,-1.197356,-0.9682735,0.55583817,-0.77897775,0.8039408,-0.45677492,-0.18142156,-0.18704163,0.2950618,-0.51572293,-1.3325326,-0.2511656,-0.030908667,0.15890871,2.0116313,0.66597867,-0.4258453,0.6940718,-0.2714312,0.6105008,-0.61164314,-0.6874124,0.08875164,0.34161547,-0.5326382,1.6399766,0.45060813,0.9363987,-0.21180464,-0.8286428,-1.0020465,0.43491605,-0.15223916,-0.35024393,-0.13238932,-0.01722376,1.2659299,-1.1105208,-1.4896369,-0.70142686,0.7608692,0.1876206,-1.0921798,-0.9900076,-0.2038672,-0.4220137,0.66259974,1.6917117,0.13615416,-0.9414309,0.81432074,-0.062874034,-0.43093807,-0.6352105
random,-0.18231124,-0.0663608,0.12339948,0.07298501,-0.34951213,0.39637604,-0.22667028,-0.10024955,-0.18797499,0.03583098,-0.42083803,-0.39123008,0.17189656,-0.19112165,0.27579585,-0.091203,-0.040673427,-0.06556891,0.012336627,-0.17639503,-0.44744885,-0.0777616,0.072103746,0.058191683,0.6618332,0.20971283,-0.27244344,0.21938589,-0.11859593,0.21470843,-0.27991912,-0.22540995,-0.008275417,0.1012166,-0.24413967,0.43817785,0.031975262,0.25811177,-0.043580096,-0.28464335,-0.34734848,0.16184579,-0.06802348,-0.048588183,-0.058225997,-0.059965976,0.46628603,-0.3103032,-0.4951599,-0.19662803,0.28651828,0.060040783,-0.452541,-0.19463775,-0.06568029,-0.17186676,0.23103681,0.52682614,0.12961265,-0.391346,0.27391472,0.04242573,-0.16182259,-0.31169882
random,-0.14880648,-0.115354896,0.061605014,0.104205705,-0.3538233,0.36470264,-0.22774328,-0.1492771,-0.19365272,0.067421064,-0.54179865,-0.3387548,0.16756134,-0.22248405,0.18060085,-0.063169226,-0.09003773,-0.097829305,0.06428761,-0.117051005,-0.4712655,-0.10600801,0.035403565,0.08837498,0.7902326,0.23261745,-0.25623497,0.2557724,-0.07057853,0.17710964,-0.2931732,-0.2881686,-0.021195425,0.060633175,-0.22448009,0.53949344,0.15630487,0.31656063,-0.084878236,-0.31661502,-0.39899847,0.14567564,0.04734078,-0.14119667,-0.010087318,-0.00064927764,0.46757656,-0.3996137,-0.5609188,-0.1820394,0.37209567,0.16137259,-0.3467023,-0.323816,-0.12839846,-0.18939933,0.29451934,0.5847626,0.13913828,-0.403731,0.22836731,-0.0140763,-0.19547391,-0.35797164
random,-0.44974384,-0.26183152,0.3282352,0.15172543,-1.0203346,1.1707382,-0.60977584,-0.2726797,-0.6036334,0.04308298,-1.3012072,-0.9942628,0.363913,-0.5556666,0.6535379,-0.18351121,-0.2600768,-0.24829845,0.06609056,-0.43015024,-1.2631756,-0.25542083,0.10625501,0.31550157,1.9461931,0.5711357,-0.68214244,0.84031874,-0.25008124,0.5487586,-0.81796193,-0.6520984,-0.07927535,0.30976096,-0.6144386,1.3629614,0.1688521,0.83188516,-0.13426179,-0.7913539,-1.1015534,0.4729108,-0.0531125,-0.31894177,-0.060194492,0.07153037,1.1962012,-0.81368536,-1.2262852,-0.39671916,0.87724733,0.32291052,-1.2103682,-0.6645841,-0.22855219,-0.41395035,0.69312817,1.4264832,0.43113238,-0.9398473,0.8203995,0.072079755,-0.42821407,-0.9116691
random,-0.32456705,-0.15880609,0.25584522,0.035991665,-0.45603734,0.5307925,-0.19209936,-0.15764058,-0.32618406,0.1729183,-0.5465203,-0.46698248,0.2512342,-0.32022586,0.30919442,-0.18674845,-0.06890622,0.025950538,-0.016188461,-0.27314794,-0.53485405,-0.06970578,0.0059339553,0.036789067,0.99376774,0.29525033,-0.22533181,0.26593062,-0.19842744,0.29998147,-0.2586574,-0.30117273,-0.027358245,0.13407598,-0.31106582,0.6542981,0.04446456,0.3032329,-0.08732851,-0.36012745,-0.45149362,0.1901466,-0.16329075,-0.056187406,-0.036040045,-0.11102872,0.6502348,-0.44426635,-0.64444053,-0.30749625,0.27768606,0.07897525,-0.5842527,-0.25910977,0.027033214,-0.29783642,0.21095361,0.7579971,0.104626395,-0.5438652,0.37222528,0.025895983,-0.28638068,-0.38158098
random,-0.08280604,-0.010743803,0.11115501,0.06877746,-0.23614903,0.26176777,-0.14522651,-0.08280541,-0.07904973,-0.011380695,-0.261999,-0.26270327,0.09056399,-0.07664679,0.14347658,-0.049456168,-0.00025826445,-0.016033707,0.032812838,-0.0899934,-0.3274729,-0.09635314,0.024869602,0.06471035,0.4262927,0.1477586,-0.21157195,0.20797573,-0.011097763,0.14612225,-0.1624454,-0.110180825,-0.012904681,0.08521251,-0.17406382,0.2980772,0.084224604,0.18536153,-0.097058654,-0.18579942,-0.20493886,0.102347165,-0.033230495,-0.11344664,0.015695479,0.022586107,0.31422585,-0.19630286,-0.28354967,-0.13525409,0.17758594,0.11967333,-0.2967398,-0.13763274,-0.038276974,-0.07715719,0.19570349,0.3047731,0.11532358,-0.26780677,0.14845482,0.013364362,-0.1309688,-0.20344514
random,-0.50976396,-0.27778733,0.39874735,0.2424032,-0.97150004,1.0719109,-0.5821829,-0.43701935,-0.68259126,0.22071885,-1.2968569,-1.0753077,0.4544421,-0.68664044,0.719756,-0.36899877,-0.21779156,-0.116308235,0.057985235,-0.6444608,-1.2959872,-0.2591061,0.07759433,0.12553228,2.0006106,0.601087,-0.6274832,0.6911953,-0.2419472,0.62361526,-0.6661053,-0.6653975,-0.018805452,0.28413442,-0.70631814,1.4863293,0.12868641,0.7943064,-0.16465415,-0.79017824,-1.0232459,0.4486493,-0.16956283,-0.33233294,-0.03713551,-0.10906081,1.4049424,-1.0053098,-1.4183729,-0.7226002,0.7063958,0.2504787,-1.2688191,-0.7012065,-0.18355888,-0.46726283,0.5992596,1.6428764,0.23738773,-1.1716058,0.8184471,0.020712882,-0.5036369,-0.81989825
random,-0.22985604,-0.17412227,0.22912824,0.33703718,-1.224016,1.0148362,-0.98116475,-0.5671917,-1.2104805,0.2696349,-2.0583751,-1.4780502,0.6858916,-1.1052172,1.2381579,-0.6284043,-0.53701854,-0.45449647,0.2982997,-0.90149784,-2.2023551,-1.1589864,0.12381364,0.63840204,2.8101141,0.9061164,-0.53803676,1.3167682,-0.35427326,0.6098954,-1.0835449,-1.235197,0.1698739,0.84848267,-0.94454473,2.4667773,0.515044,1.4382218,-0.2985327,-1.4718542,-1.6914803,0.87089616,0.28299797,-0.54019314,0.20307982,-0.11127587,1.8876251,-1.7192804,-1.8269488,-0.8750692,1.080131,0.2909618,-1.4213251,-1.5009302,-0.666407,-0.45410886,0.9665616,2.2268682,0.6925085,-1.3809854,1.4833496,-0.29112452,-0.8345277,-1.2188388
random,-0.18498632,-0.13581425,0.19946697,0.12011376,-0.5316085,0.6031546,-0.3062198,-0.17250231,-0.33415198,0.0023191576,-0.62855035,-0.4999933,0.18620405,-0.25368354,0.35048115,-0.15526426,-0.011983745,-0.11542848,0.05872738,-0.2569278,-0.71751803,-0.1411545,0.11917743,0.2105203,0.90918314,0.34604067,-0.3726822,0.4282849,-0.087761454,0.3340969,-0.34605476,-0.24216503,-0.04938542,0.16978024,-0.2770006,0.67013484,0.08640372,0.4214191,-0.17552078,-0.44725275,-0.44990292,0.24970192,-0.061211277,-0.22163267,-0.034644496,0.05591838,0.6195118,-0.39450893,-0.54143745,-0.2371097,0.41043103,0.16526785,-0.6764462,-0.3297619,-0.05936061,-0.13564643,0.41608116,0.59947896,0.21390419,-0.5313202,0.32747248,-0.014297834,-0.16816859,-0.44059613
random,-0.28363353,-0.41038924,0.19153967,0.13010003,-1.178432,1.1707623,-0.6110604,-0.4461616,-0.96132255,0.35898414,-1.5324004,-1.0074685,0.44259608,-0.96704715,0.65036327,-0.14460145,-0.4287438,-0.4467746,0.24359721,-0.4785299,-1.3162689,-0.31415033,0.06772304,0.40001947,2.433449,0.71141684,-0.51263446,0.90840745,-0.25947702,0.5604912,-0.8270545,-0.87930787,-0.1075629,0.26738465,-0.63839847,1.6858753,0.53307396,0.9643336,-0.092256196,-0.9492385,-1.4047121,0.4487544,0.1269179,-0.59139895,-0.11015163,0.3131887,1.1636544,-1.004945,-1.48515,-0.515563,1.2022889,0.3708201,-1.1516832,-1.0101376,-0.5976091,-0.46032652,0.748382,1.6242387,0.40299192,-0.86858183,0.8798761,0.014452929,-0.41939095,-0.9976075
random,-0.41043666,-0.16410795,0.28296378,0.16290314,-0.91020143,0.89739114,-0.5457299,-0.2586448,-0.52870035,0.072921716,-1.0569677,-0.93904203,0.37530485,-0.55089676,0.5585734,-0.22445361,-0.082467854,-0.20007516,-0.047243733,-0.5039251,-1.0090156,-0.3007295,0.08362606,0.21431392,1.7101766,0.48561922,-0.56006247,0.61235166,-0.2053821,0.489296,-0.6290481,-0.55929726,-0.051686857,0.30838373,-0.6081017,1.1694152,0.2251305,0.6425119,-0.24467753,-0.82656664,-0.9198639,0.36137596,-0.074997865,-0.3602426,0.010925743,-0.025641393,1.0743978,-0.7338878,-1.1221235,-0.3872905,0.7455321,0.21398856,-1.072054,-0.6058531,-0.16218135,-0.39370385,0.5313979,1.2531546,0.42639598,-0.8845994,0.6993514,0.072477564,-0.52872455,-0.90505785
random,-0.045513503,-0.052044563,0.06710601,0.07203206,-0.17408636,0.21103555,-0.10434862,-0.06320498,-0.10474356,0.03334686,-0.26659793,-0.17473103,0.06580765,-0.083991356,0.12867442,-0.025565524,-0.07933259,-0.08144637,0.07341826,-0.03140153,-0.2897785,-0.06119088,0.0025099958,0.045632124,0.36219847,0.13514455,-0.12389956,0.18129165,-0.021155884,0.07532276,-0.1400571,-0.13226956,-0.011003096,0.04577312,-0.10474763,0.2768647,0.068052284,0.19073632,-0.03182823,-0.18177916,-0.19428739,0.09061054,0.042125143,-0.086734936,-0.00037679082,0.054806218,0.21505295,-0.16676493,-0.26307598,-0.10502197,0.16941293,0.12168416,-0.17626177,-0.14197205,-0.09077851,-0.10206394,0.17169994,0.26862442,0.049023625,-0.15897289,0.15345299,-0.010023176,-0.05387958,-0.13638115
random,-0.37675598,-0.14778616,0.22974715,0.10269057,-0.63464755,0.7769811,-0.40049285,-0.1935813,-0.32452258,-0.045268167,-0.8037533,-0.65900385,0.22774327,-0.28310192,0.44529563,-0.17148846,-0.049933545,-0.042779297,-0.04122616,-0.3329241,-0.8214157,-0.16036353,0.123877935,0.20316292,1.2633052,0.37363273,-0.45141438,0.44888905,-0.19302724,0.41495463,-0.4957468,-0.38626134,-0.077107824,0.1737045,-0.36525363,0.8225323,0.023600718,0.4541491,-0.16321418,-0.48013204,-0.6629465,0.30598184,-0.08552943,-0.16369562,-0.035064574,-0.048438363,0.8502294,-0.55390245,-0.68674517,-0.23438784,0.47226262,0.13295092,-0.8638493,-0.38469365,-0.037309576,-0.26819327,0.4253366,0.89290464,0.36349183,-0.6926745,0.4594745,0.06074996,-0.31745416,-0.5813732
random,-0.19377345,-0.11634835,0.08197147,0.122537024,-0.42344537,0.47898236,-0.2527268,-0.17586951,-0.2181128,0.043275524,-0.5540662,-0.4743708,0.12211131,-0.2663798,0.23148026,-0.0918498,-0.11407797,-0.13235365,0.07120553,-0.21287924,-0.5349215,-0.20177966,0.10009561,0.18145637,0.8751809,0.26351008,-0.33135378,0.32314485,-0.06550704,0.23292385,-0.31523728,-0.2626284,-0.024818055,0.11655724,-0.269388,0.56464803,0.14559947,0.33661863,-0.12649722,-0.38345075,-0.45144314,0.16972846,0.017262125,-0.27664822,-0.0011601432,0.05415193,0.5568899,-0.4249103,-0.46707323,-0.23926611,0.36471868,0.24784933,-0.48234928,-0.3087245,-0.16064595,-0.19864503,0.33652344,0.61428684,0.19133104,-0.43210423,0.31203416,-0.005738896,-0.28754598,-0.42334428
random,-0.159308,-0.09286074,0.07088009,0.11187968,-0.3719567,0.44266164,-0.2522901,-0.179785,-0.18975106,0.020400433,-0.5091305,-0.47136873,0.11225913,-0.25399587,0.26142272,-0.080347314,-0.11670166,-0.12650384,0.067240305,-0.1730973,-0.5402214,-0.20633674,0.08248672,0.19757874,0.73250276,0.25874767,-0.32664877,0.31555116,-0.033514585,0.21026988,-0.30931205,-0.22350818,-0.026285497,0.128566,-0.24808489,0.5313655,0.113626696,0.33223042,-0.09186212,-0.33642766,-0.40569282,0.19659418,0.022091217,-0.2687997,-0.026664196,0.077314116,0.51323646,-0.38667265,-0.44574928,-0.22763065,0.33179715,0.21512997,-0.44539213,-0.2785499,-0.17461315,-0.15688244,0.3415183,0.57211643,0.18557113,-0.3821924,0.30172002,0.014752709,-0.24625215,-0.3555494
random,-0.5439182,-0.27753666,0.38315266,0.2711323,-1.166569,1.3367158,-0.71842706,-0.5093879,-0.6923237,0.20666157,-1.4329702,-1.2542119,0.5221186,-0.76654494,0.74062973,-0.29769385,-0.1846032,-0.16719176,0.0492116,-0.633929,-1.4905323,-0.24620777,0.17697357,0.28979927,2.212033,0.7395569,-0.837632,0.81656474,-0.29994166,0.6782893,-0.8472405,-0.62528527,-0.113177344,0.27897155,-0.7497019,1.6198424,0.27078274,0.93611443,-0.27913538,-0.8412769,-1.1351871,0.54866654,-0.21325672,-0.4709991,-0.1763332,-0.042188704,1.4933982,-1.095102,-1.5410278,-0.6450587,0.9134797,0.30589414,-1.4475366,-0.7490948,-0.1997915,-0.4973858,0.8074541,1.7052441,0.38943905,-1.2917321,0.8935543,0.030613737,-0.49312282,-1.0182801
random,-0.43584466,-0.39850888,0.3241056,0.18927102,-1.1701245,1.1876612,-0.57777375,-0.23401803,-0.6804124,0.07892008,-1.374391,-0.93185633,0.32083356,-0.61380374,0.6063787,-0.12921825,-0.28935537,-0.36753565,0.078003965,-0.49204695,-1.2099583,-0.31269693,0.057206653,0.40155014,2.316367,0.61531067,-0.61421996,0.88925916,-0.20775497,0.5366667,-0.80118537,-0.84406143,-0.089277335,0.29307297,-0.538761,1.5437883,0.42148188,0.86441654,-0.23013726,-0.9615287,-1.269344,0.4001041,0.09810169,-0.54372805,0.111298315,0.33966708,1.1122581,-0.84444004,-1.1629156,-0.3204525,1.0240495,0.4181411,-1.1944461,-0.8782365,-0.2408093,-0.44469205,0.75822073,1.4072136,0.62365746,-0.8638198,0.8135313,0.1177427,-0.5904785,-1.0412171
random,-0.24762593,-0.19076937,0.23742574,0.1268495,-0.7355521,0.79721934,-0.36727458,-0.27148214,-0.50865775,0.09211128,-0.9016987,-0.6645842,0.294982,-0.4585619,0.4286072,-0.12613665,-0.13000149,-0.17414437,0.062106937,-0.3019768,-0.86200804,-0.14922053,0.070095,0.19599324,1.3944552,0.44210377,-0.4484023,0.5617916,-0.13081712,0.37699986,-0.47822395,-0.41856262,-0.08113227,0.16512,-0.4309511,0.9662059,0.20967099,0.5944423,-0.13316825,-0.58190346,-0.73460555,0.30015314,-0.060333528,-0.32294536,-0.07242296,0.12807827,0.8054417,-0.53974956,-0.8968497,-0.3268796,0.65026605,0.27545825,-0.8246881,-0.47754472,-0.23207867,-0.27342054,0.46915022,0.94178784,0.23325892,-0.6470873,0.5218593,0.03699564,-0.24455287,-0.62038183
random,-0.48351902,-0.43926793,0.61948204,0.039718404,-1.6013051,1.4265814,-0.68712175,-0.5298405,-1.7110169,1.0351225,-2.130595,-1.3742939,0.976886,-1.9077872,1.0663977,-0.35810405,-0.9842719,-0.5567266,0.2141036,-1.084855,-1.6827947,-0.511824,-0.42639178,-0.15266076,3.624418,1.0591637,-0.046294723,1.3604286,-0.6239342,0.57892245,-0.9540585,-1.5479174,0.05936557,0.2485859,-1.3315277,2.6475334,0.5725901,1.3790472,-0.08279551,-1.6235883,-2.2044246,0.48769453,0.109332345,-0.4512371,-0.025255466,-0.026281478,1.5148236,-1.4907961,-2.781555,-1.0003111,1.275341,0.4604685,-1.3090897,-1.3299618,-0.8224236,-1.0989915,0.53503186,2.8628023,0.079926275,-1.1884177,1.8281918,-0.21658987,-0.6235684,-1.3951514
random,-0.26258036,-0.18150307,0.15955284,0.049744338,-0.6336119,0.74583334,-0.43318307,-0.26631507,-0.46874753,0.08376618,-0.85252774,-0.67300445,0.27153844,-0.42109877,0.4854071,-0.1647915,-0.07990662,-0.17168538,0.026090307,-0.3423258,-0.8525416,-0.12899242,0.16271533,0.17489085,1.2030548,0.4149275,-0.49004254,0.44852677,-0.16547942,0.40985426,-0.50597,-0.36274272,-0.012633664,0.1984162,-0.40257305,0.8734808,0.0962748,0.52498615,-0.10248658,-0.5332865,-0.6360735,0.3119118,-0.10077154,-0.19450825,-0.12494039,-0.04008859,0.89197135,-0.60988843,-0.8745968,-0.3664403,0.5539383,0.08334148,-0.84065574,-0.44459265,-0.15641817,-0.2537864,0.44723064,0.968618,0.22154987,-0.7331905,0.47381204,0.014453083,-0.21181315,-0.543177
random,-0.21606329,-0.16472058,0.1975923,0.10723341,-0.4890305,0.5795089,-0.3058398,-0.2170507,-0.40094098,0.08623156,-0.66543484,-0.51103395,0.21699893,-0.33368978,0.38275802,-0.15584762,-0.086149104,-0.14057232,0.017655067,-0.2984062,-0.65994745,-0.04751129,0.061943594,0.10679517,1.0408717,0.3344144,-0.33753225,0.35734576,-0.108114354,0.35613993,-0.37070262,-0.3269526,-0.02215646,0.11497615,-0.2953473,0.75836235,0.14952274,0.4332681,-0.06956599,-0.41233483,-0.5490972,0.20559885,-0.0931581,-0.23617002,-0.067037515,0.061161388,0.66107786,-0.48908627,-0.6599995,-0.32334983,0.41660255,0.081621654,-0.7090417,-0.42776912,-0.10549139,-0.20930009,0.2844074,0.788302,0.13983433,-0.50700855,0.3951739,0.068305224,-0.21989489,-0.39841884
random,-0.055798505,-0.6427311,0.33222684,0.24455251,-2.4297853,2.2175064,-1.0235739,-0.7713707,-1.857823,0.74225336,-2.968985,-1.7375731,1.1286542,-2.0331094,0.8124284,0.114104465,-1.0736744,-0.85178787,0.6972898,-0.7670598,-2.293219,-0.6901861,-0.20870633,0.442255,4.747778,1.4240742,-0.4959397,2.0410736,-0.46616435,0.4458987,-1.3388348,-1.6105134,-0.23109426,0.1814008,-1.3434489,3.0771391,1.1874053,1.9651893,-0.34467185,-2.0659566,-2.536204,0.78262085,0.5929949,-1.4068633,-0.025797255,1.1089942,1.685313,-1.4377364,-2.9072115,-0.46526247,2.3202143,1.2786145,-1.4790027,-1.8535137,-1.4814001,-0.93161637,1.6810614,2.4495435,1.0497295,-1.4002917,1.727763,-0.2034641,-0.74593955,-2.046545
random,-0.4158574,-0.5888659,0.1798127,0.051758587,-1.9161285,1.287037,-0.80510193,-1.073402,-2.0491655,1.7410246,-2.8910544,-1.9522268,1.1376603,-2.789565,1.3631963,-0.4231399,-1.4910337,-0.69448787,0.61093056,-0.934608,-1.830612,-1.435014,-0.5186833,0.47928813,4.7800136,1.6085142,-0.36483923,1.4650801,-0.59166825,0.4671869,-1.2751223,-2.436847,-0.054021716,0.77572465,-1.4516104,3.4584966,1.4675305,1.8153505,-0.24266838,-1.9273714,-2.9507422,0.80892307,0.5654355,-0.9817725,-0.19512823,0.31134513,1.8314868,-2.4469323,-3.5614507,-1.6136913,2.1410532,0.91609013,-0.814172,-1.8377937,-2.0551283,-1.3378276,0.8932805,3.629859,0.56300944,-0.95288235,1.9665693,-0.29973966,-1.4285908,-1.8874354
random,-0.34147784,-0.4342497,0.36793947,0.32689327,-1.4524478,1.25398,-0.87794405,-0.6843982,-1.4428948,0.6956724,-2.1253679,-1.423631,0.6959603,-1.4222159,0.93344104,-0.4148597,-0.6693913,-0.5346461,0.33473775,-0.6677109,-1.973919,-0.6299827,-0.09049124,0.42312282,2.989489,1.0151854,-0.63568735,1.1869419,-0.32873154,0.64594716,-1.0449766,-1.2954547,-0.06978571,0.47410664,-0.92313546,2.5066853,0.63324386,1.4609871,-0.26046535,-1.4552826,-1.7835026,0.72150564,0.20710012,-0.6019593,-0.15972689,0.12282894,1.5868944,-1.4780973,-2.3805304,-0.7922482,1.4253113,0.6002934,-1.254302,-1.2465097,-0.8053795,-0.78261614,1.0176623,2.369846,0.46607327,-1.2050892,1.370321,-0.16305608,-0.41159645,-1.2768179
random,-0.16819692,-0.08692354,0.15627356,0.081412084,-0.30021268,0.35586196,-0.15956521,-0.07176142,-0.19024603,0.0658049,-0.38910958,-0.3038042,0.12720063,-0.16749404,0.19086103,-0.08235879,-0.08432489,-0.05552013,0.02377031,-0.17507783,-0.38678724,-0.08506282,0.009571935,0.03407946,0.62278754,0.20263098,-0.16977029,0.2318933,-0.07851871,0.16076721,-0.19988725,-0.21813524,-0.019324193,0.06280854,-0.20195879,0.42139456,0.04689409,0.22836722,-0.056389622,-0.26566246,-0.30208734,0.11675251,-0.044481758,-0.07509107,0.030020695,-0.02729603,0.38225248,-0.2692341,-0.40697333,-0.19112569,0.19218014,0.13219395,-0.36369172,-0.17606585,-0.054321934,-0.17698632,0.1591966,0.46309224,0.064288855,-0.3172409,0.26454502,0.00091814983,-0.17304415,-0.25567824
random,-0.36692885,-0.50115633,0.43835822,0.3303349,-1.1149739,1.082034,-0.5443451,-0.48832315,-1.037418,0.48241338,-1.5565978,-0.932789,0.54888195,-0.8550894,0.7216541,-0.26112908,-0.25866798,-0.3647038,0.31443214,-0.46065894,-1.3430356,-0.06697451,-0.056272265,0.14081374,2.5513942,0.7265338,-0.38602632,0.7764894,-0.4072794,0.6281973,-0.6782983,-0.8966292,-0.05475312,0.22699746,-0.49782684,1.8751186,0.54399645,1.0684808,-0.18716045,-1.0216789,-1.2043731,0.40913492,-0.01735326,-0.49367017,-0.10184321,0.20007226,1.2309,-1.0737001,-1.6715741,-0.49593607,1.0722277,0.2965189,-1.1697972,-1.194302,-0.18250404,-0.55399704,0.8286185,1.7354922,0.31404805,-0.97346497,0.8134211,-0.018580182,-0.4767044,-0.84549636
random,-0.5530012,-0.57818776,0.65823025,0.67371523,-1.83622,1.6789414,-0.76754457,-0.6044263,-1.1408328,0.5125414,-2.2570624,-1.1911,0.6935265,-1.0120907,0.6330008,-0.21561673,-0.38700593,-0.3791329,0.37597322,-0.6778882,-1.976559,-0.23778799,-0.15675098,0.21345025,3.7442746,1.1642678,-0.76881695,1.3671539,-0.29054692,0.70562345,-0.93236,-1.3280113,-0.13980258,0.17136897,-0.89545375,2.683615,1.0392987,1.5538242,-0.55229616,-1.4784325,-1.6141957,0.52167857,0.099234544,-0.89427847,0.14000736,0.4811704,1.6843636,-1.4747314,-2.379181,-0.62851936,1.6020766,0.9292772,-1.4664861,-1.546938,-0.36468828,-0.7952586,1.3069826,2.100126,0.731923,-1.5186656,1.0415059,-0.07611538,-0.7534073,-1.5216477
random,-0.102971345,-0.167227,0.3812823,0.14176905,-0.82228273,1.0189298,-0.51525545,-0.34971735,-0.61914366,0.18488131,-1.0779257,-0.82778126,0.25057575,-0.43456945,0.66007316,-0.25178623,-0.09916623,-0.28857183,0.34832093,-0.30492646,-1.4341604,-0.41424975,0.2607295,0.3367356,1.4489877,0.75649905,-0.7854321,0.8713652,-0.1025139,0.53292596,-0.6516098,-0.4103378,0.021967879,0.35747236,-0.57027644,1.2474724,0.35984945,0.8998581,-0.25083324,-0.79974556,-0.6670207,0.46183816,-0.060792644,-0.3131966,-0.08108991,0.16793917,1.151492,-0.78116494,-1.1973525,-0.62370247,0.70621777,0.49202362,-1.0168077,-0.5658963,-0.39111236,-0.24109788,0.8191746,1.1487509,0.21937414,-0.9571,0.52472645,-0.102749474,-0.20041548,-0.5657862
random,-0.3383589,-0.14335087,0.21549353,0.15446374,-0.60072213,0.6667926,-0.32799593,-0.21274464,-0.3059766,0.048593514,-0.7326627,-0.6107203,0.25789645,-0.32874042,0.336106,-0.13903777,-0.097968385,-0.07418656,-0.015734838,-0.31856468,-0.70672125,-0.11358666,0.043113053,0.13456924,1.1783751,0.32290345,-0.39077523,0.4245317,-0.15164062,0.37083706,-0.41608772,-0.36509216,-0.047784217,0.16146098,-0.39218652,0.79258776,0.121195026,0.4302356,-0.117252745,-0.4418291,-0.5880292,0.23470628,-0.106135376,-0.2005077,-0.00033974668,-0.05804578,0.7689926,-0.5074432,-0.7601689,-0.27968645,0.47438926,0.18351986,-0.73293704,-0.36181,-0.043115344,-0.28062698,0.35463378,0.8890871,0.18140833,-0.6525498,0.45156664,0.061000783,-0.31453508,-0.56073713
random,-0.5841246,-0.71224344,0.42693737,0.30183655,-1.785665,1.5913279,-0.86115456,-0.85004133,-1.8531524,0.93662107,-2.3204904,-1.4774239,0.8550713,-1.7856524,0.92601216,-0.47340694,-0.4879021,-0.5448752,0.2897652,-0.9633779,-1.8810843,-0.04631531,-0.06875805,0.29420725,3.5947776,1.0808221,-0.5784912,1.0960718,-0.5563047,0.80921596,-1.0326724,-1.3270106,-0.011058336,0.2680949,-0.89830816,2.9166145,0.64294183,1.5344579,-0.25628608,-1.453123,-1.9814061,0.6841734,-0.08108959,-0.79329705,-0.35546306,0.19829188,1.8016858,-1.6159191,-2.6057942,-0.78738815,1.6880237,0.22889782,-1.8098197,-1.6790979,-0.50198174,-0.7861501,1.0338091,2.5832138,0.51607025,-1.3706365,1.4482852,-0.07119323,-0.42830825,-1.4178345
random,-0.939569,-0.5080604,0.37620553,0.38762972,-1.2667248,1.1565031,-0.4662821,-0.43759948,-0.61711615,0.08877606,-1.6614655,-1.1117263,0.6900961,-0.7343191,0.3209925,-0.35608768,-0.099553905,0.2338363,-0.27006516,-0.82802385,-1.026678,-0.12580177,-0.272193,0.062165562,3.2345417,0.67511964,-0.33652267,0.60090333,-0.40249297,0.61484194,-0.5470322,-1.0684909,-0.076409005,0.008476605,-0.7493402,1.8789055,0.36794445,0.7148593,-0.4818414,-0.95964074,-1.4121754,0.26817906,-0.07551876,-0.6547229,0.2907949,0.010350007,1.5766339,-1.3271089,-1.4016285,-0.4174438,0.92866874,0.30527872,-1.3689321,-1.1535234,0.24117108,-0.7128088,0.52196676,1.7541857,0.7256908,-1.2866696,0.83980143,0.14927745,-1.2890692,-1.3948773
random,-0.15700215,-0.03671453,0.14617041,0.030042704,-0.29362452,0.37393105,-0.14644392,-0.07680083,-0.1454858,-0.006431295,-0.35792902,-0.2888975,0.1359401,-0.14246902,0.24290982,-0.08402215,-0.028658668,-0.026571093,-0.0034598345,-0.16490266,-0.3684532,-0.091548674,0.033278555,0.03456938,0.5424143,0.15198989,-0.1963419,0.236702,-0.082133316,0.18065265,-0.20239545,-0.14759961,-0.013560688,0.097223215,-0.198372,0.3314872,-0.018529398,0.20355846,-0.06737965,-0.2522615,-0.28983125,0.13476007,-0.056863386,-0.04231204,-0.005289049,-0.0222195,0.38460636,-0.22155151,-0.33476725,-0.14967978,0.18087496,0.092132576,-0.38398844,-0.11531541,-0.014193329,-0.12150117,0.17448479,0.4042475,0.09303097,-0.32228583,0.20937738,0.004380366,-0.13450164,-0.25474977
random,-0.6155486,-1.0349638,0.40419203,0.9591972,-1.8841289,1.673781,-1.1204718,-0.30801836,-0.9560976,0.38094187,-2.7736578,-1.3189272,0.5781446,-0.69618124,0.52015686,-0.038364533,-0.7020813,-0.84021974,0.6827106,-0.3083665,-2.4149718,-0.56226605,-0.23741366,0.06272285,4.6563573,1.3177748,-0.862361,1.5657269,-0.19546936,0.6177508,-1.4197272,-2.0314465,-0.10615227,-0.058251806,-1.0383857,3.029201,1.356198,1.6944481,-0.46937963,-2.022179,-2.2862892,0.30014896,1.000769,-0.9728708,0.72121894,0.6570482,1.6578717,-1.8733665,-2.8640215,-0.6648651,2.1887372,1.188801,-1.3262397,-2.1791937,-0.5732112,-1.0769827,1.5373842,2.630216,0.9349169,-1.6666669,1.0647728,-0.02008854,-1.0642898,-1.7975093
random,-0.34436435,-0.2591252,0.35403752,0.1519237,-1.1178893,1.0142856,-0.5929751,-0.27967477,-0.8655837,0.09849877,-1.3777834,-1.1262828,0.39096436,-0.7766083,1.0018044,-0.3960217,-0.40378168,-0.34177053,0.15829489,-0.7990658,-1.4249688,-0.73213255,-0.03661769,0.37146544,2.3497257,0.6940215,-0.49861243,1.1265281,-0.29235503,0.53787524,-0.8466371,-1.0571121,0.21781765,0.6099978,-0.73596275,1.9017993,0.29870853,0.9511927,-0.17661792,-1.0174665,-1.4430755,0.5582135,0.14128804,-0.5642909,0.22684114,0.23961067,1.3352003,-1.168001,-1.227278,-0.6245067,0.8558847,0.23688658,-1.3359414,-1.127732,-0.41832164,-0.26779455,0.6128525,1.5809479,0.71016806,-0.82650065,1.1222903,0.06591014,-0.7972777,-0.93061584
random,-0.17702968,-0.17428187,0.14379059,0.19410442,-0.6449738,0.6489731,-0.45845768,-0.27342832,-0.4925125,0.20779788,-0.9054515,-0.72666544,0.28032836,-0.49256346,0.3978371,-0.076827705,-0.2822941,-0.2972656,0.14530107,-0.15330191,-0.88790786,-0.19372687,0.017319694,0.17387414,1.2941008,0.44485605,-0.42229977,0.52091753,-0.11000301,0.28801095,-0.52265805,-0.45544273,-0.09413347,0.17447947,-0.4106132,1.0021224,0.3155835,0.658613,-0.041251995,-0.5766064,-0.74441177,0.31569317,0.044710916,-0.3420285,-0.09648906,0.141587,0.6870314,-0.5751254,-1.0216985,-0.30522767,0.7013607,0.29032505,-0.64127886,-0.5327717,-0.3679841,-0.3332103,0.4974974,1.0311805,0.19966553,-0.5369657,0.6153745,0.013953855,-0.2016525,-0.5566253
random,-0.23637345,-0.09050481,0.14862533,0.04822096,-0.4650617,0.5748929,-0.2478253,-0.15640475,-0.23798367,0.009905044,-0.5665483,-0.49400514,0.18660085,-0.2622542,0.33006367,-0.11754829,-0.07690121,-0.07730661,-0.0061460095,-0.24058434,-0.5656354,-0.16099967,0.10388345,0.14160101,0.84857255,0.272933,-0.3600351,0.3402452,-0.1441299,0.24925192,-0.35667866,-0.23516288,-0.039074823,0.15769,-0.32059914,0.5423578,0.03990673,0.33017442,-0.10151947,-0.35299835,-0.44434202,0.23842531,-0.08762787,-0.14262427,-0.05303292,-0.008011772,0.61584,-0.3952877,-0.539244,-0.24344157,0.3476177,0.15402053,-0.5881658,-0.2238394,-0.12964332,-0.17790744,0.3205366,0.62908345,0.17351396,-0.49027127,0.3506335,0.028243775,-0.24696966,-0.41258588
random,-0.40523738,-0.24843125,0.33609954,0.5262175,-0.99378896,0.9224253,-0.68765914,-0.1725186,-0.23404866,0.25979996,-1.2276365,-1.2569155,0.42028508,-0.27117014,0.33645976,-0.12694012,-0.23924261,-0.20492512,0.38239086,-0.004576364,-1.456613,-0.4294193,0.060511,0.27973115,1.991234,0.7959175,-0.8201268,0.7153728,-0.08491486,0.45180604,-0.78531,-0.6053248,-0.13174866,0.2504931,-0.7901904,1.3061268,0.60523075,0.889344,-0.31658334,-0.9604543,-0.88838494,0.3866971,0.15211917,-0.43139538,0.22197248,0.14194717,1.2360996,-0.91119665,-1.5154653,-0.68037087,1.0035679,0.71891874,-0.96691865,-0.6202807,-0.40464088,-0.61675733,0.9754558,1.4062958,0.4227569,-1.0761746,0.7864269,0.06590953,-0.7057765,-1.0199678
random,-0.31590074,-0.23144367,0.19767654,0.15625902,-0.74354255,0.805586,-0.48737264,-0.25013494,-0.54303104,0.23554818,-1.0949544,-0.8510482,0.37013486,-0.53191364,0.5500712,-0.20304506,-0.25527072,-0.27283764,0.10020232,-0.20199503,-0.9852411,-0.26635236,0.050015833,0.22788185,1.559066,0.48611557,-0.4445187,0.54177874,-0.22183627,0.30465883,-0.6317022,-0.5021956,-0.09109483,0.21886449,-0.445971,1.0912002,0.26047117,0.6849532,-0.09879392,-0.71889776,-0.8912429,0.38410097,0.025120337,-0.29929274,-0.07906066,0.050697688,0.85884726,-0.6903089,-1.1084069,-0.36564428,0.76533324,0.22820656,-0.78182065,-0.60508657,-0.31510377,-0.43087935,0.55618435,1.209372,0.30681023,-0.6793898,0.72800636,-0.003958649,-0.39678732,-0.7089545
random,-0.62238014,-0.7308101,0.6805432,0.49140102,-2.1600473,2.1207309,-0.7421276,-0.86232,-1.409898,0.4556039,-2.8090014,-1.6063983,0.92640054,-1.503247,0.9895282,-0.25931504,-0.626008,-0.4564598,0.4847666,-1.0481509,-2.297334,-0.61775833,-0.053530112,0.4352198,4.3616753,1.1930283,-0.8829104,1.8589891,-0.5038359,0.7858882,-1.0867018,-1.4147577,-0.18556131,0.3790466,-1.2159829,2.9370787,0.8370299,1.6501901,-0.5024095,-1.7589096,-2.0432026,0.7244164,-0.030638644,-1.1779203,0.11439738,0.4129512,2.2221706,-1.648493,-2.4801831,-0.8374593,1.7475805,1.1963458,-1.8502623,-1.5313319,-0.6086922,-0.87006205,1.3977169,2.545201,0.6509705,-1.8494148,1.4002672,-0.19255835,-0.9967925,-1.8297246
random,-0.11657066,-0.022583276,0.13493796,0.018434087,-0.23695469,0.28508362,-0.124263555,-0.11246991,-0.1992923,0.056445815,-0.282204,-0.26614684,0.08426229,-0.18711431,0.2433904,-0.11376457,-0.030020023,-0.003182311,0.015895162,-0.20360164,-0.3436804,-0.088765904,0.022036688,0.06366048,0.45206425,0.1552897,-0.16463335,0.19370334,-0.048395306,0.18605289,-0.14881325,-0.17011052,-0.0007304191,0.11537379,-0.17008677,0.3742587,0.00045493463,0.20084633,-0.071766466,-0.20417932,-0.24891834,0.1454429,-0.073822156,-0.06695097,-0.020774597,-0.034238454,0.35102776,-0.22061932,-0.28235978,-0.177232,0.12777904,0.05049801,-0.34151715,-0.12307077,-0.037206095,-0.10872002,0.12805697,0.402296,0.063523754,-0.26764727,0.20501214,-0.0022305774,-0.07508659,-0.17654617
random,-0.09670918,-0.055500127,0.10133463,0.056164037,-0.25359866,0.31996793,-0.16005655,-0.105744876,-0.12772787,-0.026574709,-0.33143362,-0.2722607,0.08236809,-0.12059839,0.19143748,-0.060846835,-0.05461528,-0.06146629,0.0137992725,-0.14281206,-0.35510445,-0.0926629,0.04021092,0.08244954,0.5026723,0.16731557,-0.22042777,0.23189284,-0.045109604,0.17112821,-0.20095327,-0.15442772,-0.0058270157,0.08411111,-0.17247407,0.35702875,0.048526365,0.23513405,-0.05272859,-0.20692073,-0.27529332,0.123520754,-0.016975913,-0.12719172,0.015937978,0.040354975,0.3388561,-0.23512803,-0.2891378,-0.14515305,0.18895727,0.09920984,-0.35261974,-0.18027888,-0.07403956,-0.08528016,0.1829015,0.36787486,0.11889954,-0.2529336,0.19268431,0.013644517,-0.14954495,-0.22891198
random,-0.18296237,-0.07498049,0.099656895,0.06237616,-0.34125856,0.4103818,-0.24301843,-0.12229963,-0.20210567,-0.016669724,-0.43867898,-0.39010185,0.12506254,-0.18924144,0.24865998,-0.10934496,-0.046746537,-0.0855165,-0.0270219,-0.19379887,-0.46126378,-0.10768512,0.09556722,0.1299222,0.63229764,0.21085058,-0.29209444,0.25417417,-0.084637366,0.2195578,-0.28299454,-0.18858114,-0.023847023,0.11196564,-0.22298819,0.44801724,0.044565223,0.2708347,-0.06805621,-0.2714447,-0.3456065,0.18045144,-0.051046245,-0.13462527,-0.037094336,-0.024273425,0.49462378,-0.33228922,-0.4154808,-0.19061452,0.27604923,0.07377027,-0.49460995,-0.21824141,-0.066501185,-0.124643646,0.23835532,0.48747715,0.13954684,-0.40509593,0.2849042,0.024487315,-0.16503246,-0.32876706
random,-0.12384243,-0.0470502,0.086237244,0.04520603,-0.34748286,0.41117164,-0.29520914,-0.09179979,-0.22084421,0.051128995,-0.47914073,-0.43022588,0.16096522,-0.22689386,0.29241547,-0.03678746,-0.10661797,-0.16445449,0.040902853,-0.08143401,-0.518569,-0.14267674,0.0923122,0.12093265,0.61155826,0.22222203,-0.2978003,0.28579238,-0.1013222,0.14609192,-0.36015573,-0.19667529,-0.04670354,0.1252773,-0.2524648,0.44029105,0.073282585,0.32746762,-0.042442203,-0.35162154,-0.408704,0.20974897,0.019029774,-0.06775498,-0.09196863,-0.016935185,0.41585073,-0.2940839,-0.5560745,-0.15174352,0.37488988,0.105576195,-0.40712714,-0.20161003,-0.2006417,-0.17650388,0.29418322,0.5386615,0.14780638,-0.36333078,0.3475567,0.013912237,-0.100646205,-0.32778996
random,-0.50371426,-0.48491028,0.2851117,0.27585047,-1.308569,1.3955402,-0.72714466,-0.35320315,-0.901996,0.32917893,-1.7742878,-1.14983,0.52209425,-0.8475531,0.61245245,-0.14907824,-0.47481012,-0.34253824,0.28973976,-0.41385415,-1.6308866,-0.29536092,0.07560565,0.40735114,2.7282875,0.82883924,-0.6730885,1.0307461,-0.3281072,0.55742836,-0.9533426,-0.9834171,-0.19137451,0.21550706,-0.71411973,1.883145,0.45275152,1.110651,-0.17884995,-1.074961,-1.4620316,0.5554137,0.1315107,-0.44289842,-0.09467982,0.18586147,1.4001067,-1.1110477,-1.738892,-0.44480377,1.3039912,0.5547784,-1.2074813,-0.99417835,-0.48507223,-0.64333177,0.97708696,1.7270702,0.53659207,-1.1434561,1.0313431,-0.008137584,-0.43630403,-1.1414661
random,-0.907386,-0.38665444,0.25414237,0.2901277,-1.6849059,1.6667106,-0.7384859,-0.9181179,-1.1381395,0.46837357,-2.5998523,-1.9531227,1.1346377,-1.6993406,0.96666175,-0.7180102,-0.5169995,0.0008515034,0.075846344,-1.2449317,-1.9559581,-0.8294022,-0.022963561,0.45574978,4.0895343,0.88688284,-0.5634147,1.2546885,-0.7985916,0.8795504,-1.022643,-1.2070484,-0.032211486,0.57462156,-1.3035561,2.5269287,0.571171,1.194827,-0.38392022,-1.4771051,-1.9186779,0.720831,-0.32018483,-0.91057515,0.0001740801,-0.29721865,2.4787567,-1.9539735,-2.19323,-0.96392244,1.3792588,0.4938001,-1.7990726,-1.4127195,-0.41735655,-0.8425062,0.9630862,2.8450215,0.5328669,-2.0161347,1.5290686,-0.19643024,-1.6544952,-1.8523372
random,-0.47742,-0.25654253,0.30014777,0.20044956,-0.8485542,0.95373464,-0.45226705,-0.27844688,-0.488979,0.08399099,-1.088179,-0.8130926,0.3543048,-0.46515006,0.46761432,-0.17487209,-0.15696284,-0.11123999,0.034006912,-0.3671273,-1.0019922,-0.15090804,0.06490432,0.20921284,1.725166,0.50990385,-0.5364976,0.6019581,-0.2434005,0.44270512,-0.5984724,-0.54532146,-0.10155308,0.16838676,-0.49005568,1.1692184,0.19848919,0.66229165,-0.19862184,-0.6587484,-0.8511411,0.36764863,-0.088842615,-0.3051332,-0.028519915,0.03460117,1.0139192,-0.7308313,-1.0410786,-0.3411312,0.71556544,0.28842136,-0.9990639,-0.5816941,-0.098102026,-0.3843358,0.56206316,1.1782147,0.36553273,-0.8472599,0.6425175,0.041539263,-0.43111774,-0.77942455
random,-0.20536964,-0.13397221,0.23287098,0.07106229,-1.7642723,1.57267,-0.97666603,-0.8388644,-1.6564229,0.52094537,-2.405103,-1.796116,0.9919882,-1.8956478,1.2266891,-0.55452746,-0.5275457,-0.5413054,0.29307842,-1.1843574,-2.146324,-1.0253899,-0.03691826,0.6894714,3.6168263,1.0597258,-0.64517194,1.6518904,-0.37284854,0.6172499,-1.189933,-1.1976684,0.11999985,0.7277145,-1.2030766,2.6926413,0.8530688,1.5610343,-0.5151178,-1.8153008,-2.1562026,0.86115307,0.085948564,-1.204685,-0.084648505,0.32399622,1.9626933,-1.5493665,-2.1623054,-0.87920374,1.7316948,0.36102504,-1.8188777,-1.678381,-1.0343379,-0.49384537,1.1237828,2.4851172,0.94170237,-1.3343756,1.684612,-0.18489994,-0.92352,-1.7781214
random,-0.41906258,-0.30882916,0.44668603,0.33367908,-1.2220165,1.3017898,-0.71233064,-0.363122,-0.72862715,0.1735058,-1.6072595,-1.1324108,0.5131233,-0.60185,0.80774206,-0.17145982,-0.20298104,-0.3766796,0.32104188,-0.37596565,-1.6699517,-0.37349042,0.15570407,0.3235888,2.425779,0.79188514,-0.77004784,1.0272222,-0.25674686,0.6235921,-0.8808966,-0.8271801,-0.16327004,0.38474464,-0.71060693,1.6180141,0.37226003,1.0650771,-0.2832488,-1.1844561,-1.1855783,0.5614052,0.03304036,-0.33909026,-0.07143658,0.06638013,1.390094,-0.95391047,-1.6448717,-0.46461007,1.1117432,0.5745385,-1.2591916,-0.8447478,-0.36412537,-0.5561501,1.0024796,1.6404637,0.41070175,-1.1721823,0.7975296,-0.039844092,-0.4233683,-1.0246081
random,-0.21250035,-0.091479786,0.15387607,0.1144435,-0.5251598,0.5519509,-0.39018813,-0.17526947,-0.36257556,0.028671918,-0.6410082,-0.6435553,0.22403947,-0.30507737,0.32109222,-0.16320936,-0.0803202,-0.09657397,-0.0036174732,-0.23655191,-0.726547,-0.22630472,0.08027558,0.23275729,0.96211123,0.32077143,-0.36066002,0.3960392,-0.0651695,0.2892706,-0.39917612,-0.26655033,-0.09615397,0.20453532,-0.33757004,0.6859318,0.09433951,0.43758893,-0.14212415,-0.47871462,-0.55851203,0.2939248,-0.060228616,-0.24936248,-0.012205731,0.018889708,0.60983247,-0.38351873,-0.6019017,-0.21915749,0.44124028,0.1368319,-0.6588291,-0.30142412,-0.14138642,-0.22776134,0.33425975,0.73347783,0.27474144,-0.4941776,0.48822093,0.012024501,-0.22686541,-0.5063813
random,-0.56838566,-0.33873826,0.1919365,0.19582762,-0.902359,0.95737714,-0.41045994,-0.41856137,-0.57916135,0.072161615,-1.3113301,-0.9828986,0.46141988,-0.681056,0.6219379,-0.3595965,-0.2601427,-0.074023224,-0.020795869,-0.72170633,-1.031202,-0.34490559,0.007134614,0.23154351,2.222495,0.441528,-0.38001707,0.6489128,-0.34941512,0.5876607,-0.6127127,-0.7822069,0.05672378,0.28854692,-0.58903855,1.4200925,0.21560861,0.60263544,-0.19400877,-0.7455004,-1.1698874,0.3612603,-0.033723097,-0.48072985,0.10295732,-0.069516025,1.3761808,-1.0935572,-1.0068356,-0.53883064,0.66897744,0.1756948,-1.1799333,-0.84739083,-0.10188501,-0.43428218,0.48874742,1.5387568,0.40248117,-1.0177953,0.7586077,0.08178981,-0.8545779,-0.91564506
random,-0.40244338,-0.24048233,0.32387298,0.31739032,-0.9470326,0.8186988,-0.5723611,-0.27356145,-0.6224692,0.18006715,-1.17907,-0.82567084,0.47904137,-0.5889903,0.6062779,-0.25206977,-0.16162844,-0.3132594,0.0675263,-0.45221063,-1.093483,-0.22308262,-0.025001738,0.089569755,2.0016634,0.51113576,-0.44083622,0.6083959,-0.2219472,0.47784537,-0.6916864,-0.8075432,-0.017143326,0.23781955,-0.56777394,1.396077,0.33221138,0.7316289,-0.19786473,-0.94754755,-1.0740972,0.31207868,0.06553789,-0.3078842,0.035506323,-0.042495668,1.0189387,-0.8608131,-1.4110626,-0.4107943,0.8697228,0.26012745,-0.9703796,-0.83188736,-0.11030261,-0.46560785,0.6174573,1.451817,0.3398094,-0.87631065,0.7019332,0.031814512,-0.49635917,-0.90079117
random,-0.45861775,-0.2879224,0.3263138,0.118994586,-0.9055929,1.0421109,-0.52423435,-0.22774242,-0.6496465,0.14932138,-1.1156281,-0.7934105,0.34132078,-0.5504647,0.71187407,-0.13108572,-0.1898708,-0.35121793,0.03158143,-0.3866091,-1.044032,-0.10894533,0.08012241,0.16176184,1.8188832,0.54801315,-0.53776485,0.611845,-0.3100572,0.4910588,-0.73303723,-0.6930839,-0.078206666,0.22808048,-0.4363959,1.2431239,0.19517785,0.7247514,-0.0722999,-0.77117443,-1.03204,0.3777674,-0.023947282,-0.1974476,-0.13346851,0.06373999,0.9696866,-0.7394513,-1.2228311,-0.33208784,0.8272283,0.1512415,-1.0592694,-0.65844566,-0.20656359,-0.41399696,0.5766565,1.3029346,0.36022693,-0.74206275,0.70812905,0.12661776,-0.3427762,-0.7394052
random,-0.3256999,-0.36492422,0.30876166,0.093678474,-1.0543624,1.0970155,-0.61006665,-0.23928958,-0.83653754,0.17481925,-1.5219014,-0.8519019,0.4720663,-0.6832301,0.6804776,-0.087578125,-0.36587584,-0.37500954,0.16271624,-0.39230198,-1.3057333,-0.28730312,-0.07345089,0.11392905,2.4315538,0.62365985,-0.44810045,0.92341155,-0.22086251,0.45080698,-0.83223426,-0.97281724,-0.016720356,0.15286453,-0.67504495,1.5981787,0.33090293,0.9504449,-0.09076219,-1.056483,-1.3995345,0.3874362,0.18005274,-0.2985659,0.056979798,0.11307157,1.1761814,-0.9437183,-1.5734959,-0.38501513,1.0049416,0.3338205,-1.0299584,-0.98378146,-0.36288136,-0.57742065,0.6421843,1.6771183,0.43175298,-0.92515594,0.8795494,0.028334945,-0.4063812,-0.9572122
random,-0.39740583,-0.20357463,0.2663152,0.1426497,-0.7453038,0.8857381,-0.45124313,-0.27576563,-0.49117604,0.09363031,-0.9708587,-0.77089435,0.32987598,-0.43903342,0.53214073,-0.19730368,-0.13939695,-0.14720914,0.03461436,-0.37973753,-0.9863958,-0.14046642,0.10775929,0.18442856,1.5178143,0.43436706,-0.49361283,0.5445141,-0.22435932,0.46937087,-0.58508426,-0.47561243,-0.05967007,0.20792672,-0.45991004,1.0652226,0.1442738,0.6188914,-0.11031241,-0.6072709,-0.8227157,0.33448023,-0.090313785,-0.21115465,-0.07347515,-0.05487057,1.001411,-0.6962885,-1.014461,-0.38946107,0.62935835,0.17454591,-0.962016,-0.53811044,-0.12338653,-0.3529396,0.5204059,1.1717964,0.25177133,-0.83036715,0.6181412,0.06977842,-0.33493084,-0.6624709
random,-0.4635327,-0.35851258,0.37603283,0.23352925,-1.291485,1.422852,-0.74814504,-0.27495426,-0.6476803,0.032263786,-1.6520505,-1.2842398,0.4532986,-0.6314944,0.7529944,-0.17369105,-0.34008807,-0.38783693,0.13292965,-0.4458359,-1.6069938,-0.52383965,0.12927155,0.38431072,2.411656,0.8053639,-0.88696724,1.1008898,-0.27837652,0.53698236,-0.95304865,-0.772419,-0.14398694,0.40068325,-0.8641656,1.6123486,0.35978574,1.0089577,-0.24079788,-1.1003814,-1.287332,0.5425258,0.033187885,-0.577573,0.099572085,0.20359683,1.4485935,-0.9619185,-1.6068093,-0.55718577,1.1446025,0.6067729,-1.378501,-0.7914276,-0.4771738,-0.5415263,0.91522115,1.6331162,0.54101264,-1.2170144,0.9913926,0.054632127,-0.67910254,-1.1693137
random,-0.5174784,-1.2139722,0.17523792,0.44297105,-3.3797805,1.7153157,-0.806525,-0.096880615,-1.9428514,0.87621284,-3.5937881,-1.5901967,1.072776,-2.5838268,-0.04648424,0.0657894,-1.5890003,-1.2616241,0.5135835,-0.88492054,-1.8051178,-1.4784915,-1.0868914,0.5508307,6.2384562,1.3274261,-0.013785915,3.1799617,-0.5991157,-0.1730656,-1.4155055,-2.7269435,0.10653487,0.6529687,-2.0399067,3.870525,2.095147,1.8564872,-0.8795289,-3.318062,-3.464381,0.17996645,1.3783579,-1.9517851,1.3171194,1.2885642,0.98193413,-1.2501088,-3.5891051,0.22712092,3.6786923,2.1209068,-0.9367191,-2.8019502,-1.4436527,-1.0109547,1.2590904,2.498503,2.0640757,-1.058252,2.2623343,-0.2053901,-1.909776,-3.1573622
random,-0.06294205,-0.039102986,0.08900694,0.04087928,-0.30225384,0.34655917,-0.18516709,-0.060274538,-0.15570827,-0.038479753,-0.3446024,-0.28019643,0.08951167,-0.10390735,0.22985996,-0.050158646,-0.03685238,-0.08602392,0.0576395,-0.096337214,-0.42391062,-0.14422119,0.065578476,0.14092025,0.51864564,0.19463715,-0.22891098,0.30544788,-0.011835153,0.15476753,-0.23207586,-0.1689968,-0.014156958,0.13110204,-0.17110816,0.342687,0.06134979,0.2255608,-0.08275755,-0.27328777,-0.30073687,0.15285449,0.0127409715,-0.11068283,0.004258234,0.053600676,0.34754506,-0.19570547,-0.29495806,-0.111111,0.26050803,0.12897712,-0.3477921,-0.17454427,-0.12651137,-0.06776271,0.23349003,0.30935058,0.17284946,-0.25650626,0.19589247,0.021700194,-0.09507215,-0.24533048
random,-0.46149552,-0.5019446,0.5246007,0.26685098,-1.1770495,1.1047226,-0.4879726,-0.15653697,-0.84008366,0.4229348,-1.5418286,-0.77964425,0.3816486,-0.71811724,0.5646565,-0.11503234,-0.5285351,-0.3102698,0.3290101,-0.33374712,-1.3496289,-0.23429017,-0.2505344,0.10833479,2.6190782,0.73732525,-0.38917127,1.0011982,-0.35819566,0.4435924,-0.7872238,-1.1330451,-0.08275404,0.17963625,-0.642097,1.8816174,0.4864052,1.0584383,-0.18633252,-1.051731,-1.3577995,0.36078563,0.16945753,-0.23822147,0.2525779,0.14930728,1.0831507,-0.93378216,-1.7724665,-0.3503894,1.0687807,0.58240026,-0.8973063,-1.0554751,-0.23971303,-0.70001924,0.8153583,1.67001,0.46457767,-0.89442134,0.9480549,-0.03589637,-0.4498038,-0.94626504
random,-0.12766162,-0.05291231,0.13490966,0.10865739,-0.26817083,0.24641527,-0.17780611,-0.0961506,-0.16126557,0.07589832,-0.39408228,-0.29844052,0.13723697,-0.1622308,0.19160812,-0.09750155,-0.062675595,-0.036707535,0.05331472,-0.115530245,-0.3883586,-0.107519455,-0.036692027,-0.0005138804,0.62097764,0.18878286,-0.18787307,0.2280278,-0.054759044,0.13211198,-0.20893615,-0.22425649,0.0063096997,0.06849676,-0.2232702,0.46063343,0.102715485,0.25471237,-0.07553061,-0.2872933,-0.30991152,0.11296364,-0.006005445,-0.09467553,0.055367798,-0.042416718,0.37048173,-0.3016782,-0.4709345,-0.17484757,0.24008702,0.12570104,-0.2989328,-0.22100845,-0.044506196,-0.16514356,0.19656043,0.47424635,0.1155682,-0.32944933,0.25209445,-0.002487218,-0.17144242,-0.26345617
random,-0.20695241,-0.6108801,0.18010299,0.2683624,-1.6458524,1.2487274,-0.771065,-0.44313905,-1.5482088,0.5569659,-2.140009,-1.2909784,0.7276128,-1.4688458,0.74661076,-0.23488249,-0.69561285,-0.7169472,0.3329413,-0.6050339,-1.6594715,-0.5050754,-0.2620641,0.5679659,3.428667,0.86516535,-0.3459615,1.4226943,-0.35272843,0.44509754,-1.0537454,-1.3517356,-0.07073877,0.40976936,-0.8455994,2.5802119,0.93287206,1.4152551,-0.24034722,-1.5486001,-2.114669,0.5614187,0.31982845,-1.077275,0.054479633,0.5627426,1.2003871,-1.1785647,-2.0726237,-0.33285573,1.8746482,0.5074953,-1.283253,-1.7356095,-0.7599747,-0.5838272,0.9772932,1.9876674,0.867149,-0.8208678,1.5041763,-0.008663401,-0.6989105,-1.5287594
random,-0.15019463,-0.08463242,0.10283198,0.04155369,-0.2344413,0.29613036,-0.13554838,-0.09579141,-0.15688615,0.02373168,-0.3459307,-0.24907584,0.10478756,-0.14596426,0.19205652,-0.06786742,-0.054031655,-0.07036251,-0.012510093,-0.14683849,-0.2771024,-0.0279394,0.02928819,0.029977513,0.5368168,0.13653553,-0.15144782,0.16162841,-0.10513646,0.15455319,-0.17925896,-0.18090001,-0.01288285,0.05495062,-0.13202791,0.34207523,0.028441107,0.18622102,-0.026596494,-0.18625316,-0.26749545,0.103255816,-0.040693507,-0.07220426,-0.020775992,0.0018718604,0.33338583,-0.24360712,-0.30676365,-0.14343575,0.18848822,0.057904493,-0.32780796,-0.19263767,-0.024734903,-0.12803489,0.14705831,0.40841898,0.06468135,-0.25923988,0.18575531,0.021279663,-0.15747587,-0.2170333
random,-0.45266837,-0.34052807,0.34803647,0.23340687,-1.1793016,1.2550282,-0.6212736,-0.32448846,-0.68410796,0.09786747,-1.5147729,-1.1495378,0.44663805,-0.66456723,0.64909846,-0.21101505,-0.3086855,-0.2877582,0.15575562,-0.47824106,-1.4500967,-0.3941066,0.062827006,0.33900487,2.2884274,0.7036557,-0.693405,0.988871,-0.2808729,0.56349474,-0.859342,-0.75774324,-0.07444751,0.3174684,-0.79993033,1.5511012,0.31698257,0.8903303,-0.23256822,-0.9883708,-1.2305114,0.48087108,0.008967952,-0.51398736,0.06210059,0.124368645,1.3570364,-0.93936884,-1.4217743,-0.50666976,1.029659,0.4813921,-1.3042288,-0.80435,-0.37259802,-0.47192633,0.7818706,1.5100278,0.48666885,-1.0777123,0.9259857,0.048165776,-0.57883984,-1.0524902
random,-0.26559293,-0.22502026,0.19552301,0.080879375,-0.9061469,0.84159017,-0.44409984,-0.14268665,-0.56461173,0.14867893,-0.96466696,-0.86489695,0.37659627,-0.6459644,0.39092344,-0.08449066,-0.31552112,-0.24476159,0.02349432,-0.32153386,-0.8346312,-0.24138218,-0.052034743,0.25046784,1.596864,0.43428448,-0.3329982,0.6957721,-0.21019097,0.27493653,-0.6133235,-0.5461989,-0.0945414,0.2369648,-0.5830294,1.066795,0.21920185,0.61214733,-0.11136021,-0.7157476,-0.9815247,0.31859872,0.038272895,-0.41372746,0.02141165,0.21325924,0.716116,-0.48467553,-0.9932742,-0.21354505,0.8146431,0.2676753,-0.8383554,-0.52922606,-0.31724846,-0.3485706,0.46604514,1.0334482,0.42014846,-0.5378562,0.812082,0.08643445,-0.4068867,-0.83583045
random,-0.305739,-0.35136956,0.16631578,0.3903159,-1.0243883,0.7943358,-0.65304625,-0.35504743,-0.64018035,0.28553987,-1.4054905,-0.9364142,0.442329,-0.61853516,0.4763704,-0.08081841,-0.2918025,-0.38855243,0.20691243,-0.16230164,-1.1674285,-0.28128636,-0.036397275,0.20618969,2.2099674,0.66796297,-0.51643395,0.71522546,-0.2210002,0.32121512,-0.7540768,-0.8530855,-0.095135935,0.2030477,-0.49750447,1.5582885,0.5929146,0.97074896,-0.16756812,-0.9596215,-1.1006975,0.42518938,0.21503864,-0.5073611,-0.036226064,0.2293965,0.9392205,-0.9816496,-1.5160578,-0.23228045,1.0935231,0.38768318,-0.80887437,-1.0253804,-0.35240874,-0.53313017,0.78060275,1.423672,0.5746209,-0.78301376,0.8001084,0.0044200676,-0.54975826,-0.97890675
random,-0.23952104,-1.7450374,-0.04754104,0.23505205,-2.7908087,2.187077,-0.84386325,-0.39236242,-1.9201396,1.0691713,-3.8271506,-1.5216115,0.6645743,-2.3138192,0.049141947,0.28951555,-1.9867977,-1.261999,0.8726079,-0.31439245,-1.852597,-0.64916855,-0.6562334,0.7853105,5.608573,1.2524743,-0.25441578,2.2937772,-0.7206708,0.0053286674,-1.4375992,-2.4225779,-0.4193174,-0.049021516,-1.3690284,3.612002,1.4764915,1.9307134,0.10407403,-1.9783379,-3.3264077,0.5837053,1.0675033,-1.8947688,0.3188822,1.6787405,1.1463841,-1.4168166,-3.1973524,-0.2256681,3.0738335,1.7945167,-0.86094946,-2.2281013,-1.8455588,-1.3872768,1.57924,2.7421918,1.1419369,-0.9494714,2.0660822,-0.26768744,-0.952801,-2.4202726
random,-0.16342899,-0.064403765,0.052050922,0.082584776,-0.2598951,0.283456,-0.1807026,-0.1371817,-0.16321467,0.033956196,-0.38729066,-0.33586842,0.14464194,-0.19912337,0.18458746,-0.06510016,-0.06872183,-0.033569332,-0.01631024,-0.16854687,-0.33351496,-0.08550177,0.016329546,0.042098023,0.6246248,0.14001192,-0.16588286,0.18994515,-0.07050492,0.16531397,-0.19430509,-0.21064365,-0.0058733234,0.060572293,-0.19379018,0.40308964,0.07307468,0.21560219,-0.05396025,-0.24349982,-0.32665098,0.11801458,-0.02613371,-0.13005462,-0.0064855637,-0.044029333,0.3993335,-0.30113915,-0.39184853,-0.156611,0.21853317,0.060677394,-0.3259714,-0.21860434,-0.0650118,-0.18042944,0.16431479,0.5050931,0.11391729,-0.31161824,0.24153239,0.030542875,-0.20778155,-0.28417897
random,-0.16404532,-0.02080708,0.1848424,0.07194753,-0.3698625,0.44231918,-0.16722012,-0.110843904,-0.17699042,0.042222403,-0.41279092,-0.3995762,0.15646996,-0.1698248,0.23116958,-0.08555808,-0.029248348,-0.020786008,0.04299885,-0.12660891,-0.46796957,-0.13019918,0.022319281,0.13829637,0.6368527,0.25274613,-0.2639987,0.31113493,-0.070146054,0.18478954,-0.21650758,-0.13770273,-0.062286958,0.1531561,-0.23758253,0.42699888,0.07119889,0.2836915,-0.13222212,-0.29004318,-0.28284684,0.18789281,-0.11014351,-0.14466223,-0.031399217,0.028620519,0.443625,-0.23026301,-0.40931454,-0.16987453,0.25558317,0.20294675,-0.42161518,-0.13926402,-0.074629694,-0.15618679,0.269689,0.42619926,0.13493566,-0.33950666,0.28395692,0.0005201502,-0.17917585,-0.31449074
random,-0.29787377,-0.18413101,0.23782559,0.17836203,-0.7220477,0.7598662,-0.4032471,-0.25184768,-0.44193003,0.0963776,-0.9352897,-0.69095725,0.32156363,-0.414994,0.41773614,-0.17437015,-0.14765178,-0.14875914,0.052639734,-0.3223257,-0.8878003,-0.21492898,0.036647573,0.18571259,1.453642,0.4358005,-0.45285663,0.560159,-0.16736938,0.37939137,-0.50268584,-0.47958207,-0.05023886,0.20114484,-0.4483306,1.0058059,0.20698996,0.59144664,-0.17627501,-0.59119636,-0.73362535,0.30478662,-0.05384024,-0.27624398,-0.011438954,0.036346372,0.86080915,-0.6337014,-0.93264055,-0.32989845,0.6084927,0.2645406,-0.802027,-0.54270846,-0.14168495,-0.30520892,0.48530316,1.0186836,0.28640613,-0.7126902,0.53239495,0.013536621,-0.38045168,-0.6437748
random,-0.5556173,-0.30421883,0.330229,0.26110464,-1.0170627,1.1638345,-0.603499,-0.31933436,-0.52393377,0.15194975,-1.3961507,-1.088598,0.44781107,-0.5223479,0.65423137,-0.23620093,-0.19627231,-0.24650037,0.14043084,-0.36081156,-1.366496,-0.32854024,0.1568111,0.23213546,2.0649092,0.6522356,-0.7730905,0.76331675,-0.28635377,0.55325234,-0.82000184,-0.65664,-0.06889463,0.26586145,-0.70405054,1.325466,0.23826188,0.7914149,-0.20600905,-0.9160111,-1.0033301,0.4568962,-0.065795936,-0.30596948,-0.014579957,-0.07336611,1.3990827,-0.9712442,-1.4704007,-0.6194495,0.8990069,0.42399126,-1.1650932,-0.6417262,-0.25162953,-0.54438746,0.77049416,1.5638511,0.29379544,-1.1951289,0.74070936,0.031825304,-0.56986326,-0.95727915
random,-0.15137798,-0.06705722,0.109165676,0.07424199,-0.29666448,0.38310805,-0.17282307,-0.13927265,-0.17422633,0.029117566,-0.41275302,-0.3050442,0.111663654,-0.18777102,0.2182381,-0.0900089,-0.086513616,-0.0694733,0.035372782,-0.17064469,-0.42184666,-0.10251083,0.061816987,0.110493846,0.57884943,0.19172136,-0.23022301,0.24275011,-0.08584019,0.17479374,-0.22322479,-0.1977731,-0.01674788,0.087782204,-0.1864695,0.42307895,0.03634065,0.25960046,-0.077146575,-0.23809741,-0.2951343,0.16662866,-0.042373475,-0.09903679,-0.02110681,-0.008189529,0.40397853,-0.30356503,-0.35536802,-0.17700665,0.21324843,0.14226654,-0.36659473,-0.18037875,-0.08291321,-0.14673129,0.23294613,0.4382995,0.10304898,-0.3402702,0.22965914,-0.024338966,-0.12555005,-0.26482937
random,-0.4512792,-0.15559268,0.33410335,0.11235445,-1.2107339,1.3368232,-0.7802741,-0.375406,-0.7308456,0.04163437,-1.4374382,-1.3355861,0.46730918,-0.74313223,0.9029252,-0.35511193,-0.09659747,-0.30270314,0.007123352,-0.7200136,-1.606,-0.56076646,0.31835553,0.4681718,2.0739303,0.7412023,-0.91949964,0.9326345,-0.2682256,0.7260438,-0.89779556,-0.63311064,-0.03990787,0.53531575,-0.8328503,1.4883378,0.20081756,0.88162667,-0.32550216,-1.1044124,-1.1556363,0.6265615,-0.15916541,-0.45675015,-0.095645905,-0.07395394,1.6165861,-0.9991377,-1.4262874,-0.6912861,0.9372817,0.29234323,-1.5577756,-0.6330424,-0.397197,-0.40270534,0.84854305,1.586773,0.55333614,-1.2998315,0.91476697,0.04852441,-0.5692293,-1.1192287
random,-0.5452514,-0.67702115,0.43076614,0.4707386,-1.817352,1.6064541,-0.6919299,-0.5775627,-1.1319209,0.35529855,-2.2502303,-1.4048971,0.7009788,-1.1629287,0.54439664,-0.14127913,-0.5600328,-0.4342578,0.3727474,-0.5366305,-1.7754204,-0.45913467,-0.138937,0.60115886,3.6341639,0.9099488,-0.6695825,1.4643638,-0.31721833,0.5782203,-0.95597726,-1.1508691,-0.2881065,0.31515393,-0.8394037,2.393732,0.8104271,1.3494642,-0.4340116,-1.4503154,-1.7950602,0.55173224,0.14642382,-1.1198281,0.1386649,0.5987913,1.4642483,-1.1682721,-1.8543074,-0.3607573,1.7080841,1.012183,-1.3649604,-1.3224334,-0.47635254,-0.73236525,1.1752307,1.9120009,0.7419744,-1.1702732,1.217223,-0.045254707,-0.8882942,-1.6163272
random,-0.33543292,-0.21536745,0.32288572,0.12807788,-0.83369744,1.0695541,-0.509714,-0.32447362,-0.62395483,0.121876754,-1.1315597,-0.8095476,0.403213,-0.5461395,0.7318501,-0.141224,-0.22889215,-0.3658382,0.14945176,-0.3325666,-1.1406686,-0.14676252,0.14704265,0.1771993,1.5852841,0.51584184,-0.58464104,0.6664209,-0.27244064,0.4456179,-0.7258524,-0.49747515,-0.09610538,0.2015301,-0.5082435,1.1103387,0.1554849,0.7556972,-0.03803303,-0.6910537,-0.92657465,0.4420616,-0.06971903,-0.21996096,-0.22747408,0.027312912,0.9987679,-0.6684304,-1.2308494,-0.42859298,0.78011984,0.23548982,-1.0164144,-0.5805427,-0.342182,-0.35657096,0.65721256,1.2589734,0.16802326,-0.8000557,0.66592216,0.012378014,-0.21286218,-0.6568146
random,-0.31872067,-0.13454242,0.22437602,0.12501933,-0.61010224,0.73465884,-0.38245833,-0.16565433,-0.32579595,0.031262428,-0.7730657,-0.6636897,0.25946593,-0.33942592,0.43624368,-0.16025572,-0.12568979,-0.1157672,0.033163343,-0.30624667,-0.8369258,-0.21854979,0.10031723,0.21899095,1.1885762,0.38919127,-0.42552868,0.48313212,-0.17116575,0.353272,-0.48025265,-0.3737994,-0.057532657,0.22685657,-0.4039048,0.8103234,0.06541263,0.4879406,-0.13982292,-0.5134225,-0.63749474,0.3120855,-0.07860553,-0.1572882,-0.025248162,-0.045284715,0.79796076,-0.5324773,-0.76240075,-0.3048483,0.4886397,0.21484369,-0.76618314,-0.3506629,-0.13828553,-0.29036498,0.4300335,0.8828418,0.23751001,-0.6571381,0.53275615,0.008798965,-0.2903462,-0.56937224
random,-0.44685423,-0.19100185,0.35212582,0.09941874,-0.7963314,0.89985806,-0.39147398,-0.18921839,-0.4597504,0.0016941257,-0.91815585,-0.8086646,0.29742178,-0.418135,0.58496726,-0.22616662,-0.1380077,-0.12447178,-0.03283442,-0.47125342,-0.88569105,-0.23238629,0.07874322,0.24000238,1.5470574,0.4099992,-0.46643245,0.5692564,-0.25953233,0.4872592,-0.54854476,-0.4970603,-0.06643639,0.33075702,-0.4775926,0.98438954,0.045489162,0.5236531,-0.1471758,-0.639166,-0.83598423,0.35139012,-0.15708984,-0.24850152,0.025147159,0.027324878,0.97537714,-0.5837814,-0.80001736,-0.3363229,0.5709538,0.18386738,-1.0809995,-0.46755242,-0.07145123,-0.30816546,0.41550365,1.085029,0.35134655,-0.71869,0.65644026,0.11263423,-0.4909269,-0.68906885
random,-0.8429302,-0.93800527,0.1147703,0.23478803,-1.9138963,2.0517695,-0.89551044,-0.5746779,-1.0069356,0.3090175,-2.918766,-1.5369415,0.6413031,-1.270657,0.6975543,-0.09974329,-0.76642334,-0.52588123,0.27548182,-0.741102,-1.9205031,-0.57153857,0.095223874,0.4252569,4.353484,1.0025588,-0.92169416,1.4352273,-0.6459018,0.57864845,-1.3839239,-1.530824,0.016136585,0.090703614,-1.086198,2.6743076,0.7934923,1.3879055,-0.3247016,-1.6643356,-2.1715238,0.5775243,0.4180016,-1.0123903,0.23670092,0.31572592,2.2443454,-1.8835534,-2.3619616,-0.67879283,1.8401816,0.847342,-1.5780028,-1.7324501,-0.6536481,-1.0632551,1.3989995,2.6882164,1.0275456,-1.983145,1.262275,-0.04918801,-1.350228,-1.9389877
economics,-2.0682752,-0.368926,0.9329324,0.49963924,-1.8264465,0.85539913,-0.13280497,-1.3231393,-2.3824668,-0.05148225,-1.9201744,-2.1115057,1.5534344,-1.8780773,2.014781,-2.897076,0.3665334,1.2287594,-1.2684078,-2.7533815,-1.1665272,-0.09184844,-1.3898094,0.943032,6.469579,-0.77710766,1.3352057,0.18384346,-1.1994767,2.079232,-0.3104962,-2.293353,-0.37301555,1.7538474,-0.63041663,4.23636,-0.11243759,-0.11579107,-0.35515547,-1.2456949,-4.5328803,0.61775553,-0.64868027,-1.3036071,0.48130557,-1.134918,2.3633885,-1.5566638,-1.0577482,-0.23524188,1.7012758,-2.1809378,-4.0297017,-3.284629,1.9408947,-0.23850901,-0.583467,4.0195503,1.7205105,-0.9573656,2.0361753,1.1108321,-2.574953,-1.6252648
economics,-1.7782041,-0.9690378,0.22219229,0.3433033,-1.891756,1.2881305,-0.81563944,-1.1682835,-1.602045,-0.25522402,-2.2689762,-2.1208303,1.1638339,-1.6537181,1.0420761,-2.1639059,0.83926046,0.9466929,-1.4829547,-3.1944528,-1.125805,-0.3970839,-0.3745672,0.77458215,5.583006,0.2979949,0.17258932,-0.08177358,-0.8456138,2.1757236,-0.492193,-1.7010212,0.2824669,0.70632976,-0.7597018,3.5308528,-0.019112634,0.11930527,-1.2874596,-1.4982786,-3.131756,0.19482103,-0.58474493,-1.9285859,0.80364615,-0.50290483,3.4544926,-2.7097538,-0.4571091,-1.1910774,0.7898485,-1.5621628,-3.8698573,-2.7720697,1.846849,-0.43905312,0.06313772,3.245897,2.0018682,-2.4236364,1.2388763,0.56432325,-3.2134821,-2.4941995
economics,-3.5495815,-1.7230822,0.7417156,0.6687316,-1.3208005,1.8881012,-0.19489972,-1.2320105,-1.5290388,0.52005076,-2.6152983,-1.5137142,0.6205448,-1.8486526,1.6797154,-1.7725929,-1.3771427,0.17142887,-1.2289016,-2.8273256,-0.5164996,1.2258402,-0.47356912,0.6005913,5.0085053,-0.16217452,0.2210524,-0.44707784,-2.6770406,1.4293308,-1.4197834,-2.6530194,0.23897012,0.71307665,0.6678359,4.449692,-0.31652486,0.6565774,0.506898,0.4029553,-3.4628043,0.7680667,-0.63102204,-0.35235173,-0.26005232,-0.56365883,2.3910568,-2.8394337,-1.3851068,0.0568178,1.451863,-1.6317858,-3.2371538,-3.0457215,1.8494468,-1.1339955,0.1027734,3.8757634,0.95152956,-1.075097,2.82722,1.3118458,-2.5309305,-1.450255
economics,-0.8307901,-0.31438643,0.62365234,-0.40730634,-1.4122297,1.2120978,-0.71163726,-0.80547994,-2.7400024,1.0351063,-1.5813189,-1.5251949,1.1592484,-2.4041266,2.1672833,-1.1953033,-0.45767656,-0.26918194,-0.57669246,-2.3127596,-0.864326,0.31867272,-0.54169935,-0.40000442,4.5923057,0.31005707,0.8583661,0.55759835,-1.0838827,1.4863633,-0.98791575,-2.0330894,0.6544221,0.56329185,-0.6184925,3.3853717,-0.0070430217,0.9210445,0.3933547,-1.5287808,-3.2210393,0.4643903,-0.50860876,-0.31989372,-0.34131452,-0.21920384,1.944968,-1.8880687,-1.5792332,-0.96966136,1.0181239,-1.7917033,-3.065353,-2.6147852,0.38756433,-0.71885264,-0.26306134,3.8250754,0.975798,-0.6659384,2.4463933,0.54098314,-1.1913447,-1.4027536
economics,-3.245114,-1.702107,0.5562115,1.6018109,-0.93513024,1.6481578,-0.9006849,-2.607993,-1.1839797,0.41690746,-3.5914786,-1.3752736,0.93848157,-2.2038658,0.41983733,-0.63752407,-1.6653796,-0.26665333,-1.4831994,-2.7169402,-1.0036463,2.3904157,-0.84755147,-0.31146276,5.2259216,0.68262905,-0.110630415,-1.2631189,-2.0782726,2.1469836,-1.2925338,-2.997718,-0.5397739,-0.67472106,0.18623744,4.237234,0.14798911,1.7437832,0.51019114,1.0980812,-2.5187328,0.5519831,-0.5600891,-0.46987745,-0.9487066,-1.1559573,2.8496575,-3.8928285,-3.208635,-0.3804129,0.6246704,-0.7060182,-2.155901,-2.8075333,1.1436645,-1.8839828,-0.31205782,5.3856363,-1.0447056,-2.0287726,1.785003,0.46526653,-1.6750878,-1.0901392
economics,-2.9569833,-0.84727436,1.1864799,1.5226723,-1.1439668,1.0624912,-0.85664403,-3.1183193,-2.3952146,1.4902476,-3.2362304,-2.0224335,0.805791,-2.3450937,0.11594091,-1.4125078,-1.1463448,0.6196875,-1.3871156,-2.127148,-1.3593335,2.0301528,-1.1994267,-1.8386998,3.7010865,0.8899591,-1.0556449,-1.1022501,-0.86817956,0.51578945,-1.0047823,-2.308547,0.42620924,-1.628894,-0.72962993,5.3522363,0.16498601,2.5964777,0.48245674,0.8358519,-1.8090773,0.72201616,-0.95244455,-1.3754172,-1.170163,0.04686523,2.4739618,-3.3722832,-5.7787166,-1.0858055,1.15917,-0.3215246,-1.9991909,-2.901472,-0.16716996,-1.508413,-0.26884967,5.6774774,-0.19069624,-1.900218,2.47142,0.5356334,-0.41327193,-0.2482885
economics,-1.0384401,0.089164004,1.0504643,0.37413052,-0.37267575,-0.13696964,-0.24509966,-0.5880188,-2.2099075,1.5881969,-2.0269594,-1.1192026,2.2325532,-1.6552312,3.4229424,-1.7713456,-0.06122,-0.512252,1.4336586,-2.3225446,-2.1496432,-0.9921851,0.03416866,-0.62876326,5.789631,0.939063,1.3271862,0.39774954,-1.6506943,1.3370814,-0.83946633,-3.3085425,1.4364327,1.105462,-0.7228951,2.7922912,0.26272282,0.6636906,0.016770147,-3.1471117,-2.2661054,0.55672294,0.20386408,1.5580877,0.6000987,-2.178051,3.7992716,-4.018362,-2.0624423,-2.6060662,0.004059069,-1.0300215,-2.6510053,-2.78612,0.35380116,-1.30964,-0.12461915,4.8300204,-1.370108,-1.9060538,1.9041032,-0.2879836,-2.1571085,-0.72956926
economics,-3.559314,-1.6650696,0.5716732,1.7199023,-0.67499447,1.3461885,-0.66342,-1.733685,-0.9966171,0.024436472,-4.1225214,-0.60003924,1.1911235,-1.1698656,1.2490288,-1.8612138,-1.4928881,-0.15411977,-0.9594588,-2.0531569,-1.3488485,2.195971,-0.47389323,-0.14614424,5.698554,-0.24605525,0.25359383,-1.133101,-3.0446472,1.1220089,-1.884429,-3.5011656,0.32183158,-0.47963285,0.95029426,4.648844,-0.16089779,1.8261644,0.7035247,0.30060336,-3.3279252,0.75542444,-0.07524844,0.6255829,-0.33003625,-1.3285428,3.0429301,-3.8755252,-2.642449,0.23900846,1.588429,-1.1196679,-2.6378107,-4.148697,1.7085054,-1.3853812,0.8755614,5.004286,0.44464207,-1.6639869,2.3298588,0.79722136,-2.0046215,-1.1101879
economics,-1.2010651,-1.6206261,-0.08553341,0.614038,-1.7946129,1.8083547,-1.4610295,-1.6457247,-2.691163,1.6524918,-3.1957786,-2.6172235,0.9842477,-2.6294043,1.0733333,-0.501725,-1.1203429,-0.93064034,-0.22736487,-0.34584022,-2.2233539,0.57831573,-0.24314801,0.5245058,4.0869164,1.606482,-1.4039319,0.7572319,-0.5680626,0.49029836,-1.5788184,-1.0854459,-0.5232619,0.19054143,-0.5780776,3.9731386,0.7097357,2.0340147,0.60968655,-1.0457721,-2.598944,1.0398533,-0.41352808,-1.3722247,-1.8323716,0.79535526,1.775405,-2.0743117,-3.9859028,-0.547442,3.0038004,-0.13063097,-2.0018237,-2.255674,-0.97132325,-1.1290104,1.0904144,3.8518853,0.53693956,-1.3390498,2.3781393,0.6702971,-0.087015666,-1.2500058
economics,-3.126863,-3.4376218,-0.45305207,0.6327474,-0.8502949,1.489695,-1.001352,-2.4500024,-2.9221237,2.4059672,-4.5570407,-1.5556569,-0.05134569,-3.589249,-1.0654324,-1.6505969,-1.0906295,0.18718754,-2.5674345,-0.7905242,-1.3950574,1.1591754,-1.5368577,-2.3193116,4.586509,2.6294525,-2.6566918,-1.9289724,0.7320546,-0.5014578,0.015166498,-1.069317,0.20543942,-1.4398983,-1.4576098,5.363739,-0.56208533,1.2335159,0.57622135,-0.5225172,-1.1992201,0.29488853,-0.28601572,-1.9059218,-1.4686698,0.2111731,3.0040677,-3.9825494,-7.3400373,-2.6443028,1.7969649,0.35687178,-0.21266407,-1.9335321,-0.5680073,-2.4236836,-0.59166104,5.4758124,-0.6219213,-3.8250833,0.36082667,0.41450074,-0.46555415,-0.40754795
economics,-1.6343104,-1.3036175,0.54484427,0.9455462,-1.3283226,1.1694009,-1.1298399,-2.0086482,-2.5631156,2.1311631,-2.9278388,-2.2228832,0.9091161,-2.441876,0.44928476,-0.5939422,-0.32891208,-0.19433461,-0.4997953,-0.5918992,-1.6974211,1.0646663,-0.13638033,-1.1909746,3.600263,1.6791068,-1.5687866,-0.35639024,-0.28659058,0.17643984,-0.47744074,-0.8412319,-0.039408814,-0.69490904,-0.89258105,3.7715802,0.6730272,1.8602878,0.27555025,-1.252291,-1.0398959,0.6543724,-0.8368218,-0.9211041,-1.5065744,0.032340974,2.2355962,-2.5337362,-4.924597,-1.4400119,1.8615178,0.06480434,-1.6578205,-1.7634788,-0.65428203,-1.6619761,0.4306669,3.9295168,0.00014735812,-2.2880857,1.5356549,0.36154452,-0.065549225,-0.84254694
economics,-1.9278332,-2.560932,-0.10430547,1.0438048,-1.9310607,1.9521081,-1.4482197,-1.546526,-2.4923556,1.677684,-3.663426,-2.313978,0.45538503,-2.514224,-0.066169836,-0.05367322,-1.8799752,-1.1000618,-0.5908046,-0.085253,-1.657025,1.2691374,-0.22965606,0.2520187,4.46514,1.4365114,-1.6883223,0.5461952,-0.5691831,0.057221968,-1.59218,-1.5380683,-0.7529399,-0.42537162,-0.11598192,4.6692476,0.90861267,2.3477478,0.8768449,-0.7575064,-2.5964363,0.8078614,-0.1526938,-1.5676956,-1.505504,1.187297,1.4168872,-2.3104744,-4.273312,0.0034573835,3.3787043,0.5759949,-1.439594,-2.361645,-0.66484547,-1.7374845,0.86580503,3.937867,0.6598911,-1.4405134,2.591656,0.70037764,-0.09076741,-1.6478058
economics,-0.64549655,-0.30167562,0.44341478,0.32784122,-1.4006866,0.9874525,-0.7965115,-0.9063182,-1.8885885,0.29667383,-1.7551078,-1.7792442,0.86509925,-1.5358925,1.3574989,-0.94341826,-0.23660178,-0.26114857,-0.41203192,-1.5482671,-1.449609,-0.32393602,-0.37080118,0.72711843,3.6604733,0.6719395,-0.31276473,0.73411304,-0.32706216,1.1632637,-0.8910104,-1.2208397,-0.016003758,0.83990407,-0.6524343,2.8904579,0.55429935,1.1932986,-0.15045041,-1.1497439,-2.5180523,0.6205328,-0.42519873,-1.3232012,-0.1615704,0.24027103,1.8350223,-1.5477902,-1.4817001,-0.71761334,1.3987226,-0.49906114,-2.6153843,-2.1101015,-0.040019836,-0.31738752,0.1850939,2.7508287,0.8392462,-0.8259687,1.9477925,0.60959566,-1.2409992,-1.3090281
economics,-1.126396,-0.974126,0.2321831,0.81194794,-1.6043139,1.6030413,-1.4116939,-1.4887403,-1.974267,1.4623222,-2.8526678,-2.2177997,1.1051229,-2.030362,0.82574946,-0.28822762,-0.57787913,-0.7021137,-0.07217349,-0.16045831,-2.231363,0.51866055,0.1056655,-0.08116073,3.3312194,1.449629,-1.5220646,0.47318846,-0.35566455,0.4276909,-1.2480317,-0.8062035,-0.40040797,-0.072545834,-0.8415924,3.183484,0.7156884,1.9691024,0.122883976,-1.3269529,-1.5413946,0.9288522,-0.40992412,-0.78935486,-1.4129361,0.07383834,1.9354492,-2.0035794,-4.125716,-0.8965543,2.3343637,0.32080108,-1.49657,-1.4801689,-0.8049424,-1.3122934,1.2150836,3.3783312,0.07300066,-1.9213738,1.6724561,0.18625903,0.02614964,-1.2908635
economics,0.15555066,1.550935,2.3683531,0.28760773,-0.8891925,0.5255114,1.1463879,-0.17602944,-1.4608046,0.44968718,-4.1289277,-0.90019965,3.5659816,-0.80413103,3.8481505,-2.2494946,0.20149687,0.8562457,2.6166778,-2.5607123,-2.7711682,-4.1257453,-1.4062364,-0.79501647,7.2628374,1.1753429,3.1795337,2.4750683,-3.0929174,0.2968289,-0.06304093,-2.7775452,2.516085,1.9414485,-1.690855,2.1295078,0.44893575,0.28388402,-2.6397145,-4.2826443,-3.0107777,1.0315063,0.19715182,0.5721599,1.8771654,-1.9407636,3.8236964,-4.0805583,-0.37642208,-2.6313603,-0.61859477,0.3885994,-2.03395,-3.6571906,1.2591542,-0.65070033,0.8414348,3.1740396,0.20642403,-2.2631094,2.1667657,-2.2669563,-4.920858,-1.7036595
economics,-1.6783203,-0.9494987,0.05183955,0.47699323,-1.3923279,1.456978,-1.1381967,-1.6595116,-1.6984211,1.0227029,-2.9649963,-0.725945,1.0548437,-1.7598597,0.5112414,-0.1903243,-0.56127423,0.03522014,-0.641717,-1.301108,-1.2884352,1.9536254,-0.17664309,-0.8083964,5.240519,0.44106555,0.17836036,-0.51491386,-1.6223441,1.3138288,-1.1384324,-2.258415,-0.14942537,-1.1994287,-0.24462609,3.3674128,0.60912234,1.7568322,0.3004937,-0.73926187,-2.1472526,0.5283682,-0.04566032,0.015050756,-0.74481034,-1.0584054,2.4387848,-2.7554982,-3.6275454,0.04075335,1.2233422,-0.655612,-1.4230913,-2.5240135,0.74152267,-1.9400146,0.8038526,4.683212,0.4101918,-2.2763782,1.2391562,-0.22640991,-0.6625501,-1.2774338
economics,-3.2849486,-2.0514367,-0.12880978,0.5994376,-0.99490047,2.4912977,-0.7429845,-1.7083874,-2.2811048,1.266861,-3.1756039,0.18849602,0.5662511,-2.7546928,0.69124657,-0.08811914,-2.6374042,-2.0185194,0.41697425,-1.2699071,-1.3148953,3.1768036,0.31662986,-0.7106962,6.27684,-0.5460721,1.1455874,-0.6469312,-2.9714465,1.2944995,-2.5597918,-3.9556699,0.06978377,-2.237676,0.8707822,3.7991009,-0.3464441,1.2747484,1.6241658,-1.0305091,-3.6480541,0.025070898,0.9637146,1.0965326,-0.9555113,-1.4157778,1.7403077,-2.663573,-3.3268738,0.48422801,2.108513,-0.15988141,-1.3852354,-2.9932318,0.10533932,-2.3921375,1.2520765,6.1982164,0.11314418,-1.1522686,1.9693424,-0.1862957,-0.026943514,-1.1733652
economics,-2.9005933,-0.90066123,1.1334951,1.2732931,-1.1063824,1.1839623,-0.84415454,-2.9883459,-2.325543,1.5643582,-3.2052863,-1.9755398,0.7544993,-2.4224753,0.0773635,-1.2993221,-1.2382774,0.67114747,-1.3763868,-2.095969,-1.3456558,2.0144253,-1.120195,-1.8357438,3.7284784,0.8810714,-1.0976002,-1.1856273,-0.92407215,0.4487589,-1.0024267,-2.2548835,0.4170712,-1.7105942,-0.8269338,5.2957287,0.089200646,2.4926963,0.47847235,0.8463738,-1.8834602,0.7089982,-0.8936559,-1.223505,-1.2033442,-0.03556998,2.4809103,-3.401534,-5.83408,-1.11426,1.1210928,-0.33563125,-1.8617032,-2.7199743,-0.27615997,-1.5645142,-0.15128882,5.598514,-0.11468731,-1.9921992,2.3493643,0.5181205,-0.3195869,-0.1640673
economics,-0.73567176,-0.22057979,-0.54895884,0.7930509,-1.9515147,0.641644,-1.9193767,-0.031264443,0.55287725,0.37266526,-4.433793,-0.5274107,1.9702444,-0.3600289,0.25909454,-0.63865453,0.8892967,0.058145497,-0.69702464,0.03584557,-2.0476341,-0.5178003,-0.5968667,-1.8741953,6.306852,1.5217456,-1.0404607,0.469461,-0.2609512,-0.20471698,-1.4136944,-2.2558546,0.48663554,-1.0026104,-1.0450003,3.6643107,2.2374098,2.2544572,-1.5609573,-3.0837886,-1.2905922,0.09658833,1.4872785,-0.24980727,1.2417713,-0.32905015,2.69339,-3.9213116,-4.3313837,-0.9265452,1.2589766,-0.3233557,-0.3642091,-3.5920188,1.1658605,-1.2582421,1.8458906,3.0667677,2.112014,-3.2649593,-0.27288988,-0.70699763,-2.3995304,-2.7596924
economics,-0.73561454,-0.12295516,-0.16571105,0.9909823,-1.731983,0.6026542,-1.6913552,-1.3954461,-0.42777917,0.51631135,-3.4482012,-1.1631683,1.4014338,-0.9831584,0.11926564,-0.6543257,0.4820033,0.25525707,-0.96136487,-0.7609178,-1.9812384,0.10249456,-0.55534077,-1.619797,5.107272,1.2456821,-1.5603334,0.4383965,0.20291735,0.5611184,-1.0632089,-2.0803595,0.54219115,-0.99407953,-1.4531311,3.7598119,1.8061544,2.1290164,-1.0748159,-2.0687182,-1.4800233,0.30434057,0.6121217,-1.0091745,0.38677865,-0.28215805,2.8752677,-3.5409343,-4.5014577,-1.2048593,1.4065814,0.049852923,-0.8876523,-2.7177303,0.42128417,-1.2626746,1.1867365,3.7176497,1.4489671,-3.1029954,0.2590912,-0.24165228,-1.3951466,-2.1598544
economics,-0.71212816,-0.34597433,0.7958029,1.6658379,-0.35510784,0.3198701,-0.7638747,-2.5741422,-1.8987564,1.6871861,-1.7097028,-2.2387521,1.9552416,-3.3506527,0.579106,-0.7457095,-1.9802163,-0.8502351,0.38054633,-2.6848989,-1.0855514,1.4221495,-1.2298323,-1.1841072,4.2695932,1.7552826,-0.5275073,0.34447843,-0.70495695,2.1435041,-0.70936406,-2.6480825,0.56835216,0.15280335,-2.0842583,3.5029123,1.5295472,2.2289183,0.82274824,-0.5500233,-2.0192118,-0.14476754,-1.613022,-0.7967042,-1.6079273,-0.877751,2.892229,-3.359497,-4.6018987,-1.9648939,1.483436,1.1591365,-2.2156942,-2.1169567,-1.6573838,-1.7695867,-0.39135346,5.6932974,-3.2990537,-1.609688,2.6936193,0.39993948,-1.468912,-1.0062466
economics,-2.1638517,-2.7990065,0.3598548,-0.31376106,-3.4600565,2.8213315,-0.5614623,0.025677744,-3.5141132,0.72764534,-3.959156,-0.7054417,-0.12227694,-3.1443684,0.23547277,0.21069872,-3.6728623,-1.5252495,-0.88541645,-1.8425279,-0.81626105,1.356639,-1.4134955,1.5055544,4.833202,-0.7400725,0.7230108,2.2645023,-1.7493725,0.72165966,-2.001614,-3.638421,-0.60035133,0.19610211,-0.4713175,5.346289,-0.15965484,1.4305297,1.5113416,0.3879696,-5.6229033,1.1934482,1.0413481,-1.0593706,0.55691487,0.6818751,0.2414097,-0.35001004,-2.3387225,2.3395224,3.4875293,-0.024035716,-2.6239262,-3.0788243,-0.3073673,-1.761291,-0.21041337,3.0087304,1.1798061,0.72031236,4.2615232,0.87822455,0.40697005,-2.4255867
economics,-1.8715501,-0.98970264,0.09164298,0.40366387,-0.7652548,1.1561652,-1.0976869,-0.9254528,-1.451322,0.36856857,-2.3769882,-1.2254393,0.49614653,-1.1582417,1.7622862,-1.542071,-0.061637726,-0.13718508,-0.47711444,-1.9163575,-1.7413058,-0.020680817,0.56081164,0.28447637,3.682563,0.68557024,-0.5743154,-0.23204876,-1.4162501,1.2447668,-1.3600733,-1.8693485,0.5739247,0.3822464,0.17104301,3.1034048,-0.4638329,0.822835,-0.07739067,-1.0953507,-2.0455518,0.7315705,-0.070711575,0.29240257,-0.33215335,-1.0726488,2.904401,-3.110954,-1.5584774,-0.9534785,0.80018556,-1.3192502,-2.6410956,-2.4403677,1.0189948,-0.7850459,0.6844812,3.3434446,0.8673081,-2.102333,1.3396289,0.08805671,-1.2693468,-1.1568688
economics,-2.8579278,-1.7181971,0.8042977,1.1055664,-0.8154086,1.6660445,-0.41420376,-1.2899256,-2.2594526,0.84613335,-2.6829488,-1.8567562,0.9799671,-1.6211464,1.830187,-1.7365973,-1.3037299,0.19290878,-0.93027914,-2.3589232,-1.3897866,1.0019147,-0.5352092,0.030474914,4.666951,0.4276986,0.24860694,-0.28484568,-2.0211298,1.1213292,-1.0225117,-1.9487934,-0.10344716,0.43376318,0.77949923,4.659655,-0.5755444,1.0147882,0.7986748,-0.27851877,-3.2032886,0.5362822,-0.5891557,-0.65914226,-0.77225786,-0.2771915,2.1868768,-2.6399782,-1.4084684,-0.30784854,1.1016233,-1.4816248,-3.1348662,-2.9705422,1.6151149,-1.1625335,-0.09306234,3.711588,0.71968883,-0.903563,3.3207388,1.1113116,-1.7236493,-0.83688027
economics,-0.99644715,-0.86962473,0.46386123,0.5163752,-2.428452,0.9536002,-1.0493058,-1.2603687,-1.9434308,1.4092572,-1.8776752,-1.9130951,1.5671335,-2.7382338,1.756127,0.776197,-1.1640056,-1.1116053,0.22360225,-1.0672393,-0.7293828,0.5209323,-0.6230262,1.8352724,5.8606377,0.25521794,0.5637565,1.3041819,-1.3288076,1.9638804,-1.283662,-2.8617172,-1.4166346,2.370313,0.102584794,3.355753,1.944607,1.5787045,0.59727895,-0.9612815,-3.828041,0.6007543,-0.72098345,-0.7821662,-1.449393,-0.014456675,1.222654,-1.5017849,-2.1858253,1.1919202,3.249,-0.3177082,-1.8934592,-2.6563342,0.8806966,-1.4011852,0.041279662,4.4409842,0.1244953,0.11568353,2.3151813,1.3287076,-1.5924538,-1.9356499
economics,-0.70172215,-2.061402,0.6058384,-1.3671805,-3.0528018,2.3083525,0.45205054,-0.18488619,-2.945848,0.22382866,-2.6835952,-0.93190986,0.9241871,-2.8924022,0.67368305,-1.1439008,-1.0781318,-0.122165196,0.2713777,-2.2260804,-1.2855186,-1.5949461,-0.7721334,2.3347013,6.4012947,0.17132653,1.4077835,2.9770815,-0.8756077,0.895489,-0.80555415,-2.5932138,-0.5018976,1.6322203,-1.9488754,3.2400281,0.021694502,0.8603243,0.06346478,-2.2327943,-4.441622,1.0583129,1.1911412,-1.4374982,1.7167069,1.0767521,1.6605842,-0.22126882,-1.043411,-0.306402,2.6363692,0.15389916,-2.3397233,-2.0239713,-0.3861377,-0.30095473,0.068515085,3.141907,1.5223329,-0.67788345,1.7360482,-0.88255376,-1.5763745,-2.7165504
economics,-2.0430646,-1.788504,1.4459977,-1.0483795,-2.944178,2.6424701,-0.32403815,-0.6194106,-3.9610877,2.2230654,-1.8436357,-1.8607879,1.9272839,-3.710554,1.4214251,-2.6790507,-0.40285203,0.81861156,-0.83201367,-3.6345518,0.0764779,1.143858,-0.9411657,-2.0670424,5.4269886,-1.2567335,1.5738566,0.5370675,-1.0578909,-0.12369197,-0.6437884,-2.11005,1.9630141,-1.1093515,-0.76529545,4.8818393,-1.5927923,-0.22080581,-1.1041788,-2.3065364,-3.6539326,-0.30269563,-0.58045167,-1.1718385,0.5417962,0.06612441,1.7270592,-1.7859265,-1.718685,-1.7783847,0.8570912,-2.0615146,-2.9336317,-2.2507334,1.7225627,-0.678034,0.19446597,3.2013028,2.517928,-1.9484484,2.4868865,0.23243462,-1.0700982,-2.3309433
economics,0.20197657,-1.09437,0.2642196,-1.5639488,-3.4434264,2.8747952,-0.3447241,0.6781853,-4.3793,4.0067315,-2.3376849,-1.9381232,-1.0612184,-5.108226,0.72492737,-1.0064011,-2.6534786,-0.42978752,-0.4705994,-3.2861712,-0.33366993,0.13981694,-1.2154768,-2.158408,4.980377,1.756439,2.2090797,1.9445441,-1.8671982,1.7743609,-1.3198829,-2.6781595,0.72996366,-1.7617664,-2.2421978,4.7056036,-0.1197156,0.8878833,0.9529584,-1.1643902,-4.969584,-0.4197348,-0.09729808,-1.2919987,0.3610614,2.18877,-0.26740894,-0.5545384,-2.564704,-2.5107648,0.3218863,-1.705251,-2.645309,-0.54443705,-2.5633755,-2.0158703,-0.30204493,4.5330725,1.0239913,0.23144229,3.0843863,-1.0771484,0.4947422,-3.0450952
economics,0.018154029,-0.41824344,1.0866377,-0.7078019,-2.5047567,1.6872041,-0.3908901,-0.07551086,-3.571886,2.4086695,-1.8176981,-1.6219041,0.79834145,-3.7930346,1.3201973,-0.38764006,-1.6507772,-0.83490264,0.15736067,-2.3541698,-1.0632269,-0.14028366,-1.4560429,-1.1351712,5.204928,1.2043566,1.2936186,1.9471302,-0.6144345,1.0972812,-0.6657936,-2.488678,0.58164114,0.045175206,-1.8954796,4.0736227,1.0181652,1.6671973,0.3594037,-2.1983345,-3.7216065,-0.10675794,-0.04696191,-1.5061526,0.35739368,1.3509626,0.8848182,-1.0382273,-3.3709033,-1.5482607,1.2379619,-0.30530995,-2.018857,-1.9687465,-1.621927,-1.4125252,-0.19384497,3.8528292,0.3661113,-0.04976042,2.8722887,0.083221704,-0.6817481,-1.906775
economics,-0.4703784,-1.2976357,1.1451323,-0.75059754,-2.503422,1.9367834,0.35219252,-0.26261526,-3.0580637,0.93802863,-2.694408,-0.7953913,1.4364265,-2.615386,1.3540207,-0.6012669,-0.9462929,-0.63734335,0.5420316,-1.4734634,-1.3524424,-1.0158324,-1.1602132,1.1618747,6.281904,0.8818701,1.4379528,2.3197901,-0.9340336,0.8188369,-0.74576557,-2.5801756,-0.12909885,1.1225513,-1.2597227,3.2767751,0.7553481,1.2452329,-0.2850095,-2.7314396,-3.7710664,0.5921548,0.671067,-0.9103565,1.0367945,1.0120623,1.3507718,-0.7240972,-1.7295287,-0.4499585,2.2804809,0.5609816,-1.846388,-2.4611363,-0.3966241,-0.8457041,0.20260327,3.1761608,0.7251559,-0.14737625,1.9420203,-0.38597038,-1.5266303,-1.9575987
economics,-1.6467452,-1.114315,0.41512063,0.07630091,-2.0915482,1.6308286,-0.34740767,-0.72296673,-2.2085354,-0.21329932,-2.2925496,-1.7473967,1.1680561,-1.6280837,1.7550758,-1.416233,-0.07911459,0.20019159,-0.76645416,-2.2427714,-1.0813453,0.16049945,-0.6976879,1.2873265,5.4994226,0.12213084,0.7379769,0.78782165,-1.398181,1.4967906,-1.0513055,-1.8871604,-0.11537512,0.9673727,-0.03432022,3.3446832,-0.3999293,0.6425764,-0.11280586,-1.1531371,-3.651273,0.8128878,-0.26346636,-1.2621601,0.24316575,0.34036946,2.019334,-1.5435392,-0.22310945,0.25999752,1.5757358,-1.5495446,-3.6010294,-2.680172,1.3502994,-0.27438608,0.1504245,2.817459,1.7619711,-0.4568427,2.2605557,0.6793255,-2.163615,-1.9084924
economics,-1.2989513,-0.8519609,1.0183399,-0.29003006,-2.2995195,1.1502209,-0.012461905,-0.15548737,-2.181131,0.59366906,-1.6439941,-1.2430475,1.1922344,-2.7008326,1.0782105,-1.4852725,-0.6656767,0.34752086,-0.51347524,-3.2638035,-0.7485015,-0.8462667,-1.717047,0.29729882,6.1620364,0.41496554,1.3291023,2.1526175,-0.61879265,1.0700217,-0.7755229,-3.0004807,0.9198377,0.75342625,-1.9984509,4.0144215,0.54275393,0.6359094,-0.9797835,-1.8742871,-3.773114,-0.06403188,0.19821776,-1.1260648,2.2026844,-0.028209953,1.9965616,-1.7673148,-1.2799386,-0.93882686,1.3849965,-0.44541064,-2.31558,-3.037821,0.88067335,-0.5159164,-0.4414049,3.1674929,1.3017192,-0.7893179,2.4868171,0.080804884,-2.5053287,-2.5411067
economics,-0.80548376,-1.1530151,-0.3184271,-0.046967976,-2.5728896,1.4380955,-0.9123689,-0.9927949,-1.7427632,0.54127985,-1.9654794,-2.1751761,1.5023105,-2.3112905,0.24448372,-1.0923113,0.78268194,0.35848576,-1.2958223,-2.603009,-0.57205635,0.13551009,-0.17708845,0.17991748,5.243692,0.1784738,-0.07822723,0.016041411,-0.1416545,1.8681282,-0.57932574,-0.89499456,0.21615742,0.26414308,-1.5714873,2.7104902,0.6801548,0.036101215,-0.9132372,-1.7033806,-3.2382545,-0.27877077,-0.4142646,-2.3076773,0.43140686,-0.1401648,2.8635855,-1.8860452,-1.5991288,-1.6595057,1.8607157,-1.4984571,-3.413068,-2.1056366,0.6973328,-0.6128997,0.13756032,3.1004567,1.3572706,-2.7310007,0.829718,0.699882,-2.2912242,-3.0801334
economics,-1.2116898,-1.3911387,0.7898339,-0.40279528,-2.5715191,1.7731363,0.133264,-0.6837073,-2.4454422,-0.15607089,-2.6704571,-1.2771448,1.2491885,-2.0275364,0.7439902,-0.9162599,0.04963482,0.8248905,-0.6392084,-2.5276864,-0.7406651,-0.4497605,-1.1796361,0.6651105,7.0139933,0.26964724,1.2708426,1.5520735,-0.43677074,1.2315818,-0.19267005,-2.3909512,0.0114569105,0.40869457,-1.0568666,3.190917,0.11877009,0.45058042,-0.6878603,-1.962634,-3.8014796,0.19975144,0.14483993,-1.7174199,1.3535833,0.633635,2.3432183,-1.5892935,-0.36697382,-0.15915743,1.5202236,-0.5118098,-2.8514194,-2.6695383,1.192147,-0.6934484,-0.47923705,3.134752,1.7342204,-1.2721239,1.4937931,0.16340484,-2.5773926,-2.637969
economics,-2.2171342,-2.5881937,-0.28626224,-0.05805759,-2.5390437,2.3090434,-0.8718247,-0.47915795,-2.370796,0.8487255,-3.5824301,-1.9043895,0.35680053,-2.4672146,0.22194761,-0.5124554,-2.4114563,-1.3243636,-0.46285546,-0.74094176,-1.5634099,0.6069149,-1.1337153,2.0521228,4.9706397,0.19877677,-0.45641676,1.0326089,-1.4287746,0.62901103,-1.9674835,-2.2095203,-0.64498675,1.530051,0.2274556,3.839927,0.42871878,1.8561586,0.77244437,-0.31093794,-4.2433267,1.2240878,-0.03083609,-1.5666417,-0.94420177,0.8994241,1.2592045,-1.3367482,-2.1537688,0.7469762,3.8032646,0.1929803,-2.0679123,-2.5319533,-0.11124549,-1.099019,0.67506343,3.7244065,0.7858381,-0.58983207,3.089653,0.9967889,-1.176614,-2.0529785
economics,-1.7392652,-2.3995373,-0.1334382,0.8606513,-2.308121,1.5160838,-1.6056478,-1.3898535,-2.4932566,1.7458081,-3.1999357,-1.9826741,1.0198596,-2.5961664,-0.11018299,0.37556896,-1.1132942,-1.0597599,-1.253419,-0.22833806,-1.1485478,1.4050238,-0.53288865,-0.36644825,4.7215548,1.6372892,-1.1704832,0.3250247,-0.47939935,0.23016481,-1.352716,-1.4431454,-0.87410593,-0.5971498,-0.45878303,4.342586,1.153434,2.1344051,0.77384776,-0.7198821,-2.3948646,0.5136267,-0.21761724,-1.5108795,-1.5930591,0.8972303,1.2570969,-2.372809,-4.9798203,0.08330026,3.0758686,-0.02812298,-1.1189468,-2.2601936,-0.12339293,-1.9148698,0.37761414,4.00446,0.5459017,-1.647704,2.2451127,0.64828014,-0.46587527,-1.8555518
economics,-0.4387516,-0.2678935,0.27874637,0.12624618,-0.53178185,0.6875754,-0.25134006,-0.2375999,-0.44172168,0.15257825,-0.6875536,-0.51136965,0.26309007,-0.40472946,0.4040546,-0.116267435,-0.1592911,-0.08808241,0.0020538692,-0.32583293,-0.59927446,0.11102294,-0.0015071619,0.057248183,1.2379143,0.30858728,-0.28113198,0.30293152,-0.25881624,0.36042708,-0.37777808,-0.4098334,-0.07016009,0.08221803,-0.23555161,0.86776793,0.043600872,0.45036665,0.008451947,-0.34174097,-0.6314031,0.23483503,-0.1549309,-0.090558596,-0.14075197,-0.011399692,0.680734,-0.52396154,-0.7331713,-0.26339453,0.45514888,0.06970178,-0.7359131,-0.47069106,0.044190682,-0.3062798,0.29581952,0.9334472,0.082567595,-0.49809447,0.47098616,0.10817709,-0.2539006,-0.38937548
