title,0,1,2,3,4,5,6,7,8,9,10,11,12,13,14,15,16,17,18,19,20,21,22,23,24,25,26,27,28,29,30,31,32,33,34,35,36,37,38,39,40,41,42,43,44,45,46,47,48,49,50,51,52,53,54,55,56,57,58,59,60,61,62,63,64,65,66,67,68,69,70,71,72,73,74,75,76,77,78,79,80,81,82,83,84,85,86,87,88,89,90,91,92,93,94,95,96,97,98,99,100,101,102,103,104,105,106,107,108,109,110,111,112,113,114,115,116,117,118,119,120,121,122,123,124,125,126,127,128,129,130,131,132,133,134,135,136,137,138,139,140,141,142,143,144,145,146,147,148,149,150,151,152,153,154,155,156,157,158,159,160,161,162,163,164,165,166,167,168,169,170,171,172,173,174,175,176,177,178,179,180,181,182,183,184,185,186,187,188,189,190,191,192,193,194,195,196,197,198,199,200,201,202,203,204,205,206,207,208,209,210,211,212,213,214,215,216,217,218,219,220,221,222,223,224,225,226,227,228,229,230,231,232,233,234,235,236,237,238,239,240,241,242,243,244,245,246,247,248,249,250,251,252,253,254,255
random,-0.26750702,-0.16400827,0.11336944,0.07042055,-0.40473846,0.42708525,-0.24680798,-0.19737495,-0.2553548,0.07981438,-0.56212693,-0.3614563,0.17495127,-0.2583563,0.32700455,-0.24764867,-0.013322835,-0.026236244,-0.027904069,-0.24653758,-0.5049702,-0.13898304,-0.033448294,0.109685674,0.98834044,0.22460574,-0.28305095,0.39265674,-0.16440646,0.2866894,-0.3255076,-0.23192675,-0.025103243,-0.011712388,-0.21242063,0.59263295,0.023265755,0.29409772,-0.06912515,-0.28923708,-0.5169457,0.17451997,-0.10387704,-0.28394932,0.06778936,-0.0013397378,0.63982695,-0.43047315,-0.35409117,-0.3600305,0.19907235,0.13078682,-0.5338688,-0.35901925,0.01934438,-0.15912072,0.29455206,0.6615403,0.14237367,-0.46211347,0.19374177,0.05641135,-0.4030041,-0.39726368,-0.068199754,0.57616764,-0.32044616,0.04139243,-0.23267047,0.040417388,-0.38593563,0.4125889,0.32139847,-0.34719008,-0.41015258,-0.12638496,0.041974403,-0.4052724,0.2529303,0.7549733,-0.09061824,-0.30508024,-0.32262483,0.11691211,0.47009477,0.096201584,-0.01811768,0.26879627,-0.31267074,0.13762493,0.1927834,0.094879456,0.067723036,0.5803728,-0.04734929,-0.36439717,-0.4833435,0.4316079,-0.29970095,-0.7205258,-0.024938095,0.076066084,-0.290658,-0.10986871,0.40618688,-0.45571464,0.5533317,0.193506,-0.21354863,-0.109295234,0.016964553,0.51368856,0.032178044,-0.1135492,0.12732817,-0.028526496,-0.070482716,0.5540787,-0.0060528126,-0.24701954,-0.18984374,0.5447832,0.07732621,-0.26664513,-0.1893516,-0.63218707,0.44931293,0.041324463,0.32004583,0.041864276,0.30790815,-0.094186455,-0.5672653,-0.034694947,0.021285113,-0.18929103,-0.70986927,0.088034086,0.067232944,-0.34960914,-0.16648081,0.01815151,0.12844989,0.36231378,-0.46311498,-0.15909602,0.32653946,0.32096034,0.09064515,0.14868717,0.26030517,0.4863541,-0.036663745,-0.32234082,0.14180543,-0.02884966,-0.17135884,0.25496587,0.12487674,-0.13435479,-0.11510198,0.018646598,-0.7297554,0.035796713,-0.4166311,-0.07152713,0.23113973,-0.75171626,0.1866524,0.113822296,0.19267021,-0.3038807,0.1503191,-0.31134552,-0.21135373,-0.42248186,0.2054219,-0.08579158,0.02556504,-0.6095491,0.12857373,-0.11860373,-0.35049886,-0.20592466,-0.09884449,-0.027231012,-0.21227695,-0.053893693,-0.19827053,0.13912193,0.5680147,-0.18445593,-0.14756957,-0.47253332,-0.12974058,-0.3898711,-0.322238,-0.20398316,-0.15619726,-0.5707102,-0.33300042,0.68331444,-0.043710273,-0.17179656,0.20384389,-0.08600367,-0.0023837886,-0.19098236,0.1520096,-0.25472865,-0.22717412,-0.17097422,0.081654996,-0.2874208,0.035003833,0.12969793,-0.19406894,-0.16000009,-0.050022047,-0.06478374,-0.19848247,-0.07474248,-0.13529819,0.18902513,-0.23160674,0.84083325,0.0996318,-0.18423997,-0.3636044,0.17763433,-0.09422046,-0.03191523,0.0476159,0.16871206,-0.17377815,0.2735944,-0.040915042,0.19542867,0.09386604,0.03512587,-0.20284766,-0.36891332,0.06244492,-0.08416661,0.0957655,-0.23323812,-0.11607488,-0.41790795,-0.1693365,-0.09558878,0.022971848,-0.06376227,0.21584345,0.0030865655,-0.04301632,-0.11712562
random,-0.4208169,-0.3436494,0.16955805,0.09982045,-0.9123698,0.6861929,-0.4748941,-0.40466046,-0.9797134,0.58642846,-1.2215725,-0.67211634,0.525538,-1.1659116,0.5928942,-0.5091321,-0.26129586,-0.14302364,0.16298713,-0.5795384,-1.031098,-0.2239783,-0.41171443,0.008482502,2.3985379,0.61426187,-0.21630873,0.7915139,-0.4388377,0.40504354,-0.59961355,-0.7579398,-0.15055852,-0.11928776,-0.47051463,1.6606365,0.33421466,0.80587214,-0.09337017,-0.6376735,-1.2957736,0.36262193,0.011834689,-0.6439672,-0.12215177,0.063124366,0.96160233,-0.9714169,-1.4308348,-0.5983404,0.7355202,0.14900975,-0.9967692,-1.2407207,-0.0862772,-0.53892165,0.438141,1.7818186,0.25261787,-0.86757904,0.83167326,0.036125265,-0.63010716,-0.9486986,-0.12646145,1.4494386,-1.1599239,0.21663664,-0.6544192,0.20909591,-1.0135608,0.88968486,0.8430908,-1.1537337,-0.6818958,-0.02026565,0.40556452,-0.5604651,1.0408533,1.7458732,-0.26225376,-1.104335,-0.6689099,0.24699245,1.2930906,0.089387335,-0.0016900499,0.62945443,-0.44714582,0.2443327,0.46884468,0.38463506,0.43336144,1.2022103,-0.42564034,-1.0668496,-1.3507472,0.97615933,-0.7424726,-1.9505023,-0.28526098,0.22966875,-0.8790962,-0.23658554,1.1048218,-0.876492,1.4090805,0.3845166,-0.8956483,-0.38740286,0.36769667,1.1179094,0.3532184,-0.4080419,0.36683318,0.11399871,0.07588175,1.2665353,0.00049154606,-0.7762839,-0.22521576,1.0522966,0.33421934,-0.26643592,-0.22457723,-0.9229259,1.1056021,0.09590351,0.62362564,0.024207126,0.6554766,0.009450755,-1.3778731,0.23143812,0.038553298,-0.759392,-1.5112102,0.20776772,0.0027274084,-0.72201127,-0.089037165,-0.0041291276,0.13623004,0.6397194,-1.154022,-0.025615927,0.6504655,0.70437187,0.03640657,-0.12172334,0.6198899,0.74451643,0.062071666,-0.6104133,0.39824224,0.07710288,-0.5761399,0.115445435,0.36608553,-0.40304193,-0.21109469,-0.35870466,-1.454384,-0.11690751,-0.6742917,-0.17700537,0.13820155,-1.6872352,0.2585422,0.1248693,0.24429333,-0.7046676,0.5771222,-0.7753814,-0.39639518,-0.9761026,0.4075075,-0.2576547,-0.22029854,-1.1826476,0.15991646,-0.29696834,-0.54395163,-0.294639,-0.35627797,-0.17621765,-0.42442012,-0.1645159,-0.6311093,0.506722,1.0208995,-0.09524568,-0.5112351,-0.9462249,-0.26834375,-0.60100967,-0.6666963,-0.3919256,-0.20068091,-1.052593,-0.6397327,1.8431234,-0.46279985,-0.30453786,0.44611558,0.35473898,-0.05386423,-0.66668594,0.28773853,-0.49318352,-0.81434035,-0.27431586,0.32300133,-0.391706,-0.0028721264,0.42670146,-0.60572296,-0.2269804,-0.2203165,-0.348157,-0.57782,0.09475853,-0.08838925,0.4614566,-0.71729696,2.06484,0.6729223,-0.097035505,-0.6569658,0.6327734,-0.49767223,0.18297404,0.004874284,0.52988267,-0.09159209,1.1158067,0.16927674,0.32988453,0.45592818,-0.0043354593,-0.29962957,-0.6206617,0.1273593,-0.04614747,-0.025575794,-0.8066338,-0.30510992,-1.2084101,-0.5084078,-0.43778318,-0.49344733,0.083074264,0.31929728,0.33578974,0.10024459,-0.29866776
random,0.89304376,-0.08092852,0.2282558,-0.6808854,-0.7678069,0.00400548,0.36752042,0.093335725,-0.87115544,1.3819112,-3.2342055,1.4540433,-0.00079613825,-2.1496518,1.1115853,1.3578477,-1.2839344,-2.0642512,1.1868213,-0.12792476,-1.1390752,-0.17717147,-1.1221942,-0.52748364,2.9189765,0.7552393,-1.407046,0.98475194,-0.41370738,-0.87399405,-2.1370413,-0.74271786,0.3525388,-1.8396189,-1.7112164,3.2274582,2.172481,2.482084,0.5829633,-0.8044408,-3.115398,0.55640984,0.29166654,-1.1602468,0.37106714,-0.4391614,1.4841383,-1.7977679,-4.6191626,-1.8349956,2.2013934,1.3521712,0.51564366,-2.4641864,-1.5689881,-1.3605993,1.6092536,2.856045,-1.0233542,-1.4460214,1.409438,-0.7005798,-0.26166156,-2.253963,-1.868628,0.6759604,-2.5956929,0.35865888,-2.029364,1.2643026,-0.8310775,0.71814984,0.17337935,-1.878446,-1.3568813,1.7480371,2.4908247,-0.20927985,2.3788192,2.5857332,-1.0512298,-2.4323125,-1.325764,1.8310598,2.3213384,0.046500318,-0.16800359,1.2993965,0.33048406,1.1972861,0.03894177,1.0203664,0.7112443,0.9478777,-0.52834755,-2.330572,-1.1763105,0.99114245,-1.541123,-3.3035882,0.6870569,0.6372491,-1.058463,0.6022646,1.1701171,-0.34629726,0.7953772,0.27546805,-1.5922948,-1.4182087,0.32329953,3.3689854,0.98635805,-1.5083965,0.33119404,2.0174787,0.82448655,2.5603685,0.6050711,1.4346832,-1.8238308,3.4246852,1.7022183,-0.15891993,-0.4492623,0.52904254,0.6989895,0.13912024,1.6282984,-0.81345606,0.45480126,3.111152,-1.5765607,0.468275,0.18338759,-1.2308642,-1.101978,0.11288564,-0.34458578,-1.2023946,0.51882946,-2.208425,0.39267442,1.2057505,-2.6581652,0.13960078,-0.120348245,-0.5981989,-1.1601313,-2.7957726,1.6300697,0.52948165,1.1175616,-1.5738447,0.6072625,0.4981843,-2.4971676,-0.39417273,1.8438578,-0.85952467,0.09018111,0.5913047,0.06387388,-0.11931564,1.4044445,-1.9330922,-2.8749075,-1.4867172,-0.7412673,-1.4854954,-0.5574437,-2.9562967,2.58853,-0.7688439,-0.10250537,-2.4735708,1.982832,-0.27034536,-0.6232786,-1.833758,-0.3669342,-0.3436934,-1.4198434,-0.77185225,-0.35651836,0.41636324,0.85548115,-1.744879,-1.9894161,1.5997816,2.5441465,1.2103593,-0.3404564,-1.2613691,-1.3930817,-0.7415787,-0.63856596,0.49740243,-0.34696585,-1.6711031,-1.2623546,2.385004,-1.2267952,0.49847946,1.4437387,1.6116558,0.031236237,-1.4953731,0.54104125,-0.4030929,-1.0190576,0.0062526474,2.8155174,-0.18283127,-0.20305377,2.44781,-0.50013775,0.7571769,-0.9775672,-0.3200894,0.47078633,0.10647078,-0.82394624,-0.6452717,0.716381,4.1946063,1.1803998,0.077472344,-0.9742521,2.388328,-1.872308,0.49509948,0.88308734,-0.80494535,-0.7356347,1.9597211,-0.35295448,-0.17438444,1.616236,-0.50243664,1.4842033,-0.32713914,0.30704838,0.6598844,-0.9064613,-2.7980585,0.27829888,-2.8795724,-3.324515,-0.5389283,-1.1181573,1.0565671,-0.44860286,-0.520472,-0.85678256,-0.3938863
random,-0.060472377,-0.040553395,0.048104603,0.019100536,-0.14003207,0.14967902,-0.067310825,-0.058145363,-0.07671765,0.03342983,-0.18282162,-0.12461837,0.06036207,-0.07680109,0.10389112,-0.06648486,-0.00635607,-0.025605062,0.020053167,-0.061117474,-0.19456464,-0.050009817,-0.006203173,0.027959242,0.30348238,0.099196106,-0.11408496,0.1438209,-0.0442276,0.07576929,-0.10637041,-0.06268406,-0.013608528,-0.011735438,-0.08849205,0.19453442,0.022670945,0.11524612,-0.027830075,-0.09843325,-0.1575416,0.057696372,-0.030764425,-0.10436882,0.00830053,0.015864441,0.20449822,-0.13199958,-0.15759905,-0.1277379,0.078290224,0.07406575,-0.17866163,-0.11930462,-0.0225385,-0.05502217,0.12191538,0.21379974,0.02624659,-0.15754648,0.0732301,0.009360229,-0.11643837,-0.13045931,-0.04811221,0.19806229,-0.13176286,0.04615517,-0.11063901,0.029318823,-0.14226115,0.10773174,0.08603216,-0.10741563,-0.1369499,-0.0059453486,0.043809805,-0.11385876,0.09910741,0.2513445,-0.023615817,-0.115402095,-0.14361924,0.05725539,0.13604018,0.07847424,-0.030837584,0.08703808,-0.102796204,0.05762047,0.05946711,0.036858946,0.047019467,0.1915097,-5.0320596e-05,-0.119579725,-0.17284359,0.15923978,-0.08752199,-0.24436475,-0.014172555,0.04208299,-0.08704017,-0.020061605,0.13219465,-0.137212,0.18029687,0.09353988,-0.07996558,-0.04535757,-0.013313367,0.18697049,-0.0039910693,-0.03984043,0.03032984,-0.0143625755,-0.0014108733,0.18911925,0.018984558,-0.08465081,-0.10193092,0.18468918,0.0191871,-0.10184309,-0.09343161,-0.2136836,0.13540904,-0.0020626448,0.104591414,-0.0087223,0.10051178,-0.03587776,-0.18113352,-0.012165349,0.02723679,-0.050188553,-0.22916569,0.0498361,0.038627777,-0.10641548,-0.045712784,0.018566119,0.0227516,0.10885175,-0.17041652,-0.06155768,0.110737585,0.13468719,0.01775302,0.049740743,0.075382,0.16291071,0.0014766468,-0.08799618,0.048378035,-0.009473753,-0.054018006,0.05845835,0.062169246,-0.015519792,-0.05427314,0.019984266,-0.21182472,0.03452482,-0.09948575,-0.009092911,0.07673046,-0.23728769,0.06857432,0.02782456,0.051559694,-0.072345816,0.045566477,-0.09489137,-0.053836573,-0.14819552,0.046746165,-0.025774946,0.015705211,-0.20567703,0.017830098,-0.061618287,-0.11147892,-0.051223975,-0.05163178,0.0009175519,-0.062379498,-0.0040381593,-0.11057272,0.046279486,0.19691454,-0.042328946,-0.033777528,-0.14494228,-0.02670854,-0.112593375,-0.11714001,-0.049253937,-0.0555265,-0.18240641,-0.13003401,0.236438,-0.024934694,-0.05410402,0.06757816,-0.01162018,-0.0017643076,-0.07953723,0.066539064,-0.09212409,-0.07254552,-0.05237969,0.04856008,-0.10308478,0.013308581,0.05940894,-0.06257878,-0.049709607,-0.031211779,-0.03093063,-0.08160377,-0.014999281,-0.050662782,0.05227165,-0.059615105,0.30338967,0.022906968,-0.08691493,-0.13274,0.059687395,-0.026232298,-0.013229881,0.033312712,0.06315535,-0.057247527,0.09451837,-0.02866855,0.051888704,0.031053303,-0.009743875,-0.060273282,-0.10033449,0.02070903,-0.0089775445,0.04293299,-0.07865188,-0.0074961963,-0.15364285,-0.06299148,-0.02590757,0.020754896,-0.026397265,0.057890806,-0.027550878,-0.016821338,-0.031801786
random,-0.19768637,-0.116355605,0.0713615,0.107340775,-0.34179854,0.30180728,-0.21922714,-0.16104107,-0.19720043,0.07288762,-0.4475242,-0.327705,0.15353684,-0.2178816,0.185143,-0.19302303,-0.014090989,-0.034112476,-0.01468706,-0.17490155,-0.41080412,-0.1290854,-0.036410917,0.10398264,0.7845686,0.18227029,-0.20557046,0.30634487,-0.08818148,0.21801704,-0.25887156,-0.17513499,-0.045139957,-0.0138382595,-0.19116111,0.49860606,0.07751815,0.25502294,-0.07295717,-0.2411914,-0.41752258,0.13942069,-0.064298496,-0.29055056,0.07852485,0.030780824,0.4771368,-0.33370134,-0.29562262,-0.2712043,0.20886827,0.13509743,-0.41009328,-0.29917905,-0.004573082,-0.13246477,0.256596,0.5140705,0.0958193,-0.35758993,0.17432095,0.035959743,-0.33681226,-0.36783153,-0.065175466,0.44186234,-0.26543567,0.055608325,-0.18960114,0.044069335,-0.29910025,0.3029032,0.237636,-0.2589287,-0.33751383,-0.04314185,0.056994516,-0.31890664,0.2105394,0.6020793,-0.07635415,-0.31536204,-0.26832974,0.11520277,0.35677096,0.12292254,-0.04444974,0.21399085,-0.26866016,0.11596413,0.20123927,0.12433576,0.11224047,0.4503965,-0.022594394,-0.28683499,-0.41202193,0.32901615,-0.22169928,-0.6171193,0.012157946,0.0519596,-0.20397466,-0.056424003,0.32254288,-0.33183315,0.39498156,0.22194016,-0.18987332,-0.096324466,-0.013093026,0.40734586,-0.0028544194,-0.08185419,0.12464339,-0.051288493,-0.052133895,0.4699575,0.008519089,-0.15130094,-0.1285226,0.42463267,0.055674005,-0.20303401,-0.16617705,-0.46182933,0.34058827,0.011043137,0.19474672,0.03465909,0.2589368,-0.092388175,-0.4611655,-0.024112476,0.017203366,-0.15455562,-0.51354134,0.042058617,0.094373986,-0.24615791,-0.11281548,-0.013251497,0.0960954,0.30197543,-0.363757,-0.12951536,0.32250282,0.33338583,0.08284212,0.15799363,0.21511662,0.37148997,0.011559884,-0.24758364,0.12786119,-0.02165475,-0.10973027,0.17361704,0.106672175,-0.123243816,-0.10397335,0.010426282,-0.6272774,0.033766385,-0.29717913,-0.07566224,0.17800415,-0.6285298,0.17599547,0.10023838,0.15615539,-0.20894068,0.120965734,-0.25372225,-0.18685682,-0.39198303,0.18554826,-0.0556462,0.03893189,-0.5616125,0.11080969,-0.12734422,-0.32821292,-0.1585238,-0.11913093,-0.018842211,-0.21276607,-0.0061753755,-0.17287035,0.14227568,0.47672123,-0.12204618,-0.15458061,-0.41343844,-0.107240245,-0.2966039,-0.30211002,-0.13904844,-0.10671338,-0.44221994,-0.2716808,0.5516663,-0.05273993,-0.14504868,0.14970315,-0.060949665,0.012540233,-0.19242947,0.18587622,-0.22895485,-0.19648424,-0.14711349,0.049858585,-0.16589862,0.0850362,0.123625875,-0.13100888,-0.15060335,-0.051672,-0.0716597,-0.17620528,-0.050910726,-0.13425162,0.12463341,-0.17297238,0.6844787,0.11656993,-0.16406845,-0.32224065,0.16914837,-0.030319305,-0.016060665,0.07233626,0.096890345,-0.13221402,0.20296961,-0.07006184,0.16960268,0.039652858,0.01594338,-0.21978942,-0.2521696,0.033627767,-0.07426451,0.11285233,-0.20183691,-0.12399287,-0.39132595,-0.18661855,-0.07011652,0.0306656,-0.059522737,0.18676984,-0.0078176465,-0.019507097,-0.043856025
random,-0.15376861,-0.09844019,0.06684011,0.05605966,-0.21841748,0.19180387,-0.12431129,-0.0945784,-0.17177972,0.09864168,-0.2927609,-0.16449808,0.12831193,-0.17653094,0.1511095,-0.13865757,-0.019339181,-0.0036843503,-0.013800129,-0.13289462,-0.25284094,-0.020366518,-0.058872923,0.010728832,0.55961263,0.13397731,-0.10568767,0.18568967,-0.10680974,0.13365547,-0.1526797,-0.15866807,-0.018595727,-0.041639876,-0.103761144,0.36423042,0.030540338,0.16440117,-0.029560745,-0.14248982,-0.28719422,0.074980564,-0.05397148,-0.13390277,0.013870271,-0.008529825,0.31645945,-0.24313445,-0.26316968,-0.18903084,0.11661287,0.03344845,-0.27240533,-0.23583868,0.040704634,-0.12528159,0.12703693,0.4031058,0.05922342,-0.23776722,0.13606183,0.02995477,-0.20663577,-0.21627659,-0.016160263,0.32409817,-0.21413203,-0.00017881359,-0.11840075,0.02269125,-0.19308902,0.22400042,0.21399225,-0.25088316,-0.211975,-0.033591963,0.02062169,-0.20541942,0.1546221,0.39889482,-0.067908876,-0.17090161,-0.13100496,0.052758332,0.29324716,0.017440315,0.0002529699,0.11335899,-0.14759327,0.07774502,0.08408292,0.100622445,0.031208932,0.3073603,-0.051616326,-0.19846387,-0.28581128,0.22767787,-0.17627287,-0.42550856,-0.032601688,0.033234604,-0.22620223,-0.05039385,0.25835454,-0.21524706,0.33711433,0.10476912,-0.15974715,-0.087087154,0.056324534,0.27128753,0.037596237,-0.10281642,0.074634,0.00060141645,0.0020568615,0.32448336,0.005937786,-0.16085064,-0.08367657,0.2790537,0.03554493,-0.0844052,-0.054328497,-0.31291327,0.27464092,0.058105953,0.21050428,0.02002473,0.1501961,-0.017799314,-0.35428208,0.035569362,0.018562175,-0.13115185,-0.3854499,0.037207633,-0.009213494,-0.1929267,-0.067107335,-0.0162422,0.06020788,0.20269568,-0.25316712,-0.0265497,0.18386556,0.16882326,0.050637644,0.01680735,0.13546664,0.22765613,-0.033104274,-0.19410113,0.07441346,0.0025175996,-0.110217415,0.08995098,0.056374528,-0.08292049,-0.04320294,-0.028482398,-0.37070048,-0.030014759,-0.20824747,-0.07339818,0.099438414,-0.43734118,0.09271496,0.04126258,0.13122897,-0.18072334,0.09407011,-0.18550578,-0.13662165,-0.21587747,0.09345524,-0.054691162,-0.020635448,-0.31958392,0.06420477,-0.035075612,-0.15002976,-0.12262837,-0.05952233,-0.027352052,-0.12735696,-0.022978356,-0.10674213,0.10426954,0.2970815,-0.08334852,-0.10790256,-0.2332507,-0.068216175,-0.20632531,-0.13718708,-0.1270875,-0.081592,-0.2562494,-0.15359692,0.39435935,-0.050090116,-0.06638023,0.10471644,0.009348492,-0.011134737,-0.09898223,0.06226093,-0.12581643,-0.16861089,-0.05979889,0.07473941,-0.13188428,0.012961541,0.069953,-0.11486443,-0.06214263,-0.020313546,-0.05255013,-0.09822088,0.012719205,-0.048514146,0.11137378,-0.16326474,0.44624737,0.102881275,-0.07693349,-0.1910867,0.13890305,-0.06249616,0.005237788,-0.027224576,0.10962597,-0.09765036,0.17791973,0.01835246,0.08501289,0.08220587,0.00590017,-0.09711882,-0.17547749,0.025678534,-0.0119731035,0.06037275,-0.1377289,-0.0454851,-0.21637757,-0.0937245,-0.09107682,-0.042675175,-0.0033387234,0.09446399,0.057413306,-0.0037290643,-0.059966926
random,-0.15874313,-0.09252233,0.08759133,0.038674764,-0.25290003,0.25571927,-0.114942186,-0.11269113,-0.19078194,0.061776385,-0.324757,-0.19786458,0.13070036,-0.19219796,0.19516489,-0.1467756,-0.024132892,-0.0024979115,0.009201864,-0.15453748,-0.28705963,-0.053347595,-0.059807137,0.04600114,0.6260753,0.13593844,-0.12374858,0.25812232,-0.11938935,0.15996912,-0.17237133,-0.15269013,-0.019145982,-0.003595591,-0.12400662,0.37593043,0.020608783,0.17895183,-0.036085647,-0.15998308,-0.3221634,0.096263394,-0.07445839,-0.17372899,0.017936459,0.018985758,0.3371568,-0.23154676,-0.2523466,-0.18101446,0.15025623,0.07198524,-0.3349308,-0.25300762,0.033275932,-0.105747566,0.15675266,0.41056472,0.062894695,-0.25689018,0.14861527,0.034373544,-0.22948605,-0.238786,-0.015556662,0.36279625,-0.20941006,0.049386017,-0.13512067,0.030477144,-0.23530498,0.23559146,0.21081606,-0.24248277,-0.22938369,-0.051457386,0.05339294,-0.22530127,0.18700275,0.45449993,-0.06754363,-0.23017527,-0.18767186,0.06330872,0.27760708,0.06906134,-0.012684861,0.16890584,-0.1466905,0.08901835,0.109438665,0.06154186,0.036865935,0.3304025,-0.057227306,-0.22697124,-0.30963805,0.22527997,-0.17833929,-0.4766574,-0.019101795,0.063586354,-0.21602678,-0.06437178,0.27143762,-0.27072987,0.34345302,0.1492046,-0.15959999,-0.074276775,0.034943316,0.2989045,0.015765827,-0.087329194,0.080535464,0.0022325213,-0.034422427,0.33519652,0.003980593,-0.17438623,-0.106170036,0.30547163,0.05457818,-0.12572756,-0.08984823,-0.3378609,0.27789018,0.034366366,0.19270341,0.015310541,0.17530155,-0.05442275,-0.36070606,-0.0007094194,0.009755656,-0.11425199,-0.4355444,0.043405157,0.019405955,-0.20515838,-0.08845097,-0.005117855,0.07692412,0.19464852,-0.27492574,-0.08313798,0.19660978,0.19986215,0.034111563,0.058270734,0.1279637,0.2545042,0.003809787,-0.1882643,0.09589279,-0.005534984,-0.106287085,0.09791825,0.084980346,-0.10167265,-0.07557319,-0.015741454,-0.41486862,0.032257162,-0.20105232,-0.050120935,0.12165916,-0.4609518,0.10090617,0.06497615,0.10419614,-0.15187813,0.124907814,-0.19538675,-0.13691424,-0.23927978,0.11827968,-0.0473509,-0.012337269,-0.35019168,0.076413624,-0.08250946,-0.18863904,-0.08612052,-0.09265359,-0.027825285,-0.12233871,-0.04656532,-0.13727273,0.078214884,0.33499074,-0.092791736,-0.12205439,-0.25933763,-0.08177313,-0.21089013,-0.19641717,-0.118721895,-0.073642924,-0.3231475,-0.1939301,0.4373093,-0.10531535,-0.09929505,0.121421166,-0.002566098,0.015796378,-0.124424934,0.11548273,-0.15677638,-0.17695846,-0.09346737,0.059195653,-0.14454679,0.018430429,0.09312625,-0.113894105,-0.09266555,-0.044590864,-0.06119846,-0.14596343,0.002180558,-0.06440862,0.1128157,-0.152522,0.5391415,0.107545264,-0.103025556,-0.21559636,0.11552925,-0.07384685,0.019213226,0.005767193,0.13912775,-0.08401537,0.19935392,0.0073976116,0.093367815,0.07277181,0.016589653,-0.11109321,-0.21379913,0.019838562,-0.026942244,0.0598339,-0.15977962,-0.069333404,-0.24813819,-0.13000378,-0.07710558,-0.04865262,-0.01969627,0.121894196,0.030580845,-0.0006834618,-0.056929063
random,-0.2046889,-0.12057998,0.108325064,0.07517764,-0.30921867,0.27280945,-0.1548803,-0.09665819,-0.15886715,0.097962365,-0.39153647,-0.22891586,0.124787085,-0.1726359,0.19519068,-0.1549683,-0.04746088,-0.02829143,-0.017090434,-0.13948418,-0.34959063,-0.06965725,-0.09864685,0.019205093,0.73906887,0.15511729,-0.16738302,0.30134323,-0.13219297,0.16707598,-0.25072607,-0.21014658,-0.021481931,-0.057783656,-0.19173138,0.46296707,0.038394324,0.20317101,-0.036394984,-0.1963748,-0.40214178,0.1050367,-0.059734706,-0.18857682,0.08387519,-0.008195637,0.41220814,-0.30444896,-0.331726,-0.252716,0.16115801,0.11890789,-0.31619507,-0.26007465,0.042736366,-0.16322577,0.199816,0.49127036,0.041000467,-0.29874048,0.15746182,0.04167446,-0.29742402,-0.30131418,-0.029887103,0.38427705,-0.2595673,0.017211085,-0.1804806,0.05000296,-0.24843141,0.26520574,0.22779669,-0.2816342,-0.30697292,-0.013039528,0.03288937,-0.26495925,0.19771184,0.5094451,-0.083016336,-0.21446915,-0.20802732,0.08501979,0.3414685,0.08338025,-0.020746369,0.14814553,-0.20259507,0.13147382,0.06859394,0.1599724,0.027428333,0.40922293,-0.04106103,-0.24316278,-0.3567002,0.28966853,-0.23504543,-0.5549294,-0.0011344556,0.048296552,-0.24525651,-0.032545637,0.3000132,-0.27608225,0.37741035,0.14248817,-0.17140457,-0.11786565,0.05751249,0.3888168,0.024159545,-0.10998313,0.1103978,0.0027355782,-0.03235645,0.43398622,0.050772466,-0.14202279,-0.13802324,0.38326228,0.0519414,-0.1612988,-0.07548259,-0.4051051,0.35992882,0.071337044,0.294566,0.041423343,0.19519345,-0.0026328317,-0.4577423,0.024197241,0.023507122,-0.1627036,-0.49629688,0.067921884,0.021080185,-0.25925237,-0.06856355,-0.03904766,0.08420108,0.2529828,-0.3517719,-0.062712,0.23248787,0.24685797,0.028617084,0.041355386,0.22204906,0.3042674,-0.025827583,-0.27615064,0.084599316,0.017697068,-0.191328,0.122437865,0.07356982,-0.14154737,-0.07504086,0.0104183145,-0.4726184,-0.009225348,-0.2341342,-0.109241985,0.11829861,-0.5640686,0.11655804,0.032193802,0.17600092,-0.2586428,0.14763716,-0.22924586,-0.18395983,-0.32331666,0.15174723,-0.05267871,-0.01867968,-0.47549704,0.0914302,-0.037913397,-0.26029807,-0.15348484,-0.046284225,-0.021065464,-0.14445695,-0.07659863,-0.19029494,0.11029592,0.4082468,-0.11247395,-0.14053084,-0.3421354,-0.14368886,-0.2757689,-0.20745997,-0.1370945,-0.12052253,-0.35889426,-0.23242062,0.45903882,-0.08818303,-0.1070124,0.14191698,-0.015369457,-0.0030729827,-0.10058712,0.12343638,-0.14301015,-0.17613365,-0.08475884,0.08484306,-0.15832138,0.03373159,0.11147262,-0.11934198,-0.07650888,-0.016114058,-0.06226434,-0.08541813,-0.045744956,-0.10564671,0.13256851,-0.13717985,0.6152265,0.08014136,-0.14281379,-0.27742967,0.1434802,-0.076746225,-0.011947191,0.001809598,0.07250937,-0.12179861,0.15368259,-0.024015428,0.12299687,0.07010535,-0.0022371127,-0.12803267,-0.22429572,0.06047645,-0.014029283,0.07768688,-0.18410434,-0.050332688,-0.30009696,-0.13487324,-0.1395116,0.0056222286,-0.02753729,0.13266508,0.009074218,-0.040419366,-0.05201866
random,-0.42616692,-0.3938767,0.1534408,0.36319324,-0.97543424,0.7997306,-0.74712306,-0.54443496,-0.5085663,0.22369727,-1.417016,-0.76071227,0.33776712,-0.5108897,0.67001677,-0.50467455,0.07207342,-0.11135957,0.16044796,-0.34872022,-1.3721049,-0.34401312,-0.06203947,0.28637028,2.2786834,0.65515023,-0.83632493,0.9083601,-0.25115603,0.569364,-0.8515169,-0.60629106,-0.05018824,-0.19209811,-0.4173912,1.5184429,0.35478112,0.8890641,-0.24523784,-0.62481743,-1.1693394,0.45040226,-0.0051625017,-0.7274548,0.083936624,0.1081086,1.4024432,-1.1413262,-1.1111873,-0.81488675,0.75105965,0.3489096,-1.2062957,-1.1237117,-0.057216104,-0.393201,0.9432253,1.6359532,0.51364386,-1.1595029,0.4034546,0.031412847,-0.764648,-1.0879282,-0.3385062,1.0616518,-1.0980619,0.091279484,-0.6863543,0.14993088,-0.93451977,0.98442185,0.69660425,-0.8566798,-0.9721015,-0.18125235,0.321443,-0.94872195,0.72843146,1.8211963,-0.12727447,-1.0300292,-0.7068537,0.36541796,1.3217791,0.011920212,-0.1670478,0.7114758,-0.6231746,0.31376058,0.43087137,0.44976044,0.46606588,1.344818,-0.13721932,-1.1604935,-1.0272157,1.318699,-0.7475267,-1.7812958,-0.010886134,0.3470046,-0.3558812,-0.12582123,0.9540158,-1.0199184,1.353832,0.55102396,-0.53773874,-0.2937509,-0.023738481,1.347108,0.0952859,-0.33050135,0.31275833,-0.078756176,0.066336714,1.3807738,0.14343765,-0.38393298,-0.41112402,1.4479979,0.23435739,-0.44819003,-0.62797815,-1.3118266,1.01606,-0.013235946,0.756748,-0.08159108,0.6487262,-0.087576665,-1.4547219,-0.063601434,0.16404426,-0.570052,-1.2833179,0.2814155,0.40488186,-0.8271769,-0.4075783,0.0712362,0.23518099,0.84824455,-1.2402619,-0.45926145,0.7180367,0.76482975,0.16147771,0.51893073,0.79807436,1.1715695,0.024989117,-0.56262183,0.17192674,0.093421794,-0.5648865,0.5434388,0.23989508,-0.19613782,-0.19649696,0.024629788,-1.4090726,0.121809125,-0.97701585,0.032020885,0.5520276,-1.7252971,0.4137901,0.08127284,0.40238988,-0.750339,0.49047163,-0.6930702,-0.31700853,-1.2274585,0.5487108,-0.21774715,-0.15958302,-1.4527302,0.29441783,-0.44765553,-0.81755537,-0.48560178,-0.40114066,-0.1561723,-0.3977324,-0.07349144,-0.57343805,0.36279005,1.1861957,-0.099226,-0.2188246,-1.0993955,-0.3599433,-0.98692846,-0.9613954,-0.1404875,-0.38200164,-1.2001834,-0.9088024,1.8216645,-0.04587797,-0.42989573,0.56620103,-0.09956613,-0.12137666,-0.7017042,0.5592861,-0.62897503,-0.6046873,-0.439639,0.19874936,-0.54742444,0.25541312,0.40193522,-0.6562482,-0.28442574,-0.15368418,-0.23612756,-0.5596394,-0.0969986,-0.42280492,0.39044708,-0.45594656,2.045387,0.26918077,-0.5473312,-0.9309942,0.6204228,-0.282815,-0.04013105,0.18054686,0.32786784,-0.43824258,0.6976876,-0.17158763,0.4960007,0.1107489,-0.08963707,-0.5500248,-0.77699524,0.42491966,-0.25761268,0.29989257,-0.7647911,-0.29848185,-1.1408981,-0.4775495,-0.22488426,0.05436301,-0.013501423,0.43074545,-0.07554951,-0.261955,-0.379092
random,-0.26239082,-0.18081398,0.104245715,0.08484062,-0.44129083,0.40309864,-0.28597498,-0.19782758,-0.32481417,0.12546167,-0.6104772,-0.3591959,0.21395811,-0.33097777,0.36150667,-0.28996047,-0.023415403,-0.051367003,0.0093971295,-0.25359303,-0.5717053,-0.13417307,-0.09667981,0.10915701,1.1233726,0.24438211,-0.25720587,0.42531648,-0.1961965,0.29468206,-0.3846228,-0.31560358,-0.008656987,-0.02846612,-0.23315783,0.71366024,0.06959045,0.34919143,-0.06253899,-0.3395845,-0.6253402,0.19132294,-0.055905666,-0.29258546,0.058142822,-0.02204014,0.6731149,-0.49715975,-0.4894005,-0.3730142,0.29285178,0.093525,-0.56152403,-0.49021184,0.01805064,-0.18960793,0.31642282,0.78306824,0.16244179,-0.50129116,0.25367716,0.06184652,-0.40842173,-0.45610866,-0.08716399,0.63912034,-0.43351904,0.029058464,-0.2728479,0.091294885,-0.46261302,0.4608371,0.3831769,-0.49013066,-0.41914028,-0.09823714,0.10550852,-0.41521502,0.35319558,0.86815685,-0.1309099,-0.39498428,-0.32746488,0.11673095,0.5868432,0.019455135,-0.015857952,0.3208682,-0.31548113,0.13982941,0.1781325,0.1568983,0.107927784,0.64575475,-0.13473544,-0.46940148,-0.5408051,0.5014675,-0.38265687,-0.8687066,-0.042726222,0.101726,-0.34498996,-0.09899257,0.49252135,-0.5208953,0.6733179,0.18467931,-0.25958264,-0.15373603,0.05391423,0.5774065,0.11702691,-0.17442794,0.16260234,-0.001408716,-0.042133056,0.64832467,0.026592297,-0.26523885,-0.14641951,0.6063444,0.12140764,-0.22717245,-0.16993883,-0.63340276,0.550241,0.06991298,0.37961826,0.054001853,0.33894122,-0.04521159,-0.6854443,0.0032061716,0.050043166,-0.296487,-0.7696309,0.08236994,0.06894436,-0.3900279,-0.15240082,0.013934002,0.12686111,0.4026506,-0.54616034,-0.10985418,0.3333506,0.32513258,0.06773005,0.107769616,0.3649737,0.52477545,-0.0328868,-0.35527843,0.15027142,0.011475918,-0.24115454,0.23411942,0.15812583,-0.1912811,-0.1007076,-0.03476382,-0.7733801,-0.015685584,-0.4433111,-0.08987498,0.1874053,-0.8477876,0.18903127,0.097758666,0.19030882,-0.4017868,0.23080549,-0.35598746,-0.22282082,-0.47299883,0.25299865,-0.12129715,-0.031901583,-0.6571065,0.16614726,-0.107697845,-0.35483262,-0.21527413,-0.10691644,-0.07556264,-0.22817199,-0.11038085,-0.25140426,0.17833568,0.58263475,-0.15519883,-0.18983302,-0.5348852,-0.19143933,-0.4323109,-0.3574959,-0.19019474,-0.15055957,-0.62652797,-0.3522901,0.80769587,-0.07332039,-0.16387284,0.26125583,-0.022070315,-0.021438356,-0.2426201,0.15665023,-0.24286646,-0.28220314,-0.18231414,0.08960628,-0.26713327,0.04300268,0.18767516,-0.25040263,-0.15829623,-0.04682935,-0.10432895,-0.20334965,-0.05076627,-0.09789669,0.21590093,-0.27130505,0.93152535,0.17339893,-0.18212032,-0.38275474,0.24707085,-0.1744665,-0.0049987445,0.036616683,0.2056701,-0.17716278,0.36017182,0.00588413,0.21934201,0.14428215,0.0005315309,-0.21721628,-0.40127906,0.07788135,-0.101398125,0.059389133,-0.3077671,-0.16465335,-0.5041648,-0.21021059,-0.15028429,-0.045398016,-0.020241812,0.20615046,0.03139436,-0.047161046,-0.13947222
random,-0.10459915,-0.05707914,0.034694675,0.046762895,-0.19935936,0.15252598,-0.1380005,-0.09910964,-0.16992608,0.1073727,-0.28867337,-0.1872072,0.13271287,-0.21417381,0.13566653,-0.11115222,-0.033214748,-0.04614349,0.0032228476,-0.1002886,-0.24644376,-0.06080003,-0.06677971,0.007935654,0.5320213,0.14141199,-0.096592665,0.1676116,-0.08362457,0.10969354,-0.16518758,-0.15888347,-0.038955003,-0.03450683,-0.12504248,0.36025587,0.07141163,0.18082884,-0.016134726,-0.14281543,-0.29209167,0.08616724,-0.016063584,-0.14415254,-0.024993084,-0.011871873,0.26709092,-0.24640727,-0.2981761,-0.16601568,0.14327051,0.041245017,-0.21646729,-0.23293039,-0.042747743,-0.113175154,0.11209227,0.39106306,0.04699286,-0.19564952,0.1505384,0.023115883,-0.17580844,-0.21787684,-0.051043388,0.3201273,-0.24506484,0.03907239,-0.16254203,0.02688391,-0.2085807,0.19673057,0.16995595,-0.23491238,-0.16927682,0.00086709013,0.07035227,-0.15136804,0.17239474,0.3975977,-0.052413195,-0.19552869,-0.16144738,0.06253243,0.2860926,0.030178674,-0.016897637,0.12243171,-0.15161349,0.07985992,0.12044411,0.10979956,0.086116925,0.29309413,-0.06521173,-0.19668308,-0.30304718,0.22787856,-0.15025617,-0.40557143,-0.044247925,0.020569857,-0.18801726,-0.04342139,0.2613071,-0.19101675,0.30591252,0.1104535,-0.17754257,-0.0873111,0.041434698,0.25363356,0.055205345,-0.086457476,0.088922285,-0.00924022,0.018488398,0.3042097,-0.0046143206,-0.14953747,-0.09908981,0.27325416,0.043329682,-0.112841316,-0.06938574,-0.26030943,0.23678792,0.03868925,0.14270328,0.027010918,0.15233615,0.018163972,-0.30679896,0.05716756,0.027620757,-0.14482528,-0.34492254,0.04170606,0.013752542,-0.15416779,-0.019028977,-0.009909241,0.041182667,0.18085964,-0.23413098,-0.023868317,0.18337665,0.19563513,0.045678627,0.002732815,0.1385184,0.20744182,-0.007119223,-0.15372868,0.078198895,-0.009332807,-0.103199124,0.06712047,0.07437938,-0.0625182,-0.043151043,-0.052413262,-0.37195888,-0.048894167,-0.18505709,-0.06421811,0.056272328,-0.40985024,0.099602476,0.045416635,0.086946726,-0.17592967,0.09158559,-0.16131228,-0.10782965,-0.2241641,0.070360586,-0.059042305,-0.009945599,-0.3067178,0.038736947,-0.060761284,-0.15244794,-0.11665412,-0.060537864,-0.0030729135,-0.11687623,-0.012002057,-0.13540012,0.11364312,0.26891086,-0.040629305,-0.09906777,-0.251437,-0.049784444,-0.16291839,-0.1482495,-0.10708473,-0.05876743,-0.26286602,-0.16525666,0.36589172,-0.040237013,-0.048307996,0.07964611,0.02729857,-0.03365522,-0.119485244,0.055369344,-0.13358572,-0.13498116,-0.0645871,0.0751238,-0.10659328,0.01428029,0.088098675,-0.08540087,-0.057661183,-0.036575675,-0.05289198,-0.11432182,-0.020338524,-0.03674004,0.09863363,-0.118977115,0.42880985,0.11698069,-0.07819638,-0.16936983,0.12097652,-0.07501727,0.007863457,0.011986041,0.08045017,-0.050202344,0.21483278,-0.0028227908,0.070558734,0.08420152,0.009470505,-0.08968152,-0.12838069,0.019796064,-0.014695509,0.01876613,-0.13698263,-0.05554082,-0.25050873,-0.08250661,-0.072858505,-0.040498707,-0.015965873,0.055604134,0.025971377,0.022492217,-0.055606835
random,-0.36153787,-0.24799237,0.1742473,0.09919926,-0.8920449,0.72927135,-0.49894172,-0.38892925,-0.7007285,0.21308252,-1.1020645,-0.82372147,0.45383516,-0.72205466,0.4728043,-0.5050925,-0.027178768,-0.052478366,0.022412542,-0.57305133,-1.0777256,-0.50380963,-0.15477052,0.25838655,2.008835,0.570632,-0.379283,0.8827565,-0.22133942,0.4748682,-0.5710469,-0.52430147,-0.11410352,0.082013994,-0.57290983,1.2902321,0.23571834,0.6325278,-0.265092,-0.7275502,-1.037173,0.37641913,-0.12068184,-0.7396225,0.17058168,0.13573125,1.1412554,-0.8128788,-0.8365032,-0.69530076,0.54186416,0.25611636,-1.1306965,-0.8141812,-0.119252965,-0.23014405,0.47588962,1.2693238,0.36299407,-0.906977,0.56088746,0.092582084,-0.7552117,-0.97943044,-0.12966631,1.3747106,-0.7132387,0.23666869,-0.45298424,0.21657614,-0.9340395,0.9010095,0.69333464,-0.80558425,-0.77738255,-0.1648177,0.18811385,-0.7067152,0.6133406,1.6006262,-0.12774464,-1.0039183,-0.7008475,0.25630686,0.9452809,0.23339969,-0.076897874,0.70227736,-0.7083941,0.2094042,0.5676424,0.1659417,0.3077923,1.1365165,-0.12458101,-0.6900729,-1.180524,0.9072161,-0.665697,-1.5927861,-0.14181872,0.15164351,-0.5582385,-0.17633459,0.71414196,-0.93450105,0.96276164,0.39571506,-0.55303097,-0.28854257,-0.020858988,0.9517607,0.18753475,-0.12484362,0.35295784,-0.06590809,-0.23701786,1.0532876,-0.013008663,-0.5130912,-0.26987508,0.99567425,0.19629864,-0.5891882,-0.49934876,-1.1828424,0.94476324,-0.06773508,0.33192167,0.08156281,0.73412544,-0.33731824,-1.1301997,-0.12091228,0.07749557,-0.47200888,-1.3554738,0.050594892,0.20645486,-0.49958187,-0.21807466,0.10408174,0.11831843,0.7180578,-1.0272087,-0.29911414,0.7995857,0.76814336,0.1631972,0.2830301,0.6018872,0.9217149,0.032166887,-0.5948564,0.36457872,-0.07461881,-0.20821059,0.41790235,0.4900308,-0.20654128,-0.36321858,-0.08984916,-1.5958444,0.1119535,-0.78966343,-0.10656636,0.3747034,-1.5211027,0.3521896,0.29161528,0.22538902,-0.42011157,0.36557674,-0.69262445,-0.3548271,-0.93756604,0.33842853,-0.20981647,0.2212589,-1.2851723,0.21482576,-0.42428705,-0.7536194,-0.3062937,-0.29486585,-0.031363588,-0.58734846,0.014586163,-0.44900787,0.2971273,1.1631907,-0.24979095,-0.38600165,-1.0838691,-0.23095645,-0.6404049,-0.83161217,-0.37798247,-0.32421687,-1.2185485,-0.7155083,1.5074117,-0.13740426,-0.49839157,0.45694467,-0.082059346,-0.009556972,-0.57388234,0.38623694,-0.50059396,-0.4811834,-0.37838215,0.15418893,-0.5407875,0.20838347,0.33263594,-0.43261942,-0.39926174,-0.18599574,-0.2630948,-0.47987118,-0.14257686,-0.26442486,0.2827104,-0.49506006,1.8227108,0.44624254,-0.3281856,-0.8568992,0.3787274,-0.17979863,0.028363526,0.30622792,0.37002715,-0.24758118,0.6922087,-0.11482317,0.49856243,0.19463673,-0.049090214,-0.46712327,-0.65990025,0.023518307,-0.27821267,0.16234317,-0.6612496,-0.3332105,-1.1290488,-0.57246137,-0.14706339,-0.07708935,-0.14721625,0.55840343,0.084464,0.08061198,-0.1306564
random,-0.08633465,-0.04931225,0.055737823,0.025081128,-0.14105314,0.1329496,-0.055378586,-0.04023337,-0.06928043,0.051660076,-0.1674769,-0.100903995,0.052217595,-0.078291684,0.0809153,-0.06446899,-0.015936822,-0.007014057,-0.007784401,-0.066401884,-0.15624358,-0.036427755,-0.036264315,0.007832716,0.3182814,0.07654269,-0.07303152,0.13754696,-0.059094783,0.06982636,-0.0929095,-0.082238615,-0.018652692,-0.018859927,-0.08466367,0.20093635,0.017211966,0.0851568,-0.029206872,-0.09116667,-0.15515317,0.046378657,-0.037163198,-0.083468355,0.033967666,-0.001552204,0.17914149,-0.1236581,-0.139454,-0.10514965,0.054173738,0.06122575,-0.13443401,-0.10316036,0.02191682,-0.073687136,0.08628036,0.20433079,0.022434095,-0.13717812,0.06660091,0.009675591,-0.12627535,-0.13090475,-0.010564254,0.17850356,-0.10598513,0.017719919,-0.076470524,0.020561332,-0.113479994,0.11130226,0.09223379,-0.10833317,-0.1378667,-0.0054459395,0.011620129,-0.110854596,0.080465615,0.21211402,-0.02842858,-0.0906978,-0.10074958,0.03318462,0.13002074,0.064793915,-0.0034590943,0.06138337,-0.08503996,0.058990452,0.035437245,0.06356463,0.013444772,0.18306959,-0.00089944556,-0.09162805,-0.17227939,0.12185267,-0.102665655,-0.23787719,-0.010298142,0.021689152,-0.11105568,-0.00891935,0.109606735,-0.11502959,0.15111786,0.06262606,-0.076816306,-0.054525465,0.025419705,0.16470157,0.006397263,-0.036032125,0.043458268,0.0026379523,-0.01798712,0.17651848,0.026027288,-0.07770022,-0.06646788,0.15467618,0.017908888,-0.07944354,-0.04328675,-0.1828738,0.15369059,0.016814958,0.12699783,0.010760588,0.0977654,-0.022663433,-0.18348196,-0.0011422179,0.0069505055,-0.0644539,-0.225579,0.034046926,-0.0010972325,-0.1176579,-0.03714276,-0.0062958,0.025447372,0.10237151,-0.1567085,-0.03226946,0.11004242,0.11836474,0.0101046935,0.011062195,0.08679516,0.1308217,-0.013349601,-0.12340732,0.04182157,0.0042108768,-0.07425389,0.051803295,0.028705558,-0.0468908,-0.042844377,0.010300966,-0.20344903,0.011816032,-0.100682534,-0.047055285,0.059979912,-0.23745915,0.05018358,0.014910081,0.075306244,-0.09695575,0.049684584,-0.113901064,-0.077299066,-0.13395697,0.056066886,-0.022116356,-0.0007786064,-0.20768546,0.021529227,-0.021386955,-0.11127097,-0.05860433,-0.020053716,-0.006541114,-0.06529082,-0.018271932,-0.080300465,0.03870597,0.17478485,-0.057185102,-0.05984961,-0.13959439,-0.048404183,-0.110446885,-0.089782424,-0.073763564,-0.061389063,-0.15213783,-0.10141587,0.19177464,-0.039563958,-0.058366038,0.05951653,-0.008612001,0.009422948,-0.037138697,0.05628024,-0.061785016,-0.080477245,-0.036345836,0.040871236,-0.07896496,0.022595804,0.036298614,-0.05719732,-0.03788402,-0.014873084,-0.028832924,-0.036372006,-0.014198113,-0.049433265,0.05372442,-0.04831302,0.27751276,0.015576343,-0.05516672,-0.11981539,0.04763067,-0.023509206,-0.005379855,0.006683764,0.027937993,-0.0450913,0.054104105,-0.01998246,0.044672135,0.019394025,0.0013599728,-0.052177902,-0.09352602,0.024995582,0.009625072,0.04167749,-0.07573051,-0.0036717847,-0.1368395,-0.0597195,-0.052976977,0.009992352,-0.015448662,0.061920077,-0.00094540673,-0.014076291,-0.019729152
random,-0.30959657,-0.4124924,0.16028048,0.101190075,-0.8118423,0.53271407,-0.4138722,-0.2839108,-0.9336972,0.7005195,-1.1954533,-0.49746525,0.45200056,-1.0405949,0.55633944,-0.5381978,-0.39260834,-0.20197915,0.35846436,-0.40214083,-1.1471015,-0.24936715,-0.5516628,-0.06553483,2.3703978,0.5709366,-0.07075286,0.73173493,-0.4987875,0.22530457,-0.60645384,-0.9472356,-0.11984389,-0.284953,-0.3742847,1.6617336,0.32889697,0.8203077,-0.01716858,-0.7056499,-1.2989384,0.35673717,0.27065387,-0.4575136,-0.043620873,-0.004731976,0.842535,-0.9926156,-1.5724623,-0.59767735,0.7121198,0.2182361,-0.6961155,-1.3127134,-0.11694904,-0.71660435,0.4571706,1.8463194,0.21411023,-0.8533039,0.8961235,-0.064612314,-0.47791862,-0.8863082,-0.19464628,1.2248185,-1.3996155,0.11011402,-0.7715014,0.34484875,-1.0224615,0.7477428,0.6923359,-1.2779608,-0.70032084,0.16151154,0.42025453,-0.37771487,1.1819714,1.6481459,-0.3464342,-1.0633268,-0.6560642,0.22816426,1.3809664,-0.052391384,-0.05124064,0.41648284,-0.33401507,0.21596242,0.09151877,0.6219169,0.4924717,1.2137089,-0.53214496,-1.1909541,-1.3083246,1.0966649,-0.87568337,-1.9451888,-0.35238084,0.25574455,-0.8394608,-0.018199323,1.019918,-0.8233001,1.502472,0.12020838,-0.9161642,-0.50807524,0.52024794,1.2386373,0.64184487,-0.60381347,0.37004685,0.34723845,0.2049182,1.344902,0.25486922,-0.70849705,-0.07254743,0.90242696,0.34825045,-0.17258772,-0.03499855,-0.80082095,1.3299788,0.17123774,0.82835513,0.023202693,0.5905498,0.14764406,-1.3870047,0.26573387,0.08862207,-0.9547477,-1.3738819,0.24459034,-0.0338853,-0.6990657,0.060986795,-0.0012142378,0.00052175985,0.5333272,-1.284307,0.26953566,0.38596836,0.5621485,-0.16334549,-0.21499139,0.9174354,0.64833355,-0.014551985,-0.59889966,0.24109088,0.29196507,-0.8840872,-0.029849363,0.26695332,-0.5708272,-0.17296696,-0.30634072,-1.1257313,-0.17361598,-0.56294733,-0.2059545,-0.08800811,-1.5131553,0.11850218,-0.015712945,0.22575909,-0.9121511,0.6043696,-0.6812201,-0.29647306,-0.92474014,0.44774997,-0.29248345,-0.43465164,-1.063764,0.08493067,-0.17227319,-0.43101856,-0.26011464,-0.17755142,-0.33445936,-0.279828,-0.31954166,-0.84112996,0.51958036,0.7328016,0.049141854,-0.5479507,-0.9064258,-0.4517443,-0.5222619,-0.4428785,-0.27623922,-0.17749597,-0.76581,-0.55970544,1.8874531,-0.4884313,-0.28137547,0.529364,0.6317589,-0.16461731,-0.6830297,0.16530682,-0.10838841,-0.8524161,-0.18943493,0.3987316,-0.28204063,-0.059976544,0.5322373,-0.75679034,-0.0711654,-0.14079714,-0.37906298,-0.38282022,0.02262174,-0.06946382,0.4584363,-0.67745644,1.9576303,0.6265763,-0.03879019,-0.62864137,0.71445864,-0.6445611,0.1557384,0.05995785,0.33095977,-0.04722083,1.0790851,0.34296414,0.33493236,0.5790352,-0.10334422,-0.28237426,-0.56662136,0.29069853,0.01486183,-0.17167667,-0.8189465,-0.2666382,-1.3376069,-0.38013965,-0.70502204,-0.4390978,0.16734387,0.22816806,0.3276368,-0.040088814,-0.32344666
random,-0.097050466,-0.06748725,0.04970231,0.016907176,-0.2140681,0.21659847,-0.118581206,-0.105767846,-0.15904121,0.03909154,-0.29951137,-0.1813035,0.095948905,-0.1671158,0.17896248,-0.094356954,-0.023368109,-0.049142033,0.009051005,-0.11530599,-0.2706468,-0.060794655,-0.024038706,0.041190416,0.51206845,0.12396967,-0.14697905,0.21830817,-0.077496305,0.13394356,-0.17779674,-0.12243549,-0.0097106,-0.021552416,-0.12892754,0.31568033,0.037521753,0.17405348,-0.008513392,-0.13964856,-0.29481393,0.08775659,-0.031572163,-0.16667545,-0.0037436984,0.021650087,0.3062636,-0.20891722,-0.24857755,-0.17292021,0.15448111,0.06640341,-0.28967336,-0.22617662,-0.038059473,-0.078291744,0.14474984,0.3678239,0.056839783,-0.22870903,0.1323846,0.04167447,-0.1743168,-0.21146666,-0.068340495,0.31292537,-0.20675519,0.06076134,-0.16181558,0.037494134,-0.22599708,0.1922542,0.15983061,-0.20958474,-0.18262763,-0.03823889,0.07658169,-0.17277469,0.19101448,0.4123388,-0.036162063,-0.20993575,-0.19308646,0.07797737,0.25267747,0.062107407,-0.023267781,0.17018312,-0.14588958,0.07310424,0.11418265,0.03765146,0.063588604,0.27073106,-0.045763202,-0.22242421,-0.25776207,0.2348074,-0.14886636,-0.396318,-0.017847214,0.06456272,-0.1469219,-0.069684565,0.22895007,-0.23578034,0.29207042,0.13243373,-0.12793352,-0.0671765,0.011722184,0.28127232,0.034717817,-0.06473251,0.072558194,-0.0030455813,-0.018480863,0.2965692,-0.010998381,-0.119912304,-0.11965086,0.30038285,0.0645486,-0.13230489,-0.11842512,-0.28611308,0.20841661,0.015312903,0.16549177,0.003863173,0.13800146,-0.016997825,-0.30439788,-0.0035606264,0.02455008,-0.10628304,-0.35558778,0.05547818,0.053352688,-0.17025386,-0.06706644,0.009432178,0.058905326,0.18278602,-0.26283398,-0.09025682,0.15358654,0.16799551,0.031125583,0.04951708,0.13231708,0.23523557,0.020095838,-0.11994426,0.08241375,-0.01245263,-0.08324505,0.084109046,0.09458767,-0.042087853,-0.05583431,-0.006566451,-0.33908027,0.025283692,-0.18102163,-0.0053660255,0.083878964,-0.38466603,0.094726965,0.04306087,0.057874322,-0.16292503,0.11027901,-0.1488368,-0.076621294,-0.23680851,0.091379784,-0.037432935,0.004146491,-0.3057565,0.06558562,-0.093988664,-0.17072733,-0.077370256,-0.07941906,-0.018593455,-0.09007067,-0.04842275,-0.14659749,0.08041777,0.2879109,-0.053381927,-0.066142656,-0.23360282,-0.05222659,-0.17904146,-0.18863314,-0.069146916,-0.06061396,-0.31067854,-0.17713265,0.3760649,-0.043417078,-0.072072156,0.10885599,-0.011891532,0.005148943,-0.120908976,0.0875422,-0.15359388,-0.119035915,-0.08148763,0.047781076,-0.13005407,0.016128901,0.09612606,-0.09973648,-0.066721775,-0.05354198,-0.050822187,-0.1472177,-0.011252483,-0.04701618,0.09141715,-0.11530099,0.46302697,0.066995144,-0.10311042,-0.19188769,0.11178472,-0.069893904,0.011020473,0.04683282,0.11959702,-0.06207839,0.1899135,-0.023126239,0.09147463,0.07251998,0.010331736,-0.08503327,-0.18799,0.031391133,-0.02445807,0.020183586,-0.16469614,-0.054016165,-0.23543538,-0.09984567,-0.05174034,-0.025437249,-0.029390577,0.08953791,-0.017448429,-0.027396793,-0.07057867
random,-0.16857953,-0.12959784,0.07115922,0.10221515,-0.39916557,0.34496227,-0.2399409,-0.18329279,-0.26532117,0.092824206,-0.5302359,-0.31610554,0.15830833,-0.2636759,0.25060624,-0.1802121,-0.021196261,-0.057891686,0.068898454,-0.12807517,-0.50843596,-0.10930094,-0.08847719,0.10652285,0.90436727,0.23395374,-0.24128385,0.3759306,-0.098942295,0.19904618,-0.29227397,-0.22546239,-0.06625781,-0.050734106,-0.17140472,0.5877508,0.12836967,0.33283937,-0.07982304,-0.25374174,-0.49188808,0.16032283,-0.018097257,-0.32979375,-0.010921307,0.081610404,0.46133456,-0.3550994,-0.4615603,-0.22787938,0.34590885,0.15521072,-0.46687925,-0.44632265,-0.034137,-0.1727127,0.34175545,0.63413924,0.1339935,-0.39553764,0.23371972,0.02662521,-0.2799814,-0.40847218,-0.11507436,0.4683962,-0.40349123,0.12496313,-0.28423306,0.071244664,-0.37267485,0.28222242,0.22739251,-0.32112357,-0.3330745,-0.019576188,0.18700844,-0.30820033,0.36100933,0.7249304,-0.059164595,-0.45467636,-0.341786,0.1261197,0.4376773,0.120167986,-0.084416844,0.29122934,-0.22187248,0.13724205,0.21076316,0.16500129,0.21183062,0.47326103,-0.06816174,-0.445933,-0.42730328,0.4046606,-0.24176946,-0.7467997,0.009006172,0.15477599,-0.17322817,-0.053379346,0.38720414,-0.3862675,0.5044931,0.2985339,-0.23946778,-0.10457961,0.02523899,0.48814374,0.023332467,-0.118166156,0.14638938,-0.03259568,0.0070086084,0.530127,0.031814024,-0.17688993,-0.14466175,0.49591053,0.10819846,-0.18286541,-0.1951423,-0.43549892,0.3567285,-0.009361131,0.23252064,-0.027218712,0.25307,-0.07228785,-0.5344785,-0.010598245,0.06169232,-0.18937987,-0.53718376,0.11051051,0.13940643,-0.3248671,-0.12158398,0.025231047,0.09168817,0.28334954,-0.43326592,-0.18618615,0.29679248,0.36488625,0.026599152,0.18005975,0.268917,0.3887289,0.07034474,-0.18732178,0.12990622,0.04182131,-0.17448336,0.12029357,0.11879295,-0.09860493,-0.10020206,-0.0349109,-0.56236833,0.08713601,-0.27299416,-0.0067987996,0.17849283,-0.67220664,0.18464972,0.03395112,0.1080081,-0.23427296,0.19523343,-0.265756,-0.1412886,-0.4571425,0.21331976,-0.047881447,-0.07827127,-0.58044237,0.11702259,-0.23164491,-0.3168669,-0.104617335,-0.20158288,-0.0751889,-0.1502597,-0.070022985,-0.26567948,0.12566546,0.45125154,-0.030812139,-0.14951104,-0.40550217,-0.132862,-0.3060756,-0.38980925,-0.06637854,-0.07856681,-0.4634268,-0.34424278,0.6966108,-0.14192486,-0.15503417,0.19611345,0.022911396,0.027270222,-0.26518244,0.2759292,-0.25403142,-0.25158587,-0.15481594,0.03039627,-0.12385533,0.099542364,0.17944326,-0.21370992,-0.1411672,-0.119717024,-0.09305551,-0.2738572,0.010437532,-0.11421112,0.15246245,-0.1415264,0.8251939,0.12558001,-0.19805689,-0.3412571,0.21581815,-0.10271374,0.043494113,0.08255127,0.15697835,-0.09808532,0.29829422,-0.04100238,0.16269644,0.055731926,0.013149122,-0.20954293,-0.27909642,0.118017726,-0.056197736,0.09769737,-0.28517535,-0.101436116,-0.48256117,-0.21943884,-0.12930049,-0.038158048,-0.028614184,0.16623226,-0.038341586,-0.030443145,-0.09023435
random,-0.34104776,-0.23592027,0.13761973,0.106174044,-0.65241396,0.5754308,-0.40864447,-0.26003122,-0.54301244,0.23816858,-0.917137,-0.53834856,0.32956338,-0.5804372,0.51067424,-0.37113833,-0.12039708,-0.14462885,0.058849715,-0.3070432,-0.8466187,-0.18986899,-0.21846864,0.12309282,1.6566851,0.38246465,-0.3359139,0.6519413,-0.26795223,0.3328307,-0.5823441,-0.48511955,-0.06310899,-0.084953845,-0.36936855,1.1047927,0.14331178,0.55562884,-0.055577382,-0.50188434,-0.9773623,0.30144823,-0.010525108,-0.45462242,-0.006378593,-0.006485776,0.8481029,-0.69384646,-0.8740257,-0.45595908,0.5294032,0.1647983,-0.73215705,-0.7579078,-0.07334183,-0.33435386,0.46714017,1.1636978,0.18370798,-0.66018647,0.500354,0.06297268,-0.49670008,-0.69899607,-0.16628562,0.9644709,-0.7606046,0.15152986,-0.5018517,0.1557457,-0.7424419,0.55433923,0.46565542,-0.70131975,-0.53111666,-0.033715066,0.29770166,-0.4866891,0.6384823,1.2868631,-0.17620449,-0.67750585,-0.57448244,0.15846089,0.847494,0.12076012,-0.058207378,0.4744637,-0.4098766,0.23632613,0.30592087,0.2928394,0.29898962,0.93036556,-0.241475,-0.75429636,-0.8165283,0.7047735,-0.49666384,-1.3109051,-0.08919799,0.19804458,-0.47507462,-0.11558766,0.7503329,-0.7064379,1.0059773,0.3257507,-0.4753258,-0.23634169,0.11215513,0.8358256,0.17663305,-0.27456975,0.26689598,-0.025386505,-0.0061657997,0.9877192,0.015988007,-0.39795774,-0.23421925,0.8491909,0.21455945,-0.33608258,-0.21192768,-0.8141754,0.7479315,0.08273497,0.49671966,0.06772636,0.48893565,-0.0005222935,-0.9915699,0.0642203,0.097370096,-0.446146,-1.0978402,0.17561981,0.12666944,-0.57992804,-0.11765967,0.024709605,0.16452838,0.51611954,-0.79915357,-0.1585236,0.44266972,0.56179416,0.026397228,0.09623056,0.53491145,0.6945359,0.041673224,-0.46356618,0.23145711,0.07124143,-0.36770913,0.20415878,0.23858397,-0.28775162,-0.15020299,-0.14316362,-1.0804113,-0.008948711,-0.5268021,-0.10739845,0.1919538,-1.2288914,0.296673,0.07688338,0.21393393,-0.5934829,0.3810468,-0.48191845,-0.31672594,-0.74563813,0.36409286,-0.16136907,-0.12276816,-0.9842852,0.2225562,-0.25563303,-0.5179723,-0.24961759,-0.2109976,-0.09416986,-0.25544646,-0.21409813,-0.4776347,0.3034611,0.8049086,-0.12241056,-0.29801914,-0.7739371,-0.2736186,-0.54478043,-0.548866,-0.20666021,-0.13509016,-0.89220494,-0.5592368,1.1613897,-0.23747773,-0.22025622,0.3419501,0.09220675,-0.012401487,-0.3969491,0.28630555,-0.3582693,-0.40419555,-0.2251837,0.122349866,-0.27021635,0.0290051,0.33410433,-0.35757282,-0.20230563,-0.16516027,-0.15508634,-0.36758637,-0.07261022,-0.10308683,0.30779126,-0.29823825,1.4187771,0.29651603,-0.26749572,-0.5162874,0.34377223,-0.2756679,0.008176121,0.09716,0.30853447,-0.145863,0.5940175,0.0065397373,0.25786376,0.2145771,0.019019926,-0.2898177,-0.48544386,0.1381512,-0.102526225,0.010325254,-0.47527143,-0.20168217,-0.82264143,-0.3290773,-0.27508494,-0.117445335,-0.044556234,0.2373202,0.019191265,-0.012737711,-0.16586864
random,-0.107466005,-0.056591105,0.04890923,0.060005814,-0.22193071,0.19260551,-0.13143136,-0.12647636,-0.176671,0.055482484,-0.2702115,-0.2093113,0.12924148,-0.18622336,0.14897318,-0.1397643,0.004830135,0.005654734,0.02595523,-0.11924769,-0.27031088,-0.0865589,-0.038570717,0.07944957,0.5236309,0.123508275,-0.09711154,0.223387,-0.07032257,0.13797726,-0.1443356,-0.10907942,-0.04751398,0.031541083,-0.10387256,0.33408055,0.056551818,0.17427516,-0.06201601,-0.16209865,-0.26977548,0.09831117,-0.052342467,-0.1862079,0.006784603,0.017351158,0.27117935,-0.19690913,-0.20631863,-0.12535204,0.1614653,0.06185613,-0.2832406,-0.2217891,0.013661169,-0.06835052,0.16257913,0.33233464,0.08193773,-0.22952746,0.12725545,0.010872422,-0.17910638,-0.22916745,-0.040806107,0.32798302,-0.17859447,0.071164295,-0.11829954,0.02767732,-0.22553027,0.1893124,0.14957571,-0.17480713,-0.19191779,-0.030578917,0.08413283,-0.19187121,0.15298058,0.4128818,-0.051086117,-0.25620934,-0.18329172,0.04616732,0.21711493,0.076715924,-0.0330655,0.17632039,-0.14475699,0.06519251,0.15556997,0.06032487,0.09523593,0.29746184,-0.039184242,-0.20623183,-0.29278025,0.18805219,-0.13532633,-0.42712045,-0.0077277445,0.053995628,-0.14132398,-0.03583361,0.22684151,-0.24358037,0.27392307,0.1602771,-0.1435337,-0.05512097,-0.0020288466,0.218888,0.00669333,-0.04744919,0.083570816,-0.032620665,-0.036888633,0.27573884,-0.0066636666,-0.14578155,-0.06741829,0.2466387,0.050367072,-0.11694529,-0.10699768,-0.27312368,0.21819651,-0.020945642,0.07140769,0.016423434,0.19749731,-0.085020274,-0.2868803,-0.012146436,0.02173835,-0.107311144,-0.3378827,0.01793755,0.047891703,-0.14987297,-0.081591666,0.018655319,0.06290969,0.1602874,-0.21137379,-0.09046676,0.20823368,0.22356202,0.040267695,0.10068326,0.118165776,0.22110176,0.026628332,-0.14343394,0.09796433,-0.0121585615,-0.04627878,0.086922616,0.088304125,-0.0756327,-0.08666926,-0.04414532,-0.4121495,0.0355467,-0.16998248,-0.028995972,0.115142815,-0.3996617,0.10778706,0.07536062,0.06596083,-0.09112107,0.09574251,-0.18082473,-0.11050403,-0.22123921,0.105903365,-0.043439623,0.009535878,-0.3304424,0.060617562,-0.119169176,-0.19214778,-0.05037501,-0.109266266,-0.023730515,-0.12554441,-0.007608493,-0.11118633,0.06274362,0.28762847,-0.06790051,-0.120112985,-0.26195392,-0.05654101,-0.1665813,-0.21074462,-0.08590872,-0.049709804,-0.30677372,-0.19597141,0.38439968,-0.08697884,-0.102992825,0.097533114,-0.008196711,0.019070912,-0.1476668,0.14597656,-0.15405698,-0.13954282,-0.10866257,0.020557165,-0.09659368,0.064812966,0.08638944,-0.09670829,-0.11762909,-0.049698334,-0.057440683,-0.15317656,-0.010184033,-0.06473933,0.082498826,-0.09486647,0.4681314,0.11975922,-0.10726714,-0.17996773,0.08491038,-0.046430796,0.019998835,0.04442637,0.11122498,-0.056553286,0.18178555,-0.02837193,0.08504432,0.02990251,0.017562838,-0.14325503,-0.1616311,0.009129822,-0.056964647,0.062354546,-0.13678797,-0.08998306,-0.2712324,-0.14906693,-0.027762562,-0.037079446,-0.023794144,0.116353825,0.0054043517,0.028755471,-0.017114932
random,-0.37144628,-0.28503084,0.27500975,0.2237994,-0.8178003,0.5972197,-0.3767589,-0.40875793,-0.7179485,0.3773357,-1.0710719,-0.5793495,0.429401,-0.7399564,0.47704306,-0.41616175,-0.14170171,-0.07820897,0.16015206,-0.41719475,-0.975604,-0.20149179,-0.36866286,0.0038818005,2.1124756,0.52806604,-0.27282688,0.79631567,-0.24502367,0.37639993,-0.4915916,-0.6022138,-0.122740395,-0.15426275,-0.41820598,1.4421151,0.33487236,0.74048203,-0.12927487,-0.56593937,-1.0956223,0.27674028,-0.067962356,-0.67565995,0.046550978,0.15509811,0.9171271,-0.81141996,-1.1572016,-0.52334183,0.6182368,0.30691102,-0.9459071,-1.0748913,0.03746655,-0.43781462,0.5073651,1.5116156,0.21590172,-0.82571405,0.60557395,0.03739943,-0.65068525,-0.82351226,-0.19184275,1.1190258,-0.93226457,0.232629,-0.5699176,0.20062898,-0.79222715,0.706085,0.6461019,-0.909243,-0.73875725,0.0740039,0.32877228,-0.6135294,0.7447072,1.5381602,-0.24038433,-1.0430197,-0.6300593,0.27562618,1.0304246,0.15161179,-0.14200836,0.5288518,-0.46343392,0.27741843,0.390404,0.41413862,0.32068574,1.0467712,-0.20549892,-0.9032209,-1.1159141,0.8680648,-0.6027305,-1.7861495,-0.080009215,0.20677826,-0.6362786,-0.030884415,0.8871921,-0.74297106,1.0808321,0.52132523,-0.60137224,-0.3727661,0.23386255,1.0416431,0.16561069,-0.4131088,0.36531866,0.13479052,0.040394496,1.148698,0.1646299,-0.4800081,-0.23791793,0.9595961,0.25744146,-0.28657857,-0.26646343,-0.8819034,0.999943,0.04181517,0.5403435,-0.010935516,0.55555856,-0.09303802,-1.2248449,0.12659366,0.09894739,-0.54582334,-1.1767224,0.11325917,0.1334298,-0.565181,-0.15354843,-0.03627019,0.122195266,0.6297171,-0.9623079,-0.11886266,0.68715763,0.7215942,0.08459032,0.07310492,0.5487497,0.66768086,0.03525184,-0.5921253,0.26745138,0.08661443,-0.47429776,0.13135135,0.3294521,-0.3672161,-0.26285496,-0.17462145,-1.2427435,0.021359423,-0.5040651,-0.21095759,0.1794111,-1.5555171,0.26033577,0.08797197,0.2918762,-0.5126714,0.44491744,-0.6507518,-0.36507744,-0.8715404,0.42362866,-0.1820197,-0.1779784,-1.1910925,0.14968699,-0.2719627,-0.578494,-0.21272908,-0.34665334,-0.18129554,-0.43119377,-0.13668743,-0.6019676,0.3750521,1.0485016,-0.055594776,-0.42631468,-0.87709844,-0.29235542,-0.5852721,-0.65073234,-0.24795093,-0.267959,-0.8533961,-0.65832627,1.6398818,-0.38284183,-0.33632678,0.38820982,0.22903775,0.009219673,-0.5847069,0.42684987,-0.4031676,-0.6809817,-0.27815026,0.31566706,-0.3129435,0.19262664,0.42308697,-0.47866884,-0.21815357,-0.12565267,-0.27024376,-0.43494314,0.066581875,-0.2475985,0.34590435,-0.49494314,1.7810053,0.52454174,-0.29347396,-0.7777401,0.588212,-0.31953475,0.16862729,0.05886689,0.37380573,-0.20655356,0.8068208,0.047794577,0.3351038,0.33603665,-0.05414149,-0.33287457,-0.60713005,0.16681474,-0.0047010835,0.19224225,-0.70644605,-0.23594195,-1.1207966,-0.5410516,-0.38414818,-0.2458999,0.036337424,0.33675492,0.14827053,0.056088816,-0.14007616
random,-0.4240564,-0.26133877,0.26389077,0.06305929,-0.8353852,0.6753756,-0.3898128,-0.33829823,-0.82878053,0.5773079,-1.1018186,-0.6534035,0.540235,-0.95714843,0.6719195,-0.48961845,-0.1784699,-0.2537734,0.10797161,-0.41050774,-1.0003908,-0.22068648,-0.35241362,-0.0332924,2.1915524,0.68445903,-0.34643272,0.73829925,-0.44450063,0.36164626,-0.59090704,-0.7095651,-0.13830654,-0.048020773,-0.485765,1.4881872,0.28467983,0.7282806,-0.0438861,-0.6623149,-1.1265761,0.34135896,-0.06029788,-0.51349163,-0.17945011,0.018657088,0.98118687,-0.9206538,-1.4515287,-0.69293606,0.63189036,0.20204301,-0.89593077,-1.0234871,-0.12747344,-0.5318424,0.43385956,1.6587508,0.14269094,-0.7892162,0.7071449,0.06668515,-0.6494891,-0.84684324,-0.119913116,1.3767194,-1.1277007,0.24992707,-0.69135743,0.25083718,-1.0199593,0.76296896,0.78047377,-1.0706062,-0.65203893,0.020487735,0.4844647,-0.52664423,0.90179014,1.7264858,-0.16685168,-0.8407039,-0.7556021,0.22089407,1.181677,0.24692763,-0.012136234,0.5550322,-0.50812453,0.30995622,0.3941568,0.35785505,0.40285534,1.202576,-0.34835735,-0.8591211,-1.2193719,1.017365,-0.6550053,-1.6876473,-0.26453564,0.22083573,-0.8546177,-0.23591077,1.1003927,-0.837977,1.4096737,0.43371463,-0.77933276,-0.42941865,0.27417874,1.0942609,0.2511202,-0.43011078,0.3712785,-0.026511703,0.22719459,1.2274418,0.12499697,-0.7584963,-0.4803462,1.1086941,0.19416778,-0.4788101,-0.25815582,-1.0654787,1.0234284,0.13030119,0.6439017,-0.0044844868,0.65767086,-0.026840862,-1.2479053,0.25567687,0.16222663,-0.5477925,-1.5689396,0.38416693,0.013581886,-0.7870588,-0.07411359,0.14188188,0.14570364,0.6030256,-1.0506186,-0.11009748,0.6035815,0.7372695,0.11149102,-0.15051034,0.5386702,0.8591232,0.034798518,-0.6570676,0.4049732,0.077333525,-0.5157963,0.11410043,0.3452861,-0.23565757,-0.14967781,-0.32376188,-1.3747733,-0.2049383,-0.5992215,-0.22062363,0.21038173,-1.5765384,0.3859559,0.14745659,0.29777756,-0.66463447,0.44679192,-0.6682599,-0.4244201,-0.8172917,0.2568578,-0.28476304,-0.21573839,-1.1413369,0.08876826,-0.28664663,-0.49271232,-0.4182939,-0.29127553,-0.049729567,-0.39592582,-0.17181727,-0.68173784,0.4377511,1.0416703,-0.14567389,-0.42441767,-0.8730015,-0.18515329,-0.6968066,-0.5934403,-0.5091125,-0.23736152,-1.074648,-0.6989793,1.6257194,-0.40671986,-0.20934902,0.40596434,0.3028264,-0.065876044,-0.5698859,0.2661241,-0.5043361,-0.63712984,-0.15446888,0.36189526,-0.48234943,-0.08932401,0.4077042,-0.46884477,-0.23386742,-0.19654626,-0.24942741,-0.5095766,0.07471105,-0.009536014,0.48281252,-0.524415,1.9913856,0.5089761,-0.25642717,-0.58990544,0.50723964,-0.4197014,0.04054834,-0.004552766,0.6308891,-0.11908933,0.97861516,0.13060473,0.24069606,0.4266489,0.007927111,-0.12347059,-0.6281692,0.0648786,0.1032072,0.00273284,-0.613218,-0.16089447,-0.9989649,-0.35547942,-0.48354256,-0.27692673,0.0116470065,0.23103885,0.12143577,0.12867524,-0.3460988
random,-0.2565312,-0.1942019,0.15690328,0.08218118,-0.55547404,0.4969739,-0.2977634,-0.25666004,-0.5610339,0.27648887,-0.77882034,-0.47289833,0.33704033,-0.585218,0.40264523,-0.26216063,-0.15277988,-0.15738404,0.1222838,-0.21277659,-0.7301378,-0.08218667,-0.22382712,0.011746751,1.3952324,0.41836327,-0.27252713,0.5471841,-0.20770757,0.23603918,-0.42697054,-0.37990314,-0.10606911,-0.13022637,-0.3133661,0.97651434,0.14485602,0.5486986,0.012350972,-0.37141773,-0.8101657,0.23008831,-0.033930752,-0.43074676,-0.15658934,0.07976271,0.63267636,-0.5472049,-0.9337116,-0.39365515,0.48333865,0.16583203,-0.6728204,-0.694786,-0.13042805,-0.33435568,0.3564512,1.0979677,0.04359271,-0.5247295,0.51359713,0.03793478,-0.34184754,-0.5452143,-0.17703147,0.87767977,-0.7537489,0.24352892,-0.5316184,0.10906318,-0.621719,0.38502944,0.40213448,-0.61550117,-0.4242419,0.061734844,0.35351723,-0.34838,0.6187069,1.1274734,-0.14322317,-0.6348031,-0.58459437,0.20791033,0.74130005,0.20735738,-0.11803675,0.3608437,-0.3344762,0.23491181,0.32001585,0.24988768,0.29464114,0.73747575,-0.1873498,-0.66085833,-0.77337164,0.6078524,-0.33543593,-1.1686352,-0.08926967,0.19206566,-0.49015838,-0.11017542,0.7425452,-0.5107356,0.90217936,0.41676453,-0.5195316,-0.25279683,0.12114695,0.7449642,0.10807567,-0.29830688,0.21569183,-0.021538503,0.11901631,0.87673557,-0.022173902,-0.41089258,-0.30412117,0.7073427,0.1676246,-0.26756674,-0.21888411,-0.6689741,0.56785655,0.067252554,0.3959446,-0.02166776,0.3793543,0.016179927,-0.86528265,0.14746715,0.12821217,-0.30768776,-0.9155526,0.20359309,0.0928459,-0.43759042,-0.055566303,0.014755452,0.121146746,0.4074243,-0.6862647,-0.12628634,0.40478694,0.56741583,0.030502109,0.023715002,0.32336718,0.5475381,0.09763633,-0.30793217,0.22933137,0.051398285,-0.26257327,0.040517043,0.22794552,-0.15083222,-0.13882741,-0.16056569,-0.86539805,-0.009587097,-0.32899475,-0.08467492,0.14708492,-1.0541688,0.2925472,0.06662911,0.16313176,-0.4060401,0.30395052,-0.35491413,-0.23671226,-0.63623273,0.19444649,-0.10461199,-0.115749106,-0.836065,0.11572527,-0.29232764,-0.38069293,-0.18375106,-0.29412514,-0.04897182,-0.20282736,-0.14935021,-0.51978874,0.30242658,0.7437994,-0.021160927,-0.2663661,-0.5534892,-0.12139547,-0.3937771,-0.44724372,-0.19670825,-0.08841114,-0.6839156,-0.49936193,1.0950212,-0.29324204,-0.11111957,0.22402512,0.18887436,-0.0026540412,-0.40967554,0.28054136,-0.39860278,-0.4022326,-0.1539536,0.19352677,-0.21071088,-0.011667845,0.3023952,-0.28354123,-0.15106237,-0.20580074,-0.14176992,-0.45532715,0.041667864,-0.07470229,0.26769674,-0.29136407,1.2925862,0.3312799,-0.27755687,-0.46246263,0.37249038,-0.21731958,0.06316466,0.0502099,0.36295763,-0.10591299,0.6527899,0.057663444,0.124613754,0.27725798,0.0066655735,-0.1812937,-0.35758966,0.040339436,0.022100607,0.04224145,-0.40782818,-0.0858948,-0.70711267,-0.24449292,-0.27534705,-0.1823628,-0.06973074,0.13970229,0.030941317,0.046608105,-0.16003282
random,-0.17377919,-0.09993857,0.08459229,0.049835578,-0.28861207,0.25249875,-0.14787763,-0.110672146,-0.21444769,0.098118454,-0.3657181,-0.23790471,0.1546285,-0.23605238,0.19259968,-0.16084144,-0.030476471,-0.017680097,-0.02504687,-0.17658843,-0.31100845,-0.0707652,-0.08784043,0.030646818,0.7072523,0.15249588,-0.12992324,0.27479556,-0.119055785,0.17193368,-0.21510762,-0.1870424,-0.01747703,-0.020162929,-0.18385787,0.45111006,0.044127606,0.19373548,-0.041641444,-0.205135,-0.38806877,0.10104849,-0.0715169,-0.20400426,0.04597899,0.0014762514,0.3923053,-0.28381598,-0.31122023,-0.23312365,0.16178434,0.06301561,-0.34626418,-0.27797818,0.025454266,-0.12447138,0.14768764,0.4717115,0.06630392,-0.28305158,0.16856253,0.05368658,-0.2777747,-0.29510203,-0.026918605,0.4304582,-0.23645872,0.035808418,-0.15051697,0.048783336,-0.25915897,0.28394234,0.25114062,-0.29693568,-0.2607156,-0.04087387,0.029430447,-0.24971098,0.19252832,0.51123524,-0.08766788,-0.24458762,-0.19514981,0.07516723,0.32440108,0.05372502,-0.0052436753,0.17917205,-0.19430044,0.106912985,0.12674972,0.10122104,0.03547202,0.38790086,-0.060713563,-0.22960265,-0.3673393,0.26331005,-0.22287059,-0.5482259,-0.03149582,0.03913554,-0.26774624,-0.05958506,0.29860774,-0.28059843,0.37240192,0.13906625,-0.18565764,-0.09568908,0.04361102,0.33266768,0.047623478,-0.08606745,0.10080427,-0.004013088,-0.048303567,0.38753405,-0.005846984,-0.17442314,-0.108811125,0.35224766,0.06603451,-0.1426175,-0.09077409,-0.37786657,0.3414033,0.05337457,0.22636113,0.038051248,0.19826898,-0.025345905,-0.42368972,0.017431412,0.022848783,-0.16143389,-0.49165687,0.030070418,0.0070774737,-0.21942389,-0.06634295,-0.024224158,0.072965465,0.24860007,-0.32370588,-0.059498485,0.24807134,0.23351169,0.042619087,0.014437517,0.18407695,0.28818503,-0.019162038,-0.23894696,0.114267334,-0.022811642,-0.13632925,0.122829825,0.11326275,-0.117066085,-0.07977236,-0.03143405,-0.49896207,-0.013097029,-0.24796635,-0.09067213,0.1054184,-0.55634874,0.11150847,0.05792214,0.1323794,-0.20804161,0.14341085,-0.23871441,-0.1649944,-0.28950036,0.13365416,-0.062083583,0.01824747,-0.4237756,0.091846086,-0.059781052,-0.22793311,-0.13078554,-0.062326275,-0.015714386,-0.1642226,-0.044074785,-0.14334056,0.11058088,0.40461788,-0.109840855,-0.14352387,-0.32966518,-0.10542458,-0.246331,-0.22101928,-0.14301541,-0.10900971,-0.37338272,-0.21189688,0.46967414,-0.080383934,-0.11168244,0.14101063,-0.019668145,-0.0019465116,-0.12084181,0.0978839,-0.16038933,-0.1906877,-0.09697115,0.07146735,-0.1646837,0.032629766,0.10535642,-0.11235364,-0.09309542,-0.035042234,-0.06675517,-0.11669857,-0.019777164,-0.06982548,0.12477576,-0.16874057,0.5893676,0.12881136,-0.0997165,-0.25409296,0.14862083,-0.0898325,0.018590204,-0.0016372835,0.12127949,-0.11402231,0.21964742,-0.0070659234,0.12687129,0.0949601,0.0025104275,-0.12368033,-0.22981137,0.022003703,-0.039578825,0.05329148,-0.19394657,-0.07993421,-0.29918122,-0.15587309,-0.092875086,-0.05346701,-0.019601824,0.1354856,0.04412537,0.014325268,-0.04212601
random,-0.38785365,-0.27542025,0.23058996,0.30574116,-0.7303242,0.6283979,-0.48251435,-0.29778594,-0.25920168,0.17437397,-1.0200747,-0.51046497,0.2248496,-0.24632336,0.5193479,-0.3373453,-0.034948032,-0.14681607,0.08410709,-0.16323695,-0.97039056,-0.22588508,-0.18606886,0.12541375,1.7880226,0.4531701,-0.5985552,0.70610183,-0.18355136,0.36748555,-0.6755919,-0.50799257,-0.047348987,-0.21766467,-0.36685714,1.1289577,0.24202856,0.63551503,-0.16123015,-0.4608528,-0.958177,0.27841145,-0.024043642,-0.5105096,0.16420655,0.13024949,0.94661975,-0.8217744,-0.8608954,-0.6493599,0.52085215,0.39122614,-0.77397585,-0.80470437,0.032907967,-0.39076895,0.73290616,1.2660567,0.21462895,-0.73449546,0.3056469,0.03149194,-0.6653719,-0.76268405,-0.23358409,0.67679363,-0.80056506,0.045039307,-0.54444784,0.15290977,-0.59080976,0.6231386,0.50371987,-0.5835154,-0.77920055,-0.007971648,0.21516837,-0.6886428,0.50947833,1.3222468,-0.13284016,-0.696824,-0.5274436,0.29040533,0.9188904,0.103769414,-0.19031097,0.37162006,-0.46083608,0.33788696,0.17645878,0.49097428,0.302239,0.9715813,-0.069538794,-0.7689331,-0.67145276,0.9635988,-0.47378024,-1.352587,0.044610966,0.19817197,-0.29794773,-0.015521212,0.74365294,-0.7203323,0.98758006,0.4739433,-0.3481284,-0.2476505,0.09922992,1.0676502,-0.022562545,-0.3223501,0.27955636,-0.010275603,0.05348306,1.0537944,0.258912,-0.21492161,-0.39658624,1.0876144,0.12325895,-0.42511228,-0.2829816,-0.9381248,0.8100927,0.08619681,0.6814835,-0.043270092,0.3659403,-0.0027570936,-1.1125358,0.0416339,0.10710918,-0.35165676,-0.98612654,0.2791342,0.26632056,-0.6673902,-0.16907531,-0.009308286,0.20919667,0.5880746,-0.82007617,-0.31309372,0.527393,0.6158687,0.11490918,0.3416978,0.5717074,0.80448246,-0.027246945,-0.5223497,0.13050851,0.13070676,-0.58901715,0.3025121,0.17660926,-0.24270003,-0.1365064,0.005411622,-1.0104873,0.036286213,-0.580619,-0.13939825,0.3578443,-1.3606144,0.33559477,-0.009153734,0.41499954,-0.63229424,0.4095718,-0.47878224,-0.3311967,-0.8761043,0.4490515,-0.11546988,-0.22773066,-1.1429771,0.20490076,-0.23218508,-0.6325736,-0.3899468,-0.25442895,-0.08812912,-0.25754443,-0.15891697,-0.5263489,0.27175394,0.92929935,-0.059956715,-0.17327262,-0.884133,-0.39196151,-0.7230784,-0.6450408,-0.10423313,-0.2565831,-0.7657037,-0.6916997,1.269596,-0.111592956,-0.2590475,0.34301665,-0.036577474,-0.078466974,-0.3817316,0.4278342,-0.3409741,-0.42218465,-0.24437435,0.19196986,-0.3693754,0.1683351,0.31505564,-0.39565253,-0.12735702,-0.038328364,-0.13472468,-0.25007376,-0.13450386,-0.34492606,0.33061242,-0.24965896,1.4966875,0.13374835,-0.43630603,-0.73094577,0.43734857,-0.19575468,-0.03653388,0.021068584,0.17287634,-0.3198225,0.39151078,-0.10884093,0.39850092,0.09901069,-0.03774288,-0.32557118,-0.56966776,0.37974566,-0.07112735,0.27589667,-0.48299152,-0.14987049,-0.8129643,-0.345421,-0.3611221,0.15363833,0.017085746,0.29961443,-0.094535924,-0.18107194,-0.23430306
random,-0.2510229,-0.28070077,0.11133548,0.10474654,-0.8205309,0.6594848,-0.4541013,-0.2651638,-0.77680844,0.5005145,-1.1559173,-0.5754067,0.40188175,-0.88733315,0.54525465,-0.34897393,-0.31315655,-0.3315071,0.32554632,-0.15732795,-1.1422377,-0.18471266,-0.4063222,0.10663969,2.0606186,0.59336233,-0.31969067,0.76929915,-0.34932026,0.21910736,-0.6894519,-0.63804007,-0.21363851,-0.24710731,-0.42424527,1.4649504,0.35292986,0.84374344,0.0002645188,-0.56758344,-1.2562758,0.3840242,0.17984042,-0.6106435,-0.22872679,0.10657483,0.766553,-0.8061259,-1.5028375,-0.49694175,0.8939251,0.31342307,-0.72469074,-1.1356323,-0.2973312,-0.5937102,0.67693996,1.5992476,0.08801144,-0.70442224,0.8314164,-0.030750955,-0.3834766,-0.874579,-0.29732025,1.1262108,-1.2658724,0.32726344,-0.87058693,0.29217604,-0.93649125,0.42777812,0.4528475,-0.90344036,-0.5744641,0.21426204,0.6399799,-0.3612322,1.1479204,1.5840102,-0.2110813,-1.0233082,-0.8179259,0.28342304,1.094423,0.2773522,-0.14943914,0.53124326,-0.3171751,0.3273932,0.33465505,0.56090295,0.63365495,1.0360671,-0.3890814,-1.126174,-1.1014913,0.93558556,-0.5860859,-1.7564102,-0.16315222,0.37531197,-0.551698,-0.04266657,1.0144397,-0.7207052,1.2853881,0.5193926,-0.8549539,-0.37314537,0.24079403,1.1779084,0.29529238,-0.38976598,0.33627892,0.06487505,0.24498054,1.2798263,0.08551804,-0.53015345,-0.33414516,1.0119479,0.31951153,-0.2970045,-0.24216412,-0.7013666,0.8232692,0.05455985,0.64012396,-0.06926898,0.49551252,0.15371256,-1.2539818,0.21915048,0.1952912,-0.6730778,-1.2295033,0.36915663,0.1824973,-0.72771776,0.026263915,-0.0102810925,0.10757199,0.49195644,-1.0948591,-0.0790081,0.45198128,0.7541228,-0.1658673,0.034406465,0.72038144,0.72796476,0.20354709,-0.35108015,0.27576104,0.24570917,-0.6419141,-0.06252014,0.29331648,-0.29874307,-0.14699912,-0.25880092,-1.0215515,0.012664526,-0.36759767,-0.096612886,0.07687629,-1.415954,0.36494762,-0.039256196,0.14946187,-0.7485264,0.5842717,-0.54308873,-0.2736431,-1.0407393,0.36733776,-0.14699508,-0.3829998,-1.1817472,0.14433226,-0.4753495,-0.5568796,-0.20526248,-0.4481524,-0.19850627,-0.15660675,-0.29705828,-0.8917514,0.45192105,0.80675364,0.11744967,-0.41023323,-0.8235384,-0.31868568,-0.46750894,-0.69510216,-0.057165917,-0.039673436,-0.89613944,-0.6890261,1.5749168,-0.51372683,-0.15285757,0.41021734,0.45852387,0.002174884,-0.66816753,0.46252584,-0.4233113,-0.62348676,-0.22025834,0.20695633,-0.12541696,-0.004337311,0.49819052,-0.53938466,-0.1737884,-0.36322448,-0.2999614,-0.60027045,0.08863379,-0.07974513,0.34719086,-0.30925593,1.9082496,0.42302307,-0.31415713,-0.5943837,0.5828177,-0.4570301,0.12283444,0.16195063,0.33960575,-0.021441514,0.8925249,0.090475395,0.20749922,0.3438212,-0.0072739334,-0.29479533,-0.39044204,0.2224793,-0.0120895915,-0.056501094,-0.65656275,-0.14245166,-1.1783212,-0.42067307,-0.486284,-0.30621046,0.0018292783,0.14441432,-0.017530771,-0.04424756,-0.24601798
random,-0.2398046,-0.15333155,0.1669886,0.08918863,-0.41533116,0.26635483,-0.12929738,-0.1237095,-0.39863884,0.2120833,-0.49367702,-0.27094617,0.24028757,-0.36746144,0.34938648,-0.34408903,-0.14321586,-0.05457249,0.15607236,-0.24288857,-0.5141324,-0.21869093,-0.2993984,0.08503583,1.1904081,0.2121455,-0.021659227,0.42658994,-0.24599542,0.17787245,-0.29931334,-0.47588986,-0.02740316,0.010043536,-0.19647387,0.7200907,0.09519015,0.31921384,-0.082484014,-0.4116105,-0.63982564,0.1721028,0.05136945,-0.23156796,0.11708356,0.022132894,0.45755804,-0.43463063,-0.561119,-0.31359893,0.3176478,0.17731759,-0.42048597,-0.5677795,0.055511836,-0.27161783,0.25014228,0.76340085,0.10173094,-0.3503352,0.38972944,0.00047870717,-0.3946174,-0.46021986,-0.0128277205,0.59004223,-0.5424567,0.056121394,-0.2714412,0.23195791,-0.4739339,0.38282254,0.37727392,-0.59356153,-0.392278,0.0067307497,0.1706331,-0.25199822,0.42760393,0.85837245,-0.20225176,-0.53436416,-0.3386671,0.07784094,0.5660962,0.0053783786,-0.06661676,0.22911817,-0.23930326,0.13364051,0.05153881,0.24159206,0.17864949,0.6252969,-0.27394325,-0.46932808,-0.5724737,0.499104,-0.42904526,-0.97074866,-0.13333215,0.09285581,-0.3870208,0.011691711,0.51669043,-0.5363198,0.69097346,0.08947219,-0.34268713,-0.17471431,0.19082351,0.5625563,0.2248177,-0.28154907,0.20854107,0.12126165,-0.01004776,0.6295871,0.21041533,-0.33616236,-0.035093095,0.44792533,0.115057364,-0.16382185,0.024462415,-0.45880064,0.72529316,0.12036651,0.33614847,0.047907516,0.33527836,-0.082201235,-0.65927804,0.05201623,0.05042468,-0.36055866,-0.77210045,0.06119959,0.025069337,-0.3384722,-0.010307798,-0.024140747,0.06618182,0.2519619,-0.51497805,0.047853086,0.23141055,0.30446014,-0.03023798,-0.0017786274,0.41143942,0.3584774,-0.032476906,-0.39410737,0.15862827,0.10077258,-0.43863994,0.05045393,0.22855106,-0.43049473,-0.11944902,-0.15762196,-0.7212344,-0.047968358,-0.2395636,-0.15950614,0.044955198,-0.762991,0.0955739,0.0887664,0.13142093,-0.341811,0.3226019,-0.34157586,-0.26257852,-0.3463451,0.3305124,-0.1553653,-0.14745572,-0.5113978,0.09225309,-0.04176455,-0.2801049,-0.0982767,-0.08293835,-0.13487901,-0.19401936,-0.16582464,-0.37904197,0.16528317,0.4604392,-0.06649389,-0.314797,-0.5494827,-0.30271244,-0.33259445,-0.28215256,-0.169065,-0.09570121,-0.47633147,-0.29932222,0.8808118,-0.3130525,-0.22369978,0.2803524,0.24667902,-0.05906047,-0.29691783,0.17420334,0.00013911694,-0.38331762,-0.14518009,0.12868579,-0.20967187,-0.021365253,0.29511663,-0.26024935,-0.14690718,0.017178662,-0.1427648,-0.11256718,-0.062221427,-0.027368594,0.24731843,-0.30363452,0.96810883,0.3578039,-0.06832688,-0.3366922,0.25536063,-0.31631297,0.06932706,-0.012840394,0.22795555,-0.06412173,0.44023728,0.16725837,0.25652823,0.25453603,-0.041023374,-0.14931564,-0.3326995,0.08981686,-0.06563471,-0.019750657,-0.2890744,-0.21976347,-0.6019644,-0.27374467,-0.33571327,-0.12183513,0.05601124,0.17443912,0.14953427,0.06975392,-0.060524907
random,-0.29259554,-0.19535531,0.085971266,0.11285712,-0.48940447,0.39447302,-0.30253643,-0.22112153,-0.39929408,0.19996612,-0.68039006,-0.39734602,0.25287274,-0.45834446,0.30600008,-0.28058738,-0.08829674,-0.06684982,-0.017180486,-0.26727802,-0.5514051,-0.14239025,-0.16638955,0.07180784,1.276081,0.2653229,-0.188932,0.4078573,-0.19612032,0.24609263,-0.3905293,-0.3542828,-0.04805368,-0.10191652,-0.25808442,0.82104844,0.13665725,0.38342434,-0.058740146,-0.34399435,-0.7119248,0.19267245,-0.00578141,-0.37210706,0.04193949,0.028369552,0.6130868,-0.540688,-0.5906613,-0.36395237,0.3518075,0.11975608,-0.5280474,-0.5764179,-0.017701546,-0.27194312,0.2997788,0.88783413,0.15742283,-0.48369628,0.35654157,0.05141816,-0.44984782,-0.5231077,-0.07778593,0.6889289,-0.5095911,0.045236778,-0.3128862,0.08458148,-0.46451563,0.4693959,0.4061224,-0.52063334,-0.44232622,-0.04088928,0.100001656,-0.40052122,0.4293465,0.90455693,-0.13615857,-0.5118749,-0.31471178,0.14305222,0.6577598,0.024794737,-0.026510734,0.285553,-0.31725687,0.17225748,0.23559628,0.24153419,0.17467768,0.64448255,-0.15491542,-0.508831,-0.6326367,0.50083184,-0.3781437,-0.9757263,-0.056730658,0.07816258,-0.38571164,-0.083116494,0.53741527,-0.49344274,0.6824995,0.24698654,-0.36711884,-0.17056075,0.125157,0.62064284,0.13298982,-0.18577485,0.21126005,0.014551068,-0.039906323,0.7034169,-0.004465656,-0.29623199,-0.13097121,0.5965918,0.13601671,-0.20597383,-0.12494427,-0.56396717,0.5668903,0.0893802,0.37027618,0.06733894,0.31233194,0.007183527,-0.74440986,0.056086157,0.0031751546,-0.34648946,-0.77190703,0.060074333,0.056253914,-0.3775416,-0.0646887,-0.051149458,0.12146746,0.4201163,-0.55115724,-0.07120424,0.39646593,0.39150274,0.06029578,0.08200191,0.37439528,0.46808907,-0.0002405658,-0.3626269,0.16193455,0.022777343,-0.2899578,0.16983193,0.1565397,-0.23327166,-0.11525492,-0.09080214,-0.82399404,-0.048999287,-0.4504923,-0.1438097,0.13314678,-0.9485457,0.20284939,0.073533356,0.20078059,-0.42451602,0.27314278,-0.37615618,-0.25169224,-0.5734121,0.2756937,-0.10732413,-0.07036298,-0.7371104,0.15551741,-0.13649677,-0.39989653,-0.2379471,-0.1397595,-0.076559566,-0.25363952,-0.08293026,-0.27805904,0.24870332,0.60543466,-0.10880478,-0.24157415,-0.60511017,-0.20321691,-0.38048652,-0.38996282,-0.16610484,-0.12708625,-0.5683447,-0.34314778,0.87574506,-0.13629816,-0.17805915,0.22739692,0.033352707,-0.029121164,-0.2824391,0.18422383,-0.2391974,-0.36678192,-0.17085162,0.09632708,-0.20029597,0.05592496,0.20038642,-0.2584611,-0.1434299,-0.07763393,-0.14363253,-0.21739484,-0.052106272,-0.12017822,0.22367431,-0.31669042,0.995518,0.24567437,-0.12470326,-0.43446183,0.31188434,-0.1658378,0.037673317,0.043675426,0.14021958,-0.12815055,0.42948472,0.019616716,0.2510606,0.16507962,0.028667785,-0.2453069,-0.35382503,0.1241897,-0.09097161,0.062252544,-0.3627814,-0.18473531,-0.59951705,-0.25468352,-0.21007563,-0.093113884,-0.0013835527,0.227497,0.09349901,-0.0011531903,-0.12130342
random,-0.27621046,-0.17151219,0.1877744,0.13152683,-0.42808893,0.38339552,-0.25149366,-0.26703942,-0.4363786,0.31199247,-0.6330314,-0.43349633,0.3312626,-0.45680213,0.35360765,-0.34167087,-0.07887639,-0.045978617,0.08496049,-0.22811808,-0.6451104,-0.0979122,-0.16407005,-0.0019491196,1.220592,0.3693726,-0.22080632,0.42748684,-0.22584125,0.2847491,-0.36075214,-0.33389115,-0.05286598,-0.07004275,-0.25877056,0.88844836,0.12855545,0.4831351,-0.041983053,-0.35469526,-0.6300681,0.20237555,-0.10184685,-0.3016699,-0.037426732,-0.034740355,0.6752479,-0.5855905,-0.7282444,-0.44638956,0.27279624,0.12410149,-0.55352753,-0.54482436,0.0024118843,-0.27270934,0.2970666,0.95051277,0.05224224,-0.52758455,0.3580106,0.005204983,-0.3853362,-0.42573532,-0.13622808,0.79921275,-0.5965823,0.10845465,-0.4014398,0.08464672,-0.49434668,0.43972418,0.4183054,-0.56160176,-0.4437523,0.050575092,0.18793172,-0.3932548,0.36493552,0.9620843,-0.20038205,-0.4191845,-0.44549143,0.16015644,0.65435195,0.08250974,-0.05082688,0.23373426,-0.35106757,0.2067241,0.21455036,0.25281492,0.1389389,0.76233464,-0.1319841,-0.47409734,-0.7363119,0.568079,-0.35698256,-1.0131902,-0.09969403,0.050050404,-0.51693314,-0.026525503,0.6606285,-0.449843,0.8070816,0.25868064,-0.40683323,-0.2594517,0.05711098,0.6250698,0.09783812,-0.32063165,0.15923066,-0.011746271,0.11614854,0.7652398,0.045272537,-0.39823964,-0.2532545,0.60993075,0.08138232,-0.2268206,-0.17589849,-0.71069103,0.6268858,0.09180015,0.36691746,0.043476168,0.40797937,-0.015359826,-0.76288813,0.12093888,0.10311894,-0.3017901,-0.8185606,0.1115819,0.005932255,-0.33248296,-0.113857746,-0.0023015982,0.09703319,0.41982841,-0.5821589,-0.0014932664,0.42726701,0.47383374,0.10226761,0.009366012,0.27596876,0.5307862,-0.07118103,-0.39537203,0.16665673,0.0067265825,-0.24715097,0.121008605,0.19752352,-0.18173723,-0.15768364,-0.08117937,-0.8889109,-0.12417886,-0.37586203,-0.18176714,0.17847785,-0.97409016,0.24006674,0.1545869,0.2650824,-0.3534048,0.17720829,-0.35443026,-0.274206,-0.4847368,0.14828889,-0.17624983,-0.040243637,-0.7324532,0.06150263,-0.095910326,-0.32506287,-0.24584363,-0.17106675,-0.03082192,-0.2792554,-0.043337833,-0.39981517,0.2712574,0.7285269,-0.12935913,-0.24784547,-0.5126384,-0.104512714,-0.4222425,-0.2751373,-0.29066956,-0.19070514,-0.574619,-0.4261576,0.9819128,-0.15180813,-0.07545268,0.1806049,0.09411586,-0.06864365,-0.35004848,0.16213733,-0.29272074,-0.3622316,-0.16629806,0.27721655,-0.307027,-0.010025075,0.20844473,-0.23315014,-0.1703354,-0.029729858,-0.12760662,-0.27070537,-0.002576248,-0.13513257,0.23321117,-0.3272173,1.0581394,0.3363087,-0.2476727,-0.41462415,0.33561248,-0.17663868,-0.026476623,-0.026572967,0.26933035,-0.20875987,0.5537857,0.050547637,0.1130159,0.2681259,-0.018393347,-0.19651814,-0.31889686,-0.026380593,0.010181013,0.07883241,-0.25002182,-0.12647805,-0.5825976,-0.18068926,-0.17781621,-0.095100306,-0.029189091,0.12100918,0.08058084,0.047638826,-0.1429367
random,-0.11083717,-0.06472941,0.023300419,0.047405917,-0.16652888,0.1520827,-0.1259124,-0.08230927,-0.13180548,0.07305265,-0.23847912,-0.15669625,0.103148945,-0.1609667,0.12666003,-0.09211867,-0.020953637,-0.030593975,-0.013083408,-0.08432127,-0.20407179,-0.015096611,-0.024568718,0.01727357,0.41064736,0.1033616,-0.10548621,0.13801153,-0.08717772,0.10608347,-0.15022777,-0.1005555,-0.020267814,-0.02829414,-0.09007643,0.278702,0.026749192,0.14436139,-0.0040125963,-0.09910257,-0.23120137,0.072748736,-0.0285349,-0.11192249,-0.024895305,-0.020125786,0.23031884,-0.18662682,-0.2253769,-0.12275124,0.1262793,0.017346721,-0.2006094,-0.17498529,-0.009836687,-0.089235716,0.11051716,0.31085518,0.031778518,-0.1813278,0.115476914,0.020037334,-0.13586107,-0.16999383,-0.035736587,0.2548549,-0.18507245,0.013826993,-0.117151506,-0.0004987351,-0.17525735,0.15876934,0.13601108,-0.17428999,-0.13516161,-0.017389927,0.05673904,-0.14995354,0.13624372,0.320144,-0.050809458,-0.13528551,-0.12982684,0.04555529,0.22645721,0.037322756,-0.0024418314,0.11282603,-0.11155457,0.06389007,0.09266152,0.07208878,0.06332813,0.23781846,-0.05260184,-0.18333429,-0.21908405,0.16044633,-0.11287295,-0.3179467,-0.012491342,0.03747517,-0.14933942,-0.06450772,0.21373901,-0.16694234,0.26836318,0.109825455,-0.13087994,-0.065373585,0.020231642,0.19834672,0.016029054,-0.071134634,0.06069472,-0.036385577,0.018720884,0.26449308,-0.033012588,-0.11408952,-0.07598801,0.22849464,0.04033259,-0.074247785,-0.067099854,-0.21783711,0.15881301,0.03035757,0.124222554,0.026151827,0.12615982,0.014814924,-0.26560658,0.034226034,0.010031544,-0.0979559,-0.28167626,0.04338261,0.015351267,-0.14841309,-0.051291533,-0.005511407,0.062745854,0.15140061,-0.19375968,-0.042822625,0.13465878,0.15645002,0.030260472,0.031874012,0.09993456,0.18171483,0.013681819,-0.119693324,0.05898041,0.0028136582,-0.052072454,0.07094583,0.030373322,-0.050472777,-0.03273916,-0.031005688,-0.29533768,-0.023492008,-0.15454549,-0.028638942,0.06891195,-0.32765508,0.09435665,0.03610319,0.07806496,-0.15042508,0.08162582,-0.124672286,-0.0903172,-0.20130672,0.06634197,-0.038312174,-0.017412545,-0.26616195,0.061612993,-0.060905173,-0.13262773,-0.10005561,-0.058785517,-0.0033354664,-0.074196644,-0.03301425,-0.09721779,0.090503804,0.22269627,-0.057435647,-0.07312487,-0.18036908,-0.045744725,-0.15419486,-0.12551907,-0.080394685,-0.027512038,-0.23376799,-0.13981612,0.28935084,-0.04259234,-0.026675306,0.068821386,-0.0014509145,-0.011178382,-0.092114046,0.06683138,-0.15116705,-0.10819838,-0.059549924,0.039861966,-0.069023855,0.0063170586,0.06556619,-0.07787075,-0.05207877,-0.03733784,-0.040939435,-0.112911224,-0.0037484597,-0.030574549,0.09117251,-0.09717827,0.36048546,0.08375139,-0.075830266,-0.12304442,0.09112861,-0.03824877,-0.012913715,0.00063852244,0.08661518,-0.052091457,0.15559076,-0.0073961457,0.036545184,0.042889077,0.019938901,-0.08308402,-0.11586937,0.010924041,-0.02051224,0.023482284,-0.1106093,-0.049909372,-0.17182425,-0.06318613,-0.045831352,-0.032969296,-0.018128417,0.058466915,0.017976345,-0.011578996,-0.05502542
random,-0.10547616,-0.066590235,0.029831491,0.046224684,-0.18531556,0.16394566,-0.1265643,-0.08601212,-0.1208256,0.052819725,-0.25869992,-0.1624961,0.083684124,-0.14015673,0.12680553,-0.11643581,-0.015452002,-0.018039456,0.0005137612,-0.10192311,-0.23335177,-0.07279742,-0.033668287,0.062284812,0.44597346,0.106090285,-0.10850154,0.16789815,-0.07465783,0.120404035,-0.15794721,-0.12312108,-0.02095341,-0.0025892144,-0.0961337,0.2926125,0.043134023,0.14733544,-0.04174142,-0.12676255,-0.24705672,0.08836799,-0.016457465,-0.13508637,0.029822413,-0.0023056136,0.26161334,-0.20396169,-0.18870373,-0.1450689,0.12616174,0.05258137,-0.21619643,-0.18592712,-0.005416695,-0.07369865,0.13891865,0.30439463,0.07212629,-0.19866575,0.10723037,0.0116031775,-0.17132057,-0.20490244,-0.03973237,0.2536068,-0.17402457,0.020630678,-0.11055292,0.027517807,-0.18107475,0.18563065,0.14089002,-0.17411044,-0.16636966,-0.035756752,0.04308492,-0.1726221,0.1357797,0.34795585,-0.046764776,-0.17336664,-0.13671051,0.049452413,0.23205084,0.02414143,-0.011446418,0.13533434,-0.14004524,0.057855573,0.0995175,0.07257329,0.071048856,0.2596303,-0.042844392,-0.1905599,-0.2242486,0.1952528,-0.14867172,-0.3473893,-0.014736799,0.037434623,-0.11465277,-0.03811891,0.1894759,-0.20539096,0.24590136,0.07853555,-0.116453186,-0.051590167,0.010299416,0.22307791,0.03350819,-0.052921202,0.068252064,-0.012534617,-0.025769882,0.2593021,0.0016736765,-0.105340995,-0.05620987,0.2398791,0.047047973,-0.098688446,-0.0749204,-0.24383618,0.20868486,0.011158786,0.118222095,0.025196208,0.14596935,-0.02474068,-0.2606655,-0.0094771935,0.009622003,-0.12069081,-0.29256308,0.02649921,0.045371965,-0.1530125,-0.062545836,-0.0012739406,0.05353388,0.15919153,-0.21687384,-0.057677843,0.15019862,0.14935066,0.030109957,0.06657111,0.14309266,0.2044528,-0.0054789158,-0.13634762,0.057170004,0.0051251687,-0.09291415,0.104475066,0.061946567,-0.08162083,-0.047155913,-0.010192673,-0.33282423,0.007236442,-0.18251757,-0.033289682,0.083630264,-0.33892018,0.08017198,0.049057666,0.073152676,-0.14981781,0.08743225,-0.14705168,-0.09319366,-0.21598507,0.1062426,-0.04967646,-0.005994281,-0.27861995,0.06264044,-0.063938715,-0.16547371,-0.087856725,-0.052314144,-0.019763585,-0.098903075,-0.026144754,-0.09827118,0.07167418,0.23996006,-0.061588835,-0.07959526,-0.2267031,-0.07890522,-0.16479702,-0.15901433,-0.06869021,-0.055189665,-0.2545841,-0.1522799,0.32587692,-0.03206812,-0.07178075,0.09872975,-0.008807038,-0.011426108,-0.114204004,0.08277198,-0.11261893,-0.10680249,-0.082980715,0.029038755,-0.09626802,0.028252812,0.072370104,-0.09709579,-0.07355148,-0.028073031,-0.044939727,-0.08842646,-0.036813013,-0.057824343,0.08015673,-0.10525948,0.38565242,0.07681514,-0.0746697,-0.15677917,0.09280631,-0.060140513,-0.0069303177,0.027609847,0.058665607,-0.06415427,0.14453717,-0.017436039,0.08855611,0.034701426,0.011092606,-0.10452586,-0.13915162,0.032295436,-0.06070377,0.030522296,-0.1245758,-0.07914704,-0.22294909,-0.09795325,-0.04139011,-0.010978224,-0.016888188,0.09197147,0.01318926,-0.0107581625,-0.043528873
random,-0.30393317,-0.1978544,0.1375168,0.07620768,-0.507824,0.51701444,-0.28330395,-0.20168906,-0.3502174,0.09935024,-0.68437344,-0.38678235,0.22582048,-0.34480238,0.40459475,-0.2869936,-0.042197928,-0.048291005,-0.0072177094,-0.2802093,-0.6256842,-0.13214067,-0.088180676,0.12346432,1.2106469,0.27004278,-0.308774,0.52263016,-0.2234784,0.3081658,-0.40883178,-0.3084783,-0.03263638,-0.028086925,-0.26308984,0.74967057,0.023299128,0.3601994,-0.06819318,-0.33754864,-0.6661565,0.21214674,-0.09776455,-0.3210612,0.041652966,-0.009034162,0.71263105,-0.49643394,-0.5222432,-0.38499725,0.31036147,0.13609934,-0.6333218,-0.48356137,0.029223768,-0.21290487,0.35377765,0.80926603,0.14596602,-0.54214793,0.2835829,0.06096878,-0.43032572,-0.5087205,-0.071347795,0.7090846,-0.45210916,0.076811686,-0.293908,0.0756186,-0.5075361,0.45242056,0.3794318,-0.46783194,-0.45663455,-0.1104463,0.13094811,-0.45090398,0.38152024,0.9202681,-0.11223382,-0.42123184,-0.3884969,0.11891828,0.5822709,0.12809399,-0.031719144,0.35510066,-0.31778786,0.17506252,0.20631917,0.13375287,0.110353865,0.6828658,-0.12176812,-0.49439505,-0.58429253,0.49410644,-0.36807755,-0.9135778,-0.034929287,0.15259385,-0.38004673,-0.13093938,0.5106916,-0.55596906,0.70152575,0.2542722,-0.30512607,-0.15141131,0.054030035,0.61357015,0.05921074,-0.16622023,0.16628397,-0.029209077,-0.06416907,0.6988225,-0.0001765655,-0.30311686,-0.22136404,0.64835364,0.12117244,-0.27689007,-0.18832718,-0.7062967,0.5439765,0.06043068,0.42208132,0.04198909,0.36858934,-0.07601276,-0.72902125,-0.022185499,0.046039306,-0.2573011,-0.8649774,0.12450284,0.074531816,-0.4546976,-0.17996666,0.013300578,0.155281,0.40200627,-0.5890362,-0.1800184,0.3485183,0.38992462,0.05159197,0.13800322,0.34067243,0.5606157,0.011303365,-0.37929752,0.17096359,0.01726096,-0.22046497,0.2376052,0.1568181,-0.17890033,-0.12655202,-0.021813527,-0.80699134,0.06785202,-0.42806485,-0.06816145,0.2516233,-0.8909073,0.21276386,0.09722361,0.200249,-0.3925008,0.24547978,-0.38539642,-0.25289214,-0.519097,0.25698674,-0.09218432,-0.027082223,-0.7290413,0.17738257,-0.17608717,-0.40260246,-0.1928153,-0.14508136,-0.04599662,-0.20253602,-0.13509148,-0.28512633,0.16710773,0.6377606,-0.1895557,-0.20168938,-0.5497178,-0.1834123,-0.45572257,-0.39752498,-0.20796354,-0.14908311,-0.69931805,-0.41192946,0.8256266,-0.15413922,-0.1904071,0.26941225,-0.02489281,0.026999323,-0.22583638,0.21802332,-0.30210683,-0.28621954,-0.17763284,0.08321159,-0.29029495,0.034813,0.19152936,-0.2515556,-0.172527,-0.10548487,-0.108822666,-0.2653555,-0.036620103,-0.11477461,0.22525081,-0.25044858,1.0613648,0.15390873,-0.23677063,-0.41634247,0.20408541,-0.14464617,-0.010550792,0.05148616,0.2521445,-0.16591984,0.34530538,-0.030105868,0.19308972,0.10748239,0.024925184,-0.22927421,-0.415957,0.07734413,-0.08483679,0.094492696,-0.32454422,-0.116781406,-0.5053851,-0.23691554,-0.15173827,-0.034351874,-0.055985145,0.24218729,0.008662118,-0.06035229,-0.12447786
random,-0.16271701,-0.1059096,0.085429594,0.031390034,-0.22084977,0.19577473,-0.10086696,-0.09703745,-0.17390946,0.14333157,-0.29329684,-0.17800759,0.13166648,-0.20833147,0.12829153,-0.14655745,-0.026995862,0.012090837,-0.032796994,-0.14341527,-0.24418636,-0.023440229,-0.07610664,-0.02589979,0.5935389,0.14782837,-0.09129177,0.19447832,-0.118435904,0.14123024,-0.1445862,-0.15778475,-0.014815384,-0.04276886,-0.14355072,0.40095994,0.045134936,0.16447969,-0.02038808,-0.1436317,-0.29006958,0.07555639,-0.082148224,-0.13525464,0.025258826,-0.020503508,0.3418184,-0.2668979,-0.28562862,-0.21713455,0.08673034,0.03453468,-0.25402513,-0.22494109,0.05132238,-0.133444,0.088780865,0.42319393,0.040318727,-0.24984552,0.12519698,0.04035603,-0.23842049,-0.20716564,0.0036417977,0.37157738,-0.20217411,0.00333947,-0.11975733,0.02851548,-0.19023144,0.24873103,0.24218194,-0.26614338,-0.23525822,-0.011862202,-0.007376764,-0.21155119,0.15088147,0.39929402,-0.06763638,-0.13720617,-0.12516849,0.05674185,0.2990619,0.026067806,0.042615775,0.103455976,-0.15459138,0.08978885,0.078241855,0.113375835,-0.023717165,0.3277454,-0.031621784,-0.1608213,-0.34425768,0.22567883,-0.20149148,-0.44218433,-0.039427586,0.0017956003,-0.27209136,-0.037373293,0.25460267,-0.18419343,0.30971125,0.07894984,-0.16793112,-0.12447452,0.062460523,0.29084072,0.048865855,-0.093071796,0.06824738,0.02012236,-0.008251527,0.3198139,0.008830284,-0.17310354,-0.1063259,0.28553554,0.035735447,-0.09882504,-0.062172048,-0.33612582,0.29921964,0.06231592,0.23937486,0.037102845,0.17031166,0.0066057923,-0.3646762,0.052193638,0.018271923,-0.1590608,-0.41800147,0.035782263,-0.040121812,-0.18376435,-0.05884136,-0.025941571,0.044838123,0.2232873,-0.2815266,0.0034355607,0.2171919,0.16938418,0.05565895,-0.036492832,0.14345255,0.23642793,-0.057599157,-0.23021276,0.08204869,-0.017227639,-0.13514733,0.09344108,0.060134917,-0.07812811,-0.05419,0.0028661648,-0.39402664,-0.06342694,-0.22510435,-0.12195829,0.09277949,-0.46874464,0.08328417,0.051863227,0.16259743,-0.191008,0.08126094,-0.2062229,-0.14722759,-0.22423095,0.06114125,-0.06887667,0.005445692,-0.34941366,0.040372066,0.006159604,-0.16045576,-0.14575978,-0.037394285,-0.016502129,-0.16173366,-0.00737222,-0.10511318,0.11417526,0.33544567,-0.10900062,-0.123746976,-0.23538469,-0.05850869,-0.20644696,-0.12694316,-0.16624872,-0.1300218,-0.25527406,-0.14873576,0.38764286,-0.03985426,-0.057894237,0.09889879,-0.01957973,-0.0032955108,-0.09167575,0.03900878,-0.11984765,-0.17987175,-0.051018838,0.11350742,-0.15583472,0.0085090455,0.049642626,-0.106468506,-0.06797303,-0.009606419,-0.06339556,-0.06873079,0.014576984,-0.07350815,0.09801728,-0.16942109,0.45406508,0.08970523,-0.072555915,-0.2054912,0.14630027,-0.063967,-0.0040299906,-0.03636371,0.08275355,-0.11397469,0.17679802,0.0067371754,0.07445889,0.099042214,0.00052977185,-0.08337089,-0.18033008,-0.0046284706,0.017424589,0.060897477,-0.13373333,-0.040412616,-0.20938352,-0.0784377,-0.0882092,-0.060494483,-0.00079151953,0.086045064,0.056137178,0.0055176374,-0.062037244
random,-0.06576375,-0.03921721,0.03824104,0.029386384,-0.11445689,0.116195865,-0.06450239,-0.048704132,-0.052673478,0.014917993,-0.15158558,-0.09687902,0.037543524,-0.046837024,0.08936991,-0.05975856,0.0018416467,-0.011431759,0.008168236,-0.044671156,-0.14434536,-0.030374456,-0.013335648,0.030781895,0.25707862,0.062812634,-0.09741944,0.11176503,-0.037113786,0.069231436,-0.09526299,-0.061587524,-0.0035953042,-0.010280734,-0.056424428,0.16066177,0.015796904,0.08667141,-0.023935534,-0.07122208,-0.13828541,0.049559075,-0.023294464,-0.08233131,0.015510875,0.018552165,0.1650587,-0.112366706,-0.10656463,-0.09563236,0.07059123,0.048606902,-0.14599185,-0.102496035,0.0009724835,-0.042727165,0.107969284,0.17004132,0.041248213,-0.118708,0.04717009,0.012896781,-0.103070654,-0.10750243,-0.024998311,0.13041772,-0.09289823,0.024910143,-0.07477006,0.015938655,-0.09653365,0.0997608,0.07868712,-0.0831939,-0.109182045,-0.025056666,0.024281774,-0.109351605,0.07261414,0.20075636,-0.015977385,-0.09073999,-0.09515229,0.041188627,0.11859712,0.032314096,-0.013453696,0.07515262,-0.07674247,0.04821879,0.046814825,0.033295214,0.03260478,0.15329503,-0.0067063654,-0.105858535,-0.107457876,0.12651584,-0.07580125,-0.1947835,0.00052373495,0.035835683,-0.05580378,-0.017948302,0.112868935,-0.11598007,0.15232253,0.07188311,-0.05572797,-0.023479495,-0.0066568083,0.15243302,-0.01508333,-0.02948572,0.02785977,-0.015751055,-0.004758326,0.15106183,0.011825907,-0.053412665,-0.06564122,0.16037473,0.020183869,-0.07201529,-0.060563665,-0.16754009,0.10534873,0.0077333455,0.09075786,-0.0056433915,0.067779124,-0.020394197,-0.15444288,-0.010131221,0.016165564,-0.042512197,-0.18027835,0.04075527,0.03948431,-0.10770363,-0.045198537,0.0071188677,0.034216657,0.094735354,-0.12851211,-0.06304269,0.08194691,0.09292757,0.020928238,0.05206593,0.06858026,0.13308604,-0.0036209086,-0.074634925,0.03305801,-3.3541117e-05,-0.060912833,0.059688047,0.0323188,-0.029010521,-0.028350357,0.009002641,-0.17300415,0.018344628,-0.09808979,-0.009304246,0.069692455,-0.19884533,0.05792068,0.01484998,0.052142013,-0.072890975,0.05032345,-0.07136382,-0.054880366,-0.12762779,0.06117669,-0.02074506,-0.009712631,-0.16482502,0.034918822,-0.04552659,-0.09355669,-0.050688572,-0.04082855,-0.0031822163,-0.04663653,-0.017394815,-0.0714048,0.03220264,0.15389885,-0.028959038,-0.024192443,-0.11909769,-0.040095344,-0.10978663,-0.10160341,-0.026890691,-0.041859638,-0.14703575,-0.10122848,0.1767584,-0.01930811,-0.04456258,0.053315733,-0.022228602,-0.001601799,-0.058553338,0.063941486,-0.07142223,-0.057001732,-0.044874147,0.015392214,-0.07222921,0.012143071,0.03805859,-0.051892996,-0.03777045,-0.018362151,-0.017015535,-0.060188927,-0.015737765,-0.042566318,0.04810344,-0.042466033,0.23005809,0.010945138,-0.064275414,-0.10203156,0.050222557,-0.024780527,-0.012464093,0.0065607177,0.044607844,-0.049748313,0.062339757,-0.01950561,0.052192617,0.012553196,0.00083198986,-0.051089846,-0.089544564,0.035425346,-0.022130124,0.03886761,-0.058928557,-0.02122558,-0.1073165,-0.048841525,-0.026662378,0.016865619,-0.01495683,0.04911763,-0.016097901,-0.020618258,-0.028643066
random,-0.33917546,-0.22262767,0.15127783,0.10050872,-0.46883,0.4369088,-0.2870141,-0.2566229,-0.39934582,0.22083107,-0.7116677,-0.41054797,0.27081528,-0.42433676,0.38320956,-0.3162799,-0.056691624,-0.022257268,-0.018723449,-0.30562067,-0.58142495,-0.094057105,-0.1431029,0.016001388,1.2544186,0.30022067,-0.26311648,0.42203537,-0.23711523,0.32054442,-0.37847203,-0.34399608,-0.027453737,-0.07420698,-0.2551882,0.82081354,0.03702049,0.39929065,-0.03633605,-0.32614216,-0.6665056,0.19321023,-0.12051854,-0.3065855,0.021724712,-0.030267399,0.75125444,-0.5714402,-0.60109913,-0.46932533,0.25178877,0.08134648,-0.62908506,-0.527821,0.04630014,-0.25116196,0.26821867,0.9461292,0.11969094,-0.559261,0.30168933,0.060455903,-0.46808645,-0.4585547,-0.084152415,0.7587672,-0.4906221,0.02303399,-0.30261773,0.028131368,-0.4532357,0.542265,0.47154266,-0.56579524,-0.48440242,-0.08877263,0.06341903,-0.48358774,0.34702468,0.9587173,-0.1638515,-0.38588268,-0.3485428,0.16045576,0.69653326,0.0058338516,-0.00015210675,0.28480786,-0.37633505,0.18030432,0.21583807,0.17806649,0.05802096,0.71808106,-0.120610364,-0.4840129,-0.652397,0.5312865,-0.39088684,-0.9619744,-0.06275155,0.067830734,-0.4943547,-0.13395794,0.6054174,-0.5147526,0.7680007,0.20443253,-0.34603864,-0.20072278,0.098364405,0.6424937,0.1068546,-0.25307882,0.16235581,0.007048064,-0.008518535,0.74065423,-0.014701087,-0.3562696,-0.21067013,0.66384387,0.105276026,-0.23538627,-0.14814082,-0.7470356,0.6145714,0.119273186,0.4261833,0.062130097,0.37728748,-0.015338065,-0.78283316,0.0703569,0.038577884,-0.27526814,-0.8743549,0.0838432,-0.009551458,-0.4033371,-0.15793547,-0.024286175,0.14958337,0.45848686,-0.59073114,-0.07138393,0.40407506,0.3635373,0.13183928,0.04308184,0.3057867,0.54799694,-0.06903994,-0.43132102,0.18117324,-0.0257989,-0.24840117,0.24597846,0.1533244,-0.21146306,-0.12299625,-0.03455084,-0.89262915,-0.08132497,-0.4853751,-0.1711697,0.20061228,-0.9657195,0.2085453,0.13572532,0.26928538,-0.42350358,0.22067621,-0.37744686,-0.27766892,-0.50072193,0.22771588,-0.1398945,-0.021180278,-0.7234633,0.13068682,-0.07381368,-0.36933953,-0.2867977,-0.11549168,-0.027210802,-0.2782048,-0.09204065,-0.253522,0.22561695,0.7298559,-0.17515151,-0.24325794,-0.54565376,-0.15616357,-0.46783116,-0.29708147,-0.302905,-0.19278677,-0.63319796,-0.38643268,0.9438453,-0.086138695,-0.117209494,0.23211336,-0.005401807,-0.055069637,-0.2623273,0.12216472,-0.29600784,-0.3502771,-0.15876757,0.19529425,-0.33663324,0.00478621,0.18459986,-0.25215596,-0.1432494,-0.023422655,-0.09416738,-0.22856617,-0.03790654,-0.1369049,0.25632527,-0.36369893,1.034475,0.25320217,-0.18626831,-0.42913908,0.320798,-0.16954403,-0.0033123754,-0.033901144,0.24959096,-0.22862689,0.46524134,0.049512967,0.18298726,0.23457347,0.030436762,-0.1908531,-0.4294567,0.027330322,-0.050445516,0.09548738,-0.31385344,-0.15213577,-0.5163094,-0.17975762,-0.19498135,-0.09054659,-0.037583034,0.2193092,0.10246548,-0.004652131,-0.1665455
