title,0,1,2,3,4,5,6,7,8,9,10,11,12,13,14,15
random,-0.14072438,0.24910018,0.40679288,0.10180027,-1.6635764,1.7455685,-1.5495977,-0.49818683,-0.874926,0.3040173,-2.6932495,-1.6651863,0.8912995,-1.0819173,1.271981,-0.69106466
random,0.8249754,0.7929097,0.83452404,-0.13934581,-3.901446,2.4756098,-3.3175194,0.20128316,-3.4522874,2.5906074,-6.163376,-3.2801595,1.5952913,-3.4133766,2.8313525,-1.3542985
random,4.8245087,1.7578634,4.0587153,0.3275928,-4.994036,2.0633767,-3.7265773,3.9972403,-0.8373677,7.843389,-16.562946,1.9496166,2.7890892,-10.029693,4.080341,1.4417121
random,0.12184447,0.18764651,0.1825477,-0.003319935,-0.5570991,0.63511604,-0.47708994,-0.09552319,-0.27464262,0.1796996,-0.8518817,-0.71784467,0.22757608,-0.3165707,0.44946107,-0.15527178
random,0.3649316,0.3593015,0.42576465,0.2794123,-1.2416646,1.1928564,-1.3687277,-0.21245465,-0.8722429,0.3335306,-2.287821,-1.338084,0.593818,-0.7462758,0.85655785,-0.63273174
random,-0.17799339,0.03645852,0.25549242,0.011450844,-0.8128927,0.91177464,-0.7772233,-0.31269827,-0.6237748,0.33033857,-1.3924639,-0.864742,0.5942712,-0.7083223,0.66473716,-0.4092035
random,0.00861628,0.20152394,0.21097131,0.028702775,-0.8846373,0.99159074,-0.9344404,-0.040225696,-0.58980095,0.29870284,-1.5350741,-1.1332353,0.50045973,-0.68513113,0.8033751,-0.33440027
random,0.12793703,0.21933879,0.32617262,0.051162943,-1.1385819,1.2619584,-1.3135985,-0.15499525,-0.57235485,0.3065064,-2.1221247,-1.331088,0.59072924,-0.6150239,0.93888235,-0.3766647
random,1.1724238,0.4601469,0.50278485,0.7270011,-3.834534,3.0818334,-4.6593814,-0.83706594,-1.6790577,1.2651652,-7.1124806,-3.7228189,1.9978865,-1.8288842,3.3762197,-1.2857745
random,0.09371071,0.25955895,0.32618818,-0.048667453,-1.4981642,1.7383921,-1.8377112,-0.3535063,-1.0565562,0.5365895,-3.1337178,-1.7902088,1.06488,-1.2354383,1.6623558,-0.9514041
random,0.004532612,0.2389448,0.15554856,0.004919685,-0.8193111,0.6239374,-0.71391594,-0.15669046,-0.47341868,0.41178265,-1.4731143,-0.93661064,0.61023885,-0.7489919,0.59716076,-0.423959
random,0.6400898,1.1651124,1.3255522,-0.48462293,-4.0510173,2.876904,-3.6472876,0.1598305,-2.4512706,0.76198363,-5.305913,-3.706192,1.8879781,-2.2039957,1.7492092,-1.4828779
random,-0.03416547,0.13299607,0.18444778,0.0037391852,-0.34102717,0.5953172,-0.5055228,-0.104592726,-0.19261675,0.19038668,-0.8538135,-0.5617962,0.24289411,-0.30474854,0.50953317,-0.1024904
random,0.55890286,-0.2692842,0.8906989,-0.3671897,-2.599487,2.5023706,-3.683276,1.092425,-3.4633725,3.3569713,-6.4475794,-2.3183374,2.0330315,-3.371227,2.9573293,-1.6352422
random,-0.07041255,0.20297028,0.24556114,0.016894031,-0.77499,0.79722077,-0.775544,-0.11263074,-0.53793657,0.34418732,-1.4776983,-0.756885,0.5256117,-0.67696166,0.66816926,-0.10229771
random,0.2520877,0.27882004,0.39886087,0.07259745,-1.6210519,1.4672139,-1.4678935,-0.01438074,-0.878515,0.47677013,-2.5930593,-1.6188835,0.6245118,-0.8301814,1.2919346,-0.22502868
random,0.157003,0.39580816,0.6143208,0.017806398,-2.4567738,2.283545,-2.6076105,0.10970419,-2.0283797,0.9966408,-4.440499,-2.5019226,1.5098586,-2.132054,2.0703475,-0.9776646
random,0.2406976,0.26539725,0.16593133,0.11764205,-1.0402374,0.949748,-0.8754046,-0.0061704125,-0.43888676,0.16893905,-1.3674856,-1.1330426,0.34241685,-0.53440666,0.5269802,-0.28889552
random,0.58756113,0.54413414,1.1338047,0.512588,-3.444928,2.5291045,-3.1910467,0.45670238,-2.9360683,1.5965976,-5.567355,-2.6986005,2.113666,-2.6475718,2.161287,-1.0634094
random,0.6919642,1.4367764,0.93790925,-0.340023,-3.4122262,2.5873976,-2.941399,0.15274025,-2.7358804,2.5161304,-5.486408,-3.5765805,1.8697786,-2.8384583,3.6720817,-1.2254499
random,0.66610354,0.40022588,0.45931873,-0.013060553,-1.9352376,1.9061611,-2.0189066,0.13127042,-2.2327545,1.3733109,-3.7356231,-2.3931618,1.1047826,-2.1411412,1.7516513,-0.4389006
random,-0.09040912,0.17056595,0.38210985,0.011442432,-1.1242986,1.0553737,-1.0808544,-0.07175441,-0.67940557,0.28823468,-1.8963429,-1.2121427,0.7405869,-0.690838,0.8142116,-0.40490878
random,0.3880756,0.082366414,0.8936869,1.1675808,-2.5445054,2.3334448,-3.2008846,-0.25092077,-1.2185268,1.4792719,-5.30104,-2.1766036,1.6612314,-1.5192326,2.4837096,-0.896561
random,1.5574332,0.46667087,0.66378725,0.48145193,-2.8668008,2.5672975,-3.2838697,1.1152962,-2.837079,2.864094,-6.2253375,-2.7997313,1.2771894,-2.7493117,2.371601,-0.35185614
random,0.20967804,0.46094128,0.63686407,-0.18205245,-1.6626647,1.0147408,-1.6081408,0.62071615,-1.5568047,1.2378054,-2.8064857,-1.4347699,1.1294692,-1.3782774,1.6304008,-1.2495983
random,0.011278809,0.14810207,0.5329667,0.23764846,-1.8932543,1.6583213,-1.6404009,-0.008220785,-1.5888988,0.9117964,-3.4379225,-1.5936774,1.1107284,-1.7778567,1.312239,-0.59626156
random,0.44150308,0.62635386,0.7130631,0.062593475,-1.4118809,1.5048698,-1.7041179,-0.4169604,-1.6325445,1.2737724,-3.3396268,-2.0075994,1.4297235,-1.5275551,1.616541,-1.4730772
random,-0.10533636,0.07195345,0.16437343,0.06599473,-0.61486405,0.68253005,-0.59887666,-0.27994487,-0.39790225,0.17636305,-1.0989354,-0.74997234,0.49011675,-0.46091297,0.57007086,-0.31045344
random,0.0100413505,0.11613502,0.20763987,0.033650145,-0.68345356,0.9112557,-0.6765914,-0.055423822,-0.353447,0.1595234,-1.3603538,-0.8102693,0.39275435,-0.47805396,0.6673459,-0.14610785
random,0.03437626,0.308615,0.42005154,-0.1271235,-1.8717328,2.0802674,-1.8517647,-0.11529743,-1.4127198,0.46139866,-3.2439942,-1.8303051,0.8925405,-1.4796894,1.660086,-0.77906865
random,-0.15539967,0.038708486,0.26613414,-0.123713754,-0.79519695,0.77555346,-0.7612569,-0.3802664,-0.6195089,0.53571033,-1.625256,-0.8067206,0.72145027,-0.75894636,0.5632224,-0.51223135
random,-0.03537702,0.026354803,0.15512305,0.0880508,-0.43454254,0.39647114,-0.38759002,-0.08593491,-0.17316893,0.13150084,-0.735058,-0.5110821,0.24071121,-0.19173832,0.334526,-0.22624436
random,-0.18458922,0.38837522,0.6128597,-0.20357284,-1.6364336,1.8808507,-1.8731407,-0.61193687,-1.2451162,0.9329527,-3.3515387,-2.3325355,1.178489,-1.62142,1.6676236,-1.0576352
random,0.93582237,1.0818491,0.6090148,-0.84189874,-2.7175424,2.4463954,-2.7672143,0.47578532,-2.3342018,0.7243633,-5.578081,-3.0785096,1.3910758,-1.70531,2.5944176,-1.9292794
random,0.14921427,0.16106065,0.19736676,0.039908487,-0.96661824,1.0194669,-0.9283333,-0.24888544,-0.64826673,0.09540765,-1.5579567,-0.9096855,0.47413808,-0.6144745,0.74408644,-0.40243298
random,0.48102802,0.17062755,0.26518074,-0.14444444,-2.3814576,2.0737839,-2.0388017,0.2326406,-1.8043027,1.2193779,-4.024228,-2.2312086,1.0357262,-1.8791864,1.4676108,-0.47987974
random,-0.31231558,0.32703885,0.5032485,0.10926116,-1.8750212,1.633589,-1.6558181,-0.33464405,-0.89322907,0.43231693,-2.81418,-1.8543669,1.2255182,-1.1178466,1.2983187,-0.6577105
random,0.0072572837,0.12276295,0.16417393,0.05890256,-0.24791797,0.31952938,-0.30142108,-0.06226843,-0.24069056,0.267759,-0.6329469,-0.36311132,0.20260096,-0.3348186,0.27933964,-0.06606833
random,-0.25632197,0.12749666,0.3813829,0.047126886,-1.1624155,1.4443094,-1.218809,-0.3406791,-0.5188714,0.19047976,-2.1204724,-1.4072163,0.6743624,-0.74533314,1.0267004,-0.38716972
random,0.055789597,0.112468675,0.16150281,0.06472628,-0.89687836,0.82446873,-0.74417466,-0.10141345,-0.5957132,0.23593774,-1.4835879,-0.80881274,0.26910874,-0.57509345,0.6233285,-0.3798123
random,-0.087998174,0.036297243,0.24663854,0.120062016,-0.7826855,0.81574446,-0.70382,-0.227137,-0.3680683,0.19916524,-1.3669939,-0.9089315,0.26466477,-0.46660072,0.45487446,-0.25862792
random,-0.032273296,0.50742215,0.381426,-0.008790448,-2.0695117,2.3662052,-2.242881,-0.4888967,-1.2878392,0.73755515,-3.524909,-2.6269832,1.3594847,-1.6695998,1.839864,-1.0481002
random,0.013641519,0.014992595,0.5568565,0.025141295,-2.3431275,2.0232708,-1.8895826,0.07233075,-1.3452159,0.6780404,-3.6665993,-1.9459333,0.8942205,-1.4999427,1.5020792,-0.6624852
random,0.095899746,0.16854802,0.3258599,0.01426324,-1.4047902,1.2568043,-1.1616999,-0.09526117,-0.91644746,0.4197557,-2.2557676,-1.3401284,0.71113616,-1.0075474,1.0489838,-0.58418643
random,0.37811786,1.0329171,1.0257196,-0.7667362,-3.2061386,2.5548718,-2.389247,0.6268617,-3.1698177,2.2810361,-5.3700366,-2.777471,2.4535203,-3.984912,2.116601,-1.0722934
random,-0.022740245,0.19323792,0.22547744,-0.07219258,-1.1566881,1.0737888,-1.183018,-0.17175624,-0.7967787,0.5321231,-2.166158,-1.2721841,0.78398246,-1.0038487,0.92616564,-0.5333324
random,-0.10913229,0.09230072,0.24123389,0.061399665,-0.9296459,1.1073372,-0.90135366,-0.2403678,-0.555696,0.36626768,-1.7908311,-1.0622342,0.58252555,-0.7456181,0.86845934,-0.4473016
random,2.1318252,0.8984137,1.1765425,-0.0024220166,-5.0249434,3.8845081,-4.1071844,1.3815864,-2.7426403,2.167343,-7.2186346,-4.0712676,2.191065,-3.4573855,2.2473195,0.07900042
random,1.59283,2.0695148,1.0631188,-1.2522261,-4.7879286,2.726271,-3.2870448,0.79573166,-3.452953,4.1682305,-7.661736,-4.0763693,2.2652092,-3.9619045,2.033409,-1.5317175
random,0.8864772,1.0381997,0.76416796,-0.27693546,-2.6131287,2.5028136,-2.9862478,0.2159428,-2.5467784,1.8555744,-5.0403543,-3.3221922,1.4519194,-2.5306258,2.5220013,-1.0502899
random,0.061450783,0.15535907,0.21020925,0.03907279,-0.51641,0.6109425,-0.6313712,-0.012761085,-0.39343166,0.2942791,-1.0284456,-0.67699075,0.3091168,-0.42771485,0.47696996,-0.22762106
random,0.19894215,-0.02857874,0.5589145,0.075831115,-2.1862268,1.9548393,-1.752442,-0.058717035,-2.1626954,1.428298,-4.047568,-1.733311,1.4069343,-2.1439579,1.6108719,-0.9152705
random,0.72910017,0.39248365,0.60241055,0.62773883,-3.765017,2.8951128,-3.147249,0.33803743,-2.6143935,1.633615,-6.0095806,-2.4073293,1.5621332,-2.3175676,1.9147321,-0.8088514
random,0.7996424,0.6824785,0.5615167,0.060691822,-1.7278744,1.8254988,-2.0319412,-0.22288364,-1.1222162,0.33282888,-2.850434,-2.0770319,0.54463893,-0.74023163,1.3918079,-0.5480441
random,-0.1702396,0.19924559,0.31297827,0.098950095,-1.1171994,1.1450249,-1.0966402,-0.19446452,-0.6844337,0.31900895,-1.926272,-1.1130222,0.7725992,-0.79883957,1.0109435,-0.6210721
random,0.89665353,0.71749955,0.5721637,0.1482167,-3.253699,2.9447167,-2.9016578,-0.22072141,-3.2208722,2.253461,-5.7583294,-3.6069357,1.6717403,-3.2093115,2.1292956,-1.3003387
random,-0.751525,-0.38535386,0.4976113,0.32421213,-2.906288,1.8660023,-1.8910942,-0.19437802,-1.7890489,0.8345196,-4.6959324,-1.9726491,2.1402347,-1.7755456,0.7891868,-1.5568706
random,0.009654369,0.14320531,0.27221867,0.061322097,-0.5520984,0.6628334,-0.54470855,-0.057157233,-0.34102416,0.20086211,-0.89610785,-0.595377,0.22644742,-0.364111,0.48800042,-0.15773678
random,1.0454302,-0.45341012,0.82327616,1.2710817,-4.49563,2.6044047,-4.0974154,1.2063563,-2.6684077,2.4535565,-7.600755,-2.6798847,1.8902992,-2.223301,2.5717435,-0.7946509
random,0.0005514093,0.46259877,0.75928515,-0.54944605,-2.5141075,1.955836,-1.8936095,0.43987444,-1.9350182,0.6535764,-3.7211952,-2.409036,1.1794909,-1.515266,1.9529128,-1.5771604
random,0.45123065,0.26936164,0.11143801,0.14482506,-1.2552136,1.084978,-1.4216506,-0.0029028114,-1.0567551,0.57519704,-2.367616,-1.4152983,0.4818334,-0.9527463,0.9474931,-0.40238005
random,-0.027917633,0.1896389,0.23572648,0.016759716,-0.67192477,0.9556741,-0.8032996,-0.30152825,-0.50958836,0.37406775,-1.4543343,-1.0398719,0.5108361,-0.67137456,0.73702633,-0.20946926
random,0.30828613,0.25168443,0.7801877,0.68075913,-1.9645241,1.6085484,-2.1794696,0.06871753,-0.83722425,1.0975275,-3.5659177,-2.561905,1.1124659,-0.62333876,1.3616439,-0.6251944
random,0.19401047,0.22155157,0.3909037,-0.0002778052,-1.4275485,1.413696,-1.4028404,0.07430388,-1.0306038,0.8719561,-2.812498,-1.5607438,0.91548896,-1.1883078,1.0956926,-0.6133219
random,0.81824034,0.592208,1.276346,0.08858657,-4.4294868,3.735887,-3.5535161,0.08340858,-2.508502,1.6313226,-6.8018284,-3.398358,2.0736969,-3.1105993,2.5695493,-1.1785675
random,-0.22447391,0.013041327,0.13195251,0.018022014,-0.44965127,0.45985538,-0.287345,-0.19838504,-0.32489952,0.18505241,-0.73435354,-0.5034146,0.2815047,-0.44914323,0.2795006,-0.30746275
random,0.027914261,0.10413384,0.14350128,-0.06627781,-0.4935293,0.5581971,-0.523349,-0.09200946,-0.21781887,0.022599537,-0.87650824,-0.5738058,0.26564854,-0.27702692,0.4358571,-0.24098219
random,0.006520229,0.012809566,0.20954126,0.094955735,-0.63112015,0.8001876,-0.53751415,-0.21947679,-0.49897793,0.25780165,-1.1121951,-0.71352655,0.30527133,-0.5193221,0.5463069,-0.27321154
random,0.2005709,0.3251191,0.087488286,-0.04713525,-0.6041968,0.6572154,-0.79495484,-0.036551982,-0.43829244,0.13367052,-1.1665846,-0.8034946,0.37547368,-0.47411653,0.63039094,-0.13989781
random,0.6472105,0.32157418,0.0629422,-0.013467116,-2.4294486,2.0751472,-2.5122209,0.42935342,-1.8811843,1.1251186,-4.598938,-2.328862,1.0545789,-1.6590011,1.7514529,-0.78122133
random,-0.7055947,0.7695465,0.8801854,-0.07920305,-3.25563,3.388421,-2.6150553,-0.45663685,-1.8698759,1.5218294,-6.8610673,-3.4526496,2.7294877,-2.723946,2.1260765,-2.357795
random,-0.16411841,0.3630562,0.624152,0.21470545,-1.3916436,1.905884,-1.7339679,-0.37174553,-0.71759486,0.42221224,-2.7371407,-1.9598805,0.9260494,-0.9515089,1.5341321,-0.42862505
random,1.1410736,1.6393193,0.7498569,-0.6617715,-4.1413655,3.330916,-3.5036824,0.25317872,-2.4336886,0.9168251,-5.9480147,-3.5646408,1.9374175,-3.0376053,2.1741157,-1.5435605
random,0.3131272,0.2653429,0.69889057,0.23911794,-2.269919,2.0756886,-2.4635134,0.039260708,-1.4004841,0.9270854,-4.1599646,-2.3804302,1.4620446,-1.3087438,2.0715325,-0.6669814
random,0.23028679,0.2887715,0.31762505,-0.07459776,-1.0038062,1.0236785,-0.9656316,-0.12450403,-0.7665114,0.10635606,-1.4633859,-1.2287236,0.47455788,-0.64614236,0.76977724,-0.47761384
random,-0.49648234,-0.06229157,0.35397413,-0.0062496956,-1.8834783,1.7842679,-1.4204798,-0.20020807,-1.1995795,0.70885247,-3.5353491,-1.9309886,1.3808533,-1.4243267,1.4431934,-1.4278532
random,-0.030355074,0.31940746,0.35975513,0.16451022,-1.9097178,1.2860698,-1.6916288,0.040969975,-1.3824614,0.84673256,-2.9937942,-1.6308262,1.4597188,-1.5030546,1.2660466,-1.0378401
random,0.09091663,0.24109286,0.5289461,0.1001291,-1.6319023,1.7985922,-1.562141,-0.1569319,-1.2996393,0.7113062,-2.8482075,-1.6869991,0.7695656,-1.3050485,1.6767384,-0.3953434
random,0.11495363,0.16531818,0.68898565,-0.20923954,-2.1255217,1.8612154,-1.8702112,0.4859246,-1.7965908,0.95209414,-3.993473,-1.6793854,1.3017484,-1.7421811,1.7827128,-0.48666638
random,0.030123433,0.2725597,0.30568317,0.025844544,-1.2662929,1.6103191,-1.4681531,-0.3124575,-0.9537967,0.4549901,-2.4586318,-1.6882211,0.9173884,-1.1263427,1.3488755,-0.5496715
random,-0.046306603,0.07639044,0.80458003,0.092994966,-2.461262,2.4639826,-2.2128408,0.2549941,-1.4750582,0.9552148,-4.129165,-2.3602495,1.2498099,-1.7282323,1.6993507,-0.5661882
random,2.0608969,0.5500534,1.6622828,0.31242388,-8.588451,3.046248,-4.176018,3.9809864,-4.016233,3.578902,-8.536802,-3.8259354,2.0012105,-4.5933743,1.5440797,-0.37035826
random,0.062092938,0.17937271,0.177431,-0.029846558,-0.52036846,0.5610723,-0.63260204,0.13028646,-0.25533333,0.14753541,-0.8447106,-0.5534141,0.3054633,-0.31556487,0.56414735,0.018935172
random,0.42012843,0.15108317,0.74777323,0.06673356,-2.2461762,1.7157037,-2.0939186,0.50209224,-1.9521316,1.3679026,-4.06141,-1.6636487,1.2152883,-1.8312161,1.7983164,-0.6983602
random,0.028769765,0.18804856,0.24377586,0.0993076,-0.47104272,0.58389765,-0.6632838,-0.21240452,-0.23394437,0.23200925,-0.9319766,-0.71210164,0.2867931,-0.27908427,0.5738969,-0.24961713
random,1.1263367,0.110572755,0.57814074,-0.08097779,-3.6937609,2.5339165,-2.6961088,0.7813951,-2.9138327,1.3920428,-5.489079,-2.6026676,1.4329895,-2.7047622,1.8857696,-0.824763
random,0.020294186,0.08886412,0.20250867,-0.0014725901,-0.54124016,0.600689,-0.51396054,-0.09171905,-0.24799083,0.01590783,-0.9688156,-0.598532,0.22019596,-0.21331674,0.43959948,-0.11731805
random,0.17463091,0.3688121,0.6645122,0.09215244,-2.1958303,2.0322402,-2.165473,0.0041799843,-1.4619154,0.766731,-3.8613958,-2.323025,1.1318145,-1.436214,1.6300154,-0.7809826
random,0.085195534,0.119546935,0.4597108,-0.1691233,-1.7116001,1.7178427,-1.2915627,0.34170407,-1.0944719,0.41868335,-2.3671982,-1.6504605,0.73409134,-1.257547,1.1251955,-0.25815758
random,0.5181042,0.26974958,0.38952672,0.3110109,-2.2159805,1.617846,-2.2485135,0.22050638,-1.4267453,0.8202855,-3.52397,-2.0703115,0.80086017,-1.2974851,1.5093886,-0.6382894
random,2.6825314,-1.073003,0.5436374,-0.019713648,-5.577898,3.7113023,-3.335137,2.664954,-3.9740608,3.682741,-9.187726,-3.623976,0.21718207,-4.621165,1.8636072,0.2832131
random,-0.10656516,0.09141963,0.15014854,0.08666972,-0.52935785,0.6045554,-0.56696725,-0.17680722,-0.33603433,0.19843031,-1.1120313,-0.62571496,0.36905113,-0.42369208,0.49381897,-0.23398486
random,-0.023125956,0.20908,0.32448217,0.051002566,-0.73024964,0.82279426,-0.5182712,-0.19845964,-0.30801633,0.11480281,-1.0111474,-0.7790163,0.40722427,-0.31834498,0.41126114,-0.30633488
random,0.0061808387,0.24948688,0.32704332,0.06276156,-1.4387727,1.4203045,-1.3132043,-0.15213266,-1.0025979,0.45052868,-2.282806,-1.3512648,0.81367385,-1.0596888,1.0142031,-0.4553978
random,-0.01287285,0.52325106,0.5513312,-0.06852545,-1.8060354,1.991925,-2.0227313,-0.19366519,-0.9905727,0.6639318,-3.5940647,-2.2013767,1.3173063,-1.1888192,1.9882692,-0.7037958
random,0.06810752,0.07852841,0.21896446,0.048614003,-0.57765967,0.6777122,-0.60606027,-0.070616044,-0.36639264,0.20462643,-1.1046044,-0.6419394,0.2776853,-0.3912344,0.47318727,-0.18127076
random,0.07031399,0.6765975,0.6831463,0.08190692,-2.4258978,2.3184283,-2.3366168,-0.5220589,-1.3050879,0.4302313,-3.601173,-2.6605256,1.2351717,-1.2916651,1.8365101,-1.1457641
random,0.6086248,0.07844917,1.003639,0.4631951,-3.8367202,2.8072832,-2.6905277,0.26077628,-2.2632632,1.3157645,-5.569383,-2.8527448,1.4178493,-2.209727,1.7661242,-0.7063051
random,0.4148695,0.5436812,0.18030971,0.069555506,-1.4600778,1.6985587,-1.5887766,-0.13308263,-1.1087496,0.6547432,-2.7556913,-1.6767125,0.8861092,-1.3554734,1.4601184,-0.3403343
random,-0.1945697,0.2033261,0.26255214,0.06315386,-0.92318904,1.3058984,-1.1386834,-0.29668188,-0.51366293,0.41224894,-2.0289366,-1.404067,0.7775105,-0.77328,0.9853265,-0.45479673
random,-0.018973313,0.15834036,0.3131612,0.05172479,-1.5066931,1.6002434,-1.3895719,-0.31820884,-0.91101784,0.3149863,-2.4419024,-1.5850278,0.6549711,-0.87395537,1.2691658,-0.7294577
random,0.27115119,-0.11851671,0.3906398,-0.33348748,-4.3402057,3.672431,-3.3151,0.20351191,-2.2246647,1.4936604,-7.649766,-2.7345147,1.7711189,-2.6786807,2.362098,-0.6863951
economics,-3.707979,-0.5385548,-0.88439524,-1.1188992,-5.443504,2.5767765,-0.10767951,-1.2606196,-4.880981,0.7374643,-6.405866,-3.9753432,4.9093714,-3.9736555,2.3644574,-7.001787
economics,-3.3419333,-1.4483092,-0.49575046,-1.0460011,-5.4948473,2.8409371,-2.3139021,-2.3367486,-3.4779806,-0.23469828,-6.5319686,-3.737676,4.291908,-3.223511,1.3559713,-6.8253384
economics,-5.138998,-0.856353,-1.6276586,0.48751763,-2.1401184,3.666701,-0.107570626,-1.0411073,-4.707169,2.306821,-7.1061425,-3.5223615,3.282749,-4.762807,3.5499513,-5.804953
economics,-1.8429832,0.434644,-0.6203008,-1.3909743,-3.6000564,2.240771,-1.8790404,-0.78809935,-4.7969766,1.925661,-4.3586893,-3.0826268,3.9809468,-5.1674566,3.23576,-4.2456465
economics,-4.405299,0.05131396,-1.5300407,1.4178102,-0.91119695,2.498996,-1.7032366,-3.2282684,-4.9874473,3.5914955,-8.69035,-2.0666993,4.0268335,-6.580819,2.0146725,-3.841677
economics,-3.173359,2.0184686,0.20529477,0.37703273,-0.6564943,1.6029972,-2.798132,-4.115514,-6.3832417,5.539442,-8.274871,-3.402848,2.6060185,-6.0789723,1.6295706,-1.8328109
economics,-1.5968283,0.91963726,1.579996,-2.4723547,-1.5932761,1.0636343,-2.4451926,-0.35651606,-4.247963,2.7508068,-6.9913077,-1.822248,6.774357,-3.4839482,5.123534,-6.64355
economics,-4.5401936,-0.55248916,-2.1253922,1.9522877,-0.2992434,2.1267984,-1.4509555,-0.89156,-5.627549,2.9852667,-10.056274,-1.7613137,4.048823,-4.8917227,4.370409,-5.36619
economics,1.2631884,0.44337323,-0.18544002,0.45428488,-2.3760667,3.3701475,-3.6442058,-1.1409711,-4.9914637,3.4807096,-6.977001,-5.9454765,1.3557686,-5.1886234,3.3443546,-0.37783527
economics,-1.1435832,-0.2416455,0.38912725,0.019036332,-0.7634453,2.1558356,-5.2194276,-3.9871552,-5.1827826,7.096157,-8.659193,-3.1919198,2.6222508,-7.5449214,0.49872944,-0.20026956
economics,0.021624068,0.6496282,0.69750637,0.6854867,-1.57993,1.9695867,-3.4198494,-3.361574,-4.4467983,4.232241,-6.850867,-4.699877,1.9386523,-4.9473987,1.7348068,-0.4131814
economics,0.42580658,-0.55177116,-0.5322045,1.5708264,-2.6780825,3.3634582,-3.4099858,-0.62083536,-5.5917926,4.3412957,-7.6564016,-5.612257,0.80358875,-5.9030056,2.5403044,0.6529132
economics,-0.82765895,0.79987353,0.18545654,-0.15381926,-3.4442513,2.0657163,-2.0694153,-0.84066516,-3.8031123,0.9309341,-4.7137737,-4.067043,2.3815396,-2.864619,2.2371283,-2.8755982
economics,0.9950036,1.0671844,0.24600661,1.0077301,-1.8308549,2.872274,-3.8574767,-1.8541411,-3.2488604,3.3034728,-6.329929,-4.78032,1.9124278,-4.085633,2.8941956,0.031078808
economics,0.25594085,2.2332168,5.145602,-3.3823404,-3.6041539,2.6972861,-1.4286025,1.9428637,-3.3197393,1.2914598,-10.469018,-0.6038198,7.7779922,-0.49881595,2.271582,-9.573511
economics,-2.2090044,-0.38933915,-1.1838528,0.7709071,-1.8656927,1.9790827,-3.1104176,-2.1470375,-4.2195306,4.1581826,-7.597555,-1.4173796,3.9263082,-5.0701537,2.705327,-1.5282145
economics,-3.5993087,-0.13352455,-2.8915424,1.6822487,-1.0682348,3.2218058,-1.8564293,0.3117972,-5.389469,5.6680555,-8.414209,-0.44216597,3.3128483,-8.212616,4.7392154,-1.3841298
economics,-3.0980077,1.8267936,0.16426241,0.49987993,-0.76928854,1.5148911,-3.0170534,-4.417882,-6.460779,5.3949647,-8.162678,-3.3846953,2.9110315,-6.0042305,1.5379268,-1.6367667
economics,0.6242541,-1.0091444,0.20217235,1.6069096,-5.329424,0.94755036,-6.4101005,-0.3842093,-0.061540127,4.089845,-10.696959,0.9445736,4.692401,-2.4403605,2.4227152,-3.3672981
economics,0.28057006,0.63235605,0.42931828,1.0018661,-4.6176515,0.62730265,-6.221322,-2.4851336,-1.2487892,3.8585684,-9.536166,-0.6549416,3.8847256,-2.9025848,1.7314377,-2.4699745
economics,0.25390255,2.4946656,1.1461407,0.30573744,-1.4317276,1.5114218,-1.1320708,-1.9426692,-4.3334665,4.6213427,-7.2366757,-4.079236,5.1606164,-7.9523435,2.2460282,-2.4226017
economics,-3.1256032,0.50658983,-2.1524887,0.45786074,-5.242906,3.8493657,-0.017547963,4.3450546,-7.4208,2.3635564,-6.8193913,-4.085696,0.9341526,-7.369903,3.0826197,-0.10207087
economics,-2.816732,-0.53116083,-0.9157896,-0.5004448,-1.2269331,2.8404307,-2.9464934,-1.7592106,-3.3157403,1.4734423,-6.2194734,-2.596396,2.413938,-2.7929642,3.967314,-4.168714
economics,-3.8042824,-0.7274775,-0.83874816,0.42513603,-0.7649822,3.5196357,-0.6171521,-0.7154914,-5.9472384,1.9256079,-6.4131536,-4.1274076,3.3286989,-4.6987505,3.3541486,-4.80525
economics,-0.26134485,0.89233774,-2.287991,1.1628593,-5.5674286,1.877531,-0.18692112,0.749673,-4.5794563,3.4318354,-5.5690093,-4.565344,4.039795,-5.007162,4.413293,-2.358238
economics,0.38663185,-1.7039251,1.1572709,-2.433682,-7.690434,4.246382,-1.4936872,2.2398818,-4.0106273,1.0612655,-6.6054997,-3.4838479,2.3913987,-4.2853937,1.5387496,-3.4450889
economics,-2.5911925,-2.7893941,-0.03817307,-1.9916857,-4.6160126,3.931382,-2.4300952,-0.8142828,-5.1175833,2.945778,-4.13357,-2.3608873,5.6079106,-6.5227194,1.3351558,-5.8407054
economics,-0.943322,1.7364762,1.5519633,-2.4527469,-5.8965287,3.7092474,-1.1777544,1.8834099,-5.663821,4.8597383,-4.163141,-3.9303505,2.4638045,-10.193406,1.1666287,-1.7567741
economics,0.33752033,1.921746,2.2251613,-2.05839,-5.7345314,3.0099995,-1.8713613,1.7721409,-5.4726005,4.1595945,-5.318973,-3.8831336,3.0147753,-7.862206,1.2457544,-1.8057295
economics,0.80916035,-0.59930646,1.4128755,-2.0640512,-6.5333166,3.6052194,-1.0470626,2.6552625,-4.841391,1.7708521,-7.078306,-2.9621968,3.1527565,-4.4810524,1.9238279,-2.231029
economics,-2.2440884,-1.5406221,-1.3136759,-0.89942,-4.751588,3.3281004,-0.2664729,0.056481168,-4.7708755,-0.11548028,-5.6975145,-3.7005057,2.947522,-3.643728,3.001373,-5.038945
economics,-2.1983523,-1.0093981,1.3788669,-1.7656548,-7.1348634,2.6572087,-1.3770788,1.4464884,-4.4735537,1.2631692,-6.1940937,-2.3291047,4.420876,-4.766311,1.1683574,-5.5836744
economics,-1.3903646,-1.4882394,-1.3237666,-0.9918634,-6.5393515,3.5588315,-2.780984,-1.9213842,-2.5764785,1.0486119,-5.458859,-3.6065142,4.5455656,-4.281086,0.16788936,-4.2008243
economics,-1.7060957,-2.4449193,1.1716328,-1.7757252,-6.9529147,2.8740065,-0.89723235,-0.30146572,-4.4150214,0.33813268,-7.0801415,-2.7548604,3.3170927,-4.438875,0.38826934,-4.703568
economics,-1.2548783,0.060312364,-2.007749,0.3821114,-4.2009907,4.765419,-1.0757459,2.3733802,-5.750268,2.9896708,-7.0637393,-5.3485327,1.2607361,-4.4696436,2.8272626,-1.2866329
economics,-0.051426698,-0.34481937,-0.6250595,1.5175167,-3.2850335,1.9779185,-3.748624,-1.0443131,-5.19101,4.530862,-7.160927,-4.5520744,2.5620813,-6.261094,2.1951504,1.22749
economics,-0.3030916,-0.05809799,0.14152715,-0.028983885,-0.8588431,1.1249926,-0.7661434,-0.22930898,-0.98539263,0.45334688,-1.7946894,-1.1700041,0.65440136,-1.0928047,0.9958092,-0.48761052
economics,-2.1665325,-0.3040849,-0.93343717,1.7711235,-0.24233396,2.5905747,-2.2140148,0.1594752,-4.7989445,4.1708264,-6.779734,-2.8102775,4.0735226,-5.561036,5.4816766,-4.00198
economics,-2.210303,-1.3617498,5.9238453,-5.4535747,-2.6672642,0.38142422,-2.6507819,-4.283102,-5.4987025,4.3657985,-9.336486,-2.1793811,5.067233,-3.6463003,0.82959485,-7.955028
economics,-3.7718513,-1.4988371,-2.427241,0.881932,-1.8270919,3.8140287,-0.54223317,0.65442586,-4.6986833,2.0049794,-7.8132257,-2.5262716,2.8512526,-4.28341,4.058627,-4.3618674
economics,-0.9812706,-0.17324212,-0.7153289,0.748225,-1.1057492,1.5714815,-2.9104602,-2.021985,-4.7745576,5.949062,-6.572373,-2.0080433,4.1501307,-6.855174,3.4304488,-0.043854784
economics,-4.235381,-1.4067942,0.39046413,0.7053617,-2.1564991,2.5086186,-0.79795563,3.3668952,-6.2119026,3.1576624,-6.52871,-3.5319557,2.05732,-6.034572,6.1945333,-5.9830904
economics,-0.24403548,0.11808222,0.009819573,-0.1438257,-0.83092785,0.90576077,-0.71902055,-0.37444356,-0.6169505,0.37207726,-1.8803046,-0.7600331,0.8647255,-0.8511323,0.90032905,-0.57293135
economics,-3.086955,-2.4704895,-0.646325,-0.6769021,-3.9603379,3.2761593,-3.45873,-2.9540193,-3.5969455,1.4676423,-9.031265,0.040396564,4.3320403,-2.2341893,1.5785937,-6.9888124
economics,-0.28004834,-0.8936784,-0.058966685,0.8150358,-3.0251718,2.5065794,-2.9270976,-0.44691774,-3.16842,2.0876226,-5.4819884,-2.5490224,1.9653535,-3.0632582,1.7601312,-1.0295572
economics,-1.290137,-2.2467198,-0.25712597,0.22852024,-3.8440342,0.817729,-5.090166,-4.0547504,-3.7934258,3.9951684,-6.4582806,-1.5536516,6.090192,-5.089792,1.8744776,-2.8899975
economics,-0.9272683,-0.2954468,-1.3082317,-1.7031251,-5.5610876,3.135623,-0.4545078,0.5135753,-4.374376,4.1840477,-4.6126976,-3.032641,7.0694456,-5.861065,2.8547401,-3.0031374
economics,-2.8074276,0.8149175,1.0470023,0.21704978,-2.8071458,1.1560059,-4.6692696,-5.510107,-3.7110846,0.8757063,-8.264407,-3.4067388,2.571062,-5.251409,-1.4149896,-4.754996
economics,-0.025712254,0.41989914,0.34806895,0.2859945,-1.0405803,1.2006127,-1.153792,-0.556059,-0.7433792,0.28287962,-1.9663423,-1.4130846,0.6529337,-0.7859787,0.95232666,-0.3686023
economics,-1.0669246,1.007871,5.5893087,-4.645492,-2.6865532,1.9315697,-6.207012,-5.467953,-3.5661776,6.7041054,-9.923756,-2.4716694,1.8963666,-6.2036433,-4.6800923,-1.8219094
economics,-2.1046748,-3.6600456,-1.7951021,1.6678504,-5.698567,1.8110402,-5.9049096,-3.3866427,-3.5421402,0.9998648,-11.307234,-0.723898,4.5479217,-2.3007326,-0.1743736,-4.137839
economics,-2.1089787,-2.3673143,-0.25706077,1.2118379,-2.519175,1.1825874,-7.3619018,-4.9419045,-4.1867347,3.0167437,-10.86623,-0.36403117,5.8512135,-5.7286596,-1.414042,-1.414467
economics,-0.26617444,1.0582854,2.855572,-1.9774073,-5.4476833,2.0130568,-2.7116,0.73363465,-2.6624334,0.94995457,-6.447764,-2.4775379,4.8170676,-3.6109822,2.1649628,-6.948744
economics,-1.8155097,-0.6500483,-0.1748557,0.98806113,-3.349164,0.80790585,-5.708182,-5.953805,-3.8150606,4.2128015,-8.296926,-2.3100975,4.380087,-5.4607344,-0.7020881,-1.7166849
economics,-0.12614843,0.776646,0.29262,-0.3901802,-3.1594412,2.08968,-3.5332272,-3.024102,-3.3928466,2.2946959,-5.568222,-3.7863526,3.254821,-4.248334,0.13368638,-2.8910105
economics,-2.0659313,-0.35578203,-0.38577363,0.39673588,-2.6259217,2.2934148,-3.378081,-2.762609,-2.1654685,1.1063617,-6.7365866,-2.666072,2.9401164,-3.2032475,1.5519638,-4.01504
economics,-2.4539952,1.6166607,1.186677,-0.65953773,-1.4042207,0.3918904,-2.49229,-3.4944026,-5.040471,5.2833047,-7.9483695,-2.5503354,2.8470836,-6.0517,2.071591,-2.9806645
economics,-0.16850922,4.2917585,2.3679228,-0.59098667,-2.589626,1.561129,-1.4324769,-0.62112933,-5.6173463,2.8217196,-7.3204827,-3.7798529,5.2877216,-6.8058615,1.3237499,-2.256472
economics,-0.14699306,0.71258247,0.56027544,-0.5253234,-2.5321534,2.4908373,-3.1476338,-0.7431368,-2.1513216,1.7604674,-6.023019,-3.1576607,2.3816762,-2.9841647,2.172146,-1.0956997
economics,-0.85218436,0.00073843775,-0.10462874,0.35170102,-1.4467275,1.6251543,-2.8343697,-2.0196762,-1.423453,0.9269131,-4.275229,-2.3665838,1.7228252,-2.0286443,0.89665943,-1.5841147
economics,-1.0766001,0.04694178,-0.12825906,0.35926238,-1.8482201,2.090065,-2.4684317,-1.1874598,-3.3134272,2.9328928,-6.0116396,-1.469492,2.440012,-3.5967786,2.1708677,-1.617634
economics,-0.45539847,-0.21178223,-0.24418324,0.21905862,-1.6425668,1.5146885,-2.0764132,-1.1533376,-1.0372663,0.7946107,-3.3609943,-1.879505,1.6464726,-1.4718126,1.6754781,-0.38592407
economics,-0.13714796,0.30318013,-1.300994,-0.39506957,-3.4528623,2.4572668,-2.1493022,0.11792943,-4.674085,3.7967126,-4.8819222,-3.1343806,6.1208982,-5.334913,2.9525423,-2.4100347
economics,-2.0742793,-0.17474963,0.3581281,-0.24559699,-1.9756825,1.3945423,-4.850295,-3.908158,-3.0874422,2.840295,-6.7804317,-1.9594301,3.5310855,-4.9521966,0.010009416,-2.6386416
economics,-0.1680872,1.1308575,2.8657384,-1.9806327,-5.583046,2.0056176,-2.8382645,0.75303084,-2.767526,0.98525715,-6.4915195,-2.2030892,4.822571,-3.6509655,2.1037426,-7.080843
economics,-2.0880194,-1.3257495,6.0270896,-5.693208,-2.860633,0.100894526,-2.7872124,-4.1994667,-5.4602494,4.287761,-9.461997,-2.2650676,5.1177454,-3.7682312,0.6676279,-7.9541416
economics,-1.6522416,-0.4736798,2.2829554,-2.2008429,-1.656278,1.2700437,-2.3853414,-1.5338029,-2.5039628,1.559032,-5.726688,-1.5723194,2.8529058,-2.2309608,2.2568836,-4.71828
economics,-2.5412009,1.3313386,-1.2974143,2.2091558,-2.2952347,1.8580779,-3.958982,-3.56216,-5.223448,2.5451698,-6.7868643,-3.212307,3.5538583,-5.281539,2.3090773,-2.3390791
economics,-2.6113904,-0.75614166,-1.1334645,0.93672585,-3.2900274,1.1152135,-5.3905544,-5.4952583,-3.8281393,2.5833685,-7.6193914,-2.5295534,3.879416,-5.0311575,-0.3320799,-2.555196
economics,-2.7769454,-0.08941926,-1.5666932,1.1832067,-1.7644175,3.8494425,-0.95602065,2.798842,-6.359895,4.549496,-6.50699,-3.519392,2.4786248,-9.178458,5.6738544,-1.3885338
economics,-2.9469786,-0.026458338,-1.2765331,2.3406968,-1.0071124,1.5912529,-3.325811,0.08079831,-4.334385,5.612287,-11.116312,-0.020605544,1.721245,-4.9472485,6.39233,-2.7905385
economics,-1.2684377,-0.16045682,0.28474942,0.060887136,-3.420148,2.5471215,-2.2980127,-1.0232391,-2.7000651,0.8743767,-5.1458855,-2.8836672,3.1713347,-2.5173993,1.5763355,-4.033014
economics,-1.2265003,-0.037167612,2.6815186,-2.3000038,-4.3150206,1.9657049,-2.6385615,-0.42859098,-4.31916,-0.35392746,-6.5835333,-3.2038794,4.450222,-5.2112308,1.0734756,-7.4294043
economics,-3.1046262,-1.146541,1.1799943,-2.103657,-5.9210896,2.128173,-1.633244,-2.7000787,-3.8941553,1.3384773,-7.989949,-3.0705051,4.377469,-3.8793423,0.053307317,-7.30947
economics,-2.0623157,-1.63022,-0.2590158,-1.3354794,-2.1315298,0.7122437,-2.9848647,-0.94053906,-4.0258107,2.286715,-7.66508,-1.2940322,8.208371,-3.45013,4.935848,-5.2866817
economics,-0.28896832,-0.21401322,5.595232,-3.1666489,-7.1914253,2.9446487,-1.3462799,0.8068503,-4.4097366,0.8551059,-6.9857492,-4.1208243,3.2900639,-9.635778,-1.6766261,-5.8703723
economics,-0.51610094,1.2186954,0.75377876,-1.3972011,-3.764919,1.8253987,-3.8986735,-2.2226086,-2.6193726,0.87714666,-5.2248096,-3.7235248,4.2450967,-4.223918,1.4191905,-5.6823044
economics,-0.055667046,-0.0028276125,0.11727977,-0.018431604,-0.9933127,1.0104039,-0.9887092,-0.29403445,-0.51230735,0.19988318,-1.7723562,-1.1565139,0.5515165,-0.55164826,0.75868946,-0.4957326
economics,-1.1626303,0.70976543,-0.10574594,-1.0433569,-6.1199775,2.6752005,-3.3334577,-1.5499194,-3.8859487,0.9155568,-6.215231,-2.867252,6.657799,-2.687557,0.25871867,-4.0781136
economics,1.2008342,2.6225684,3.730493,-1.0573171,-1.4563584,1.8226378,-2.0364213,0.29699957,-4.290805,2.6402316,-6.5180216,-2.6783156,7.174552,-3.283792,5.426937,-4.4704413
economics,-2.088795,-1.3325309,-0.9528442,-0.84007514,-1.2214987,2.791789,-3.1995447,-1.2498031,-2.7869656,0.4264049,-7.3531756,-1.2322947,2.9294965,-1.8768877,4.565157,-4.561913
economics,-2.7188935,-1.9501882,-0.57546186,-0.5868795,-3.67665,1.2171677,-4.090326,0.0828035,-3.4055436,1.4649327,-9.811712,0.45108238,5.328477,-1.2646109,4.3851066,-5.3130593
economics,-1.0403532,0.043389212,-0.60402083,0.9149605,-9.165172,4.4546185,-2.348201,0.15003198,-3.8908134,-0.9154997,-9.177195,-3.4015772,3.0441089,-3.085285,-0.9247988,-5.4835467
economics,-1.0936319,-0.53382474,-0.09062226,0.49986336,-1.9421074,1.8659606,-2.2185583,-0.795956,-2.341898,1.876227,-5.3671155,-1.1659788,1.7101517,-2.7058122,1.9764925,-1.6690339
economics,-2.7945251,-0.7130551,-1.2310423,-0.20620337,-6.2049003,3.1598618,-1.0798959,-0.34471023,-4.634946,-0.10104821,-5.841351,-3.867531,3.3788607,-3.3417275,3.0642135,-6.194732
economics,-2.259087,-0.18746294,0.481354,0.86399275,-0.35011277,0.9495943,-0.74111235,-1.687864,-4.8244267,5.235113,-7.8472657,-3.4683738,2.974771,-6.875581,5.54918,-3.5051126
economics,-3.9895506,-0.48677522,-0.24252272,0.54984766,-0.4595537,1.6872914,-0.94533116,-2.3561904,-5.272758,5.06294,-8.439873,-2.4210656,2.6109676,-5.907541,3.8756726,-4.6824164
economics,-3.6376355,-0.6710538,0.44931638,-0.016742824,-1.4627597,2.0006962,-1.1156256,-2.3885765,-3.9142745,3.757145,-7.1044865,-1.8656168,3.0039213,-5.7202287,2.8439949,-4.071539
economics,-0.61691827,0.7312922,0.35704827,-0.5745861,-2.4177673,2.3660047,-2.3360264,-0.81542134,-3.7074323,2.6163921,-4.709419,-3.5992408,2.7989585,-4.4536715,2.1372242,-2.3510673
economics,-2.0702598,-0.47588584,-1.1930773,-1.2090445,-5.025466,3.4383028,-0.25957793,1.4167314,-6.345754,3.9957225,-4.701853,-2.912128,4.2162724,-7.466027,3.2900488,-1.7236629
economics,3.7631423,2.0816808,-1.4210137,-0.64778554,-4.4288206,4.0648375,-3.4814324,-1.1826026,-2.806524,5.014853,-6.10698,-3.550943,7.969748,-6.5805407,1.8592403,-1.097782
economics,-1.6126207,-0.8613465,-0.98969764,0.9635523,-4.886662,2.8253963,-0.7748281,1.2347277,-5.890259,1.2970335,-7.0070786,-5.7463555,1.6116024,-2.6229324,3.1394205,-4.657132
economics,-2.4694014,-0.5292961,-1.173178,-0.794108,-6.6418524,3.6116636,-0.8862833,0.7160653,-5.4318876,0.39432737,-5.241741,-5.277326,2.7787702,-4.5075107,2.6976452,-5.2936635
economics,-1.031537,0.17427844,-1.0984737,-0.015964909,-5.892323,3.1091757,-1.5995499,1.1595744,-5.810774,0.8481196,-5.8996816,-4.9979496,2.6059167,-4.14991,2.2286375,-3.1805303
economics,-3.983984,-1.9542928,-2.3928149,1.0598302,-2.815401,3.3298762,-3.084577,-0.5465696,-4.766852,0.5809108,-8.791884,-1.490137,4.00347,-1.7566702,3.3318505,-4.8459377
economics,-3.0855517,-1.6941793,-0.007491884,0.08460385,-2.194971,2.197099,-0.98564416,-0.025052056,-2.9210327,1.1036142,-4.7420425,-2.0177183,1.876649,-2.5350506,2.6072145,-2.9059918
economics,-2.6795776,-2.3359282,0.08834856,-0.3328847,-2.5138144,2.6905596,-2.0760584,-0.596995,-2.5509021,0.28224722,-6.38605,-0.9816677,2.0738528,-1.9125283,2.5984528,-3.5210836
economics,1.2073511,1.5405331,0.38268977,0.47097296,-6.182483,3.6964812,-3.7991896,0.21513389,-6.832615,1.4465806,-8.853729,-6.200245,1.8978465,-3.5628712,1.5855875,-2.4463432
economics,-1.3559961,0.9676568,-0.83381915,0.62715673,-4.5966315,1.9276843,-0.31959835,0.14336441,-5.3651133,2.3822136,-5.8374677,-4.7975903,3.8939712,-5.9084587,2.1876516,-2.1743925
economics,0.4425719,1.290627,2.6771495,-2.3887622,-4.5085754,3.5223286,-1.6429914,0.23182744,-4.263665,2.8380766,-4.906096,-2.5804906,7.224238,-8.862864,0.31321067,-4.7766004
economics,-1.4880482,-2.4955976,-1.9025337,-1.1850585,-2.9666646,3.2922456,-0.5251863,1.1782066,-4.560722,5.8717422,-5.598534,-2.4491649,8.086684,-6.67003,5.4631233,-5.318811
economics,-1.9587315,3.8178494,6.26807,-2.1574585,-2.5541391,0.4851298,-2.2868285,1.0590695,-4.92993,3.080962,-9.322443,-1.1698197,4.3668294,-5.836399,1.62692,-6.0006623
economics,-1.8914381,1.3684311,1.3478233,0.4727292,-1.2656131,1.3564346,-2.09277,-1.8865818,-4.606208,4.5921564,-7.263148,-1.3342543,3.8714006,-6.377421,2.6507413,-1.8059176
economics,-2.996045,-0.061963215,1.0157169,0.2562209,-1.5971295,1.066223,-3.5818772,-3.8530402,-4.0510077,4.194859,-8.79731,-1.6911696,2.466342,-5.308616,0.49511164,-2.7606785
economics,1.1272705,0.39475077,-0.32051128,0.2594175,-1.1925225,2.99557,-3.66171,1.0873537,-2.4720955,4.498592,-7.5009646,-0.6014334,7.5794225,-5.354509,4.5146456,-1.7633612
economics,-1.5035477,-3.552832,-0.2941595,-2.1472042,-5.4413047,2.6218083,-4.8506308,-3.6771677,-3.2735074,4.2282805,-8.239859,-0.9679242,6.376523,-1.497086,0.76722896,-5.990465
economics,-1.058118,-2.6357157,-1.4927822,-0.6194092,-6.747791,2.3238263,-3.1382048,-2.5819862,-3.8105493,0.72397643,-5.452729,-3.7238915,5.640901,-4.2669063,0.85035455,-4.983387
economics,-1.3797565,-1.5297191,-1.0267061,-1.0709757,-6.5376697,3.5796804,-3.0697074,-1.9662417,-2.6075375,1.275823,-5.525947,-3.63391,4.319435,-4.399019,0.12407328,-3.9503365
economics,-1.6477005,-0.17587116,0.06281435,0.4973047,-5.371141,2.093513,-3.5046215,-1.3638068,-2.7226722,0.92351896,-6.0201836,-3.101197,3.2756062,-3.2800038,0.049236428,-3.9281945
