title,0,1,2,3,4,5,6,7,8,9,10,11,12,13,14,15,16,17,18,19,20,21,22,23,24,25,26,27,28,29,30,31,32,33,34,35,36,37,38,39,40,41,42,43,44,45,46,47,48,49,50,51,52,53,54,55,56,57,58,59,60,61,62,63,64,65,66,67,68,69,70,71,72,73,74,75,76,77,78,79,80,81,82,83,84,85,86,87,88,89,90,91,92,93,94,95,96,97,98,99,100,101,102,103,104,105,106,107,108,109,110,111,112,113,114,115,116,117,118,119,120,121,122,123,124,125,126,127,128,129,130,131,132,133,134,135,136,137,138,139,140,141,142,143,144,145,146,147,148,149,150,151,152,153,154,155,156,157,158,159,160,161,162,163,164,165,166,167,168,169,170,171,172,173,174,175,176,177,178,179,180,181,182,183,184,185,186,187,188,189,190,191,192,193,194,195,196,197,198,199,200,201,202,203,204,205,206,207,208,209,210,211,212,213,214,215,216,217,218,219,220,221,222,223,224,225,226,227,228,229,230,231,232,233,234,235,236,237,238,239,240,241,242,243,244,245,246,247,248,249,250,251,252,253,254,255,256,257,258,259,260,261,262,263,264,265,266,267,268,269,270,271,272,273,274,275,276,277,278,279,280,281,282,283,284,285,286,287,288,289,290,291,292,293,294,295,296,297,298,299,300,301,302,303,304,305,306,307,308,309,310,311,312,313,314,315,316,317,318,319,320,321,322,323,324,325,326,327,328,329,330,331,332,333,334,335,336,337,338,339,340,341,342,343,344,345,346,347,348,349,350,351,352,353,354,355,356,357,358,359,360,361,362,363,364,365,366,367,368,369,370,371,372,373,374,375,376,377,378,379,380,381,382,383,384,385,386,387,388,389,390,391,392,393,394,395,396,397,398,399,400,401,402,403,404,405,406,407,408,409,410,411,412,413,414,415,416,417,418,419,420,421,422,423,424,425,426,427,428,429,430,431,432,433,434,435,436,437,438,439,440,441,442,443,444,445,446,447,448,449,450,451,452,453,454,455,456,457,458,459,460,461,462,463,464,465,466,467,468,469,470,471,472,473,474,475,476,477,478,479,480,481,482,483,484,485,486,487,488,489,490,491,492,493,494,495,496,497,498,499,500,501,502,503,504,505,506,507,508,509,510,511
random,-0.2694584,-0.11556842,0.12173246,0.06115155,-0.33008325,0.35727587,-0.13123715,-0.12805307,-0.077069476,-0.029580984,-0.38790426,-0.27816597,0.22569983,-0.10881143,0.23608346,-0.14809522,0.010989688,0.022111604,-0.03724678,-0.10870489,-0.37988168,-0.08153642,0.04047314,0.06672683,0.6384388,0.12934859,-0.1738067,0.26526806,-0.15395121,0.17562869,-0.2512741,-0.21241221,0.0036709355,0.023700463,-0.18430524,0.38762298,-0.09504421,0.13095835,-0.054434538,-0.10220423,-0.36028728,0.07152801,-0.12330215,-0.18693034,-0.002899089,-0.060224257,0.3976358,-0.3073269,-0.24648617,-0.16363056,0.12288947,0.10163255,-0.30202278,-0.2062826,0.015367689,-0.08511305,0.15631242,0.4154587,0.12699826,-0.29733366,0.17903036,0.00091569737,-0.28021514,-0.18038255,-0.08802076,0.33122048,-0.20195238,0.011283435,-0.2413538,-0.063220605,-0.26838818,0.21435322,0.17276618,-0.17857815,-0.22338927,-0.07192703,0.0405525,-0.2760765,0.13167965,0.43764243,0.03250729,-0.16054781,-0.29791468,0.087517746,0.28964904,0.12176926,-0.018740684,0.15406395,-0.170911,0.0996101,0.087532826,0.016649202,0.09998921,0.3448212,-0.09775177,-0.2282133,-0.39453578,0.28917867,-0.1629323,-0.5170161,-0.029161928,0.086939,-0.20785539,-0.07714977,0.3356076,-0.31669426,0.35815713,0.1765573,-0.14318824,-0.011525638,0.035408545,0.32095018,0.015895395,-0.086447544,0.032615494,-0.055442326,-0.08452395,0.3879338,-0.031636816,-0.21195664,-0.07996513,0.3352475,0.050329614,-0.14850305,-0.11427375,-0.43090054,0.28098366,0.07609373,0.1800222,0.017535025,0.2553686,-0.041949663,-0.3361111,-0.019364621,-0.046755712,-0.14822575,-0.5488418,0.08716183,0.06914443,-0.29581472,-0.09415019,-0.05276951,-0.0032928137,0.23195164,-0.31295055,-0.1356699,0.17608058,0.18505415,0.097962186,0.14961101,0.13567549,0.27322343,-0.0014549915,-0.19219005,0.034675818,-0.018981747,0.043247703,0.16004369,-0.024430048,-0.13891158,-0.17526492,0.0226786,-0.41429055,0.04896212,-0.30296537,-0.035471816,0.2015597,-0.48510793,0.12023453,0.16747305,0.18914266,-0.20371859,0.11136901,-0.19087383,-0.2106826,-0.30587485,0.15668006,0.02121615,-0.0589158,-0.41924345,0.1157979,-0.13263021,-0.25000888,-0.11208862,-0.1291543,-0.0048403293,-0.20417425,-0.039105207,-0.12013115,0.045933597,0.287538,-0.14663081,-0.104997724,-0.27614194,-0.096049145,-0.24462835,-0.3019897,-0.2192738,-0.06501081,-0.31710678,-0.25949565,0.56325215,-0.12844509,-0.18186907,0.12932113,-0.011294824,-0.05273308,-0.028556846,0.07726393,-0.19346315,-0.21574435,-0.14705941,0.068296336,-0.24448706,0.01798776,0.025558569,-0.14818761,-0.12342991,0.026129834,-0.1070761,-0.23783512,-0.01902998,-0.049882054,0.12932758,-0.19760448,0.58337754,0.043462675,-0.123928286,-0.2524144,0.06207957,0.0006707247,-0.027104458,0.054595817,0.09702842,-0.044957917,0.2167176,0.008926401,0.047530595,0.07158576,0.022347782,-0.19276519,-0.20098658,0.052852456,-0.013774413,0.12773922,-0.1558976,0.02470449,-0.23700781,-0.04719377,-0.09568555,-0.022441955,-0.075704314,0.16961686,-0.0054652444,0.039969724,-0.14821379,0.029354243,-0.1944063,0.07338947,-0.07808161,0.14036606,-0.12489429,-0.34171513,-0.23934183,-0.10018137,-0.42348212,-0.23174462,-0.15567924,-0.16361159,0.11774248,-0.30139506,-0.31392965,0.03278663,-0.2048888,0.034198787,0.14188951,0.18413055,-0.3447023,0.03544104,-0.06086744,0.11581895,-0.0036166173,0.17687753,-0.07930041,-0.13032247,-0.13242635,-0.5200875,0.049033683,-0.03299667,0.4247811,0.17063487,0.39746064,-0.018281842,0.018607417,-0.008534695,0.06349027,-0.31844732,-0.35874164,-0.13975148,-0.06401537,0.022194277,-0.07879126,0.08883714,0.25543925,0.052064214,0.08031765,-0.041358516,-0.062489633,-0.2005685,-0.07804833,-0.20657785,-0.2585749,-0.03314005,0.15898986,0.029507257,-0.16519096,-0.2278047,-0.0118084755,0.18929692,-0.17631732,0.31590465,-0.12090428,0.08479459,0.06641154,-0.02048257,-0.00083967776,0.14837214,0.050826818,-0.15568876,-0.17213468,-0.21429978,-0.30255002,-0.4156921,-0.15920784,0.35584563,-0.24923597,0.29708722,0.23789623,0.0034063393,-0.10571546,0.066509835,0.1539238,0.00024830463,0.22541766,0.35296103,-0.098663025,-0.00026563273,0.37656605,-0.05934836,-0.07720236,-0.23586833,-0.30173588,0.1579412,-0.06022903,0.0067589926,-0.21559915,-0.057060786,0.34018713,-0.07329868,-0.03447522,-0.22567791,-0.16196348,0.13642523,0.53642046,-0.069139734,0.36249137,-0.33526397,-0.18247129,0.025759619,0.25658882,-0.22166003,-0.1689001,-0.03744006,-0.18132108,0.009989408,0.4865489,0.0881259,-0.4591788,-0.38968858,-0.35691947,0.20583192,0.117445655,-0.05737864,-0.35042012,-0.081815965,0.087881066,-0.29737374,-0.15741263,-0.20536333,-0.12698925,-0.18033668,-0.0874702,-0.2802944,-0.084734015,-0.024942076,-0.09746781,-0.48651278,0.51525384,-0.01594603,-0.0020020797,-0.18604933,0.027120318,0.28242663,0.42037758,-0.11924888,-0.099360734,0.21739826,-0.017236054,-0.3364158,-0.2378299,-0.44119954,-0.33389878,0.26060724,0.21488678,0.20414042,0.0070696124,0.40251276,-0.11172894,-0.25879753,0.10539936,-0.061238304,-0.16140679,-0.2719376,0.21457909,-0.15453535,0.10260813,0.21721962,0.113059595,0.12067275,0.63916564,0.2613738,0.060006395,0.051810637,-0.15549167,0.113682196,-0.36669597,-0.19212496,-0.1837362,-0.057790253,-0.17859943,0.121135086,-0.4040229,0.3216384,0.065926164,0.09511817,-0.31225958,0.18032265,0.10946162,0.40614372,0.054196227,0.086895056,-0.090098806,0.22622068,0.03150376,0.086444765,-0.11422126,0.3096319,0.00408253,0.14722219,-0.025173122,-0.06629858,-0.15480766,0.10723092,0.16711548,0.27441722,0.29762977,0.22581527,0.36411095,-0.06109926,0.1016942,0.18716413,-0.08339731,0.2903844,0.3903392,0.1563017,-0.111420386,-0.14746138,-0.18507542,0.09634611,-0.011946313,0.39887452,-0.17452681,-0.0031617251,-0.079206206,-0.1947104,-0.39632416,0.08269155,-0.08917489,0.012650289,-0.47391662,-0.32915595,-0.24846002,0.027767675,0.2543138,-0.056931835,0.061458528,-0.17761745,-0.07406828,-0.12322898,0.22431119,0.05711996,0.18556678,-0.055970673,0.054403502,-0.17793182,-0.5334494,-0.12620573,-0.00029673672,-0.06662192,0.06623329,0.12537426,0.26447943
random,-0.4291099,-0.17449638,0.26015568,0.110603645,-0.6150139,0.4991914,-0.31490707,-0.2121081,-0.50679237,0.2795067,-0.75146204,-0.48266688,0.4752868,-0.5709781,0.42528397,-0.26079354,-0.032659538,-0.07368067,0.11638432,-0.24018264,-0.8106269,-0.23703326,-0.14530526,-0.06614337,1.4627504,0.3994025,-0.17384067,0.5573475,-0.21738423,0.23917152,-0.40561455,-0.5550357,0.037033178,0.07805449,-0.4066995,1.0544759,0.14599691,0.5345121,-0.080058455,-0.39260226,-0.8216855,0.083538264,-0.09246669,-0.3966416,-0.10771025,-0.022704704,0.5699284,-0.6740145,-1.022487,-0.24247386,0.46940702,0.10216531,-0.6250887,-0.74482095,-0.05243091,-0.2512274,0.3494257,1.1370268,0.17852849,-0.5616623,0.5736672,-0.06751457,-0.41257995,-0.36629763,-0.2883154,0.90582824,-0.6860937,0.21013331,-0.58100426,0.008054967,-0.67158675,0.5273317,0.5182167,-0.57740176,-0.3940223,0.00034079573,0.46329695,-0.40936458,0.622753,1.1235687,-0.0039130123,-0.7702243,-0.6630424,0.24139461,0.7614544,0.13705228,-0.018753093,0.40622854,-0.3868924,0.24448746,0.25686523,0.17199072,0.40526065,0.7585314,-0.3663316,-0.6804798,-0.93940645,0.73855084,-0.37359968,-1.377541,-0.123433806,0.16462317,-0.61098135,-0.13375822,0.8215665,-0.6639377,0.8516318,0.39034364,-0.4581948,-0.1610317,0.3011556,0.6417671,0.22559151,-0.32214376,0.1465576,0.1629785,0.010722465,0.7625192,0.07312756,-0.5637951,-0.13220602,0.68372965,0.23941539,-0.072788805,-0.22179139,-0.6695222,0.79855657,0.060728032,0.31764963,0.059449065,0.6384248,-0.036726613,-0.85766876,0.129993,-0.08907365,-0.5559182,-1.1088486,0.18238102,0.03496913,-0.5167203,-0.06936551,-0.012772358,-0.057618573,0.44855884,-0.85992765,-0.19439436,0.33507064,0.40517515,0.20558938,-0.096642986,0.3549285,0.48818472,0.014369759,-0.45684874,0.25671664,-0.016186994,-0.19612515,0.025413308,0.18847233,-0.34784132,-0.32901284,-0.22079547,-0.9274689,-0.0694207,-0.46970168,-0.18220145,0.09917283,-1.2018774,0.07906103,0.1649772,0.31382987,-0.49044594,0.37404078,-0.44239432,-0.32797,-0.70840263,0.3233305,-0.16002274,-0.39030433,-0.80254364,0.14581616,-0.20297615,-0.39914316,-0.13824576,-0.2987787,-0.17929062,-0.33450538,-0.110959284,-0.49538946,0.2349083,0.71871537,-0.09732047,-0.26018834,-0.63441056,-0.18434966,-0.38887516,-0.58785534,-0.49076468,-0.15657142,-0.5327907,-0.53944796,1.3595667,-0.36014894,-0.35411605,0.26013806,0.21418153,-0.098386034,-0.2647736,0.13120188,-0.30402738,-0.47497228,-0.26695728,0.25725132,-0.42946762,0.063689835,0.15922719,-0.39804688,-0.19943322,-0.10877491,-0.35490736,-0.46300498,0.08857092,-0.06937745,0.2300088,-0.5109835,1.3175232,0.42308283,-0.14552058,-0.46474135,0.4126663,-0.19167687,0.17614171,0.028217264,0.44258675,0.019209577,0.80637014,0.11491678,0.20163336,0.32912987,-0.085769966,-0.20241319,-0.4129202,0.055363264,0.21278146,0.12052787,-0.54799855,-0.10382475,-0.7824315,-0.22948763,-0.3724494,-0.36806116,0.039055817,0.32056847,0.1259506,0.23133777,-0.354127,0.043382674,-0.6121739,0.16700357,-0.33630058,0.1993262,-0.5149,-1.0432132,-0.47670838,-0.18961923,-1.0838811,-0.6186648,-0.19023536,-0.47859228,0.26484802,-0.8841155,-0.73188317,0.18188508,-0.73784584,0.29890296,0.5045713,0.27189654,-0.7830009,0.3422129,-0.15661135,0.5580549,-0.32307002,0.52791864,-0.26693258,-0.70885915,-0.2978914,-1.2698927,-0.086186975,0.10811526,0.7887606,0.32485926,1.0568541,-0.23154023,0.065779045,-0.022524739,0.3265719,-0.59169054,-1.1002607,-0.4138383,-0.3927817,0.13382462,-0.15718834,0.22069992,0.54283035,0.04385469,0.15635061,0.034426145,-0.352793,-0.30377445,-0.058380675,-0.48952413,-0.6371799,-0.18209837,0.5392133,-0.023965845,-0.32437617,-0.26049784,-0.4823552,0.36138758,-0.5823571,0.65252537,-0.17280363,0.25461912,0.22324699,-0.17342016,0.16910987,0.3148099,-0.03282787,-0.38459378,-0.5050984,-0.58482754,-0.5975997,-0.8320592,-0.6398339,0.72052526,-0.83713126,0.67019916,0.6193798,-0.13542338,-0.063901484,0.16560806,0.4670865,-0.31120917,0.13902876,0.5202964,0.0312772,0.22763506,0.7715683,-0.17707233,-0.09935456,-0.5238198,-0.62136215,0.367302,-0.19252951,0.09066145,-0.42809772,-0.037101485,0.8002458,-0.22846694,-0.1983876,-0.2899183,-0.4820321,0.1868144,1.2527634,-0.42398277,0.92905563,-0.4744805,-0.30522242,0.0517117,0.7668065,-0.41382807,-0.11205924,-0.16981155,-0.42973557,0.2785794,0.8217059,0.13849802,-1.0573015,-0.7969285,-0.92218167,0.6658101,0.2714,0.050901566,-0.73821354,-0.18426208,0.4834884,-0.8952585,-0.38390014,-0.6475671,-0.3854351,-0.6156513,-0.26504013,-0.5951455,-0.046251953,-0.16541222,-0.18172497,-0.94690764,1.1841654,-0.038273353,-0.12039197,-0.29177725,0.092167795,0.5649628,1.0520391,-0.29874155,-0.40964177,0.38421682,0.07880473,-0.97859454,-0.888748,-0.9237949,-0.98056626,0.4617483,0.2450474,0.23875819,-0.167212,0.7632567,-0.14300679,-0.45856568,0.39639956,-0.37446272,-0.456304,-0.63253003,0.55652374,-0.35492194,0.119615994,0.2830495,-0.067600206,0.2987706,1.5467951,0.54432,0.09851159,-0.22265837,-0.24372402,0.38755828,-0.7170803,-0.56277406,-0.51781005,-0.37086025,-0.45313704,-0.058174156,-1.0220257,0.38463524,0.24176514,0.07928312,-0.92450184,0.31634247,0.42632622,1.2548279,0.06498039,0.32416427,0.042006224,0.5345604,0.089861825,0.12437454,-0.25532126,0.56630355,0.10007375,0.6161054,-0.12802097,-0.5347893,-0.32372484,0.29067805,0.47225723,0.7983558,0.6462798,0.5607184,0.96000296,-0.21550803,0.059307244,0.37624237,-0.23772757,0.7501844,0.89470816,0.42222384,-0.026757985,-0.63846064,-0.20866482,0.23409256,-0.1406579,0.78314704,-0.2767978,-0.05018318,0.019321738,-0.45487127,-1.0038637,0.18779762,-0.15573835,-0.018164005,-1.2129399,-0.9117851,-0.71954143,0.10436026,0.45139727,-0.2474168,0.116734825,-0.09800858,0.055497553,-0.07177608,0.5627202,0.097436495,0.22709946,0.004536765,0.12847443,-0.46893916,-1.1007758,-0.1489867,-0.064072385,0.043835912,0.17480916,0.041090906,0.6059919
random,-0.046179228,-0.19201759,0.6271168,-0.40552232,-0.33095595,0.076209195,0.19634198,0.7883801,-0.4714878,1.3008271,-1.4041997,0.5447332,0.57855225,-1.2034138,0.75281507,0.66315764,-0.6129907,-1.4798443,0.7876799,0.6727177,-0.9297637,-0.24602053,-0.8048455,-0.23916619,1.3455726,0.19876166,-0.96066767,0.7043133,-0.41773006,-0.69900763,-1.4316326,-0.5250538,0.50602114,-0.43462586,-1.4803028,1.1906552,1.3695812,1.6079265,0.40619943,-0.85973066,-1.306096,-0.21616048,-0.35821185,-0.28193033,0.16186838,-0.98746336,0.40528524,-0.8353919,-3.2602687,-0.74296486,1.2265714,0.5222071,0.6475032,-0.68483377,-1.231562,-0.4961669,1.1476827,1.5135058,-0.88260007,-0.650533,1.0293438,-0.37790188,-0.11172164,-0.5466471,-1.6296484,0.1756735,-1.600391,0.3891025,-1.5814216,0.78335345,-0.7053649,0.23325638,0.187756,-0.75914717,-0.7293252,0.9481278,2.3159363,0.049348477,1.125149,1.4570311,-0.9052074,-1.048412,-1.2524188,1.2888004,0.9440448,0.36208797,0.1740902,0.7557566,0.1089709,0.84528905,0.0068126367,0.7343656,0.61107326,0.6895596,-0.4633833,-0.98600614,-1.0943695,0.6923947,-1.0083963,-2.2532876,0.60243154,-0.05051817,-1.0643197,0.17891341,1.0625811,-0.44758028,0.81841236,-0.008826166,-0.87297076,-0.75784105,0.7548799,1.7380359,0.72452044,-0.9771464,0.080727346,1.4970852,0.5693581,1.5668222,0.19820318,0.43103045,-0.72493243,2.3380232,0.94597435,0.08895665,-0.40038857,0.0058902074,1.100408,0.41702604,1.0768733,-0.14442293,1.0250012,2.1951852,-0.7906624,0.48105112,-0.0021264898,-1.3473843,-1.2681231,0.27872518,-0.296728,-0.97998893,0.12101916,-0.9834831,0.22098324,0.6301863,-1.7231498,-0.45759907,-0.24770108,-0.5249028,-0.59572387,-2.197225,0.85992706,0.19110125,0.2847922,-0.9215327,0.6570442,-0.1597784,-1.1341513,-0.19655329,1.2602097,-0.6079741,-0.23924896,0.41336125,0.27024007,-0.1094816,0.9239693,-1.2969211,-1.9899737,-1.0278451,-0.79381037,-1.0629411,-0.06832178,-1.850468,1.2620176,0.057370335,-0.41178712,-1.43237,1.2639081,-0.37196454,-0.72369176,-1.1021823,-0.1844228,0.007903692,-1.0125935,-0.2878649,-0.3450614,0.14524753,0.6637848,-1.4231237,-1.2463402,0.637807,1.7792875,0.18727146,-0.2054354,-0.6307553,-0.86535627,-0.39263842,-0.34574932,-0.58937055,-0.13946092,-0.31739408,-0.9845308,2.322781,-1.0038589,0.30847168,0.7715566,1.2019303,-0.28673247,-0.3581721,-0.048313357,0.2292521,-0.67174685,-0.20095685,2.0013998,-0.4175079,-0.4070793,1.3170131,-0.49398413,0.23332822,-0.57709837,-0.47436398,-0.06313982,0.5609543,-0.3927975,-0.20455964,0.23223053,2.4993281,0.45670432,0.09822863,-0.013312067,1.5009037,-1.0708827,0.44490063,0.24377306,-0.542455,-0.18629245,1.3449878,-0.23615858,-0.30764982,1.3680719,-0.34390745,0.9792503,-0.1849216,-0.24867354,1.1319995,-0.54347545,-1.3610831,0.09076938,-1.4447155,-1.2386492,-0.34853575,-1.0940981,0.8405217,-0.12464403,-0.38825554,0.12011057,-0.47533998,-0.27576447,-1.7606082,0.48381147,0.69729704,-0.3039723,-0.37453255,-2.0089433,0.072718106,0.008687317,-1.7118894,-0.5218983,0.43631998,0.63226897,0.7023685,-1.5045276,-0.72405237,-0.074023575,-1.5526217,0.50044614,1.993253,-0.47147217,-0.71940607,0.09124598,-0.4549783,1.4442837,-1.029748,-0.4521247,-0.33507058,-1.6726747,-0.77201325,-0.5780732,-0.11323555,1.5458446,0.78870064,0.87238824,1.7662139,-0.6319102,0.91307384,0.21374431,0.63673884,-0.5983705,-2.7903175,-1.0734698,-0.79186004,0.83007044,0.028073628,1.3031287,-0.9481313,-0.6327182,0.98128146,0.7847142,-0.908202,-0.55826956,1.1215937,-0.93884486,-0.781253,0.059646234,1.4428802,-0.6903835,-0.96113753,-0.76971734,-1.3146825,0.7350548,-1.3818462,0.9741484,-0.23289643,-0.6637171,0.75022626,-0.3475151,0.3501057,0.34750035,-0.017963069,-0.9281723,-0.0016534291,-1.0210004,-0.51792806,-1.693656,-1.0154036,1.4215138,-1.0197238,0.7112436,1.7912287,-1.1669924,0.34576944,-0.8386353,1.8535455,-0.99565214,-0.49411997,0.33918443,-0.34802943,1.2308543,1.5588044,-0.11233623,-1.1652997,-0.06291387,-0.3370986,0.7812024,-0.31880298,-0.37427175,-0.13751699,0.5144414,0.8562846,-0.38914195,0.6628891,-0.11496571,-0.51214594,0.046847187,2.2056758,-1.7583787,0.95404905,-1.0933241,-0.3739038,0.39596593,1.6766465,0.37254727,0.33382386,-0.16970447,-0.7783606,0.7241072,1.4949721,-0.16108823,-2.03645,-1.3926812,-1.2342223,0.83092207,1.1583805,1.685819,-0.80750394,-0.63867456,1.1657388,-1.3977082,-0.9689248,-0.9525079,-0.56595093,-1.5457655,0.5588153,-1.5138428,1.3922385,-0.41805217,-0.23399465,-2.138745,2.8639922,-0.18656334,-1.7289338,-0.06790401,1.5312217,1.7439348,1.2966927,-0.4561494,-0.4305729,-0.763982,-0.07533646,-1.9955548,-2.0668766,-2.9188197,-1.9296513,0.61153865,-1.0374844,-0.09366656,-0.7809707,1.1418638,0.76700807,-0.7636787,1.0937097,-1.8702508,-1.927714,-1.4961419,0.5741338,-1.2059643,0.7211139,-0.53618985,-0.47285342,0.8679317,2.9536934,0.857839,-0.84825784,-0.8336196,-0.7151073,0.007866139,-0.7079293,-1.3491312,-0.72790915,-1.6337239,-0.83737165,-0.9678285,-2.3726518,0.1186405,0.21389772,-1.0980622,-2.2118483,0.9532606,0.7398325,2.937532,0.10198198,-0.8642976,0.7086777,1.2846708,-0.5876901,0.08444193,0.7138152,-0.079966396,-0.26452973,1.5662224,-0.6870037,-0.89943314,0.3717667,-0.79595023,1.4097514,1.1215508,-0.5788896,1.1656227,2.1783311,0.39193624,-0.3465682,0.30199483,-1.1602105,0.9539341,0.7906347,1.0819649,0.67084706,-2.9349978,0.23738652,0.31922716,-1.1920941,0.8682806,0.0077414,0.5909287,-0.51528615,-0.19098145,-1.4126189,-0.18399096,0.42911142,0.17395817,-3.0265207,-1.326652,-1.4441422,0.5815741,-0.02241315,-0.4769918,0.123014465,1.6015801,0.2602044,0.3531089,0.58588135,0.2497338,-0.0733461,-0.89812934,0.30941185,-1.6283047,-2.0202014,-0.6208128,0.23009081,1.2100822,1.678139,-0.3252119,0.61135554
random,-0.08589888,-0.03401916,0.04898464,0.022442628,-0.10894019,0.119875416,-0.03631784,-0.032803576,-0.028735755,0.008264087,-0.1146843,-0.09545106,0.073120706,-0.03957927,0.07110442,-0.037446756,-0.0007990258,-0.0022764783,0.0047241077,-0.017697964,-0.13271204,-0.026217675,0.005380714,0.018785272,0.20660037,0.04959905,-0.051848464,0.0994924,-0.04742503,0.046535064,-0.077309765,-0.06203892,-0.006306384,0.012787827,-0.06869478,0.12791097,-0.014405287,0.0574708,-0.011088644,-0.035989735,-0.11263939,0.020126907,-0.04208271,-0.066194296,-0.0050617713,-0.008580388,0.11293513,-0.08525514,-0.10422824,-0.04301531,0.051162463,0.04566467,-0.08888636,-0.06142635,-0.009916613,-0.032303296,0.059802193,0.13321275,0.019340225,-0.0869354,0.07014695,-0.0016119982,-0.08522997,-0.05192782,-0.041752744,0.11255701,-0.07643962,0.02535588,-0.0964155,-0.009952459,-0.09529663,0.04949674,0.048618037,-0.048691534,-0.07391122,-0.00079729204,0.0397587,-0.07336259,0.05876147,0.14086571,0.0091486545,-0.06463027,-0.11796279,0.03417591,0.07906449,0.07002305,-0.009469776,0.053392548,-0.050597154,0.043918222,0.03238411,0.014583786,0.045580745,0.109143585,-0.030694049,-0.07030883,-0.14013854,0.09430584,-0.046863806,-0.18863901,-0.004291026,0.03436196,-0.07153349,-0.019694783,0.11819195,-0.09457711,0.111585476,0.076781385,-0.057179537,-0.012402465,0.014435689,0.1087519,-0.003984176,-0.032635935,0.00932277,-0.01074672,-0.012588332,0.13132983,-0.0003312531,-0.07836366,-0.03581234,0.11209922,0.018413879,-0.04824879,-0.043691073,-0.1306126,0.09309228,0.019628156,0.060363974,0.006381984,0.08374829,-0.008249985,-0.111757256,0.0018207979,-0.012481618,-0.051749237,-0.18055117,0.036339145,0.023246406,-0.09434312,-0.024152344,-0.016425269,-0.0021421493,0.06376313,-0.10570184,-0.053031366,0.060832046,0.07783606,0.024029052,0.039940994,0.03629423,0.08133598,0.0069939117,-0.05678039,0.017563134,-0.005651535,0.0059699845,0.027221773,0.0031443746,-0.044796225,-0.06193679,0.0055269483,-0.12824859,0.02040555,-0.072230466,-0.015393178,0.055238977,-0.16689637,0.037671853,0.048315194,0.05691238,-0.058474354,0.045953866,-0.06050556,-0.069089726,-0.10318689,0.04370993,0.0012937465,-0.034128208,-0.13973108,0.02835123,-0.04372918,-0.083622806,-0.025846096,-0.055619262,-0.003187565,-0.05651604,-0.011486286,-0.0656007,0.014728415,0.103545405,-0.038925324,-0.036147144,-0.09170478,-0.028827589,-0.06622787,-0.1057645,-0.0664279,-0.01825099,-0.09211872,-0.09194116,0.18550426,-0.06011785,-0.056460015,0.032803174,0.0128118945,-0.009459249,-0.015898729,0.0384163,-0.06360582,-0.071868144,-0.049101435,0.030606564,-0.06916975,0.0016343883,0.017345611,-0.04334688,-0.04160213,-0.0034798295,-0.043197997,-0.083385885,0.002021752,-0.020557284,0.04357109,-0.053881273,0.20631698,0.016840653,-0.05117237,-0.07964471,0.02077226,-1.0467646e-05,-0.00010660703,0.01890313,0.03579118,-0.0047360435,0.07620851,-0.002823273,0.0098094065,0.028641796,0.0034258857,-0.054131042,-0.048756063,0.010925594,0.019826163,0.04463015,-0.048996523,0.019798951,-0.09248943,-0.020259535,-0.033382002,-0.016057005,-0.02268143,0.051385228,-0.016275393,0.019962305,-0.045193933,-0.0028660735,-0.08513129,0.023790713,-0.024130858,0.05432421,-0.03578913,-0.11880633,-0.08023375,-0.034419127,-0.13419852,-0.1020904,-0.032456525,-0.043835573,0.053510934,-0.11059572,-0.09060817,0.011188703,-0.091118805,0.01626712,0.05197448,0.059640594,-0.12020685,0.019788112,-0.03220823,0.058492683,-0.031246506,0.04614887,-0.041515287,-0.058832575,-0.040793918,-0.16409127,0.011616791,-0.0068843877,0.11734553,0.07128641,0.13404903,-0.006106096,0.010201328,0.003504341,0.028262295,-0.09872808,-0.12820709,-0.036791224,-0.02682548,0.0070615686,-0.014676653,0.03565448,0.06295872,0.025228262,0.033561587,0.017111264,-0.032397658,-0.06772341,-0.022542935,-0.07048136,-0.09578755,-0.018409098,0.04802537,-0.005263614,-0.068937086,-0.06739731,-0.013441824,0.07008086,-0.05421226,0.096437916,-0.03546242,0.022746988,0.032622486,0.004959562,-0.00268373,0.023732454,0.039873857,-0.06377549,-0.055957418,-0.08376487,-0.08713236,-0.11914684,-0.055425543,0.11509657,-0.08896218,0.086097516,0.08378934,-0.007260701,-0.026622944,0.015695145,0.067643665,-0.01732798,0.051743623,0.10300937,-0.022158545,-0.0026384352,0.10660689,-0.009985914,-0.021346034,-0.05241109,-0.09276494,0.048584417,-0.018761903,0.0012360296,-0.06804713,-0.0032381248,0.08729855,-0.020473192,-0.031760283,-0.058748793,-0.057148438,0.04073921,0.15750746,-0.022429494,0.122357406,-0.10776228,-0.041791826,-0.00080677745,0.0892272,-0.09160323,-0.0425699,-0.0107723335,-0.056943674,0.016165538,0.15198523,0.03449413,-0.15404628,-0.12359343,-0.13190421,0.06456348,0.04048538,-0.0128503665,-0.13066319,-0.024071515,0.016489074,-0.09561583,-0.053015202,-0.05616072,-0.05587266,-0.06318719,-0.03291919,-0.0886563,0.00065940875,0.014664735,-0.02767174,-0.13713527,0.17900223,-0.0066164453,0.0012546079,-0.053956665,0.012466614,0.093248755,0.123490356,-0.044827428,-0.0359076,0.058111187,-0.012976945,-0.12392723,-0.07469546,-0.1448351,-0.10266158,0.10439476,0.07039306,0.03454942,-0.007931729,0.12233801,-0.037137795,-0.07580491,0.05088366,-0.03704725,-0.05863606,-0.08700901,0.077844806,-0.061721563,0.035236456,0.055670667,0.03691538,0.056642074,0.21517105,0.08255386,0.026160374,0.002101615,-0.038427398,0.03583063,-0.110207886,-0.06538627,-0.060060177,-0.047062445,-0.06124924,0.032058828,-0.12931103,0.0962466,0.04410384,0.013603617,-0.103071935,0.047891222,0.05403599,0.14020126,0.018118318,0.027658178,-0.021174723,0.076219045,0.0168631,0.036749817,-0.028220965,0.08355859,-0.01582959,0.04860683,-0.018354656,-0.022745045,-0.045501687,0.033710208,0.052942857,0.100627385,0.09128416,0.08054969,0.13660383,-0.016932394,0.030162517,0.059785374,-0.021456813,0.10471606,0.14725913,0.050585836,-0.017977914,-0.058216278,-0.058719236,0.04213572,-0.0016665731,0.12585202,-0.05399273,0.0108772,-0.030720707,-0.048681024,-0.13987352,0.03080218,-0.027161142,0.008063009,-0.17219979,-0.12214921,-0.09157565,0.024436826,0.09307876,-0.019676965,0.031523746,-0.04816653,-0.0145813795,-0.024720635,0.07157599,0.011619366,0.04327845,-0.020933833,0.02313824,-0.05260097,-0.1723931,-0.05201398,0.008855927,-0.011695144,0.03002083,0.04377517,0.08634202
random,-0.17343043,-0.067945324,0.0918652,0.057069074,-0.25361353,0.24689814,-0.121194825,-0.10496446,-0.084934086,-0.0039905556,-0.29933867,-0.24226063,0.1814425,-0.11175522,0.1643966,-0.12338801,0.015392053,0.003947947,0.004325268,-0.069890544,-0.32696208,-0.10207845,0.024868252,0.07318531,0.5009535,0.107665725,-0.13370515,0.22400647,-0.0780786,0.12909687,-0.19414827,-0.14513837,-0.0043309666,0.046068393,-0.16246808,0.31815192,-0.024432639,0.1484495,-0.05472659,-0.11807382,-0.28693384,0.058070615,-0.0765143,-0.18477459,0.010346723,-0.028669432,0.30573696,-0.23145048,-0.20988257,-0.11283159,0.12970865,0.09173796,-0.23831706,-0.17288531,-0.021004565,-0.04370263,0.15730241,0.3085907,0.09097499,-0.23327956,0.15528193,-0.013904727,-0.21216676,-0.16689487,-0.11004589,0.29018372,-0.16740158,0.0638235,-0.19084449,-0.016367711,-0.23848565,0.15985087,0.12468006,-0.138054,-0.17635095,-0.024057224,0.08923209,-0.21261795,0.11167873,0.36851853,0.0048064794,-0.21118301,-0.26163563,0.0774997,0.19983475,0.11398235,-0.032224108,0.15440084,-0.1499808,0.08792884,0.110639185,0.022366514,0.13282591,0.27766004,-0.07426353,-0.18415439,-0.33691773,0.23435935,-0.121530645,-0.46755463,-0.013843007,0.05915982,-0.15146506,-0.041784767,0.26822874,-0.2647801,0.2708859,0.17488854,-0.124472156,-0.0169824,0.011237676,0.24075636,0.017048383,-0.056210615,0.040708426,-0.031646002,-0.06325839,0.30449906,-0.0116719,-0.16526748,-0.05713519,0.26347595,0.06152467,-0.1289824,-0.11238262,-0.3350216,0.24546666,0.022644544,0.08229073,0.014123501,0.22826377,-0.048736222,-0.27176276,-0.02255102,-0.023889488,-0.13626449,-0.41208678,0.050078493,0.08223285,-0.2030729,-0.06484004,-0.023041854,0.0053661484,0.18290903,-0.2513041,-0.12319765,0.17410968,0.19169253,0.077338755,0.1138162,0.11583915,0.22368367,0.022706453,-0.14147685,0.05729294,-0.02873702,0.040114768,0.11078393,0.034744628,-0.120589055,-0.14088324,-0.0006874829,-0.3754519,0.04738411,-0.19327457,-0.02615056,0.13212991,-0.3885418,0.09721361,0.13056374,0.12315416,-0.12644818,0.09602769,-0.15537253,-0.15702453,-0.25554174,0.13814384,-0.011347667,-0.027782943,-0.3471374,0.086535886,-0.13019101,-0.22441255,-0.052649416,-0.12438004,-0.016925009,-0.159768,-0.010995537,-0.122076906,0.044550773,0.26189896,-0.10090442,-0.092867754,-0.25526407,-0.07296739,-0.18069494,-0.26612154,-0.15807168,-0.04464447,-0.26682585,-0.22144172,0.47063264,-0.10454879,-0.15501712,0.095691204,0.0050469297,-0.033233855,-0.06821003,0.09311968,-0.15821896,-0.16469982,-0.13585876,0.04410487,-0.16577834,0.049002655,0.056706533,-0.10559515,-0.11966906,0.0009201694,-0.09377131,-0.19635095,-0.021856917,-0.054447297,0.08677753,-0.12700337,0.4693873,0.07428397,-0.12285114,-0.20788682,0.052585483,0.003560452,-0.0055710105,0.074592255,0.083766975,-0.026465917,0.17823088,-0.017712066,0.055337753,0.056457654,0.000764281,-0.1691694,-0.14356287,0.024389535,-0.015002811,0.10375808,-0.13958943,-0.025333045,-0.25022373,-0.08532467,-0.052021902,-0.027404213,-0.05780801,0.14171112,-0.021077711,0.05847598,-0.08190162,0.019653317,-0.2087253,0.07644986,-0.053875938,0.11961298,-0.101334184,-0.30426702,-0.22796556,-0.0927202,-0.34278843,-0.23894112,-0.11919743,-0.11857016,0.096736714,-0.24938886,-0.27533546,0.063859425,-0.17750494,0.050532755,0.10697223,0.13470937,-0.27649078,0.05886158,-0.065326214,0.13635437,-0.033819698,0.15390468,-0.06725553,-0.14707,-0.12609318,-0.42389333,0.026942983,-0.018663894,0.30896696,0.14178532,0.3322509,-0.0069739544,0.03141922,0.0067920326,0.0798647,-0.25338146,-0.32956114,-0.13148615,-0.10614507,0.009622289,-0.08824692,0.07302468,0.2220654,0.04546727,0.088576734,0.023952225,-0.08279556,-0.17381258,-0.02695034,-0.14362355,-0.24149275,-0.0124869505,0.13619725,0.013540385,-0.14655831,-0.16738634,-0.014083085,0.16108097,-0.13276786,0.27635786,-0.08529322,0.09441655,0.038743194,0.0045184,-0.013961912,0.09359642,0.055083834,-0.17073092,-0.16651933,-0.1987334,-0.25300726,-0.32279176,-0.1319595,0.2885647,-0.24291398,0.20484044,0.2281303,-0.029145343,-0.084120065,0.039824586,0.13591096,-0.009221912,0.12830561,0.28545424,-0.06944814,0.020681081,0.31286997,-0.044316866,-0.057983015,-0.18987909,-0.23699972,0.15354595,-0.060072377,-0.014123194,-0.20931132,-0.022658955,0.25453115,-0.07440642,-0.065344855,-0.17302585,-0.1751687,0.12414204,0.43301082,-0.038092036,0.31719545,-0.2289131,-0.1501596,0.029947195,0.23579867,-0.22170067,-0.1489604,-0.057313934,-0.13636717,0.028547198,0.37461936,0.06292962,-0.35544124,-0.2854344,-0.3138069,0.18346266,0.065127335,-0.07316263,-0.30889872,-0.07710198,0.0593321,-0.24301893,-0.13022506,-0.22956337,-0.12065537,-0.18474437,-0.095057055,-0.22274025,-0.016448803,-0.013255418,-0.08113126,-0.38420868,0.43039963,-0.015920678,0.014094987,-0.14365168,0.04622731,0.23094547,0.33597568,-0.084106974,-0.10499183,0.19317213,-0.02442519,-0.3392786,-0.21319377,-0.3506825,-0.27972367,0.20141803,0.15213625,0.13820045,-0.00546134,0.3402365,-0.08424814,-0.20765264,0.06789242,-0.08470921,-0.14425965,-0.2469674,0.20470308,-0.12359786,0.053305373,0.16434309,0.09205125,0.13532749,0.5285821,0.17835365,0.07667648,-0.0072269803,-0.14236799,0.12634882,-0.27776626,-0.1839452,-0.15136866,-0.06855982,-0.17334697,0.082431264,-0.30846825,0.25239956,0.075552784,0.061844196,-0.23027298,0.115688,0.118788965,0.33881158,0.066542014,0.05476307,-0.08055485,0.15838318,0.03343449,0.061856665,-0.10701103,0.23681675,-0.016758282,0.11696227,-0.049786903,-0.042484652,-0.08876493,0.08989757,0.11277263,0.22029561,0.23639339,0.17503573,0.3266155,-0.050106365,0.045871504,0.14705572,-0.029152228,0.24290547,0.32896098,0.10971479,-0.061089948,-0.13152365,-0.15017366,0.09854328,-0.03472946,0.2816703,-0.12448071,0.015081069,-0.06799065,-0.15154961,-0.30645236,0.06619204,-0.047865525,0.026597798,-0.35905138,-0.2589448,-0.21798891,0.064101085,0.20638289,-0.060228635,0.07416936,-0.13904738,-0.02001137,-0.08962072,0.18942794,0.01369267,0.15793265,-0.04527791,0.07631751,-0.106997006,-0.406839,-0.12573451,0.053976275,-0.004233152,0.05491697,0.11132266,0.21134377
random,-0.15776977,-0.07445198,0.08250317,0.037890185,-0.17783408,0.17452611,-0.052645985,-0.06570065,-0.0408211,-0.003007442,-0.2008865,-0.124324895,0.12971552,-0.0531745,0.11089608,-0.09098457,0.0003860554,0.04579978,-0.028693257,-0.07230708,-0.1841882,-0.016838664,-0.01612829,0.011827094,0.37025478,0.05537092,-0.06599105,0.13631386,-0.08755337,0.09966472,-0.12193288,-0.14488298,0.01914337,-0.003884868,-0.10607873,0.24102606,-0.051132556,0.06611101,-0.031575546,-0.04470586,-0.21229567,0.022456003,-0.08617704,-0.09062453,0.02584283,-0.041995622,0.22171322,-0.18578082,-0.13443649,-0.09194843,0.048670057,0.04866182,-0.14804634,-0.12508422,0.052079536,-0.056973726,0.062176842,0.23857601,0.07224818,-0.16023016,0.087787695,0.0031199134,-0.1714918,-0.09342333,-0.024085985,0.16098395,-0.09608379,-0.013744379,-0.110339575,-0.034455083,-0.11286441,0.12884654,0.11691942,-0.12402423,-0.12680344,-0.030869694,-0.007821935,-0.15411858,0.061049804,0.21366274,0.0028718803,-0.07583835,-0.12115314,0.04425595,0.17031825,0.031075846,0.0043776166,0.055404954,-0.07237411,0.053525083,0.016709471,0.03167789,0.01125538,0.17684446,-0.060048293,-0.11008482,-0.23130333,0.14929135,-0.122195356,-0.31614435,-0.018605364,0.028940566,-0.15202434,-0.019151166,0.19700736,-0.15739232,0.20070316,0.07835228,-0.08285644,-0.014476291,0.056812033,0.18178502,0.034068838,-0.058955777,0.017502092,0.0048078788,-0.05479238,0.21591096,0.0040823277,-0.11892458,-0.017140916,0.17657584,0.038426273,-0.046058305,-0.020777151,-0.22913732,0.20175157,0.074309334,0.13748848,0.012407497,0.1213083,-0.0008062742,-0.20344011,0.0072948234,-0.034689147,-0.11256846,-0.30197865,0.028062979,0.015709244,-0.16443034,-0.046512045,-0.060736157,-0.011681657,0.14183052,-0.17473948,-0.040492956,0.099565655,0.07039143,0.051006403,0.047270995,0.08650268,0.123109855,-0.024552621,-0.13079508,-0.00029818635,-0.0041517955,-0.0028409145,0.080969095,-0.021827007,-0.11287314,-0.093028,0.022898983,-0.21440206,0.0016211207,-0.17224337,-0.057322863,0.09619341,-0.2905109,0.040869005,0.08336415,0.1333358,-0.1273839,0.06813126,-0.1207782,-0.13731194,-0.1570949,0.094871074,0.006830227,-0.039890666,-0.22299482,0.06829927,-0.023354016,-0.12713479,-0.060522974,-0.061694223,-0.020448184,-0.13367768,-0.029501403,-0.05156798,0.03291892,0.16112265,-0.08531103,-0.07670497,-0.14085129,-0.0707734,-0.1329801,-0.14204603,-0.13287617,-0.049898304,-0.13707525,-0.11692013,0.339829,-0.08091798,-0.098019905,0.07752894,0.007263632,-0.034979302,0.0035016371,0.024873238,-0.07087951,-0.15413833,-0.075716026,0.061377943,-0.13322096,0.018130016,0.0036137234,-0.08359369,-0.052006938,0.05278529,-0.070409104,-0.103306115,0.007184075,-0.035549887,0.071398504,-0.13670322,0.30214614,0.03694292,-0.051188607,-0.15493698,0.05879213,-0.013542798,0.00025462004,-0.012931433,0.03709976,-0.04089898,0.11259099,0.027444972,0.032571435,0.06034675,0.0071421284,-0.104548775,-0.119991034,0.03330629,0.006722079,0.07774307,-0.09546252,0.015656814,-0.1130489,-0.030809399,-0.07351111,-0.041028146,-0.018132625,0.09137462,0.035011005,0.03104322,-0.08465388,0.040671743,-0.10265129,0.035564337,-0.049695473,0.05366551,-0.110615656,-0.18923363,-0.14725631,-0.023285419,-0.21888554,-0.089585364,-0.07655637,-0.104649454,0.09654392,-0.17498118,-0.14609964,-0.0008224012,-0.115149,0.03262372,0.11421703,0.10661399,-0.2148306,0.01070152,0.004015064,0.03753846,-0.0023722313,0.09460573,-0.037951853,-0.08944679,-0.055587456,-0.27410606,0.021378106,-0.028857023,0.2327498,0.08316175,0.21354818,-0.037162684,0.018977456,-0.009284776,0.04726154,-0.14863949,-0.1806013,-0.08854862,-0.01385513,0.03061392,-0.06146831,0.044665795,0.13441649,0.027917655,0.012437253,-0.0386952,-0.0346366,-0.113821134,-0.06920526,-0.1075629,-0.11059799,-0.015256658,0.089482896,0.037455462,-0.06847916,-0.13353984,-0.048918318,0.09465723,-0.15827702,0.1655812,-0.05707346,0.034669183,0.016564483,-0.056752123,0.03844685,0.111097924,0.012724236,-0.0648311,-0.077322446,-0.09916522,-0.15963113,-0.23556115,-0.1458254,0.19704698,-0.11631357,0.1662043,0.13842167,0.0106607955,-0.06547584,0.043964885,0.110106766,-0.0011099994,0.1303709,0.17333107,-0.023444518,0.026054444,0.19187063,-0.03608222,-0.046336435,-0.14652126,-0.17573325,0.07206455,-0.03523934,0.009010478,-0.0759967,-0.007848047,0.22316095,-0.06718009,0.00016340932,-0.11161894,-0.08303742,0.07663444,0.31492785,-0.0716609,0.18363264,-0.19556408,-0.1100373,0.003593157,0.130223,-0.085557595,-0.10278415,-0.023103401,-0.118534066,0.013574232,0.25440818,0.044055227,-0.26472163,-0.21623223,-0.1665689,0.14607245,0.08370994,-0.0106458245,-0.1462999,-0.028880704,0.09187698,-0.1935402,-0.093967915,-0.11104528,-0.0498604,-0.10810739,-0.035093863,-0.16136432,-0.04446975,-0.04249225,-0.06454441,-0.2800186,0.2710275,-0.009089804,-0.0047145286,-0.062402684,0.010077837,0.18050219,0.23031917,-0.040131327,-0.05560323,0.09881898,0.018350573,-0.15957278,-0.1496541,-0.23826659,-0.18207252,0.13410692,0.092516616,0.108841255,0.0030175438,0.24341242,-0.046786007,-0.13606809,0.051224362,-0.0108079435,-0.09572979,-0.13483419,0.097677425,-0.08032555,0.04714663,0.11197097,0.033259194,0.026885333,0.34187105,0.15768105,0.001681741,0.058035728,-0.080695994,0.070430286,-0.1962807,-0.112814955,-0.12113087,-0.011748957,-0.09507421,0.057190213,-0.2507181,0.17058921,-0.0040864414,0.043046143,-0.2220344,0.10244492,0.04968448,0.23219234,-0.005789015,0.043986894,-0.029334186,0.14121924,0.035242915,0.041422997,-0.040162288,0.18364073,0.03776021,0.11128301,-0.027143262,-0.072740644,-0.07763145,0.07633977,0.11769346,0.17525676,0.15904406,0.13293914,0.20220888,-0.04289738,0.04750536,0.08006745,-0.09140028,0.18328433,0.19832204,0.13797046,-0.050554622,-0.09830114,-0.08881683,0.034244664,-0.023197656,0.2444502,-0.12000407,-0.018130455,-0.013610323,-0.13541077,-0.2332484,0.03640626,-0.062434655,-0.0105497455,-0.26906234,-0.16458231,-0.13298069,-0.01641493,0.110813245,-0.030299686,0.010947791,-0.07059079,-0.031951167,-0.06764257,0.12421263,0.047940325,0.099552356,-0.033233047,0.026151579,-0.12523253,-0.28988215,-0.03546864,-0.04038714,-0.0423585,0.04786733,0.023459379,0.14285016
random,-0.12860273,-0.061169565,0.055986572,0.02462778,-0.1830345,0.18795265,-0.08826916,-0.0740264,-0.08551999,-0.00044833598,-0.21689054,-0.16224462,0.12014238,-0.10159983,0.12309623,-0.08080438,0.0062278635,-0.0048675863,-0.004806485,-0.06547746,-0.21870731,-0.053551946,0.014943847,0.039109178,0.35647735,0.08545842,-0.08861291,0.15387811,-0.07094899,0.09340944,-0.12544163,-0.109121494,0.008167477,0.029482136,-0.10448909,0.23635411,-0.026327422,0.10345437,-0.026541907,-0.07042204,-0.2078767,0.04447286,-0.054027185,-0.12185617,-0.017654214,-0.008098913,0.21142463,-0.16344306,-0.16892406,-0.07222461,0.11516783,0.040432774,-0.20400314,-0.15011522,-0.0076295864,-0.035864398,0.10245247,0.24533318,0.07207938,-0.16759993,0.123861365,0.0049048965,-0.14087749,-0.109269954,-0.061337646,0.22929299,-0.12754175,0.045076206,-0.13180244,-0.022204194,-0.17007376,0.1358509,0.11353184,-0.122642614,-0.109940566,-0.040629692,0.06978926,-0.1601452,0.12400859,0.2884546,0.010900054,-0.15675394,-0.17932765,0.056978412,0.1711832,0.056394238,-0.007571771,0.12728134,-0.11089103,0.057582058,0.08329985,0.0044137705,0.0818969,0.19527413,-0.07418315,-0.16953456,-0.22681688,0.16489449,-0.09902973,-0.3313857,-0.013253776,0.058290146,-0.124434315,-0.048060406,0.20372202,-0.19562308,0.20943974,0.11276037,-0.09348027,-0.0112216985,0.017189143,0.17386559,0.017132178,-0.05017233,0.026145337,-0.016086679,-0.038070146,0.21628124,-0.033422697,-0.12585437,-0.041304342,0.19228812,0.049825143,-0.05960038,-0.08125466,-0.22489184,0.16145247,0.01988994,0.074722424,0.018580973,0.16251262,-0.0379816,-0.21557662,-0.013480421,-0.024677036,-0.09945618,-0.30927694,0.039668236,0.04382557,-0.15760088,-0.05503139,-0.0181717,0.012454488,0.13494788,-0.20619217,-0.09171344,0.10415776,0.11523059,0.053213198,0.06251517,0.08458487,0.17353924,0.015651373,-0.09843341,0.04914051,-0.016984934,0.013047754,0.072593026,0.023464339,-0.076414354,-0.092944816,-0.016169686,-0.2550547,0.030737344,-0.16014977,-0.016071927,0.09047057,-0.29537737,0.060888227,0.08534206,0.075500354,-0.11070131,0.08710145,-0.10754724,-0.10027684,-0.20147587,0.09415468,-0.016502056,-0.039368756,-0.23137322,0.07303613,-0.09683977,-0.14274761,-0.046209477,-0.09465963,-0.021802587,-0.10954355,-0.023310702,-0.08822538,0.029152758,0.1892105,-0.06428486,-0.065233774,-0.15861417,-0.048697688,-0.13573517,-0.19601263,-0.10786136,-0.030513152,-0.19952983,-0.14355156,0.34078923,-0.083722636,-0.10150692,0.08198554,-0.0059988108,-0.018990463,-0.05593422,0.0656009,-0.12455433,-0.11879655,-0.08757743,0.023196751,-0.11714671,0.01527552,0.031400394,-0.08841016,-0.07684761,-0.024429418,-0.07428427,-0.15434958,0.0032904993,-0.02381528,0.06217386,-0.11821761,0.34637505,0.06519698,-0.06707924,-0.1467122,0.065369114,-0.020765373,0.015602504,0.031811327,0.09430657,-0.021235947,0.16868512,0.0063201776,0.041147158,0.050682094,1.6707798e-05,-0.096304104,-0.12037409,0.015969861,-0.007992416,0.06081298,-0.12097082,-0.025783563,-0.17149678,-0.059140354,-0.04615139,-0.056828752,-0.034029435,0.101012245,0.00089972303,0.036464687,-0.0792489,0.011740429,-0.1397403,0.044456083,-0.045715194,0.070825055,-0.0694035,-0.23827125,-0.14197482,-0.05981765,-0.26125184,-0.16076109,-0.08699935,-0.11060035,0.045895137,-0.21639282,-0.21791343,0.05299486,-0.15475595,0.047798928,0.08994924,0.10573364,-0.20930111,0.060852434,-0.04983483,0.11340454,-0.03233069,0.122239105,-0.044827946,-0.12723576,-0.09847073,-0.33581197,-0.003724428,0.0072641834,0.22874491,0.09434334,0.24336606,-0.017570915,0.005423033,0.00070422556,0.053867348,-0.18763661,-0.2556876,-0.10901041,-0.08799765,0.009232544,-0.05478252,0.050823547,0.16503681,0.030959794,0.05149641,-0.014923295,-0.06741487,-0.110132374,-0.022734359,-0.120415084,-0.1689601,-0.03075396,0.11550821,0.010095294,-0.100031205,-0.114178814,-0.031157896,0.11736406,-0.094655715,0.19462304,-0.058103785,0.08572823,0.04509045,0.0039230157,-0.010141541,0.08351202,0.01627626,-0.0937079,-0.12350812,-0.14873715,-0.1808606,-0.23200618,-0.095443174,0.20399565,-0.18396752,0.15467991,0.15214154,-0.021229114,-0.058319215,0.030582845,0.08122348,-0.020326355,0.08993558,0.18026276,-0.036001142,0.013802158,0.232111,-0.027457733,-0.021792945,-0.14096767,-0.16010533,0.102579944,-0.037654944,-0.008595792,-0.14960258,-0.02725789,0.19523402,-0.036259875,-0.033443168,-0.12811373,-0.1287599,0.07782734,0.3186814,-0.05743136,0.24457337,-0.15320359,-0.09583687,0.019808324,0.18730886,-0.14274444,-0.08483775,-0.04151922,-0.112033285,0.017856242,0.25094557,0.05749085,-0.26145872,-0.22271693,-0.23495513,0.12811586,0.0510789,-0.038492657,-0.20635656,-0.05229716,0.059016004,-0.2014633,-0.1031856,-0.1547737,-0.07746512,-0.13119443,-0.061670903,-0.14512575,-0.019355612,-0.0085770665,-0.049570613,-0.278472,0.30434892,-0.015273674,0.005469674,-0.10193983,0.032721534,0.16306221,0.27378157,-0.073772945,-0.07793278,0.12822747,-0.016278522,-0.22925478,-0.15939076,-0.24971904,-0.21856445,0.13600376,0.100424975,0.11215436,0.0035638546,0.21176557,-0.05857317,-0.15220039,0.06825895,-0.06770299,-0.10838894,-0.16999865,0.14675894,-0.08238241,0.057544507,0.12434333,0.04913932,0.07755443,0.39138982,0.14336015,0.04555382,-0.011561943,-0.09639511,0.075433426,-0.20974673,-0.12893192,-0.107582584,-0.05710828,-0.11500705,0.04540962,-0.23979278,0.17698266,0.048889615,0.051279876,-0.18337302,0.102088824,0.079282194,0.27410784,0.04459776,0.059832927,-0.054182366,0.124426484,0.022110337,0.05489545,-0.07681795,0.17322677,0.0016340645,0.09737957,-0.014854141,-0.06450383,-0.08729695,0.05992168,0.09002698,0.15855229,0.18709393,0.13076366,0.22750011,-0.049121756,0.037637755,0.10764134,-0.030021414,0.17474155,0.23810282,0.081355385,-0.05773429,-0.10975461,-0.08848466,0.07793017,-0.03285464,0.20286548,-0.07810701,0.00039008964,-0.03777594,-0.12901834,-0.23202811,0.053437624,-0.04276651,0.0148495305,-0.2707374,-0.21221575,-0.17489901,0.028100492,0.14721948,-0.037254725,0.042685818,-0.091639794,-0.03362211,-0.050083317,0.13580082,0.027465194,0.09985674,-0.013234115,0.03198395,-0.087710254,-0.30521375,-0.075683475,0.016875958,-0.003134112,0.01633233,0.082674325,0.1458822
random,-0.14560919,-0.072127044,0.050874233,0.04233096,-0.21443759,0.22480412,-0.124002375,-0.09172646,-0.090227425,-0.0021853584,-0.26804513,-0.20151803,0.13838759,-0.109330505,0.14575355,-0.097764984,0.015989926,-0.015693719,0.0071606403,-0.068517916,-0.28880134,-0.07494777,0.045547895,0.069167055,0.40178707,0.11212034,-0.12875395,0.18245152,-0.08115971,0.12032353,-0.16418488,-0.11667557,-0.003691108,0.03702351,-0.11712514,0.26740596,-0.018424464,0.12757194,-0.036959525,-0.08557155,-0.2270711,0.061206684,-0.050780214,-0.14511341,-0.024180233,-0.022533383,0.2552979,-0.19727898,-0.20831454,-0.09075148,0.14457835,0.055933453,-0.23809914,-0.170332,-0.018074872,-0.040748663,0.15344384,0.29247302,0.08083736,-0.22243792,0.13641302,-0.0087436875,-0.15571617,-0.13357896,-0.089177325,0.26477033,-0.16643205,0.046555135,-0.17168929,-0.025534712,-0.21319416,0.14480977,0.115088254,-0.12972079,-0.14345007,-0.043135125,0.10076321,-0.18907301,0.14894623,0.34941772,0.014181088,-0.18168123,-0.22555795,0.07297014,0.2067226,0.08642096,-0.01680351,0.15901193,-0.14059219,0.0635007,0.10348907,0.012370122,0.11925104,0.24486838,-0.082337365,-0.21400893,-0.27142742,0.21140592,-0.11143487,-0.3759893,-0.0072251135,0.07698717,-0.12447389,-0.05852773,0.23743558,-0.23102236,0.2539086,0.1446261,-0.106911175,-0.014929518,-0.0017910717,0.2125502,0.014591038,-0.05483031,0.024977542,-0.03872043,-0.026888944,0.2668855,-0.04110625,-0.13899481,-0.054568436,0.23926549,0.05305359,-0.0746781,-0.118705936,-0.26773828,0.1749819,0.00835244,0.07862268,0.01751463,0.20832933,-0.050318096,-0.25057322,-0.02684188,-0.015410233,-0.11977629,-0.35025266,0.06181118,0.06692964,-0.19415143,-0.08632512,-0.006605746,0.016917273,0.15806885,-0.25336486,-0.11043232,0.12472787,0.1496289,0.06289883,0.11027205,0.111231096,0.21603046,0.023373231,-0.10494615,0.058220718,-0.007222088,0.030795189,0.09230656,0.021014215,-0.07262653,-0.10747879,-0.005934225,-0.30256674,0.042330824,-0.18493931,-0.0015396472,0.12563443,-0.33260208,0.08817205,0.106214896,0.08880585,-0.13501687,0.086768225,-0.12707317,-0.112619646,-0.25154948,0.10845545,-0.01059452,-0.047720782,-0.29545534,0.082176246,-0.12793604,-0.17525502,-0.058841575,-0.121205226,-0.030494036,-0.12065106,-0.026291005,-0.11108784,0.040271558,0.21649826,-0.07593997,-0.06986178,-0.18714437,-0.050882883,-0.16823466,-0.23262733,-0.122161224,-0.03600187,-0.24885286,-0.18924743,0.40306455,-0.08090131,-0.107192114,0.10105975,-0.008325561,-0.021914775,-0.081268035,0.088554695,-0.16373833,-0.12759593,-0.11418949,0.0225238,-0.13657029,0.02506524,0.034683194,-0.11832811,-0.10188368,-0.03560495,-0.09333343,-0.19344127,0.0075809527,-0.032782532,0.072556876,-0.1336462,0.41497013,0.06512611,-0.103711374,-0.16093975,0.077864885,-0.016550826,0.0026364191,0.06112947,0.11019387,-0.032734577,0.19208369,-0.00954799,0.041316666,0.04402107,-0.004379291,-0.13252147,-0.1289991,0.012052447,-0.02167005,0.0758618,-0.140466,-0.024784898,-0.21361601,-0.0652872,-0.041939825,-0.045047566,-0.050259974,0.120514706,-0.02002587,0.016262913,-0.09596678,-0.010235493,-0.17620431,0.07197582,-0.044347443,0.102496736,-0.06857471,-0.2734921,-0.16637722,-0.0955356,-0.3131059,-0.20611915,-0.111188054,-0.118222564,0.04518544,-0.25158933,-0.27693197,0.06571424,-0.16184539,0.05336248,0.08511875,0.12570666,-0.23180887,0.064797886,-0.06856707,0.15292582,-0.039849136,0.13724507,-0.05502171,-0.1395355,-0.12416558,-0.40581667,-0.0036864833,0.014713442,0.2747902,0.120856024,0.29764324,-0.010601535,0.004485559,-0.0067101726,0.048771847,-0.23069693,-0.29960662,-0.1243091,-0.11767785,0.008172129,-0.06327589,0.058117215,0.20737647,0.041608643,0.07495977,-0.013092562,-0.07135582,-0.14923152,-0.017117612,-0.14148898,-0.22359586,-0.047113907,0.14307721,0.009198018,-0.1474891,-0.13675313,-0.009098819,0.137205,-0.08969229,0.24504359,-0.075867616,0.10628925,0.057053566,0.01522628,-0.03386684,0.07624703,0.019504478,-0.13141105,-0.15043624,-0.17336887,-0.21871345,-0.27682596,-0.088223144,0.24206823,-0.23406424,0.18191779,0.18103951,-0.031461097,-0.070557006,0.03162894,0.09868724,-0.023886034,0.11234995,0.22875796,-0.05726819,0.0028874853,0.2856308,-0.021484701,-0.030097676,-0.17646207,-0.18811195,0.13112918,-0.045608133,0.0010164722,-0.18398067,-0.040465027,0.22143893,-0.038404733,-0.04870505,-0.1605736,-0.16086517,0.088237956,0.38118067,-0.058759004,0.30407313,-0.1950047,-0.11468734,0.021301478,0.22666347,-0.17860492,-0.10475696,-0.04469519,-0.11280701,0.017767072,0.30093282,0.069396116,-0.30725783,-0.26795274,-0.3040081,0.13789728,0.06983772,-0.05033355,-0.26139224,-0.065590285,0.05210487,-0.23417357,-0.11682858,-0.19425929,-0.106487244,-0.15309797,-0.06881131,-0.18952194,-0.030776996,-0.0043509,-0.051680822,-0.3564262,0.38361025,-0.0051975115,0.008136366,-0.14112213,0.042001728,0.18910019,0.31975052,-0.09047762,-0.09904214,0.1601192,-0.025594985,-0.27429932,-0.19852033,-0.31919307,-0.27004665,0.17359425,0.13610256,0.14249852,0.0063210092,0.2602632,-0.076569535,-0.18561593,0.07545983,-0.094132274,-0.13205782,-0.22576933,0.17219637,-0.12117178,0.06997894,0.15946607,0.08367672,0.1100763,0.47978196,0.16928662,0.07504574,-0.027498908,-0.10955402,0.11113524,-0.25589335,-0.15489511,-0.13385426,-0.07146033,-0.13645767,0.06161884,-0.27185196,0.22311902,0.08113499,0.06484355,-0.19527362,0.124327295,0.105745316,0.3122786,0.067978375,0.07133803,-0.076293476,0.14186728,0.021859055,0.07056031,-0.09618783,0.18822679,-0.010600934,0.10278569,-0.017132483,-0.055539362,-0.108814016,0.055009883,0.09264338,0.17717788,0.21960695,0.14989285,0.2721888,-0.055053763,0.04557564,0.13699125,-0.025462886,0.19567747,0.29122874,0.07348337,-0.07791447,-0.12099693,-0.1255532,0.08774403,-0.029259723,0.23962003,-0.081782945,-0.0037974666,-0.064219594,-0.1385165,-0.2799515,0.0626361,-0.040259626,0.023125933,-0.32947466,-0.2518397,-0.20157777,0.0359006,0.17931543,-0.048704125,0.06359049,-0.12152092,-0.040452283,-0.058280777,0.17027299,0.010942852,0.13799722,-0.023512568,0.045852277,-0.10008405,-0.3693715,-0.09186733,0.03782618,-0.004418577,0.02136032,0.12127156,0.1763719
random,-0.48857474,-0.25093874,0.21853842,0.27583334,-0.7128012,0.6795028,-0.40596372,-0.3128056,-0.21019183,0.011037509,-0.95427793,-0.5922978,0.49414408,-0.23971865,0.4672923,-0.27096587,0.07803897,-0.008311512,0.093843885,-0.15737318,-1.0070351,-0.21224542,0.06650504,0.12345855,1.5129297,0.41811597,-0.5150378,0.61772573,-0.22227153,0.38736776,-0.6014448,-0.5197301,0.020219224,-0.027752584,-0.40800795,0.991709,0.07744755,0.49657577,-0.1358157,-0.2590473,-0.7907424,0.15929082,-0.13268602,-0.47356567,-0.035149444,-0.05198783,0.8539345,-0.7832603,-0.8215953,-0.3845256,0.49697438,0.25984263,-0.7200478,-0.66706336,-0.042290047,-0.16142762,0.5768132,1.0437199,0.33002535,-0.76872885,0.34006366,-0.07201168,-0.5547186,-0.44434005,-0.34365255,0.5768378,-0.66245365,0.07175006,-0.6657301,-0.08950052,-0.6125119,0.4431903,0.33523527,-0.38400355,-0.5655447,-0.096542425,0.3068326,-0.59111404,0.44362274,1.0785375,0.06867631,-0.6267351,-0.6699669,0.3357548,0.76745564,0.22338821,-0.15091321,0.40467548,-0.37352255,0.27728754,0.20323624,0.17894231,0.37234807,0.74821573,-0.20391199,-0.6936808,-0.8499088,0.8257632,-0.41403303,-1.2414961,0.04661428,0.25845483,-0.28906804,-0.1036372,0.7790122,-0.6540981,0.8475304,0.51465786,-0.30665934,-0.024189541,0.018512955,0.85735196,0.031726513,-0.23501919,0.07037665,-0.013809073,-0.0106873335,0.8939677,0.035851963,-0.37713283,-0.24291916,0.9156297,0.1687966,-0.17187436,-0.44898123,-0.8200679,0.5750562,0.07616153,0.41638482,-0.064389944,0.56285673,-0.012522066,-0.8253551,-0.040747106,-0.0141625125,-0.423906,-0.98739904,0.24889347,0.29151946,-0.61789876,-0.27239367,-0.08854135,-0.014298288,0.5545066,-0.8594334,-0.38156545,0.38161558,0.42720836,0.19899343,0.41356,0.44553727,0.63821936,0.042356182,-0.3302047,0.051538333,0.02701999,-0.049630795,0.2875786,0.013623702,-0.2351078,-0.35832945,0.088250555,-0.8317832,0.15430574,-0.67139566,-0.0010075574,0.39462498,-1.1782728,0.22563581,0.2074452,0.3993901,-0.49503165,0.31926852,-0.40260637,-0.356758,-0.8989336,0.3912572,0.021442495,-0.31541333,-1.0102574,0.25441736,-0.36380777,-0.56786627,-0.26526517,-0.43089598,-0.12065104,-0.36552063,-0.10506989,-0.41383705,0.16333127,0.71331656,-0.08715525,-0.17643724,-0.654254,-0.21714926,-0.60753,-0.76768005,-0.33125487,-0.19568516,-0.6335468,-0.6850754,1.3828077,-0.20134698,-0.37531805,0.33700222,-0.008887255,-0.19784047,-0.2514909,0.2953193,-0.4600858,-0.4720904,-0.36036426,0.18932448,-0.47497082,0.15089636,0.1156508,-0.4381872,-0.23468375,-0.025276618,-0.32939878,-0.57324827,0.043077398,-0.22875673,0.20806567,-0.3977944,1.3549541,0.08848929,-0.37528002,-0.5755134,0.3608629,-0.05453168,0.0039376207,0.17650954,0.24311168,-0.19817632,0.5458377,-0.04640036,0.19347624,0.108871154,-0.06341109,-0.4176907,-0.43180305,0.230294,0.010448576,0.31913415,-0.50216734,0.034688693,-0.68031996,-0.16969815,-0.18600315,-0.062494166,-0.09021897,0.35339066,-0.121366926,-0.034416743,-0.38122052,-0.12451206,-0.5669086,0.3507143,-0.1598638,0.4064948,-0.2996686,-0.8143348,-0.5705071,-0.3732537,-1.0614872,-0.74923795,-0.40953407,-0.31029686,0.19516131,-0.79838467,-0.84327966,0.17061596,-0.46841863,0.11435008,0.35575658,0.3931939,-0.8596685,0.1455071,-0.1672576,0.46570325,-0.19555345,0.40125376,-0.20543046,-0.56209815,-0.3833621,-1.1874096,0.041037764,0.034454975,0.84056854,0.43409193,0.9757645,-0.0688378,0.019293,-0.05098693,0.11765976,-0.7317599,-0.8958279,-0.47083464,-0.25192338,0.1280723,-0.2408041,0.24223857,0.6845005,0.19624445,0.13400756,0.025381487,-0.23704109,-0.6021665,-0.01759949,-0.5007212,-0.81424904,-0.1850251,0.6164098,0.11499879,-0.5531139,-0.436319,-0.031805553,0.42858085,-0.44015008,0.76498014,-0.2467947,0.23195834,0.2005773,-0.06257191,-0.10160154,0.19097064,0.105815485,-0.45094112,-0.3999614,-0.60345954,-0.6269079,-0.9631764,-0.2517791,0.7633131,-0.6982387,0.5520113,0.5261335,-0.19756253,-0.30648142,0.12277889,0.43840536,-0.20190829,0.42427343,0.83450115,-0.22586852,0.06697548,0.9107745,-0.08310607,-0.1766871,-0.76276726,-0.63712394,0.33022577,-0.24286105,0.115816265,-0.52489036,-0.04724888,0.65071046,-0.09892957,-0.11346379,-0.4355511,-0.42265236,0.27764085,1.3780077,-0.2897898,0.9563729,-0.7257018,-0.4324818,0.12424207,0.67383456,-0.44460374,-0.4211047,-0.084503196,-0.32751495,0.14743839,0.9811488,0.1655359,-1.0489614,-0.9205005,-1.0558555,0.42565614,0.37144905,-0.031455122,-0.861371,-0.20672926,0.29806286,-0.7774472,-0.39213693,-0.66779774,-0.38220277,-0.4340241,-0.19513535,-0.7625902,-0.051545553,-0.08813011,-0.18389297,-1.3215597,1.4614037,0.07725452,-0.00921448,-0.4638233,0.26243237,0.7386361,0.9814758,-0.22824162,-0.2701916,0.48776674,-0.08815834,-0.90269357,-0.7155662,-1.2395108,-0.94372535,0.5636558,0.41728252,0.44677815,-0.040094808,0.9841681,-0.14342766,-0.5357353,0.27275428,-0.38922915,-0.43931478,-0.8347612,0.40846223,-0.45455757,0.27960867,0.5220884,0.2943877,0.4238109,1.6393762,0.54967946,0.20535688,-0.0951972,-0.24019781,0.44733045,-0.8338731,-0.47068036,-0.37226233,-0.25444537,-0.4117977,0.1055224,-0.86776555,0.78396505,0.25035778,0.21250372,-0.72959816,0.3551762,0.42291108,0.9511792,0.17020445,0.08976502,-0.24030253,0.4205231,0.060382146,0.27489722,-0.20940661,0.5034664,-0.008018636,0.4275026,-0.14997602,-0.12682211,-0.30350223,0.07339933,0.34626886,0.46588594,0.61892414,0.5252685,0.92039007,-0.17774722,0.18265893,0.3646534,-0.1871645,0.6609829,0.9021191,0.2701601,-0.31101158,-0.4520741,-0.42541885,0.1286462,-0.06084345,0.81408167,-0.2774426,-0.12987463,-0.316794,-0.3829645,-0.99777037,0.28891402,-0.1614101,0.16405444,-1.1227175,-0.76548123,-0.6160743,0.1052046,0.6383853,-0.14918658,0.1880184,-0.45498672,-0.050064314,-0.2711759,0.5580529,-0.014399157,0.49245018,-0.24210818,0.08483899,-0.49681267,-1.2887568,-0.31708062,0.1268889,-0.071068235,0.18156832,0.43012375,0.63503295
random,-0.24542344,-0.12316159,0.11329548,0.053102955,-0.3128697,0.3098862,-0.16346246,-0.14660291,-0.18491808,0.026387304,-0.41302595,-0.25593427,0.23468602,-0.20732063,0.24625188,-0.17542462,0.00089290476,0.00587018,-0.0008487661,-0.16178858,-0.39822415,-0.07942913,-0.009889884,0.02069513,0.7105947,0.15464333,-0.1453844,0.25150442,-0.14198983,0.19090253,-0.23397976,-0.2595544,0.04458968,0.019240351,-0.17888954,0.4758909,-0.042251967,0.20366998,-0.034439735,-0.13367788,-0.39898822,0.06684785,-0.09521947,-0.1865025,-0.02899135,-0.04613343,0.39564478,-0.35686052,-0.35860455,-0.17141008,0.19127046,0.039477125,-0.37609515,-0.35359517,0.03341509,-0.092763446,0.17521168,0.5549406,0.1285258,-0.33683887,0.226875,-0.005677077,-0.26983672,-0.17571601,-0.11941412,0.41484275,-0.27198553,0.032728646,-0.24552694,-0.0451656,-0.28685877,0.29510662,0.25723153,-0.2830306,-0.21657701,-0.07696117,0.11441854,-0.30216298,0.22586231,0.5503043,-0.010455011,-0.28258067,-0.29037213,0.11974658,0.39269912,0.010934686,-0.0101397205,0.19299433,-0.20351903,0.088994674,0.1108144,0.03344534,0.11288021,0.3791768,-0.17233285,-0.34794506,-0.40428168,0.3273266,-0.20363717,-0.5986964,-0.034625135,0.072367854,-0.2664917,-0.065279074,0.39234012,-0.34969625,0.42011303,0.15475322,-0.15670662,-0.035773158,0.07888872,0.32178628,0.086449124,-0.13990687,0.042362757,0.017202927,-0.04633967,0.3976759,-0.03271371,-0.22638682,-0.06226307,0.34918582,0.10190111,-0.061168738,-0.10953291,-0.39611673,0.34331805,0.06481962,0.17417142,0.036664095,0.28461593,-0.029930748,-0.4068836,0.0040343762,-0.0441361,-0.21304666,-0.54762435,0.05899122,0.0492344,-0.26793602,-0.09625415,-0.04572755,0.01316103,0.2593863,-0.38463846,-0.10816722,0.16315536,0.15247256,0.10998291,0.06896954,0.1782051,0.29286388,-0.016856065,-0.20813945,0.07466269,-0.022573462,-0.022393834,0.13227512,0.042306118,-0.16245565,-0.16074789,-0.027430976,-0.4482653,-0.0015914284,-0.30750003,-0.06539078,0.13442926,-0.55363876,0.0813672,0.14071481,0.1647008,-0.24683636,0.14579399,-0.19333448,-0.17685616,-0.33855087,0.17211159,-0.038264137,-0.0929237,-0.39552078,0.12041349,-0.1135753,-0.2161209,-0.10032387,-0.1446401,-0.062133454,-0.20112811,-0.0669934,-0.15560344,0.08595239,0.3422266,-0.109185204,-0.11511001,-0.284096,-0.10252648,-0.2512672,-0.29057255,-0.21421696,-0.07668827,-0.32421258,-0.23951867,0.65277565,-0.11681835,-0.15497336,0.15953442,0.0110901175,-0.069683425,-0.094946295,0.06781647,-0.17634217,-0.23052411,-0.15811792,0.08911003,-0.23394328,0.018764323,0.050085098,-0.18539858,-0.108562514,0.0012303841,-0.1392483,-0.24076329,0.009834799,-0.037793856,0.11222737,-0.2623385,0.58483595,0.14115623,-0.10183482,-0.2607313,0.16704729,-0.07648615,0.034029726,0.0071552186,0.17202592,-0.07403248,0.34065324,0.055034354,0.079671964,0.14487386,-0.01847782,-0.14913307,-0.23764004,0.027967637,-0.0015899135,0.09864545,-0.2266494,-0.05184834,-0.2901448,-0.09409589,-0.11222235,-0.11273678,-0.028006231,0.16281769,0.042859618,0.055528942,-0.17179382,0.0435687,-0.25267288,0.09225478,-0.098902255,0.11116531,-0.21248594,-0.4347688,-0.24353014,-0.083140545,-0.49990922,-0.25119328,-0.15950532,-0.2279146,0.10799029,-0.39563224,-0.38246733,0.08771343,-0.2703965,0.10358528,0.2145403,0.18215859,-0.3797862,0.112275645,-0.029178094,0.19453873,-0.040685322,0.23317961,-0.06590878,-0.24204831,-0.17019133,-0.62550104,-0.00063555175,0.031319357,0.4565988,0.14895025,0.45976946,-0.07117671,0.010732416,-0.029202616,0.09872423,-0.31693166,-0.46205133,-0.23263797,-0.14369671,0.059126634,-0.11975945,0.084304266,0.3150914,0.043116655,0.05124667,-0.06552212,-0.11273783,-0.18357189,-0.05663658,-0.21819696,-0.2778997,-0.062536925,0.23909329,0.032253474,-0.14952952,-0.19604176,-0.13176095,0.18451177,-0.23360032,0.34785634,-0.10312972,0.1452155,0.061715692,-0.06360354,0.015936187,0.19176987,-0.04035252,-0.13469166,-0.22243567,-0.23306237,-0.35153872,-0.4507213,-0.23365735,0.37486142,-0.33780417,0.32415092,0.29273564,-0.03363824,-0.103875235,0.058628276,0.17177048,-0.043691587,0.17936184,0.31310633,-0.046958577,0.06468178,0.44393694,-0.07272638,-0.046882328,-0.30887464,-0.3247593,0.1845307,-0.07949324,0.012251501,-0.23504645,-0.045871567,0.42185622,-0.09533657,-0.008412924,-0.21434888,-0.22332539,0.11713781,0.65175307,-0.15224347,0.42976835,-0.27325213,-0.19749357,0.0403143,0.3451586,-0.18721499,-0.15764347,-0.08311523,-0.2204586,0.051070057,0.43736422,0.074170955,-0.4951647,-0.41814715,-0.39317912,0.27545062,0.12205816,-0.017394481,-0.32685095,-0.07733364,0.18627048,-0.41776815,-0.19093873,-0.29645658,-0.14273179,-0.24837714,-0.08849176,-0.28245404,-0.07541633,-0.08372879,-0.092010535,-0.54784083,0.5533452,-0.026789052,-0.013345428,-0.16732825,0.053027533,0.2977276,0.52579606,-0.10661872,-0.13822174,0.21990708,-0.0010613229,-0.40125903,-0.35420838,-0.46911085,-0.43670762,0.18994354,0.15648855,0.23452583,-0.0016015139,0.39629102,-0.075757764,-0.27257776,0.12976216,-0.1107305,-0.21184003,-0.30878612,0.24167274,-0.15054253,0.0998681,0.22266254,0.04909431,0.10046431,0.72805375,0.2967198,0.05246398,9.720779e-05,-0.18107834,0.14929056,-0.39161038,-0.24973705,-0.23851377,-0.078929126,-0.22015317,0.03809178,-0.47721386,0.30082214,0.042385068,0.07536256,-0.41675195,0.19878222,0.124668844,0.53187805,0.054089133,0.120785214,-0.049116805,0.25293773,0.04099315,0.07910067,-0.14588247,0.3297104,0.060419377,0.23756878,-0.028632501,-0.18072653,-0.15483557,0.11999818,0.20214859,0.30499697,0.336062,0.26097587,0.39533368,-0.10868328,0.058740392,0.1716244,-0.11923988,0.31490886,0.37665203,0.20811924,-0.104378544,-0.2307861,-0.1399696,0.09828969,-0.060355216,0.40186313,-0.15217784,-0.045411605,-0.0155644305,-0.2566764,-0.4371371,0.09269921,-0.080926426,-0.02095786,-0.5161641,-0.37343615,-0.30903256,0.01255054,0.21779443,-0.088928275,0.041503448,-0.14087014,-0.050239637,-0.09565133,0.25100273,0.056312073,0.18024844,-0.015927382,0.047931764,-0.21236408,-0.55107707,-0.06931128,-0.028848397,-0.030621542,0.03143479,0.08733962,0.27155495
random,-0.10962024,-0.039480552,0.043706436,0.037216272,-0.14073181,0.11597794,-0.0906463,-0.07545635,-0.091612235,0.04132257,-0.19649605,-0.14589807,0.12046805,-0.11847554,0.09197915,-0.08222737,-0.0005111453,0.0019359903,0.014445956,-0.07101007,-0.19979848,-0.06781216,0.0034234473,0.019075848,0.33485076,0.08531987,-0.05769608,0.11071896,-0.051143017,0.07419476,-0.10893697,-0.11907473,-0.0044641206,0.014779082,-0.09270856,0.23086107,0.008796746,0.10266983,-0.0319833,-0.084028944,-0.188239,0.032443486,-0.026489532,-0.109679855,-0.016654272,-0.035793126,0.1779509,-0.17407519,-0.18172793,-0.08161342,0.084770285,0.027509794,-0.1546099,-0.1566908,-0.022472557,-0.054027557,0.07888406,0.25379,0.057261817,-0.15282953,0.122055,-0.02266121,-0.12074331,-0.10669557,-0.07021383,0.22472471,-0.1386961,0.027323563,-0.121846616,-0.016268369,-0.14262071,0.13572517,0.10906916,-0.12494716,-0.112188354,-0.007738017,0.05572003,-0.12884668,0.09171602,0.25766084,-0.004974561,-0.15149082,-0.14848946,0.05916344,0.18269183,0.02377548,-0.0006894847,0.084093064,-0.114136145,0.042408254,0.07930423,0.029799502,0.09212748,0.1895281,-0.07168273,-0.13899094,-0.23872712,0.15882881,-0.089964814,-0.29476315,-0.031307805,0.015831955,-0.12965012,-0.022271296,0.17828819,-0.15521151,0.17774166,0.07527596,-0.10724376,-0.034957714,0.030273885,0.14749679,0.057880126,-0.048798904,0.030459454,0.0064646127,-0.0148193445,0.18541968,-0.019680329,-0.12025148,-0.02473299,0.14208047,0.037541047,-0.050449207,-0.061989952,-0.1856271,0.17925785,0.01760366,0.046645954,0.016010033,0.1517839,-0.007238059,-0.18870153,0.012247785,-0.016437404,-0.120852314,-0.25598472,0.019276524,0.023628764,-0.10547762,-0.02284579,-0.0138762435,-0.012364695,0.12759554,-0.18339218,-0.027556507,0.1071839,0.10100901,0.059141565,0.020749789,0.08810539,0.13356517,-0.0063055386,-0.10770273,0.038481403,-0.015110078,-0.00085568667,0.052040026,0.02078811,-0.080867246,-0.08113883,-0.018591715,-0.24418308,-0.015559503,-0.13632165,-0.04013812,0.05051847,-0.25901893,0.050200205,0.08149472,0.08389068,-0.1001925,0.049661573,-0.102972,-0.08382517,-0.16490825,0.06862545,-0.02476049,-0.02837947,-0.21151833,0.034590427,-0.056573242,-0.11914132,-0.049067035,-0.060736693,-0.026046634,-0.10992356,0.0036432687,-0.082533546,0.056532864,0.16220069,-0.054328453,-0.064440325,-0.14732872,-0.031504516,-0.09930974,-0.1299537,-0.122982815,-0.041341826,-0.14404042,-0.120042175,0.30181184,-0.04038914,-0.08387831,0.061337113,0.020642387,-0.035538603,-0.05954003,0.020104332,-0.08543927,-0.10102439,-0.07779481,0.048482433,-0.11499406,0.02566241,0.024516892,-0.07692195,-0.062020633,-0.008613715,-0.06931773,-0.10688603,-0.0017416546,-0.028076371,0.04105756,-0.11439191,0.26957166,0.08655073,-0.049909413,-0.12854171,0.07401231,-0.00958112,0.0076127504,0.03585581,0.055113938,-0.016885502,0.15236107,0.016192177,0.04277415,0.059952125,-0.011661417,-0.09900763,-0.075138636,-0.0076555586,-0.0075008147,0.04097554,-0.10424661,-0.034469083,-0.16989219,-0.03691305,-0.050826047,-0.045931432,-0.023673803,0.08119143,0.029758418,0.05021552,-0.05820011,0.00577772,-0.123837285,0.046418875,-0.05943999,0.046003353,-0.12140322,-0.21427658,-0.13763584,-0.045135677,-0.22830315,-0.11759679,-0.07721662,-0.1066564,0.05549727,-0.1673078,-0.16035722,0.056552563,-0.11638769,0.06397977,0.08328983,0.060341973,-0.14677514,0.060622666,-0.0145058725,0.1014915,-0.030281639,0.1264325,-0.040812306,-0.11719569,-0.08236508,-0.29549617,0.007623049,-0.003906192,0.20765749,0.07088422,0.21462877,-0.022300078,0.0074674673,-0.014582155,0.061268866,-0.13974258,-0.21975711,-0.08612221,-0.09002694,0.015951537,-0.05100948,0.04743204,0.16464514,0.004814892,0.040068433,-0.0028258918,-0.051662385,-0.09258594,-0.00896182,-0.09407921,-0.13823403,-0.020299902,0.100717105,0.012194155,-0.07752052,-0.058229912,-0.061739806,0.07245264,-0.10534237,0.17171715,-0.038474236,0.0737742,0.0030534354,-0.043558247,0.022721836,0.09748012,-0.008410389,-0.08339505,-0.114643514,-0.103646815,-0.16297483,-0.20903578,-0.14832994,0.17081681,-0.17635697,0.15993994,0.16410023,-0.01301805,-0.03373461,0.03923593,0.095106274,-0.029078664,0.060764834,0.16225573,-0.012511929,0.024610046,0.19588915,-0.04072523,-0.027465835,-0.14123045,-0.16561621,0.107736155,-0.0303088,0.013713346,-0.107221015,-0.029865213,0.20781486,-0.071691096,-0.037662704,-0.1058525,-0.1179647,0.048142664,0.29981548,-0.05203755,0.20965052,-0.13215652,-0.097319886,0.028256496,0.14579886,-0.11905091,-0.07098696,-0.051327642,-0.082428895,0.035427783,0.2126754,0.014633469,-0.23184074,-0.19400461,-0.19158155,0.15414046,0.04621515,-0.04167462,-0.16442618,-0.048015874,0.09411005,-0.18907738,-0.083213255,-0.16637024,-0.08163105,-0.14286627,-0.066699274,-0.13359345,-0.038441543,-0.05722363,-0.045140147,-0.244489,0.24754861,-0.0069192518,-0.02171916,-0.08501907,0.009219475,0.13219814,0.23099521,-0.04834944,-0.09796814,0.11327293,0.016054757,-0.20456678,-0.18178721,-0.19668402,-0.22071172,0.09349775,0.0797891,0.08364429,-0.02345759,0.2116284,-0.039261524,-0.123060025,0.05220055,-0.0586062,-0.09290336,-0.15819132,0.12882991,-0.076313294,0.011402198,0.11119763,0.0070092287,0.06787665,0.33736098,0.11419227,0.036571838,-0.026398249,-0.07830273,0.10943468,-0.16696405,-0.11746409,-0.12819554,-0.04554321,-0.105355114,0.02058942,-0.2206214,0.116329834,0.053575862,0.039045118,-0.19195713,0.07850103,0.08393681,0.25724918,0.03454867,0.06419684,-0.0012303786,0.10643782,0.0029266751,0.016172474,-0.091726124,0.14851469,0.028560717,0.11687844,-0.029686429,-0.078264974,-0.065771945,0.07755724,0.09019407,0.17197295,0.17052549,0.11309531,0.1912497,-0.049016643,0.021269575,0.08726446,-0.04125315,0.14543568,0.19830458,0.09486233,-0.029532962,-0.098297685,-0.076559715,0.052138872,-0.027543137,0.18270159,-0.06863931,-0.008273684,0.010300865,-0.09876644,-0.20576379,0.021581938,-0.026761578,-0.009837017,-0.24444261,-0.17606017,-0.14160018,0.032385357,0.07741641,-0.05516195,0.033901624,-0.058051057,0.012843832,-0.03393504,0.13878581,0.005601014,0.09495402,0.0048679197,0.046305034,-0.086900406,-0.23455356,-0.02473039,-0.0063811885,-0.004072998,0.020995129,0.009839524,0.134806
random,-0.38262796,-0.15981428,0.20379545,0.08349031,-0.64738655,0.5599688,-0.32122797,-0.24809554,-0.3341872,0.055436023,-0.7458299,-0.5829194,0.4239832,-0.37856114,0.35717887,-0.29989392,0.042264782,0.03054022,0.030617787,-0.27507558,-0.82343465,-0.335525,0.008384087,0.15245569,1.2844129,0.3550082,-0.25440735,0.5979475,-0.16293485,0.29631385,-0.4027976,-0.41112733,0.0055277613,0.14816758,-0.44900218,0.8858765,0.014158963,0.4075628,-0.19342493,-0.3751157,-0.75744694,0.14541617,-0.15723203,-0.4967747,0.046521977,-0.012656074,0.7496494,-0.59673005,-0.57147175,-0.28637385,0.34702343,0.18493415,-0.66037995,-0.50194985,-0.068238154,-0.1033498,0.33203563,0.78374803,0.2958449,-0.5987116,0.43867746,-0.051675666,-0.48723868,-0.46434036,-0.23726265,0.8498496,-0.42742553,0.2049036,-0.43804473,0.026634889,-0.6131342,0.49251893,0.36865938,-0.42240483,-0.4255972,-0.08801916,0.21700776,-0.49873596,0.34861106,0.95199287,0.043173183,-0.66332114,-0.6164316,0.20493011,0.5375165,0.22492164,-0.022036752,0.45321998,-0.41250518,0.17353702,0.31490973,0.015877904,0.32173845,0.67856663,-0.20473996,-0.4863602,-0.88980806,0.64427924,-0.38211662,-1.2078949,-0.102552526,0.1356963,-0.38671923,-0.10485864,0.5922179,-0.68178403,0.6303854,0.3518167,-0.34354955,-0.084630854,0.059861958,0.60409355,0.16081168,-0.08950471,0.12493109,0.010053514,-0.20573239,0.66398853,-0.03461822,-0.42175862,-0.09736728,0.6201081,0.18055166,-0.29134995,-0.32906893,-0.80050683,0.6874981,0.0047225105,0.15745218,0.032350264,0.6020048,-0.1772697,-0.7212766,-0.10343936,-0.061651506,-0.40418607,-1.029778,0.08368509,0.1885954,-0.43720847,-0.13950184,0.002212752,-0.041801374,0.46948284,-0.7624917,-0.27923977,0.4601002,0.43603712,0.18328735,0.20510915,0.38156116,0.567715,0.033885643,-0.38690475,0.16730416,-0.056572728,0.040636715,0.26324707,0.17772281,-0.28600317,-0.36866596,-0.057061322,-0.9697744,0.11609865,-0.518869,-0.07232949,0.2660111,-0.9885002,0.17145257,0.29650864,0.2661001,-0.29421577,0.26930538,-0.44535968,-0.31596476,-0.6970026,0.31695148,-0.08305691,-0.04032986,-0.8557476,0.19383112,-0.3217923,-0.5360432,-0.07491935,-0.3090473,-0.111926556,-0.44058824,-0.01820096,-0.32358068,0.14841174,0.6779871,-0.21426079,-0.24994452,-0.63999104,-0.17707242,-0.40365854,-0.6843078,-0.41390875,-0.18176425,-0.67291147,-0.5322974,1.2122796,-0.22508551,-0.44706324,0.28262097,-0.0016990219,-0.08075634,-0.24602354,0.20745154,-0.35636097,-0.38631684,-0.338326,0.09992174,-0.45997122,0.1500477,0.109798156,-0.32124114,-0.30169946,-0.069455035,-0.29069778,-0.47407284,-0.011769342,-0.14752471,0.15142392,-0.37146538,1.1907387,0.2711965,-0.23512535,-0.5834709,0.19693583,-0.037125427,0.04573342,0.21153782,0.2628682,-0.06136561,0.50903267,-0.026484476,0.24659862,0.15970398,-0.06210688,-0.41209412,-0.3830962,0.03230987,-0.07617279,0.21193865,-0.4474771,-0.13423048,-0.7065273,-0.26240763,-0.14368732,-0.14861469,-0.13063644,0.41958517,0.027958423,0.17124437,-0.18954733,0.029902996,-0.5342558,0.14928184,-0.22204052,0.23288816,-0.30741706,-0.82131666,-0.6075329,-0.24149539,-0.94489807,-0.5724419,-0.33730185,-0.374547,0.17997958,-0.663353,-0.6736921,0.26403138,-0.44361773,0.21850547,0.250438,0.32246733,-0.6425298,0.22838886,-0.15828383,0.36784518,-0.10064092,0.5073053,-0.2403898,-0.43746454,-0.33798063,-1.118875,0.05388274,-0.026204402,0.7253363,0.3144018,0.86409765,-0.07658928,0.13267249,0.019852977,0.23288952,-0.6415435,-0.94033194,-0.34492636,-0.2817647,-0.034496717,-0.24253978,0.22580405,0.6082518,0.093224026,0.25110063,0.055736195,-0.24719954,-0.34505132,-0.061609678,-0.32879952,-0.64966476,-0.08259367,0.42130864,0.072512686,-0.37714565,-0.3295282,-0.08960483,0.36090046,-0.34377766,0.6817597,-0.1994931,0.29866612,0.11851189,-0.02894591,0.047332894,0.30225506,0.104159385,-0.4225637,-0.4814458,-0.53682876,-0.6241272,-0.7812668,-0.33733663,0.7008628,-0.65895736,0.49690428,0.5806858,-0.11480764,-0.18071474,0.14634728,0.31380147,-0.07526414,0.22665597,0.69354373,-0.11189745,0.101769865,0.7956007,-0.1750331,-0.12202386,-0.507988,-0.5254799,0.3746778,-0.11737211,-0.063839614,-0.51296926,-0.05922057,0.6977525,-0.12770842,-0.20839512,-0.4112522,-0.45296872,0.31933466,1.0873489,-0.12547089,0.8161466,-0.4964099,-0.3858143,0.14590228,0.6277942,-0.5308656,-0.2655751,-0.16748926,-0.33481768,0.059318293,0.89196575,0.11339687,-0.8690708,-0.70491993,-0.7991569,0.47775617,0.12697385,-0.19418895,-0.72740906,-0.20021747,0.27340165,-0.6513024,-0.27254125,-0.64818,-0.3008237,-0.5263413,-0.25376692,-0.49858904,-0.07468875,-0.092081554,-0.26637575,-0.975467,0.97232884,-0.0051864847,-0.034980383,-0.36670062,0.15744178,0.5003242,0.887489,-0.25357303,-0.31957164,0.47645345,0.007886415,-0.83822054,-0.6323023,-0.8233083,-0.7937618,0.48128533,0.30655175,0.30741313,-0.012881857,0.8218699,-0.19554643,-0.47892606,0.14203097,-0.29623422,-0.37122902,-0.6077014,0.5000721,-0.2849427,0.07775016,0.40610284,0.118653975,0.3031664,1.2614889,0.38986614,0.16908903,-0.075731814,-0.30815193,0.40186608,-0.6663165,-0.48981616,-0.41223383,-0.21620855,-0.4214585,0.11767125,-0.8123339,0.5004958,0.20289254,0.27729395,-0.59108365,0.2983367,0.35229996,0.93843776,0.18575868,0.17888853,-0.14740808,0.39012542,0.06689439,0.09114099,-0.31087112,0.58752763,0.018676873,0.30958498,-0.1377531,-0.17357881,-0.2394933,0.21118414,0.250854,0.58664525,0.5928568,0.43393627,0.7811145,-0.1635492,0.05481446,0.38496703,0.024481993,0.6472937,0.8448956,0.23656482,-0.17070043,-0.37494275,-0.33519408,0.24318288,-0.16263208,0.6513727,-0.24480033,0.028330918,-0.07069811,-0.3979961,-0.7047757,0.14570412,-0.15451814,0.09808859,-0.87915665,-0.68945503,-0.5727901,0.14262457,0.5158136,-0.16702388,0.18018538,-0.289414,-0.004879742,-0.21220873,0.4472734,0.043996647,0.38759702,-0.10926311,0.14012505,-0.2911946,-1.0010902,-0.27576745,0.16875733,0.036352634,0.15205798,0.24261345,0.5346299
random,-0.09196621,-0.04104815,0.053355772,0.01350733,-0.10475327,0.116422266,-0.018645776,-0.03219977,-0.01686504,-0.0008200645,-0.10867735,-0.07496948,0.070481956,-0.026457932,0.068841726,-0.04301886,-0.0022691642,0.019934516,-0.014145611,-0.03230848,-0.10494401,-0.014662772,-0.0040684044,0.009623829,0.20162813,0.033678945,-0.035134494,0.089002706,-0.059109632,0.051315375,-0.067123465,-0.067986734,0.004739215,0.0061763795,-0.062816635,0.12035649,-0.03580766,0.033073615,-0.014126174,-0.025014663,-0.11092036,0.013096473,-0.05644558,-0.05057986,0.0117303375,-0.02033935,0.117943145,-0.08784739,-0.07147648,-0.045609258,0.019066857,0.037432138,-0.07735221,-0.050056938,0.021441448,-0.03536469,0.030540256,0.120054856,0.029067203,-0.08405697,0.05595158,0.00035287894,-0.09435892,-0.04789961,-0.01474485,0.09730139,-0.049434222,0.0017805987,-0.07050074,-0.017055761,-0.0720578,0.060291544,0.05453222,-0.058526296,-0.072124034,-0.013334788,0.00048292163,-0.077082336,0.032508347,0.11347357,0.00680467,-0.034045767,-0.08607112,0.02041315,0.0776557,0.046386458,0.0049805655,0.03336229,-0.03703948,0.034166526,0.008014331,0.009423198,0.007114951,0.09742943,-0.02693652,-0.04994479,-0.13267761,0.07712087,-0.059101176,-0.17104486,-0.011525388,0.020509852,-0.08279943,-0.018440798,0.10159676,-0.09067858,0.10029905,0.04867617,-0.048213344,-0.011645237,0.030344944,0.10070662,0.010168036,-0.029682402,0.008043941,0.0012722273,-0.034751948,0.117533535,0.004072411,-0.07227026,-0.017499147,0.09486993,0.015130828,-0.04398702,-0.01698818,-0.1308715,0.10539278,0.03806029,0.07634767,0.008537954,0.07320684,-0.0067256084,-0.10212298,-0.0034718213,-0.023759989,-0.049499612,-0.18102571,0.023217965,0.003971779,-0.09620296,-0.025446,-0.030402057,-0.0066010677,0.06421172,-0.09358904,-0.033805374,0.054421317,0.04950283,0.022754516,0.03043549,0.03610967,0.06491216,-0.0066350345,-0.070244245,0.0038990253,-0.0034876836,0.006207196,0.039115287,-0.013775805,-0.05620927,-0.058465637,0.017066475,-0.11595255,0.014780886,-0.083328456,-0.02905977,0.056688882,-0.14885488,0.02495415,0.052492287,0.06836244,-0.06237916,0.03968175,-0.06609194,-0.07620044,-0.07983214,0.045714267,0.009026506,-0.02298506,-0.123359464,0.030898355,-0.018130075,-0.0740534,-0.02673216,-0.034562062,-0.004415614,-0.067403615,-0.016405389,-0.035181098,0.0075444905,0.08825505,-0.056408368,-0.04333563,-0.074886255,-0.038915046,-0.06503282,-0.08159034,-0.07979654,-0.024566729,-0.078738205,-0.07270849,0.1765744,-0.05730581,-0.05641983,0.03455907,0.0060845427,-0.010268378,0.009674363,0.019714106,-0.043328784,-0.08170287,-0.04194046,0.033494275,-0.07813854,0.0034648832,0.002522686,-0.042564422,-0.032522023,0.021930918,-0.035937034,-0.061370254,0.0019149493,-0.017931273,0.044343468,-0.064800344,0.1844765,0.009675002,-0.030664697,-0.082166135,0.012700398,-0.0002584267,-0.0024306767,0.0035362453,0.020907672,-0.010677303,0.057023827,0.007942098,0.006372431,0.029345317,0.011089193,-0.056229945,-0.06056072,0.012305441,0.016076475,0.044483665,-0.042776052,0.02166047,-0.06418512,-0.010486972,-0.0410395,-0.017011197,-0.017977037,0.053186446,0.0059888614,0.017087445,-0.048283964,0.021579998,-0.060734034,0.008401596,-0.02780367,0.032669213,-0.045117795,-0.099854454,-0.07995726,-0.015455966,-0.11940508,-0.056255743,-0.033493865,-0.047966897,0.05682066,-0.09064042,-0.07030962,-0.0052748066,-0.07163128,0.012261903,0.055626888,0.06066985,-0.114581265,0.0020875998,-0.012899124,0.019857256,-0.004946567,0.04442658,-0.03485376,-0.037254695,-0.026360445,-0.14369066,0.017476862,-0.016293224,0.121772386,0.05781636,0.117248885,-0.012987985,0.017035073,0.0010605999,0.026704138,-0.08417151,-0.10324333,-0.031765185,0.0023337242,0.009929997,-0.020304495,0.029295495,0.0551042,0.017879957,0.020873481,-0.007964477,-0.020340098,-0.054018956,-0.042426664,-0.05873798,-0.06444105,-0.008326557,0.033680785,0.009189511,-0.044855196,-0.07616766,-0.01814231,0.06095503,-0.07191076,0.08399653,-0.037771355,0.010872703,0.02329766,-0.015055095,0.019101879,0.04630903,0.02333864,-0.042224195,-0.040607028,-0.06378112,-0.08392283,-0.11843171,-0.07021715,0.108720414,-0.061082322,0.09043316,0.07034003,0.011411382,-0.024223056,0.023061974,0.062435005,3.4842447e-05,0.068638206,0.0955342,-0.018909799,0.004112512,0.097573064,-0.01929567,-0.025693443,-0.051803757,-0.08815023,0.037485987,-0.010813984,-0.0021251808,-0.04622724,-0.0015581383,0.110412076,-0.027063541,-0.011725301,-0.056047544,-0.03937459,0.045495484,0.14912386,-0.026853638,0.09785852,-0.11079075,-0.05162994,-0.004468196,0.06640185,-0.060612485,-0.04262692,-0.0048880046,-0.06398239,0.0018324926,0.15381761,0.032086972,-0.14684284,-0.11780685,-0.09178228,0.06878048,0.045766756,-0.008068025,-0.09506093,-0.01457759,0.028341228,-0.08969332,-0.046532515,-0.043243166,-0.035880625,-0.056031696,-0.020805707,-0.08351688,-0.020406142,-0.0001734556,-0.03804313,-0.13637356,0.14526278,-0.009515429,-0.0030471366,-0.038611565,0.0027212952,0.09225412,0.1160553,-0.036132574,-0.02280298,0.050940193,0.005461158,-0.090361364,-0.06893808,-0.12731351,-0.08783263,0.09402995,0.062237445,0.045349,0.0032307473,0.12338084,-0.032576103,-0.07249451,0.035953093,-0.010540004,-0.051465154,-0.06550221,0.06231138,-0.05041645,0.030872148,0.054961648,0.02442305,0.020634683,0.1848058,0.08754242,0.0018639899,0.03294632,-0.04209041,0.025695637,-0.10579994,-0.060634088,-0.061695766,-0.019791828,-0.05324734,0.037767056,-0.13436408,0.0871623,0.012139537,0.02115454,-0.10792795,0.058001205,0.030065155,0.12354102,-0.0023834049,0.029308073,-0.015386852,0.08619521,0.020568043,0.02535542,-0.018854437,0.097516544,0.00854888,0.048371922,-0.014134023,-0.03157331,-0.050128784,0.044191595,0.060081117,0.107032396,0.08226024,0.07649725,0.116375685,-0.015724147,0.033124004,0.05183775,-0.035703823,0.10769673,0.12518361,0.06466585,-0.021237008,-0.051460966,-0.05545179,0.03128041,-0.004598935,0.1336751,-0.062688135,0.007007967,-0.014471243,-0.061863646,-0.12561472,0.018553702,-0.036777426,-0.0016768216,-0.15538143,-0.10088217,-0.072869614,-0.0012599117,0.07205297,-0.014330441,0.015002097,-0.036071707,-0.025662798,-0.038317632,0.0590884,0.027510554,0.043726612,-0.02202452,0.017291933,-0.062060352,-0.16418807,-0.032297157,-0.015368747,-0.018575642,0.036720663,0.021631835,0.07779107
random,-0.46757182,-0.27435026,0.23601376,0.13507809,-0.53917336,0.42977488,-0.33293104,-0.1343307,-0.50223905,0.34393218,-0.7787981,-0.38645735,0.447289,-0.5385221,0.36733434,-0.26057827,-0.14237767,-0.05474651,0.15138039,-0.23034574,-0.79723436,-0.1886839,-0.21070302,-0.13129088,1.4473629,0.36010942,-0.07979609,0.47746143,-0.2759235,0.18218394,-0.3598396,-0.646891,0.05755862,-0.05264723,-0.36802393,1.0723648,0.12991443,0.5278932,-0.0087838,-0.3605328,-0.86580515,0.062046885,-0.0077142413,-0.2783411,-0.046764113,-0.105676636,0.5177942,-0.6991147,-1.0988336,-0.25303242,0.4597491,0.0650326,-0.5184931,-0.834831,0.015108979,-0.38622674,0.33833408,1.2510028,0.15796712,-0.6013592,0.6463056,-0.14286892,-0.387153,-0.34801558,-0.24893823,0.7956165,-0.80816054,0.06006535,-0.59737337,-0.0049308906,-0.5989527,0.50350976,0.49459264,-0.65782976,-0.4234712,0.03139029,0.391036,-0.36351547,0.738608,1.0869936,-0.07038299,-0.71892,-0.571397,0.25396153,0.87889373,0.022668047,0.026678413,0.2352294,-0.3276251,0.23040652,0.059804138,0.29527834,0.34008387,0.7542384,-0.46322078,-0.8148042,-0.8919684,0.73367524,-0.44621122,-1.3213701,-0.123005,0.14670531,-0.65918285,-0.079327255,0.78814036,-0.6013478,0.9064296,0.20211905,-0.5283783,-0.20091628,0.40887052,0.69577837,0.366459,-0.41914538,0.10498516,0.31788358,0.02233378,0.8241997,0.1251737,-0.54518193,0.012006665,0.59758025,0.23810497,0.078047514,-0.059292648,-0.55655134,0.86699796,0.13462876,0.50545776,0.112121984,0.6185739,0.09879009,-0.86714923,0.15454565,-0.138005,-0.6751853,-1.0609545,0.16793433,-0.05951819,-0.5252709,-0.021463823,-0.10354049,-0.107951924,0.44289464,-0.96468145,0.0008782759,0.19994883,0.24849962,0.106625386,-0.14581525,0.4913956,0.38375115,-0.0600462,-0.47234905,0.17426935,0.122347705,-0.33740908,-0.045455895,0.08563161,-0.46361876,-0.26214984,-0.15592015,-0.76410395,-0.13257977,-0.48359543,-0.27352852,-0.011198031,-1.1836467,0.009482937,0.06735211,0.37274465,-0.6805102,0.38619727,-0.4057329,-0.33266175,-0.73565495,0.34102216,-0.13738486,-0.5339995,-0.79110104,0.15510938,-0.08996096,-0.32535172,-0.14473368,-0.23207079,-0.28193495,-0.25611073,-0.22825114,-0.493432,0.28333178,0.6094782,-0.06727363,-0.31846908,-0.5568436,-0.3045771,-0.33496913,-0.40198848,-0.4787898,-0.10973951,-0.36523852,-0.46636,1.3865675,-0.3740512,-0.25526783,0.29172024,0.3199817,-0.1252399,-0.23756896,0.029417016,-0.12558609,-0.5150384,-0.20930135,0.31801012,-0.381838,0.005047544,0.14900169,-0.51640326,-0.08215441,-0.10305373,-0.41524813,-0.35519627,0.11356889,-0.08586431,0.20986837,-0.6026109,1.1910162,0.41867277,-0.056755204,-0.41472194,0.51386833,-0.24738577,0.16203792,-0.028011043,0.35972697,0.0146377515,0.7945312,0.21410556,0.20326237,0.382202,-0.11558692,-0.21712998,-0.355438,0.08740271,0.25816694,0.065274075,-0.57970273,-0.09106605,-0.790349,-0.13215296,-0.51343685,-0.40757096,0.09154915,0.32195458,0.2012341,0.11624294,-0.3980315,0.03238354,-0.5448112,0.07906987,-0.33613014,0.13060877,-0.55159384,-1.0685536,-0.46305084,-0.116870835,-1.0212513,-0.44015196,-0.22662249,-0.43688294,0.3504778,-0.86448145,-0.63219506,0.11884059,-0.66733617,0.3588734,0.6049536,0.2417188,-0.6515908,0.2973816,-0.10862681,0.5075217,-0.38974515,0.49515304,-0.24461833,-0.7411122,-0.30919036,-1.1969922,-0.12201348,0.1546627,0.7178534,0.22723867,1.046175,-0.3345823,0.14773202,0.03493028,0.24313468,-0.6053375,-1.0583133,-0.3559828,-0.37250686,0.17856398,-0.068035394,0.23485312,0.45601043,-0.03934513,0.14779039,-0.08633559,-0.2863166,-0.26985377,-0.004839315,-0.45129082,-0.5501533,-0.40662566,0.5862795,0.03013537,-0.44006476,-0.18574849,-0.6460202,0.3554806,-0.7160977,0.56448495,-0.039055277,0.27004364,0.2568718,-0.33010352,0.29550558,0.26732194,-0.14872895,-0.3199087,-0.43333533,-0.5233931,-0.43447703,-0.7638654,-0.696124,0.6550684,-0.8661195,0.68440926,0.5794786,-0.15342277,-0.068321705,0.21942712,0.56812006,-0.30375823,0.16856465,0.38122404,0.07193321,0.29819706,0.7103081,-0.16018096,-0.1086301,-0.5499764,-0.5665469,0.2979789,-0.16658908,0.20228545,-0.15514396,-0.0020578962,0.90666294,-0.27641642,-0.0974977,-0.22811335,-0.3646382,0.029967984,1.1843898,-0.5230862,0.90436494,-0.50313544,-0.23774622,-0.0022860137,0.7005297,-0.17139462,0.018308531,-0.082058094,-0.38192263,0.26926786,0.668388,0.17883252,-1.0162405,-0.79484105,-0.8858124,0.5964253,0.4242693,0.24627562,-0.52116245,-0.20730744,0.5708698,-0.9360397,-0.28739125,-0.62056863,-0.37103885,-0.58633614,-0.16614299,-0.65073377,-0.07669173,-0.1873701,-0.112519585,-1.0165738,1.0715554,0.027765421,-0.16715533,-0.24622041,-0.030055761,0.548227,0.9111224,-0.23048691,-0.4669214,0.25051567,0.14432408,-0.88013214,-1.0261292,-0.9391119,-0.9793076,0.41109988,0.15513624,0.21461394,-0.23135616,0.73222166,-0.034845445,-0.39076322,0.44931218,-0.39596853,-0.45674148,-0.5290618,0.48847204,-0.40785408,0.12277327,0.25932705,-0.06971948,0.1735649,1.4185746,0.55827004,0.010864902,-0.20623857,-0.11986921,0.4074134,-0.76252073,-0.64311254,-0.5983225,-0.35857916,-0.3579787,-0.14392062,-1.0253392,0.24983323,0.2178274,0.056197878,-1.0526625,0.31689793,0.39509773,1.1883519,-0.0016789504,0.3105727,0.22707538,0.5976541,0.11468755,0.08607975,-0.16824421,0.42996678,0.15028432,0.6262031,-0.15047985,-0.66995144,-0.35199368,0.3093027,0.51965266,0.803207,0.53953886,0.5266255,0.8856449,-0.18194728,0.08133019,0.36230615,-0.31620657,0.7678566,0.7557818,0.44097272,-0.018321097,-0.7617649,-0.18098482,0.13226995,-0.132309,0.7704461,-0.20493709,-0.12595047,0.01530903,-0.46213153,-1.0461578,0.19119668,-0.21293914,-0.0006286342,-1.2697185,-0.8129353,-0.6930431,0.014923937,0.2888739,-0.21608919,0.08839175,0.069180615,0.14383377,-0.026339272,0.5860268,0.12523071,0.2183366,-0.02359112,0.08721546,-0.5510719,-0.99859667,0.010082307,-0.15267643,0.0111304335,0.27812308,-0.055718057,0.5590792
random,-0.13024056,-0.05466728,0.061996445,0.025848644,-0.17324324,0.17359574,-0.07014821,-0.048499253,-0.052433066,0.009730272,-0.18893303,-0.15414952,0.120779656,-0.08338013,0.10813999,-0.062259723,-0.007758506,-0.005653009,-0.010977204,-0.038319442,-0.18919319,-0.042668775,0.0034368348,0.029373934,0.32336873,0.06503374,-0.06780187,0.14290491,-0.08033506,0.06989497,-0.13090941,-0.10254565,-0.0076744747,0.016658688,-0.115391456,0.20175065,-0.029002612,0.078212254,-0.023015408,-0.059832,-0.19762425,0.027766418,-0.053456564,-0.10428088,-0.0047282972,-0.02925148,0.1764681,-0.14073634,-0.15688215,-0.06471197,0.08371047,0.046895854,-0.14374702,-0.10182368,-0.0115263015,-0.04844394,0.07521652,0.21187754,0.045111887,-0.13050698,0.12431598,0.0020942201,-0.13319087,-0.10319396,-0.052811593,0.1965626,-0.11442477,0.025033148,-0.12959461,-0.019746948,-0.14562851,0.10404602,0.093085326,-0.09940906,-0.103217036,-0.013245895,0.0442435,-0.12765482,0.09212937,0.22692664,0.0043095807,-0.1074717,-0.16438639,0.047789775,0.13949135,0.07518326,-0.0062041976,0.08639196,-0.08736767,0.06290199,0.05788467,0.02276823,0.07669993,0.17557332,-0.05866236,-0.115921475,-0.22827399,0.14097528,-0.08391356,-0.30846864,-0.01983293,0.042614385,-0.13239935,-0.04404877,0.19090214,-0.16630325,0.18391551,0.100286104,-0.10144228,-0.021425912,0.034991175,0.15987885,0.017801959,-0.044147182,0.028809238,-0.02006828,-0.042043053,0.21184301,-0.022330811,-0.12104245,-0.02801269,0.16968913,0.03617785,-0.068266094,-0.045993052,-0.2026476,0.16052593,0.0396265,0.08864823,0.02346375,0.14134634,-0.0021848613,-0.19616851,0.012230098,-0.03357736,-0.10572353,-0.29854405,0.037648655,0.022433488,-0.15142868,-0.026579058,-0.035843927,0.004231195,0.117728025,-0.17701265,-0.06130469,0.100207664,0.11081673,0.03924814,0.039150562,0.0682475,0.13140346,0.010840028,-0.10091285,0.037705194,-0.012988098,0.014652155,0.056442197,0.0028534888,-0.08834121,-0.09449786,-0.008006435,-0.22624546,0.0128050605,-0.13459745,-0.02967198,0.07188794,-0.2722909,0.059408873,0.0789023,0.08826334,-0.11646117,0.08069194,-0.1047601,-0.11550176,-0.17498079,0.07951907,-0.0019923467,-0.03636419,-0.22757858,0.058068205,-0.0694149,-0.13984013,-0.047386885,-0.07136227,-0.0073659956,-0.10363851,-0.021114571,-0.08274447,0.027484016,0.16008432,-0.071276754,-0.06866792,-0.1513453,-0.059527572,-0.107509136,-0.16435829,-0.118226714,-0.02098704,-0.1629858,-0.13635017,0.30602634,-0.089913,-0.094706796,0.05830376,0.015194804,-0.023691555,-0.019363724,0.041627396,-0.104487516,-0.11718975,-0.07722755,0.03711792,-0.10723888,0.009504078,0.0286493,-0.07081807,-0.06320127,2.6805796e-05,-0.06804065,-0.1286887,-0.0057011344,-0.024330596,0.0703673,-0.10634529,0.32475403,0.05440012,-0.058162637,-0.12851536,0.03963983,-0.0026146125,0.0070308256,0.02702658,0.052569203,0.0042363587,0.13336,0.006041701,0.023133412,0.052065488,0.0068597803,-0.09820536,-0.08957235,0.01568593,0.00528485,0.054326285,-0.098907776,-0.0049459087,-0.15386547,-0.035540137,-0.06293567,-0.047700122,-0.032984123,0.09082553,0.01043817,0.040929884,-0.065306954,0.018629285,-0.119495995,0.030238638,-0.044312697,0.059311535,-0.06874357,-0.2104158,-0.130951,-0.038426228,-0.2191882,-0.12438082,-0.061759174,-0.086872965,0.076666325,-0.18552104,-0.16506352,0.016480353,-0.14630052,0.035518978,0.09016181,0.08776912,-0.18787022,0.030204497,-0.042706955,0.083252676,-0.028825337,0.10155656,-0.050041977,-0.10237201,-0.07094356,-0.27969486,0.010315923,-0.0048829787,0.2075515,0.08895841,0.21597521,-0.011670346,0.013127335,0.01013902,0.051342454,-0.16517402,-0.21901405,-0.06581407,-0.06752002,0.0063726315,-0.03207568,0.058489013,0.12068349,0.016445827,0.053989563,-0.00958829,-0.051301442,-0.10007376,-0.03083602,-0.11720895,-0.13575205,-0.020842856,0.08341973,0.0031068313,-0.08764688,-0.10844421,-0.03504949,0.10874981,-0.10443741,0.169126,-0.046638567,0.052113835,0.03409242,-0.010656449,0.01619064,0.07749467,0.034459725,-0.086320356,-0.094497964,-0.12624982,-0.14630382,-0.20456244,-0.11244429,0.19119975,-0.15049636,0.14976037,0.14725645,-0.013502834,-0.043314964,0.033565402,0.09937733,-0.01661016,0.083364,0.16865182,-0.02540273,0.005886447,0.18469892,-0.024027236,-0.042723227,-0.0991264,-0.15753332,0.09172553,-0.029912988,0.0039931764,-0.11196717,-0.025120437,0.18233094,-0.05679643,-0.04459837,-0.113262005,-0.09999258,0.063671716,0.26144746,-0.049663223,0.20406644,-0.16918705,-0.08207968,0.008472455,0.14996232,-0.13714077,-0.0645625,-0.028224967,-0.10905117,0.021547498,0.25313532,0.05197589,-0.24324444,-0.20312263,-0.20046802,0.12671314,0.058552317,-0.036330525,-0.18238415,-0.056571398,0.04956816,-0.17042367,-0.08553259,-0.11346708,-0.0708255,-0.10906361,-0.05463782,-0.13659221,-0.014181112,-0.004411618,-0.048866898,-0.23602048,0.2665,-0.018345097,-0.0057161916,-0.07252453,0.006686965,0.15424186,0.2161966,-0.068708256,-0.07707044,0.096553,-0.008169253,-0.20097078,-0.14111808,-0.21864335,-0.17977633,0.14560759,0.09768307,0.07656711,-0.016538583,0.20171572,-0.056100708,-0.13398883,0.06609882,-0.041265905,-0.09173511,-0.13580112,0.13406736,-0.07975004,0.038953822,0.096090965,0.04446179,0.06933329,0.3376741,0.12340522,0.028569728,0.0080197435,-0.0802183,0.059677888,-0.18025191,-0.111515224,-0.1108499,-0.050146896,-0.093417086,0.06293947,-0.2257118,0.14903784,0.04343659,0.036462452,-0.18139556,0.08487881,0.0661931,0.24333546,0.026174305,0.05220368,-0.029265765,0.11948706,0.014411512,0.04332912,-0.05076476,0.15258741,-0.0053726854,0.08890293,-0.020927979,-0.06046403,-0.07510215,0.070161454,0.09753057,0.17003448,0.15962291,0.11642894,0.21551406,-0.02305423,0.04533583,0.10015391,-0.04435774,0.15944174,0.22564529,0.0891679,-0.031633977,-0.10152138,-0.086448476,0.06663444,-0.022767091,0.1993404,-0.088581875,0.02084534,-0.036759205,-0.10717417,-0.22040959,0.03385126,-0.047375083,0.009516999,-0.25799277,-0.19067852,-0.1502654,0.03179662,0.12121623,-0.0402811,0.035854764,-0.06161661,-0.01950426,-0.034910828,0.1253767,0.022180244,0.07975933,-0.011627326,0.038348943,-0.086042106,-0.2691065,-0.07283393,-0.0017189457,-0.012367193,0.03469785,0.045988865,0.13574377
random,-0.17229322,-0.081602015,0.06981885,0.07255094,-0.26601157,0.24494533,-0.15363085,-0.09630662,-0.1074615,0.00037300686,-0.32755208,-0.226771,0.17762275,-0.1243527,0.16455492,-0.096518695,0.025299463,-0.021891106,0.009006534,-0.059444293,-0.34262213,-0.08210524,0.018513707,0.05225083,0.5304536,0.13323227,-0.16581853,0.22549944,-0.06783457,0.123368815,-0.21075933,-0.17815603,0.0020915812,0.018182699,-0.15266392,0.36078623,0.01588865,0.17173156,-0.05325326,-0.11799251,-0.30855575,0.058979332,-0.045376465,-0.18607642,-0.031849045,-0.0044837855,0.28745207,-0.25679109,-0.2880365,-0.08810127,0.2090789,0.07596288,-0.2640369,-0.2357061,-0.030631278,-0.050071258,0.18777433,0.34512246,0.12448699,-0.24385285,0.15156044,0.0019999074,-0.1833153,-0.17237993,-0.11423515,0.26048392,-0.22130623,0.065047935,-0.22124098,-0.02875921,-0.2493149,0.16321576,0.13200338,-0.1493811,-0.16591331,-0.041731413,0.14011206,-0.20886008,0.19095671,0.41626644,0.036711413,-0.25405693,-0.25682536,0.09563738,0.25585765,0.09590777,-0.047438405,0.1864784,-0.15566446,0.10482089,0.122391626,0.048911136,0.1685768,0.26802006,-0.08344113,-0.256738,-0.31618035,0.2740259,-0.1397232,-0.49004918,0.0016527596,0.107508905,-0.13885115,-0.063618034,0.30127135,-0.27262595,0.32538578,0.20754875,-0.12962084,-0.007501459,0.020299265,0.27861807,0.016021175,-0.0788648,0.047783356,-0.030905869,-0.024319729,0.3310526,-0.018485727,-0.15963091,-0.07068289,0.32143682,0.0795492,-0.06793184,-0.14231032,-0.30301854,0.21747923,0.014780301,0.11448903,0.00044604784,0.23071073,-0.030441893,-0.3174567,-0.004292397,-0.013664098,-0.15794034,-0.40020728,0.08180185,0.10068592,-0.23918751,-0.07859666,-0.016701473,0.0009612904,0.20584929,-0.30827734,-0.15312092,0.1556974,0.18371595,0.08009115,0.106460385,0.1506545,0.24800646,0.040670827,-0.12976101,0.06537453,-0.0061301123,0.0034660213,0.09051229,0.024707014,-0.09197059,-0.1252317,-0.023856318,-0.35436067,0.044784263,-0.23974572,-0.006273846,0.12742388,-0.4556517,0.09791624,0.07538653,0.11864101,-0.18208481,0.12930827,-0.15644169,-0.1399287,-0.3328115,0.15927583,-0.013396374,-0.106195964,-0.37387514,0.11431296,-0.1592977,-0.21369044,-0.08392383,-0.15333572,-0.040057506,-0.14133388,-0.03987783,-0.14397904,0.056268506,0.2710111,-0.048502028,-0.07912813,-0.25958666,-0.075513005,-0.21898808,-0.3118466,-0.13769177,-0.043837436,-0.2748383,-0.24559142,0.52183694,-0.114313625,-0.15620373,0.12858051,0.00053382706,-0.040930677,-0.09334131,0.11499202,-0.19025524,-0.1784859,-0.122829236,0.038589876,-0.1458944,0.061702434,0.057435725,-0.15101202,-0.10861218,-0.03882701,-0.11949478,-0.2296188,0.013263148,-0.0510834,0.09288346,-0.15080664,0.5215204,0.076177984,-0.1148349,-0.20736994,0.12879643,-0.02592807,0.027098702,0.05773278,0.12737182,-0.031637277,0.24423459,-0.00765116,0.08045686,0.04915054,-0.007228959,-0.14521067,-0.17295225,0.0774072,0.0056593786,0.09874054,-0.20775813,-0.024160253,-0.2828974,-0.09410302,-0.087411955,-0.06477686,-0.029314958,0.1454084,-0.021484382,0.03661774,-0.124822326,-0.013472219,-0.21364994,0.109368086,-0.07266418,0.12391086,-0.092517376,-0.3513869,-0.20345317,-0.124420315,-0.40169376,-0.2741416,-0.14303291,-0.13897245,0.053591285,-0.31898227,-0.35536984,0.062363185,-0.21945168,0.048839707,0.1364515,0.13693948,-0.323312,0.091822065,-0.08633001,0.19574507,-0.0770375,0.17400584,-0.06640559,-0.23038916,-0.14942557,-0.47543567,-0.025237255,0.021513687,0.31668854,0.1382123,0.3777524,-0.026518524,0.002983825,-0.004710193,0.07974426,-0.27884218,-0.3702545,-0.16913104,-0.14771238,0.025900284,-0.08288806,0.07826364,0.25114182,0.051878225,0.073826164,-0.0037189426,-0.10668907,-0.20070846,-0.007791418,-0.20119366,-0.28551105,-0.055719826,0.21680911,0.025365153,-0.17716566,-0.16083744,-0.032634217,0.17194939,-0.16646598,0.2870692,-0.08269161,0.111320384,0.07640153,-0.0057167234,-0.029783908,0.09801178,0.04250619,-0.1700988,-0.17957853,-0.24044104,-0.2406681,-0.35677293,-0.11804055,0.28589243,-0.28268585,0.21881048,0.21536721,-0.06593731,-0.09906323,0.060844027,0.13909537,-0.071365565,0.123868994,0.28328606,-0.06687549,0.03168271,0.33592522,-0.034562904,-0.059723005,-0.26077542,-0.24333242,0.1406399,-0.08782644,0.025620548,-0.2169066,-0.0435102,0.25615075,-0.04769917,-0.056309048,-0.18196008,-0.18273683,0.107771575,0.49812183,-0.114522964,0.3849386,-0.239436,-0.14081709,0.04280664,0.28502107,-0.19124669,-0.13084951,-0.046683773,-0.14690098,0.06250396,0.35474154,0.078590125,-0.3976843,-0.32369456,-0.39208522,0.17458782,0.10610764,-0.028076338,-0.3215549,-0.095323086,0.10982756,-0.29476365,-0.1550054,-0.26524475,-0.12088637,-0.18054996,-0.09497591,-0.26141927,-0.013604968,-0.036786042,-0.060132444,-0.45191893,0.5255712,0.013347278,0.0019354279,-0.16259538,0.07489679,0.26343697,0.40130958,-0.09464689,-0.13136913,0.19253753,-0.03115161,-0.36882672,-0.2662435,-0.42979088,-0.35132927,0.21060233,0.14138275,0.17142478,-0.024061523,0.35058904,-0.08211515,-0.2094723,0.11233884,-0.12459825,-0.16865811,-0.2837681,0.19673048,-0.14015743,0.086406395,0.17825466,0.08479768,0.1519127,0.61808455,0.19249271,0.07292488,-0.05176879,-0.11713086,0.14717706,-0.3059184,-0.19306341,-0.13619986,-0.09899175,-0.1550264,0.053125307,-0.32682037,0.27033213,0.092703275,0.086720385,-0.26149818,0.12269755,0.15494418,0.39224577,0.062626496,0.06385202,-0.10683662,0.15460931,0.026823679,0.0985241,-0.08883808,0.22046663,-0.015794855,0.1596814,-0.046297424,-0.08564181,-0.1197256,0.06061649,0.13788968,0.20090844,0.26158643,0.18314874,0.3681882,-0.065695345,0.054566953,0.15350184,-0.0592656,0.25480923,0.3596998,0.10066663,-0.09053932,-0.18161401,-0.13928881,0.08136983,-0.04229814,0.29542905,-0.1153435,-0.02470857,-0.104334585,-0.17687136,-0.37575418,0.098844744,-0.054301895,0.05298673,-0.40908322,-0.30889824,-0.25767753,0.05203216,0.24265696,-0.055234883,0.068317324,-0.15103394,-0.019567607,-0.07197169,0.22085066,0.023901388,0.1708027,-0.044128753,0.036227625,-0.15508278,-0.46955758,-0.13075598,0.048377372,-0.0052030385,0.045933362,0.13630362,0.2312997
