title,0,1,2,3,4,5,6,7,8,9,10,11,12,13,14,15,16,17,18,19,20,21,22,23,24,25,26,27,28,29,30,31,32,33,34,35,36,37,38,39,40,41,42,43,44,45,46,47,48,49,50,51,52,53,54,55,56,57,58,59,60,61,62,63,64,65,66,67,68,69,70,71,72,73,74,75,76,77,78,79,80,81,82,83,84,85,86,87,88,89,90,91,92,93,94,95,96,97,98,99,100,101,102,103,104,105,106,107,108,109,110,111,112,113,114,115,116,117,118,119,120,121,122,123,124,125,126,127
random,-0.3801506,-0.18399,0.14976922,0.15788332,-0.5959141,0.6065087,-0.44211578,-0.27221012,-0.2365139,-0.1043491,-0.6738577,-0.5600407,0.21341972,-0.21688923,0.30873892,-0.28696167,-0.101923846,0.013965975,-0.068917505,-0.34860656,-0.69701517,-0.105080664,0.07717841,0.18099318,1.2122421,0.36462677,-0.3945395,0.456224,-0.14672765,0.43317968,-0.44848958,-0.3808219,-0.020331992,0.049176756,-0.35538393,0.68780464,-0.017607206,0.25512862,-0.093967415,-0.29612216,-0.58324826,0.15006243,-0.11058249,-0.3497376,0.042136192,0.08835718,0.6991908,-0.47197643,-0.45071647,-0.20088209,0.35664782,0.14272152,-0.80612326,-0.48443916,0.021484852,-0.15189594,0.23136988,0.925985,0.36066052,-0.70110345,0.20553313,0.07903552,-0.47297043,-0.40418836,-0.23086508,0.8260391,-0.4218031,0.05041948,-0.47047287,-0.06912402,-0.5856745,0.63979423,0.26209798,-0.33304626,-0.4453603,-0.21743721,-0.025258489,-0.609271,0.36258438,0.9315036,-0.00280817,-0.5133251,-0.48735702,0.2463386,0.6247599,0.21324529,0.03969039,0.39929274,-0.32945412,0.11752368,0.24183291,0.019416628,0.19227149,0.6803944,-0.0663383,-0.49556047,-0.76370317,0.5879129,-0.3487896,-1.0097446,-0.062382977,0.07331577,-0.37545136,-0.23203462,0.5076349,-0.6133884,0.7338671,0.27615058,-0.24642292,-0.029900473,0.05186406,0.49165338,0.045193017,-0.11034965,0.16549197,-0.007791967,-0.14518061,0.7738549,-0.018009452,-0.35051247,-0.27790448,0.78760123,0.07646241,-0.4002393,-0.31131715,-0.78377384,0.5106696,0.020945424
random,-0.65319496,-0.38513792,0.42211324,0.31499588,-1.348746,0.96858174,-0.79574394,-0.43551826,-0.9756539,0.49402842,-1.477063,-1.0084729,0.6132245,-1.058437,0.42957425,-0.51782984,-0.45913213,-0.21451868,0.20618056,-0.56836194,-1.4616013,-0.24252732,-0.26900285,-0.04683085,2.630507,1.0347646,-0.4310404,0.9109368,-0.4076942,0.53185064,-0.87397295,-1.081289,0.048056345,-0.032053925,-0.9723495,2.1652987,0.4273608,0.9650731,-0.22989556,-1.000754,-1.5028799,0.28225774,-0.0033321606,-0.71363807,-0.06749067,0.10867481,0.93019986,-1.212005,-1.8891742,-0.29742652,1.1126041,0.1340121,-1.4630183,-1.4656053,-0.25756162,-0.58544934,0.32909578,2.2802088,0.65380275,-1.2010092,0.86811286,-0.0020726414,-0.5886447,-0.8568691,-0.3839924,1.8270319,-1.3948318,0.24372254,-1.086072,0.21399403,-1.4817586,1.28164,0.6707636,-1.2017137,-0.6190417,-0.09630538,0.37871552,-0.85831237,1.2711616,2.109972,0.013799329,-1.5565095,-1.1196244,0.5446903,1.632395,0.39470786,0.1316288,0.73674506,-0.6183039,0.19761197,0.46628883,0.19461185,0.75680035,1.609032,-0.359234,-1.0332875,-2.0322785,1.3803113,-0.812763,-2.5251923,-0.37303385,0.18533024,-1.2023598,-0.42103562,1.28479,-1.2567645,1.9065329,0.40147302,-0.95943344,-0.30974248,0.5792745,1.1095029,0.49161416,-0.46088403,0.5252689,0.38588807,-0.052465554,1.8010445,0.15912056,-1.1331084,-0.37700415,1.5646269,0.437717,-0.56812996,-0.3516042,-1.2651241,1.3814151,-0.03919224
random,0.29440767,-0.8482194,1.4240705,-0.72417045,-1.6684358,0.30490616,0.010413088,0.7297179,-1.9594846,2.034762,-4.4531517,2.4716973,0.75550616,-3.058763,0.63643634,0.8992005,-2.897547,-2.6031506,1.3327595,-1.0582244,-1.3540667,0.679115,-2.8776164,-1.4439732,5.9077578,2.2261353,-1.613943,1.9239675,-1.413748,-0.46808013,-3.6072989,-1.8242055,1.9201589,-1.0773778,-3.3725953,2.500032,3.1397324,2.7509305,0.7130626,-1.7476544,-2.9822037,-0.2441494,-0.70181406,-0.7389161,1.6477978,-1.8501589,1.470292,-1.5635163,-7.095486,-2.2087214,2.8508716,1.3087205,0.7268915,-2.3377397,-2.8208613,-1.9092405,1.5130537,3.209411,-1.0048555,-2.8247812,1.4710356,-1.1400018,0.1627177,-2.0945058,-3.024814,0.38265833,-2.930996,0.6123911,-3.5230272,2.108558,-1.4286141,2.560531,0.16966785,-2.1044536,-1.5755944,0.87796926,3.3392818,-0.923159,2.061341,2.9319527,-1.468058,-3.4041874,-1.5882146,2.0501947,3.0672052,1.3057888,0.63876086,1.43369,0.34113246,1.9144173,-0.50620615,-0.0848878,0.41232526,1.5372206,-0.5101212,-2.381471,-1.2575444,0.5740116,-2.5402067,-4.1521883,2.0095668,-0.06517295,-1.0610894,-0.19026753,0.10955214,-0.089954466,0.44703794,-1.2181404,-1.7725327,-1.6228976,0.45098883,4.0489345,1.5589219,-1.4187201,0.6080944,4.309283,0.18544446,3.1383586,1.6577717,1.8149462,-1.7809772,5.364663,2.2276804,-0.05633673,-0.51764673,0.9143623,0.86904824,-0.06711801
random,-0.11216301,-0.05009869,0.05806539,0.02825181,-0.16995545,0.19963698,-0.13523601,-0.07203984,-0.073538475,-0.016222807,-0.20293202,-0.17399837,0.067302965,-0.06240295,0.10206024,-0.102208905,-0.032892123,0.00025122723,0.0008005534,-0.10807608,-0.2580687,-0.023596713,0.034401048,0.067790724,0.34304625,0.11754389,-0.13822684,0.16074702,-0.06067147,0.13515577,-0.14775215,-0.10588121,0.004680934,0.031103378,-0.12730294,0.20223297,-0.02719359,0.09154117,-0.028388046,-0.10319246,-0.16466057,0.05750722,-0.05243759,-0.08065253,0.01673874,0.0026440434,0.22887391,-0.13394332,-0.15385607,-0.072542265,0.11397732,0.05236007,-0.24567007,-0.13013002,0.0051227645,-0.05675895,0.078719616,0.2976934,0.0781838,-0.24874671,0.070625335,0.010750337,-0.11505633,-0.113654785,-0.08472697,0.29599592,-0.16229446,0.025348263,-0.17831825,-0.011003478,-0.22423853,0.185087,0.06911704,-0.10121995,-0.1384275,-0.043046992,0.026528932,-0.16399843,0.12154686,0.29572278,-0.014722549,-0.13025557,-0.19120689,0.07348114,0.18812254,0.10874495,0.020190591,0.120474346,-0.10326685,0.043111734,0.052598998,0.006610703,0.06098874,0.25020006,-0.027762553,-0.15255705,-0.25712165,0.18676127,-0.11651839,-0.3101058,-0.037417762,0.028284049,-0.13368163,-0.057360187,0.15887953,-0.19502375,0.26194274,0.063639924,-0.08762787,-0.027805997,-0.0019821813,0.1507674,0.031376146,-0.051591665,0.02872436,-0.019247258,-0.033389322,0.2643623,0.007906655,-0.1324394,-0.10002807,0.23927519,0.022856915,-0.12761359,-0.11246452,-0.28453436,0.17918964,0.008158956
random,-0.21908665,-0.11729338,0.13794635,0.21789743,-0.47495133,0.43283308,-0.38004446,-0.20296645,-0.17688824,-0.058624025,-0.57713467,-0.4525225,0.1794427,-0.15156965,0.16844784,-0.26161036,-0.09594217,0.005698753,0.0342336,-0.22828937,-0.65645236,-0.15693708,0.035422258,0.15577914,0.9378789,0.32952628,-0.30893928,0.37605274,-0.06699476,0.30626222,-0.36445695,-0.3092884,0.0016552098,0.038036082,-0.3013564,0.560865,0.07363037,0.26275134,-0.13125728,-0.3139701,-0.4245806,0.12606,-0.032853223,-0.31854194,0.10599845,0.06205806,0.53436226,-0.37350243,-0.39022568,-0.18158145,0.29457545,0.20262459,-0.5675357,-0.39411017,-0.025111042,-0.1223378,0.26974773,0.6597153,0.2741712,-0.57459974,0.17782441,-0.026593208,-0.36990914,-0.38112485,-0.24714665,0.5506699,-0.4026172,0.098188624,-0.41313186,-0.012815987,-0.49726576,0.4533646,0.12481216,-0.24348384,-0.36489022,-0.1090197,0.06415024,-0.45690647,0.2689252,0.71972024,-0.022721833,-0.5189871,-0.44033843,0.19847259,0.47025543,0.25384188,-0.05280833,0.267416,-0.28654906,0.10226893,0.19380687,0.06069814,0.25971046,0.5806405,-0.043871436,-0.40356362,-0.6091784,0.49949285,-0.27059928,-0.8213954,-0.020855268,0.06789729,-0.20426582,-0.11113773,0.3549367,-0.45050657,0.5555997,0.24052233,-0.20544495,-0.028917717,-0.010801158,0.39280134,0.033904828,-0.113672495,0.1326678,0.01758067,-0.09061081,0.62465674,0.06895674,-0.22998762,-0.18095268,0.60425293,0.0687143,-0.304049,-0.26454064,-0.5787582,0.40814495,-0.055134352
random,-0.26978043,-0.15474284,0.12060485,0.118653454,-0.3570398,0.3603678,-0.26086244,-0.1622231,-0.09996571,-0.08257844,-0.40495172,-0.3277391,0.14966811,-0.107945554,0.13350771,-0.19263755,-0.065214165,0.0736286,-0.08714649,-0.25274125,-0.38456377,0.027402008,-0.005981401,0.051786717,0.76488894,0.17779082,-0.22573103,0.25794244,-0.12273684,0.28149584,-0.26596722,-0.24381639,-0.01884331,0.0052341516,-0.22600327,0.3073607,-0.07276268,0.061116077,-0.03133322,-0.1121323,-0.2937467,0.06489721,-0.13077554,-0.1803724,0.070996106,0.010832173,0.4410029,-0.21072234,-0.23488796,-0.11112121,0.16399118,0.09890837,-0.44261676,-0.20429012,0.07792864,-0.10245614,0.07898502,0.52580065,0.15844029,-0.46420088,0.071129106,0.059262,-0.32424912,-0.21444748,-0.114030145,0.50214565,-0.21525584,-0.008451144,-0.2872313,-0.12875454,-0.2919673,0.40918398,0.13495252,-0.17431259,-0.30779174,-0.11540905,-0.09378077,-0.39345494,0.1361444,0.45831412,-0.030013561,-0.20347172,-0.23917018,0.12927148,0.32760277,0.16930735,0.03704859,0.17174338,-0.17907271,0.10415418,0.09624882,0.036076434,0.012917969,0.37940234,-0.011454112,-0.23509493,-0.44681093,0.21612902,-0.23762874,-0.55466306,0.0042763352,0.024696218,-0.2510031,-0.11241445,0.26005837,-0.25988096,0.37320274,0.1628814,-0.13194093,-0.030522777,0.003827684,0.25176075,-0.0027503127,-0.067688584,0.058206532,-0.026248202,-0.12453538,0.4571723,-0.024354784,-0.17607717,-0.1530752,0.43961927,0.0015850117,-0.19747737,-0.18333414,-0.47599885,0.2758645,0.084927656
random,-0.21427315,-0.10676549,0.09808791,0.09191491,-0.347112,0.34033373,-0.26579314,-0.1273394,-0.16827786,-6.1988525e-05,-0.4089268,-0.32704547,0.16891883,-0.18565148,0.18013656,-0.14423874,-0.105789006,-0.045355,-0.008324585,-0.12982054,-0.41759953,0.012971141,-0.008843473,0.06882472,0.72187895,0.22417066,-0.2078187,0.2622969,-0.12904358,0.22164495,-0.2973178,-0.22334985,-0.019812675,0.02020312,-0.22476678,0.4324589,0.025364932,0.18799283,-0.015635082,-0.1815528,-0.37149042,0.09962505,-0.05647842,-0.16409566,-0.04054373,0.027771452,0.34111607,-0.26119033,-0.38504243,-0.06367785,0.31058398,0.059191234,-0.43390733,-0.30462998,-0.023552675,-0.12252498,0.13185455,0.5817232,0.14709413,-0.3832727,0.16154456,0.04863346,-0.19997622,-0.21000938,-0.13561434,0.4972841,-0.32776695,0.044336732,-0.32509583,-0.029190632,-0.3835144,0.32074463,0.12849781,-0.23411298,-0.20134835,-0.040900446,0.085340865,-0.29682094,0.28476647,0.5529392,-0.030011643,-0.31097203,-0.30010802,0.13038725,0.3915506,0.15587768,0.035949517,0.2247979,-0.15560809,0.10469294,0.12796593,0.07396118,0.16852471,0.4301722,-0.07464887,-0.29712808,-0.4699113,0.3024968,-0.17098968,-0.62385744,-0.025090262,0.081707984,-0.26534683,-0.12882194,0.3525251,-0.33700973,0.4980391,0.19882864,-0.19976611,-0.051945988,0.047855504,0.2788488,0.046599083,-0.10448733,0.11185807,0.0006210702,-0.031547934,0.5070697,-0.010770359,-0.24020354,-0.15309548,0.47231176,0.07818608,-0.18079965,-0.15140846,-0.40756583,0.28207463,0.027702194
random,-0.24770151,-0.12077566,0.12781017,0.10018539,-0.4034922,0.44023982,-0.30054235,-0.19031288,-0.15721914,-0.043268286,-0.48615652,-0.41226974,0.17818454,-0.15778776,0.21404943,-0.21495576,-0.09581693,0.006710211,0.0012017961,-0.2181236,-0.55067414,-0.05463523,0.042973787,0.12992416,0.8377237,0.2685066,-0.29958215,0.36411795,-0.13318993,0.31336963,-0.3403194,-0.24626565,-0.007853451,0.06380171,-0.29961306,0.46194082,-0.015293557,0.19808027,-0.03452974,-0.20701589,-0.38836294,0.11720414,-0.12007357,-0.22269867,0.026323197,0.014425443,0.51042825,-0.31224215,-0.3721233,-0.15863939,0.27620128,0.13112892,-0.5637131,-0.2956675,-0.007338447,-0.11205385,0.1710903,0.6686235,0.16043642,-0.54294795,0.15099399,0.044575144,-0.29206866,-0.2581708,-0.19600442,0.63100076,-0.33609408,0.082550816,-0.4207255,-0.0509053,-0.44602215,0.41494814,0.15114883,-0.24004446,-0.34110698,-0.09620757,0.054608714,-0.39661068,0.2639492,0.66935116,-0.04292787,-0.3331067,-0.40501872,0.1812918,0.43446964,0.23573314,0.028643183,0.2787077,-0.23978451,0.1046357,0.13417226,0.022483772,0.11665782,0.5292021,-0.04974163,-0.32670563,-0.5952114,0.37796837,-0.26051077,-0.7261167,-0.018864729,0.041043878,-0.2873182,-0.13308707,0.38157758,-0.40068346,0.5325753,0.18724175,-0.19181974,-0.05397229,-0.0068410477,0.34840903,0.037702464,-0.10226868,0.079050854,-0.002660572,-0.08233567,0.5935188,0.004300547,-0.25016776,-0.23025045,0.57637316,0.058621194,-0.28572688,-0.25626227,-0.57403827,0.36627504,0.020615207
random,-0.59551,-0.40382156,0.27283713,0.67579937,-1.3598573,1.1869833,-1.270394,-0.6052085,-0.3695523,-0.12889372,-1.6956097,-1.2357723,0.44463125,-0.33203292,0.603188,-0.6142,-0.120499,-0.10790863,0.25238222,-0.3195745,-2.0155704,-0.37599534,0.19105479,0.38085377,2.5509408,1.0951322,-1.2227823,1.1292344,-0.211679,0.76631975,-1.2759767,-0.80310774,0.08084095,-0.067191325,-0.89579076,1.7463146,0.3723486,0.8513466,-0.3216166,-0.6957704,-1.3169894,0.40111032,0.08629406,-0.8143245,0.052612934,0.16463925,1.5520848,-1.3149353,-1.5216982,-0.5954821,1.1640043,0.4062321,-1.7464201,-1.3268261,-0.16079071,-0.30096495,0.89016354,2.052365,0.92298716,-1.7039415,0.44030318,-0.01557957,-0.83107287,-1.0488414,-0.79702616,1.4275627,-1.3898894,0.05541759,-1.2949793,0.003813761,-1.402511,1.4085275,0.42325446,-0.79703623,-1.0454801,-0.30301747,0.25113824,-1.4055101,0.9293232,2.233815,0.05070027,-1.5289537,-1.1387554,0.75337327,1.6594632,0.30362347,-0.20871536,0.9352321,-0.70257145,0.33654422,0.36960593,0.3176867,0.80601436,1.5938743,-0.18321316,-1.405431,-1.6149814,1.7750311,-0.8680611,-2.3192375,0.020128267,0.3902801,-0.4682971,-0.40956196,1.2007571,-1.3874016,1.8456256,0.6542434,-0.51535493,-0.12915565,-0.08084994,1.3973885,0.15249228,-0.3537292,0.4067314,-0.012284755,-0.0062924842,1.9248937,0.15635496,-0.5582449,-0.69351834,2.13636,0.1937731,-0.8187986,-0.9830104,-1.5027063,1.0702212,-0.08563598
random,-0.37180746,-0.21018864,0.1659796,0.19560987,-0.6112889,0.58210546,-0.5001009,-0.23931454,-0.27852038,-0.027123641,-0.7690631,-0.5726351,0.26418948,-0.2696099,0.31647244,-0.33393055,-0.16497639,-0.023216143,0.017538192,-0.29537633,-0.85348284,-0.10552767,0.004854766,0.15434298,1.2979116,0.42446315,-0.38585508,0.48540875,-0.19981585,0.39823246,-0.5350794,-0.47648424,0.012796323,0.012563713,-0.43093765,0.8389981,0.00660281,0.348674,-0.08571098,-0.3855129,-0.69799334,0.17964596,-0.038301483,-0.32140398,0.043967072,0.012891061,0.7197504,-0.5642135,-0.6501718,-0.20404401,0.47403845,0.12707911,-0.8028683,-0.6099031,-0.01366157,-0.22765313,0.27327293,1.0678527,0.3643931,-0.7805424,0.30991048,0.031932134,-0.4318241,-0.442028,-0.28286913,0.86420923,-0.62163824,0.020127274,-0.5887564,-0.033130877,-0.70680726,0.69636506,0.24207348,-0.4737091,-0.4459744,-0.15151584,0.054921784,-0.6079117,0.4785661,1.057587,-0.04900884,-0.61814576,-0.56448513,0.26254466,0.77024746,0.17492487,0.024338024,0.37756756,-0.34513077,0.12992133,0.17183511,0.10435044,0.2743517,0.8297816,-0.15549599,-0.6290733,-0.8498226,0.6643889,-0.422744,-1.1526669,-0.088010795,0.097698085,-0.4431464,-0.20600219,0.60092694,-0.68192637,0.92965204,0.20927215,-0.33685538,-0.06835576,0.102442965,0.57018405,0.18753473,-0.23130286,0.18792665,0.056320094,-0.095538005,0.93660975,0.040501863,-0.4146945,-0.2179287,0.8502991,0.12622254,-0.34758955,-0.26529115,-0.80821013,0.634574,0.05314666
random,-0.124151014,-0.06404228,0.06620346,0.07272807,-0.25538772,0.20992024,-0.19204025,-0.1583833,-0.22407609,0.0911494,-0.33734635,-0.23582317,0.14897144,-0.23660447,0.12797736,-0.13979876,-0.056536324,-0.02627978,0.03177735,-0.15501054,-0.33016068,-0.0481033,-0.0063633444,0.028672492,0.5626528,0.21010642,-0.11546501,0.17530538,-0.06195093,0.16791274,-0.16297294,-0.22585733,0.022682812,-0.004137668,-0.18042867,0.48979703,0.082180284,0.24139686,-0.038200583,-0.17339474,-0.30131873,0.07350102,-0.02797132,-0.17630954,-0.05537277,0.008692236,0.2759412,-0.32399812,-0.36397114,-0.10619393,0.20190166,-0.0053037712,-0.3626177,-0.34992394,-0.05780145,-0.10154287,0.102166116,0.52526224,0.1498151,-0.29372025,0.1579227,0.004428874,-0.14942677,-0.18919653,-0.12115573,0.40947258,-0.28041384,0.0748617,-0.22425862,0.003454971,-0.2833295,0.2908996,0.17352632,-0.2705471,-0.16368286,-0.05370283,0.06613843,-0.24031979,0.21962728,0.50403583,-0.017274989,-0.3378718,-0.23451835,0.14844458,0.3900384,0.013663068,0.01865673,0.18077575,-0.17208627,0.022060284,0.16148855,0.024409857,0.13969947,0.36575514,-0.094200484,-0.24104628,-0.4543679,0.33134454,-0.18638314,-0.55162215,-0.072292954,0.00820376,-0.28276533,-0.07446444,0.3354439,-0.2899557,0.4173576,0.12756267,-0.21490793,-0.05106967,0.095797226,0.24791557,0.0969043,-0.12794667,0.07766514,0.06315228,0.026880292,0.40286475,-0.017676782,-0.22663665,-0.12143734,0.35675082,0.08689629,-0.11896854,-0.11768898,-0.32994696,0.31188512,0.014028813
random,-0.5641097,-0.2267453,0.31408533,0.18570001,-1.4101903,1.177885,-0.9889863,-0.34847707,-0.7251688,-0.076742835,-1.4281948,-1.3154961,0.52633166,-0.6297772,0.41456795,-0.5719597,-0.31880635,-0.017854912,-0.011208857,-0.77356577,-1.6814882,-0.56994015,-0.026918469,0.36241588,2.544559,0.9832083,-0.53699803,1.216281,-0.2983913,0.68996567,-0.98594075,-0.89279556,-0.0853411,0.2505842,-1.07363,1.4161009,0.053603105,0.62717766,-0.3424155,-0.97082126,-1.1987584,0.4050695,-0.037121158,-0.8405952,0.28600454,0.15643308,1.247905,-0.78780603,-1.0421525,-0.38978967,0.8342803,0.28770533,-1.5374814,-0.7947716,-0.37078872,-0.22478393,0.35090214,1.625085,0.7579052,-1.2932261,0.71846354,0.057338726,-0.79539615,-1.0929246,-0.44953132,2.0160663,-0.965429,0.28890243,-1.0032282,0.16967154,-1.511071,1.3577698,0.43260786,-0.80762315,-0.63117045,-0.2430065,0.19037901,-0.9778604,0.83703715,1.8559169,0.15274596,-1.3590599,-1.1676025,0.3593405,1.2147267,0.75162303,0.08529572,0.92846686,-0.8719869,0.20693831,0.5807347,-0.039627265,0.6394017,1.5093801,-0.15946947,-0.8304132,-1.7610171,1.303359,-0.78087926,-2.0408728,-0.2928016,0.22015479,-0.6617683,-0.38921076,0.76314414,-1.2989879,1.2839102,0.34523907,-0.65569556,-0.22262047,0.03904198,0.94619954,0.39991698,-0.040760998,0.46337277,0.026357535,-0.47233275,1.4343872,0.03297341,-0.7791345,-0.45469362,1.4315531,0.21997039,-1.0323317,-0.6908882,-1.6054506,1.0667514,-0.20150115
random,-0.13513312,-0.082255036,0.099478915,0.047796123,-0.16603026,0.16931821,-0.0791862,-0.041562468,-0.064965844,-0.0050657354,-0.1794803,-0.11239065,0.054452345,-0.04290738,0.05784518,-0.09630037,-0.042175073,0.03657308,-0.0024806405,-0.12090588,-0.19927779,-0.017635228,-0.028690323,0.01990164,0.35718533,0.09833441,-0.063874625,0.13534845,-0.07236205,0.10269845,-0.10292071,-0.1412043,0.0031949992,0.0011398849,-0.1119271,0.19841121,-0.030478857,0.04581523,-0.03325676,-0.0911438,-0.1631245,0.031347927,-0.05441621,-0.06408277,0.067617066,0.010685523,0.17831819,-0.113739595,-0.13322346,-0.0589206,0.06365626,0.04915033,-0.20062059,-0.13593242,0.06950153,-0.08161776,0.018899629,0.26811346,0.08494312,-0.20967224,0.075083286,0.0015726235,-0.14852878,-0.10032072,-0.025777474,0.2350453,-0.124718234,-0.014670557,-0.12071512,-0.0072354907,-0.1507519,0.18779892,0.079960115,-0.11671067,-0.14039703,-0.03698658,-0.047123395,-0.15524144,0.09461873,0.22519049,-0.014610709,-0.12812649,-0.12455598,0.055372637,0.16639458,0.05989719,0.038766164,0.055939075,-0.06794742,0.03228648,0.0005405797,0.017868055,-0.004417225,0.19311522,-0.0314564,-0.11763769,-0.24458551,0.14610712,-0.1466109,-0.3067313,-0.044547636,-0.0031592068,-0.15026619,-0.04290932,0.11508792,-0.16033071,0.211598,0.014637146,-0.07336667,-0.03322101,0.056939185,0.13762967,0.048881523,-0.06572759,0.045917273,0.050068654,-0.069984145,0.23073624,0.039797425,-0.12008971,-0.03786558,0.18228966,0.007090867,-0.09365233,-0.033837896,-0.21842878,0.20877379,0.037024487
random,-0.5737072,-0.50272894,0.46667337,0.42212138,-1.1304694,0.8566702,-0.8113144,-0.21367794,-0.8314585,0.5828149,-1.4497985,-0.8059154,0.5381467,-0.81377816,0.37133157,-0.46339738,-0.64032716,-0.27714995,0.4573109,-0.2210838,-1.6995757,-0.10939246,-0.33008486,-0.16982359,2.4558322,0.8954064,-0.34445032,0.82654095,-0.4779055,0.34429222,-0.877909,-1.0974077,0.034003228,-0.32548907,-0.9748219,2.1650188,0.4114648,0.9946559,-0.021438759,-0.98814124,-1.604342,0.22549382,0.21027756,-0.49340847,0.048847817,-0.055181004,0.8196501,-1.1526557,-2.00148,-0.24921402,1.134204,0.1655164,-1.2361779,-1.5358284,-0.24265723,-0.8841213,0.3214184,2.427945,0.5401501,-1.2869406,0.97655886,-0.0949264,-0.37590414,-0.71954703,-0.45440128,1.5267594,-1.6503164,-0.001008724,-1.261048,0.3065657,-1.4191643,1.09054,0.37851116,-1.2867358,-0.61203694,0.17430836,0.2698043,-0.6597077,1.485424,1.9699315,-0.12144338,-1.4196105,-1.0686368,0.5245427,1.6928926,0.3103847,0.093756296,0.4051349,-0.41720697,0.19969508,-0.046358224,0.4253781,0.68072677,1.6191152,-0.47309124,-1.199713,-2.0540597,1.3716954,-0.96533394,-2.5660381,-0.40126592,0.1819402,-1.2312914,-0.24745823,1.2158343,-1.1649275,2.1414876,0.07745934,-0.9831971,-0.39570504,0.799365,1.2584894,0.85562843,-0.71113896,0.53417265,0.81235796,0.0508919,2.0340638,0.35218626,-1.0825634,-0.13457209,1.4110457,0.44392523,-0.4003335,-0.067276195,-1.069933,1.6370035,0.059750292
random,-0.1865542,-0.09229681,0.07595712,0.07363278,-0.3252806,0.31096333,-0.23589107,-0.099373676,-0.1341593,-0.0018615539,-0.3586643,-0.32011542,0.13609444,-0.17190544,0.14346813,-0.12622002,-0.12828751,-0.04142188,-0.02363152,-0.15189606,-0.36764467,-0.02724026,-0.019610282,0.06941357,0.66314316,0.20347133,-0.16860116,0.2574254,-0.13137424,0.20890723,-0.28276384,-0.20948067,-0.038487088,0.027900428,-0.24180043,0.34558293,0.0022342708,0.1401253,-0.024136908,-0.1712982,-0.33780962,0.077803195,-0.040128395,-0.1725129,0.016827494,0.01838068,0.30636564,-0.20148522,-0.3047665,-0.085264385,0.23277245,0.07976734,-0.37498915,-0.21499911,-0.040619474,-0.108442724,0.093914986,0.5024452,0.12660965,-0.3371381,0.17362796,0.030877128,-0.1976076,-0.22329836,-0.13043791,0.48364177,-0.27297902,0.038447626,-0.29542542,-0.01629114,-0.33924678,0.32248425,0.11248636,-0.18604484,-0.19304565,-0.042589862,0.0289936,-0.26816052,0.22955179,0.46654868,-0.028960165,-0.25997606,-0.28322625,0.11518922,0.31782544,0.17925408,0.036000695,0.18199603,-0.1729653,0.10382552,0.11805768,0.040041804,0.14201763,0.3908249,-0.048787303,-0.24440056,-0.42585197,0.2586514,-0.16185309,-0.53376365,-0.03953163,0.041108523,-0.21697363,-0.12362869,0.27125385,-0.29148805,0.38307515,0.11908124,-0.18871118,-0.044659585,0.035981823,0.24550521,0.049451597,-0.05721943,0.099782154,-0.000232067,-0.075726144,0.42762232,-0.021110736,-0.20261174,-0.12882157,0.39464363,0.053946473,-0.19277352,-0.12315831,-0.370352,0.25071838,0.01537821
random,-0.2844607,-0.15441781,0.10794831,0.19556801,-0.5609233,0.46847078,-0.43785077,-0.20894092,-0.23986268,-0.03327234,-0.6537519,-0.5112487,0.20350038,-0.23346041,0.2251832,-0.22791767,-0.09683451,-0.069784984,0.018858405,-0.16549827,-0.6825284,-0.09251863,0.0040548774,0.10613923,1.0233487,0.3639965,-0.38654304,0.40371513,-0.09438951,0.30278146,-0.46262765,-0.35760283,0.00778356,-0.0026749743,-0.34525663,0.6855721,0.10716944,0.30052096,-0.10101733,-0.32453635,-0.54322594,0.14727737,0.003421842,-0.33923203,-0.018500093,0.08660494,0.5374409,-0.431294,-0.57902354,-0.097736344,0.50179493,0.13680246,-0.65455955,-0.51085675,-0.08164753,-0.1369903,0.2653274,0.7827433,0.33255523,-0.56933963,0.21484658,0.05849158,-0.3230074,-0.3830918,-0.24935244,0.61767185,-0.49271107,0.099170096,-0.47343588,-0.0061535826,-0.56383383,0.4951038,0.15578613,-0.33385164,-0.32237476,-0.11166921,0.13605018,-0.48472568,0.43106085,0.8708559,0.03440663,-0.5710854,-0.46970204,0.23960364,0.59179664,0.20279914,-0.048171457,0.3898306,-0.2890597,0.13430202,0.22570153,0.09513422,0.32865122,0.5901435,-0.07167581,-0.5050234,-0.6131482,0.5316163,-0.28162152,-0.9082347,-0.004370724,0.16968305,-0.2618076,-0.18804912,0.45821053,-0.5337214,0.7010171,0.30971164,-0.22438605,-0.04303262,0.01693891,0.45429,0.057642262,-0.12406892,0.18897608,-0.029459516,-0.043610714,0.7245675,0.015704403,-0.26431513,-0.2212122,0.74058783,0.12827025,-0.29214215,-0.29863584,-0.5501241,0.3835448,-0.02535967
random,-0.5146282,-0.32431993,0.31228966,0.2371082,-0.9811417,0.8876377,-0.64246804,-0.27717456,-0.565114,0.0044962536,-1.1111401,-0.78130347,0.3647291,-0.51748806,0.48092762,-0.3759872,-0.37229285,-0.1669684,0.06228496,-0.34785926,-1.139655,-0.09334279,-0.15179317,0.14398664,1.9813976,0.627467,-0.44350126,0.82840323,-0.24011576,0.51716197,-0.7785509,-0.70901406,-0.0044051157,-0.0017836434,-0.6758171,1.3372284,0.12504913,0.55564725,-0.060493946,-0.5916247,-1.1686726,0.2415488,-0.01196782,-0.5572072,0.043085154,0.17739192,0.8129733,-0.72805697,-1.0735667,-0.19667615,0.8577601,0.17310187,-1.1827219,-0.9717008,-0.10988384,-0.33147398,0.32830516,1.5301222,0.5069084,-0.89555556,0.5934863,0.11166565,-0.5269821,-0.6449812,-0.3883953,1.2472454,-0.88552237,0.20583126,-0.803246,0.12768054,-1.0117023,0.88671255,0.39235675,-0.69258904,-0.49676633,-0.144255,0.22587427,-0.746646,0.914258,1.5427812,-0.011378684,-1.0875843,-0.8374575,0.35813445,1.0539808,0.26848415,0.025691194,0.64498657,-0.41880503,0.22134838,0.32042444,0.12316222,0.4751928,1.0857621,-0.27058855,-0.9473857,-1.1654837,0.9336802,-0.50439054,-1.8045224,-0.11043963,0.23065934,-0.63048214,-0.3667548,0.89132744,-1.0076922,1.2818067,0.37463447,-0.5000081,-0.11199464,0.27131635,0.8227026,0.22230506,-0.29250056,0.39202884,0.2037652,-0.17869711,1.3384019,0.067509964,-0.578979,-0.28375912,1.2364259,0.3176599,-0.5151508,-0.24292718,-0.96112424,0.9101936,-0.035741143
random,-0.097945,-0.044123426,0.059347093,0.08290902,-0.33558786,0.30636737,-0.23051523,-0.12106669,-0.2165728,0.023806231,-0.36914688,-0.3260963,0.16011852,-0.2202886,0.12810801,-0.12864232,-0.09226307,-0.034860097,0.04515025,-0.14482546,-0.4119191,-0.107147954,-0.0049858275,0.13073696,0.63322145,0.22730124,-0.11473245,0.2977916,-0.06555118,0.17541298,-0.24040765,-0.1682466,-0.052285377,0.07092767,-0.21712556,0.3958678,0.0847603,0.22463296,-0.09772632,-0.25035062,-0.32960442,0.11252251,-0.019265214,-0.24544166,0.0009506571,0.03812163,0.26833296,-0.20300518,-0.26162732,-0.053013828,0.2582826,0.067700714,-0.37712955,-0.25688356,-0.07628344,-0.06567651,0.15376914,0.41782525,0.16954045,-0.28762868,0.20137684,-0.013644001,-0.15159105,-0.28186712,-0.13282064,0.4749447,-0.2399476,0.14716966,-0.23108786,0.061132587,-0.3568022,0.25184372,0.090190984,-0.17000729,-0.1407426,-0.026643815,0.14310524,-0.22201227,0.24470995,0.49416712,0.0041007525,-0.41366637,-0.29777762,0.07142137,0.27463496,0.1999857,-0.0077283992,0.2398439,-0.18641885,0.057140242,0.20339619,0.010071894,0.23887429,0.39236367,-0.05415816,-0.24267034,-0.45748246,0.28895658,-0.13005584,-0.5793356,-0.046168495,0.06327529,-0.16107503,-0.0821928,0.24242644,-0.3358156,0.33456635,0.1530493,-0.20857874,-0.03852144,0.024035836,0.2031138,0.05971009,-0.0024701077,0.11076645,0.016791815,-0.08920498,0.36552265,-0.016298776,-0.20980257,-0.09182774,0.32752123,0.10932317,-0.20670159,-0.1399332,-0.31716186,0.257877,-0.101550914
random,-0.56897026,-0.36603582,0.47224888,0.5234411,-1.2515105,0.9573587,-0.8244933,-0.36980188,-0.7365755,0.13737525,-1.4446815,-1.0029413,0.6037268,-0.6745583,0.33226293,-0.4543687,-0.4698585,-0.21482226,0.12531641,-0.46736306,-1.4889605,-0.17871225,-0.29907116,-0.02958301,2.4485385,0.88297415,-0.44309643,0.9710951,-0.21472944,0.47511658,-0.893899,-0.8838258,-0.02007918,-0.09942011,-0.97009605,1.6514153,0.3419781,0.7372596,-0.15180914,-0.8503233,-1.2897179,0.21457915,0.004141801,-0.8056487,0.14559051,0.14716356,0.9131758,-0.8563555,-1.5296338,-0.26840472,0.967173,0.3544174,-1.2924201,-1.2062534,-0.25532332,-0.48160005,0.3200722,1.8680094,0.4918179,-1.1522925,0.80396783,0.03583194,-0.67805403,-0.87385875,-0.52804744,1.5227641,-1.247667,0.26535645,-1.0616599,0.17016564,-1.25638,1.0614537,0.35368437,-0.937706,-0.64544517,0.04361435,0.33296305,-0.8924288,0.9041328,1.8022645,-0.07012071,-1.5013496,-1.027663,0.48510247,1.3101745,0.6127772,-0.13567045,0.6226625,-0.6831324,0.29256943,0.43093467,0.24974406,0.68927675,1.3326372,-0.24253488,-0.96261704,-1.6480924,1.08943,-0.6456857,-2.2982588,-0.067748725,0.16498432,-0.8250539,-0.3003677,0.9724808,-1.016017,1.3982326,0.55167484,-0.68020386,-0.34401286,0.33239746,0.94870687,0.29112965,-0.46129462,0.56124514,0.34673595,-0.15477404,1.7086867,0.20944268,-0.62721515,-0.28936315,1.4217242,0.32589516,-0.6368866,-0.35546026,-1.0975128,1.1004636,-0.085452534
random,-0.6982951,-0.27947676,0.38761073,0.16894428,-1.2039715,0.9191122,-0.6891684,-0.37573588,-0.79732627,0.41942957,-1.2826705,-1.0264863,0.59002405,-0.84896624,0.6610411,-0.58946437,-0.36640322,-0.3760518,0.09462533,-0.4816626,-1.3782691,-0.2730325,-0.13369541,0.049323093,2.3888733,0.99537045,-0.5828313,0.8657936,-0.5059566,0.5397998,-0.9408885,-1.0271549,0.07478967,0.24363907,-0.91841805,1.7494359,0.2620738,0.7127855,-0.059441954,-0.94281006,-1.3164366,0.35156697,-0.08485823,-0.47448245,-0.1787454,0.060880195,0.92232937,-1.0540029,-1.8049332,-0.36231235,1.108265,0.15006702,-1.2642751,-1.1484376,-0.3311234,-0.5109808,0.30722228,2.1302326,0.4478156,-1.149256,0.6998032,0.1238665,-0.62550586,-0.6736937,-0.42471778,1.7849469,-1.3762125,0.26232943,-1.1910506,0.20135866,-1.6081995,1.1645881,0.62336415,-1.0882425,-0.54352707,-0.06953745,0.5156187,-0.7713876,1.1446311,2.1365538,0.021090332,-1.1471294,-1.213735,0.48728916,1.500378,0.52718526,0.20773223,0.8311878,-0.7077193,0.23075214,0.40710062,0.05876856,0.7319658,1.6489121,-0.41271722,-0.9161458,-1.6755849,1.3719525,-0.67959553,-2.0499651,-0.2939196,0.15986998,-1.0988823,-0.47979382,1.3329409,-1.3169358,1.9424429,0.42147395,-0.7390536,-0.3256718,0.3972515,1.022682,0.3872207,-0.52766275,0.5091458,0.0075447676,0.087556206,1.7461228,0.23606944,-1.0780406,-0.6479782,1.641566,0.26531497,-0.8363776,-0.41157132,-1.4667947,1.1515441,0.05177905
random,-0.3495908,-0.22690119,0.25032476,0.2312947,-0.8436592,0.7247772,-0.545588,-0.2923113,-0.56189185,0.1846081,-1.0064669,-0.769616,0.38601232,-0.5487063,0.36749157,-0.29272747,-0.36255643,-0.2747855,0.1843146,-0.108194724,-1.0400705,-0.083058834,-0.16161352,0.0866114,1.5894841,0.6277963,-0.4450134,0.6393906,-0.15340051,0.3658521,-0.6507607,-0.51956725,-0.028255431,-0.024720373,-0.6122207,1.2141684,0.25585887,0.6136041,0.019542709,-0.5382909,-0.97086245,0.22446819,0.005486941,-0.5714116,-0.17285575,0.23576652,0.6038047,-0.64375436,-1.157373,-0.21219009,0.8755119,0.19758783,-0.9886427,-0.82365096,-0.34773293,-0.32795215,0.34701714,1.3864042,0.2648806,-0.6885583,0.56948125,0.071916215,-0.3272494,-0.48978275,-0.4290738,1.0471486,-0.900104,0.36622062,-0.8512132,0.12650153,-0.89925164,0.5550894,0.27195168,-0.5801347,-0.40749082,0.025863318,0.37404868,-0.5262011,0.8824675,1.415569,0.003932015,-1.0059668,-0.878106,0.40901494,0.92401093,0.37242073,-0.09678952,0.50788283,-0.45787624,0.23638734,0.37808177,0.114661485,0.57657033,0.92718345,-0.19387636,-0.7349497,-1.0623261,0.773451,-0.31233123,-1.5799115,-0.009672889,0.2033016,-0.569,-0.2711925,0.895596,-0.78548205,1.135384,0.51204264,-0.53637713,-0.14464515,0.18573551,0.7476395,0.12316368,-0.31702483,0.32018992,0.1411057,0.019207858,1.2639225,0.022239033,-0.5418928,-0.35215983,1.0966474,0.26343873,-0.48520303,-0.3184421,-0.78082997,0.6402239,-0.06719273
random,-0.24959075,-0.12569669,0.14503257,0.10734345,-0.42900875,0.39464965,-0.29425117,-0.15097892,-0.21023385,-0.021388335,-0.46875462,-0.38693184,0.18492782,-0.20405653,0.18270428,-0.18029244,-0.1269439,-0.0055878935,-0.021294635,-0.20409007,-0.48652977,-0.031543553,-0.04990174,0.059536982,0.8765847,0.26731378,-0.22642215,0.34795904,-0.12579347,0.26304194,-0.33356965,-0.2896792,-0.007982416,0.030778777,-0.3128155,0.47992375,0.0041015926,0.19023307,-0.04091834,-0.23330066,-0.40765318,0.09859634,-0.08070588,-0.23233578,0.043065667,0.04454305,0.4211417,-0.27854016,-0.3986855,-0.11003256,0.29312193,0.10751262,-0.5120262,-0.3209663,-0.022771344,-0.12276363,0.10624521,0.6308568,0.18548714,-0.44460237,0.18293439,0.05874373,-0.28100294,-0.27454555,-0.16227855,0.6003295,-0.3346829,0.073673844,-0.3709613,-0.014946531,-0.4240251,0.41646394,0.15560095,-0.2684731,-0.2661206,-0.07298762,0.04677638,-0.3615471,0.2760392,0.624,-0.030861143,-0.36915377,-0.36369678,0.14887309,0.41697535,0.19627917,0.022605749,0.25803655,-0.20742697,0.12291433,0.13897188,0.05111521,0.13802063,0.48568764,-0.06243244,-0.31109425,-0.5495443,0.351744,-0.23915106,-0.73847175,-0.036985934,0.061348874,-0.29507548,-0.12904005,0.33818465,-0.36017713,0.48542616,0.17577657,-0.19747935,-0.056453563,0.049856268,0.3173383,0.06569775,-0.09391791,0.1260066,0.03724745,-0.09073535,0.54945517,0.006799687,-0.24416098,-0.17394917,0.5263723,0.08890351,-0.24377225,-0.18521088,-0.48010585,0.36475804,0.019097365
random,-0.5519485,-0.3344203,0.35622448,0.6266819,-0.9560078,0.86156696,-0.94606775,-0.33613467,-0.049168084,-0.15430358,-1.2172298,-0.8439577,0.30002818,-0.04519728,0.4521046,-0.4582014,-0.30268446,-0.11395255,0.12886229,-0.1589243,-1.4759338,-0.16720225,-0.048340354,0.11165464,2.070115,0.7509935,-0.9430693,0.78924096,-0.17859393,0.58839446,-1.0678896,-0.76150244,0.051577393,-0.16463572,-0.7252416,1.1827121,0.21493603,0.50547916,-0.09360146,-0.45044437,-1.0359403,0.19554621,0.051060416,-0.4434166,0.13500966,0.1367125,1.0391669,-0.891991,-1.2254946,-0.41842473,0.83113116,0.5133906,-1.1108714,-0.9908541,-0.017862119,-0.39200726,0.580036,1.7644076,0.4989963,-1.2533228,0.28361958,0.020426894,-0.7311144,-0.6015196,-0.6849681,0.9409808,-1.1703429,-0.057100777,-1.2088709,-0.08470814,-0.98036075,1.070389,0.23632854,-0.5389138,-0.8789181,-0.09794348,0.098016225,-1.0369108,0.6688358,1.5917217,-0.07385648,-0.9574549,-0.83085793,0.5768066,1.2661349,0.3633153,-0.17931075,0.4545669,-0.5048291,0.3880396,0.040636938,0.4401379,0.49580395,1.1816394,-0.14232701,-1.0430747,-1.1110891,1.2514365,-0.5863778,-1.7475384,0.07335078,0.14733525,-0.40221867,-0.29980004,0.9287813,-0.8895073,1.450011,0.44582886,-0.2904954,-0.15452193,0.099561736,1.0322022,0.03695557,-0.43040857,0.33251637,0.12633644,-0.0031947128,1.5305685,0.31158817,-0.37140456,-0.5755696,1.6700292,0.10088386,-0.6477738,-0.5060213,-1.0888013,0.8759259,0.08247351
random,-0.44052872,-0.347299,0.30720836,0.4878784,-1.1888443,0.914894,-0.8383076,-0.30114737,-0.6586196,0.4527852,-1.5253344,-0.8953706,0.49714535,-0.79821837,0.3056241,-0.27436107,-0.6675927,-0.43492886,0.45255464,0.11610293,-1.5589355,-0.060695045,-0.31400728,0.037325863,2.3017507,0.9346747,-0.6402921,0.8065862,-0.3679586,0.3357175,-1.0625092,-0.7821433,-0.06507427,-0.3187837,-0.82840294,1.8885405,0.66089386,1.0616565,-0.01877123,-0.79642457,-1.429943,0.29344895,0.18239494,-0.7346719,-0.24610469,0.16898908,0.7243279,-1.01599,-1.938927,-0.14182569,1.4688522,0.42946178,-1.1284177,-1.3812926,-0.49139735,-0.6736573,0.6609101,2.0486183,0.42268294,-0.9632813,0.8603387,-0.08099523,-0.3337278,-0.735307,-0.6365465,1.1856195,-1.5139784,0.36052638,-1.3507272,0.25991523,-1.2064458,0.6991322,0.16955966,-0.84748363,-0.5718316,0.21808597,0.6465854,-0.64467764,1.4648432,1.9137105,-0.009912846,-1.4857284,-1.0969181,0.5729903,1.4175512,0.5499726,-0.082608715,0.57312113,-0.41664022,0.40514722,0.33875623,0.4915262,0.9761127,1.2917194,-0.31294098,-1.1847532,-1.6753838,1.0734091,-0.5836031,-2.3373892,-0.026129058,0.3776153,-0.7208458,-0.28322086,1.144955,-0.9566338,1.6625199,0.62832373,-0.9114182,-0.29692766,0.35786095,1.2156277,0.30183572,-0.4076789,0.49514276,0.45137662,0.16848388,1.8465158,0.17269763,-0.7624018,-0.3790449,1.6160784,0.49096403,-0.37403786,-0.34678435,-0.63797486,0.8973865,-0.109133326
random,-0.32518825,-0.114092395,0.24142142,0.15103021,-0.567398,0.36703423,-0.32343668,-0.05695611,-0.41740635,0.16622968,-0.61062086,-0.42282394,0.32944253,-0.3521741,0.29974467,-0.37088847,-0.23404391,-0.052907407,0.10997282,-0.2616393,-0.7620529,-0.20113906,-0.20100062,0.08798288,1.2608545,0.41102025,-0.06946944,0.46779612,-0.24775977,0.21413942,-0.48047286,-0.6334732,0.07455035,0.116410546,-0.47776937,0.89887214,0.060094733,0.35478735,-0.1269386,-0.604133,-0.7759037,0.18006408,0.042659283,-0.16324021,0.15557988,-0.085949406,0.46612132,-0.5176509,-0.7648376,-0.14002095,0.4783344,0.061776135,-0.59754664,-0.645337,-0.0026318214,-0.29071236,0.1266196,1.0065718,0.34276444,-0.5651367,0.4863006,-0.021124572,-0.35806084,-0.4888959,-0.14594346,0.8589488,-0.71844554,-0.0016681808,-0.5069779,0.19988981,-0.79286414,0.6623102,0.28093234,-0.6740023,-0.23509835,-0.019488737,0.18897997,-0.3790822,0.50719583,1.0039333,-0.1196741,-0.6920664,-0.547596,0.12875274,0.75654787,0.0881037,0.06738157,0.28491667,-0.28309852,0.10855292,0.02408128,0.14878349,0.35705334,0.9155617,-0.3450421,-0.5446934,-0.8956241,0.7086398,-0.4847246,-1.2102169,-0.29351044,0.025698321,-0.57984734,-0.10652964,0.6199434,-0.7453223,1.0230067,-0.03542896,-0.40706336,-0.09883954,0.31045976,0.43593553,0.4201628,-0.32815772,0.27637413,0.20895313,-0.06509556,0.8710546,0.2585147,-0.56397194,-0.076567896,0.6627155,0.17135763,-0.28748548,0.053662412,-0.6637165,0.88462675,0.060681995
random,-0.43416616,-0.23312055,0.19160333,0.22737922,-0.7081697,0.64087945,-0.5222169,-0.26023617,-0.3591233,0.017721932,-0.820864,-0.6328772,0.2981462,-0.3912451,0.2730462,-0.2728353,-0.29509133,-0.075027205,-0.041450232,-0.34185404,-0.7764523,-0.089157656,-0.086503595,0.089491785,1.5338956,0.45573008,-0.3257392,0.48959032,-0.2342787,0.4010047,-0.58735144,-0.508698,-0.023893517,-0.065808296,-0.48626378,0.9286608,0.07686834,0.37446573,-0.050573274,-0.39354798,-0.80901754,0.14277975,-0.016966274,-0.43375063,0.03771084,0.08347286,0.6522307,-0.58663887,-0.72556967,-0.2069685,0.5123513,0.16857724,-0.81322825,-0.6682995,-0.07500724,-0.2764016,0.21712245,1.1871197,0.33068275,-0.7266802,0.4160573,0.03792971,-0.503602,-0.4861567,-0.28360915,0.94996786,-0.64325494,0.040664006,-0.62341064,-0.026719863,-0.676799,0.72832894,0.2906734,-0.46828365,-0.45643923,-0.1252076,0.018224785,-0.6274042,0.53844684,1.0659381,-0.04195822,-0.72283715,-0.55420643,0.30590028,0.8282172,0.2372402,0.036756944,0.35640624,-0.35807618,0.18980458,0.26755908,0.12654302,0.30114233,0.81690603,-0.1458412,-0.5944828,-0.97928953,0.6462272,-0.38725528,-1.2790749,-0.0840727,0.05878383,-0.51709455,-0.2592638,0.6300561,-0.6501427,0.8823408,0.29309598,-0.42015073,-0.10133337,0.1879127,0.60938567,0.15817806,-0.20695174,0.25299197,0.13007744,-0.1349574,0.9848989,-0.027203526,-0.4484244,-0.23817584,0.87858516,0.15974805,-0.35903093,-0.20074192,-0.72711146,0.61172473,0.06538347
random,-0.2752043,-0.15321109,0.24088997,0.15877602,-0.5016804,0.48907632,-0.40739042,-0.35794026,-0.5024001,0.25897858,-0.75150645,-0.5553243,0.3773674,-0.45506385,0.3606576,-0.47719342,-0.15008445,0.050402977,0.13854384,-0.34267488,-0.9088388,-0.12640345,-0.10757394,0.07417481,1.424213,0.5276883,-0.2249437,0.49562803,-0.20937008,0.4396585,-0.43890196,-0.5214908,0.12945332,0.07543046,-0.45071054,1.0636051,0.14217952,0.57913595,-0.10268895,-0.44429517,-0.6710219,0.21828876,-0.13119926,-0.29233232,0.0043358514,-0.024890456,0.6799604,-0.7517575,-0.8339047,-0.35977018,0.3985611,0.018101057,-0.782198,-0.76006633,0.0005894219,-0.20187937,0.2885436,1.2223761,0.2700929,-0.7968233,0.3572126,-0.057548385,-0.36242178,-0.3873622,-0.32222578,1.0401974,-0.7023859,0.15618066,-0.6010417,0.06638487,-0.7362086,0.72878075,0.42679363,-0.64351,-0.40584946,-0.028392093,0.20108874,-0.5696096,0.44653842,1.208869,-0.17626834,-0.7315522,-0.5938643,0.29041642,0.88079995,-0.014514801,0.06769609,0.33640954,-0.36062637,0.12103726,0.19758572,0.12715459,0.24068116,1.0244887,-0.27317205,-0.5880411,-1.0064914,0.83889335,-0.4617652,-1.3267741,-0.1739327,-0.059717912,-0.6728226,-0.022532417,0.76618844,-0.685832,1.0441442,0.1562345,-0.45771173,-0.16072984,0.14950475,0.5545075,0.2942039,-0.39861298,0.12140876,0.14150655,0.056785315,0.9605512,0.1350534,-0.52520365,-0.27445355,0.81474286,0.16618025,-0.2890635,-0.27002406,-0.8901376,0.8560229,0.06536652
random,-0.13775802,-0.065748446,0.056725897,0.059176926,-0.22203483,0.2009487,-0.17432994,-0.0938434,-0.114553116,-0.002536704,-0.2738208,-0.21988475,0.110966206,-0.10797337,0.12133988,-0.1356927,-0.05352357,0.0016175593,-0.0058952337,-0.12448366,-0.30029386,-0.045058247,-0.005400774,0.050919265,0.470338,0.14722736,-0.13886684,0.17748758,-0.08429933,0.15437002,-0.19049239,-0.18181263,0.010793069,0.022110283,-0.16714616,0.29352298,-0.015948785,0.13106626,-0.03450481,-0.13854186,-0.24626468,0.071212515,-0.028738927,-0.10398473,0.009878495,-0.00440664,0.26323342,-0.19453315,-0.23265216,-0.077870846,0.16394702,0.039643545,-0.28735116,-0.20168668,0.00068884407,-0.07103359,0.08163045,0.38188857,0.12712069,-0.28159857,0.10131299,0.012939776,-0.15140931,-0.15759318,-0.0934968,0.34601155,-0.22556159,0.015774569,-0.20758955,-0.02117647,-0.27373034,0.27143228,0.100186996,-0.18014322,-0.1535973,-0.05444526,0.027965523,-0.22583659,0.15269573,0.3926474,-0.024411207,-0.20482437,-0.20927648,0.08984715,0.27389973,0.06506226,0.018899417,0.14304085,-0.13357481,0.051771462,0.06391969,0.028818583,0.093711935,0.3166907,-0.0642051,-0.21437393,-0.31160372,0.23188938,-0.1603265,-0.41125315,-0.041664474,0.025768485,-0.17636003,-0.06682518,0.2159633,-0.25243866,0.34122908,0.059850894,-0.12639631,-0.024197942,0.024397794,0.18427648,0.06103257,-0.07877456,0.060139608,-0.0026262584,-0.03658889,0.32834336,0.0019076779,-0.16852634,-0.094183676,0.2953616,0.045681506,-0.13265903,-0.1080333,-0.31097978,0.22944407,0.02623581
random,-0.15035757,-0.077195644,0.07034057,0.061331857,-0.2916334,0.29358548,-0.22528584,-0.08061926,-0.097381026,-0.060194813,-0.3358036,-0.26011595,0.10163125,-0.08400337,0.15510842,-0.11971676,-0.07673293,-0.04116974,0.0010416277,-0.10685103,-0.38334048,-0.06041349,0.022366488,0.10041766,0.5575151,0.17940836,-0.1951691,0.25567853,-0.07607866,0.17642206,-0.2691573,-0.17923033,-0.019491449,0.0428618,-0.19477609,0.2911328,-0.006421136,0.116899006,-0.037825145,-0.16652855,-0.2946506,0.09306306,-0.012503742,-0.13866009,0.027496155,0.025484983,0.29975522,-0.18348008,-0.25253886,-0.07196878,0.23228471,0.08404564,-0.33967656,-0.20737505,-0.03166739,-0.07381218,0.12639862,0.41658786,0.14395499,-0.32240692,0.11321804,0.025042811,-0.1805366,-0.20612119,-0.141044,0.37475157,-0.25009167,0.03803987,-0.26688328,0.0093503725,-0.32898006,0.27284986,0.070571765,-0.1533129,-0.16520706,-0.0571743,0.06701512,-0.24128352,0.21324722,0.44799185,0.010701172,-0.26079407,-0.262088,0.09057337,0.28370953,0.15302119,0.00081938464,0.20288767,-0.14333344,0.070383705,0.076854885,0.020253895,0.14881171,0.3413819,-0.04650626,-0.26077446,-0.33006722,0.27710164,-0.14768338,-0.4694397,-0.01340064,0.073827416,-0.12880617,-0.113146804,0.2206445,-0.310046,0.36358172,0.111450955,-0.10878029,-0.030369552,0.009792522,0.23424613,0.048412208,-0.04546848,0.099190876,-0.0047924235,-0.08015136,0.3797277,0.026106084,-0.15874958,-0.122275874,0.38278684,0.04954762,-0.20748821,-0.13197783,-0.34849596,0.23458454,-0.015098017
random,-0.43600473,-0.23039964,0.17042896,0.1601926,-0.7347836,0.73624814,-0.5333915,-0.24835993,-0.34481102,-0.09500226,-0.8140368,-0.6734918,0.30580586,-0.3385065,0.33858892,-0.3402908,-0.18540101,-0.053625196,-0.064255826,-0.3926345,-0.8628605,-0.06486406,0.023361769,0.21526155,1.4043314,0.45058358,-0.4261383,0.6207565,-0.21386334,0.47066605,-0.58844256,-0.444136,-0.029404588,0.08958457,-0.50217503,0.8453084,-0.060525995,0.32762223,-0.0768079,-0.37771064,-0.7626523,0.20172575,-0.11558801,-0.39021868,0.0354688,0.05917673,0.75398815,-0.51529014,-0.6526179,-0.20514895,0.5438382,0.12015587,-0.9535621,-0.54930604,-0.014826031,-0.17684956,0.23640892,1.0836216,0.35153988,-0.810159,0.35356727,0.07796661,-0.44765902,-0.5254868,-0.25629586,1.061279,-0.5798693,0.09851084,-0.58362883,-0.051431473,-0.77684057,0.7181024,0.29503268,-0.4401262,-0.45081428,-0.17791216,0.10411192,-0.6749841,0.51255566,1.1103587,-0.028805843,-0.652055,-0.6231583,0.28357172,0.73918265,0.31477556,0.03379432,0.51283574,-0.37555307,0.17679754,0.29434064,0.030786084,0.29006353,0.8290682,-0.1444366,-0.61908746,-0.9128021,0.6126664,-0.39068392,-1.2207621,-0.06596831,0.1671759,-0.5070466,-0.30528277,0.6285298,-0.7365539,0.9069077,0.31484887,-0.38554052,-0.06880598,0.05694643,0.54542685,0.094041616,-0.15000348,0.22038105,-0.04122454,-0.17304215,0.98201996,-0.07774374,-0.4243211,-0.29580298,0.9226357,0.13474718,-0.44120008,-0.3241111,-0.88845587,0.56779635,-0.0026342615
random,-0.26007473,-0.15563565,0.16329855,0.10405673,-0.32911345,0.30153,-0.20387909,-0.121206835,-0.15777518,0.059181627,-0.36529803,-0.2808202,0.16891398,-0.16609013,0.11509051,-0.2014778,-0.08160082,0.037578277,-0.018115727,-0.18272157,-0.39903936,0.0115029905,-0.062144782,0.0051636877,0.7530256,0.23954394,-0.1550723,0.24347438,-0.1476663,0.19525912,-0.23684113,-0.26413298,-0.0009428839,-0.0045287875,-0.24818392,0.41007933,-0.0012627346,0.10826157,-0.030962646,-0.18066569,-0.3134147,0.06328379,-0.11701563,-0.13356991,0.042710964,-0.0052877134,0.3494965,-0.25133643,-0.38784212,-0.1210296,0.2057271,0.08348895,-0.39267284,-0.26869392,0.051011264,-0.16131528,0.03773155,0.5811164,0.1203457,-0.41968808,0.13290322,0.017517043,-0.25410378,-0.17344289,-0.07121922,0.5243817,-0.3072707,-0.0062136375,-0.30538306,-0.017140936,-0.33928716,0.3602109,0.15968649,-0.2529664,-0.27307948,-0.015647352,-0.020785753,-0.31382,0.20674337,0.48488486,-0.04047932,-0.23049423,-0.25639513,0.13748153,0.37723392,0.14343213,0.06928545,0.13131593,-0.14374444,0.10210435,0.040671613,0.064555876,0.034351744,0.41363367,-0.060292784,-0.20722915,-0.52620864,0.28378147,-0.25281733,-0.60760677,-0.0426118,0.010778584,-0.33518553,-0.07374183,0.29919383,-0.25874996,0.4466152,0.10180683,-0.19618234,-0.09700929,0.07571103,0.2782028,0.08149953,-0.14000359,0.0873764,0.04172586,-0.044547766,0.48629192,0.036412578,-0.24460773,-0.14109093,0.4093524,0.014546162,-0.17416987,-0.12747936,-0.43377048,0.33421353,0.07113626
random,-0.08716337,-0.038734205,0.075072035,0.05650151,-0.15281087,0.13720685,-0.098670274,-0.059118994,-0.05471857,-0.018882297,-0.16404685,-0.1322605,0.053018868,-0.039153777,0.07015784,-0.07488893,-0.04202153,0.02014513,0.010149944,-0.07905086,-0.18491557,-0.023126496,-0.021307679,0.02169135,0.3257434,0.090409376,-0.089975886,0.12852612,-0.02897033,0.10606572,-0.115954004,-0.12751414,0.007631956,0.00753077,-0.10967949,0.1855776,0.012105104,0.064653076,-0.018618528,-0.07363927,-0.15695785,0.027016634,-0.032419477,-0.08163205,0.039334774,0.025284909,0.16879994,-0.1177554,-0.13461633,-0.056448575,0.07979773,0.05374359,-0.19860278,-0.13271528,0.015905343,-0.04910579,0.048658755,0.24809998,0.08720319,-0.17227602,0.059273414,0.021992981,-0.1262572,-0.09517195,-0.06264001,0.19306311,-0.113231525,0.02598332,-0.13551809,-0.0017247347,-0.13051559,0.17967483,0.073948435,-0.103850886,-0.12020328,-0.041829243,-0.011259265,-0.14501575,0.08280253,0.22533493,-0.011859442,-0.14373308,-0.12272331,0.068627544,0.16376337,0.044781856,0.006915498,0.08816352,-0.081349105,0.03816856,0.031959724,0.019734884,0.028396998,0.17506665,-0.024084087,-0.11745437,-0.20316078,0.1570168,-0.116357595,-0.28603306,-0.02110751,-0.0023437815,-0.102620654,-0.038207393,0.13568935,-0.13808833,0.18494196,0.04926455,-0.05748795,-0.014519081,0.031172844,0.13448906,0.016019585,-0.044848435,0.04088818,0.045606285,-0.03598559,0.1968839,0.042417582,-0.0840768,-0.06608255,0.20977247,0.030973526,-0.1023389,-0.054165717,-0.19110833,0.17064437,0.01590442
random,-0.41965467,-0.22103779,0.19307749,0.16451533,-0.5732746,0.59267926,-0.49361774,-0.38423675,-0.42629245,0.13189754,-0.7975684,-0.6356322,0.35196877,-0.42947283,0.36864713,-0.42208844,-0.13023551,0.05759643,-0.017385632,-0.4336591,-0.83780056,-0.059638478,0.018292582,0.12366054,1.3903207,0.4696692,-0.3462928,0.47134808,-0.22507842,0.4849386,-0.43799776,-0.46586835,0.0126366345,0.07700222,-0.44630036,0.9709678,-0.03137259,0.45129025,-0.07057186,-0.35139626,-0.6509656,0.20157593,-0.19367518,-0.30536067,-0.03936553,-0.032927345,0.7987515,-0.6773826,-0.7285975,-0.34188694,0.36943737,0.028849185,-0.89618295,-0.6541382,0.012702824,-0.21348879,0.21466585,1.2557116,0.289827,-0.89218473,0.3238003,0.013407137,-0.4275567,-0.39176205,-0.28722548,1.1463022,-0.6262569,0.06545962,-0.5909466,-0.1123603,-0.72193354,0.7737821,0.4163087,-0.5708254,-0.5027527,-0.13947219,0.07635209,-0.6984411,0.39322314,1.1823783,-0.12619907,-0.59364706,-0.5729412,0.3246145,0.8994066,0.10528076,0.124188155,0.40105146,-0.42094526,0.12825124,0.29646608,0.0618294,0.190373,0.95667845,-0.18017432,-0.55726486,-1.0552042,0.71327597,-0.44818348,-1.258419,-0.13713472,-0.003178611,-0.6927009,-0.1728775,0.75034285,-0.673571,1.0039089,0.22633702,-0.468721,-0.12857021,0.12535036,0.5492686,0.19698697,-0.31816852,0.11765706,0.02991554,-0.012535121,1.0181082,-0.070739634,-0.5355733,-0.33507964,0.87235963,0.121620774,-0.34858304,-0.3217551,-1.0104424,0.7049777,0.077963606
random,-0.35137147,-0.1302099,0.24199972,0.11095111,-0.9659964,0.85194075,-0.6863615,-0.38268292,-0.63279676,-0.03762432,-1.2592036,-0.9272706,0.4052888,-0.39983663,0.5893472,-0.55046725,-0.3126173,-0.017434442,0.116811104,-0.51671785,-1.4699507,-0.5889133,-0.005812108,0.33851507,1.9888875,0.75083214,-0.39415646,0.91665834,-0.22779326,0.5769031,-0.77165806,-0.82305175,0.14359075,0.24991292,-0.81593674,1.5053922,0.0101227965,0.8234822,-0.12395305,-0.7881032,-1.1337656,0.44373432,0.04439758,-0.56261295,0.18678126,0.051950548,1.1957062,-1.0207492,-0.9342895,-0.45419797,0.61560017,0.15492234,-1.2431852,-1.0065805,-0.24515994,-0.15660682,0.49902257,1.5045725,0.6726186,-1.1314329,0.6714127,-0.0040419786,-0.68835086,-0.8064632,-0.60934174,1.4453086,-0.93872446,0.30556425,-0.8680467,0.15042646,-1.30199,1.1690636,0.4702934,-0.93725145,-0.51559496,-0.273846,0.3667301,-0.88065904,0.73863834,1.9232316,-0.0656766,-1.3553778,-1.0791656,0.30049115,1.2846944,0.13558261,0.06498633,0.78903586,-0.76235396,0.09630219,0.37981406,-0.01990907,0.5366187,1.4453589,-0.41549876,-1.0759519,-1.2838801,1.3542212,-0.72985786,-1.916401,-0.20521612,0.09673394,-0.59488165,-0.2548583,0.8942426,-1.3309761,1.3870642,0.09269856,-0.5363535,-0.062172968,0.15492928,0.9457395,0.5362836,-0.41881,0.34860185,0.2655316,-0.21770605,1.3331318,0.19473445,-0.69303435,-0.35404834,1.3171674,0.3245802,-0.80303806,-0.3808143,-1.4085792,1.2258624,-0.084945746
random,-0.21580474,-0.11650277,0.11515662,0.09389862,-0.34409532,0.3825231,-0.25292084,-0.1395724,-0.1279601,-0.07192961,-0.40112588,-0.3166393,0.12522392,-0.109548695,0.1878309,-0.16549616,-0.061663605,-0.0050587077,-0.014306487,-0.17389192,-0.45122132,-0.03940802,0.05047048,0.12846366,0.6602815,0.2204531,-0.24609433,0.30289608,-0.094446525,0.25406387,-0.2621665,-0.18283358,-0.02374476,0.053353406,-0.20829043,0.38186508,-0.026381137,0.15977389,-0.06185628,-0.17666878,-0.31859553,0.10489716,-0.07979696,-0.18054822,0.02421156,0.04467551,0.39405194,-0.23662879,-0.27245575,-0.10229114,0.22684991,0.09900067,-0.46720833,-0.2507199,0.026369167,-0.08969271,0.15561932,0.5148665,0.16880636,-0.43846205,0.12214944,0.025056118,-0.23188443,-0.22737406,-0.14622135,0.4801087,-0.25956482,0.063966304,-0.29756647,-0.043330103,-0.38310167,0.3180864,0.111461155,-0.16616195,-0.2551848,-0.09970447,0.038592875,-0.33865562,0.22263363,0.5371454,-0.008159854,-0.29718846,-0.32555383,0.12899455,0.32546186,0.2052169,0.012562695,0.23888566,-0.17651822,0.08104617,0.12336495,0.012668842,0.13067894,0.4195659,-0.023223681,-0.2959348,-0.43953353,0.30955848,-0.17639886,-0.5923063,-0.026939888,0.08459837,-0.2070007,-0.13613327,0.28717458,-0.36356956,0.44569314,0.17978252,-0.15169854,-0.019792955,0.012579902,0.27514252,0.0070943697,-0.06731278,0.08825774,-0.020172544,-0.09057729,0.46281534,-0.005336798,-0.21010143,-0.16571918,0.4475083,0.04406911,-0.24111469,-0.19046363,-0.46867776,0.28427714,-0.018318633
random,-0.3844701,-0.24762702,0.15377326,0.16242072,-0.823833,0.7277215,-0.5847737,-0.28043523,-0.4751275,0.17569385,-0.95231,-0.740271,0.34011367,-0.5552953,0.3259708,-0.25052047,-0.359255,-0.2202511,0.09143353,-0.23456633,-0.93817455,-0.055873625,-0.06462297,0.103650615,1.6539532,0.5733346,-0.4101396,0.60526234,-0.2843598,0.4562519,-0.6677725,-0.53804,-0.05434141,-0.031776108,-0.61409926,1.1363019,0.19966407,0.55627525,0.028963855,-0.46190822,-0.94051254,0.19545837,-0.0045830742,-0.48854014,-0.13468327,0.0834867,0.68281806,-0.6764762,-1.0486001,-0.1996789,0.7858295,0.13556066,-0.9637192,-0.7774482,-0.26777235,-0.32336086,0.29781157,1.4213636,0.28129706,-0.77202374,0.4892248,0.05549557,-0.3705773,-0.5034716,-0.37503287,1.1258024,-0.8088732,0.19155529,-0.8038858,0.07596864,-0.8347199,0.7057713,0.32731947,-0.5930131,-0.42041364,-0.034360167,0.24054937,-0.5693229,0.85157543,1.3246362,-0.019508656,-0.83465385,-0.71649873,0.39532068,0.9732654,0.32397342,0.08237528,0.5214842,-0.3861411,0.19851016,0.33524632,0.10021196,0.44671288,0.9093194,-0.21543805,-0.71933603,-1.1706853,0.7589232,-0.42626408,-1.5071415,-0.054980073,0.15740216,-0.60687184,-0.3232983,0.8113582,-0.72519696,1.0714716,0.35722178,-0.5522271,-0.18088847,0.19628108,0.7768617,0.21397287,-0.19081587,0.28566673,0.17312346,-0.016809661,1.1647286,-0.02440505,-0.54004884,-0.34175757,1.0896223,0.26381606,-0.40779614,-0.31625748,-0.7455492,0.6619181,-0.022604113
random,-0.40198866,-0.1782551,0.20035927,0.17328437,-0.66675884,0.5613198,-0.46939176,-0.20337094,-0.30603868,-0.05757265,-0.6857215,-0.59596115,0.2713582,-0.30348977,0.28440562,-0.36538082,-0.11531136,0.005953905,-0.08080673,-0.4072722,-0.7298514,-0.103572875,-0.049104087,0.13664484,1.3440901,0.41137177,-0.33063987,0.5226151,-0.21068704,0.43734178,-0.5187415,-0.49990287,0.012064936,0.1177669,-0.46469957,0.7183013,-0.013581288,0.25046027,-0.14058325,-0.40518814,-0.62273425,0.16069743,-0.11242283,-0.31124863,0.12021687,0.026643546,0.6673155,-0.43316683,-0.575694,-0.16281095,0.41903934,0.12863028,-0.77606606,-0.49843255,0.04231665,-0.15900233,0.18968444,0.9323942,0.3593456,-0.71680075,0.24550728,0.07002924,-0.4863926,-0.4822646,-0.1995836,0.9309152,-0.506586,0.05752772,-0.49476933,-0.02028817,-0.72351766,0.7378229,0.29063866,-0.44352633,-0.38901487,-0.15740529,0.05550187,-0.61286056,0.37113246,0.96205205,-0.0440291,-0.5470802,-0.5123586,0.21596046,0.64969474,0.2720647,0.06181128,0.44011706,-0.34676182,0.15795903,0.22469638,0.06098428,0.24195908,0.7942035,-0.1271296,-0.5010366,-0.8031415,0.6070766,-0.3986122,-1.0803707,-0.10516796,0.103958786,-0.43884617,-0.21574084,0.50821126,-0.6282585,0.79139405,0.22610599,-0.2858896,-0.062338486,0.057591643,0.44182584,0.10534238,-0.12961663,0.20803255,-0.0414853,-0.15986316,0.7970212,0.059114005,-0.37888405,-0.25138706,0.79765004,0.09582235,-0.3826195,-0.28559256,-0.80770814,0.58685607,0.015333511
random,-0.07585621,-0.033291124,0.03789614,0.06074089,-0.11517979,0.10451979,-0.11347106,-0.038141433,-0.028741896,0.02118053,-0.14459617,-0.13220128,0.055965547,-0.050321843,0.05901273,-0.05680944,-0.058139056,-0.03300705,0.0029898586,-0.019770265,-0.17287926,0.012480447,-0.011133336,0.014051123,0.26131913,0.09908914,-0.10124846,0.07964343,-0.041832853,0.069442995,-0.13177218,-0.09082453,-0.014400476,-0.0054322043,-0.08817188,0.1362705,0.018577045,0.06592472,0.01200079,-0.058911458,-0.11737958,0.03593679,-0.005624006,-0.046664782,-0.028834077,0.014974655,0.10969305,-0.091882415,-0.17655563,-0.039600443,0.107706584,0.048179545,-0.11481745,-0.08929202,-0.046423845,-0.0771027,0.05407087,0.23923369,0.032862682,-0.13538796,0.06321811,0.010789424,-0.0681692,-0.058113627,-0.08234031,0.19099075,-0.16625421,0.017833391,-0.17455678,-0.01797138,-0.15090594,0.108473144,0.02326024,-0.06734604,-0.0748395,0.0266003,0.03400946,-0.08756773,0.09295169,0.20154084,-0.015829155,-0.078605644,-0.12719508,0.05215392,0.15878744,0.08125557,0.0040910663,0.044284992,-0.08079548,0.062083934,0.040868666,0.058341738,0.083110586,0.17409559,-0.019382544,-0.090814516,-0.17036553,0.13444683,-0.045659937,-0.21104395,-0.004292756,0.014418502,-0.09069452,-0.029851193,0.14701726,-0.088751994,0.1990489,0.08385643,-0.08593987,-0.032643195,0.023539694,0.107584506,0.0074978326,-0.06626875,0.043301016,-0.011174555,0.0314922,0.21581061,0.007429619,-0.08426532,-0.08861723,0.1901333,0.0020758945,-0.087474234,-0.05537775,-0.18002357,0.08852512,0.019140406
random,-0.3021456,-0.14112233,0.12226876,0.11806067,-0.42139786,0.4465127,-0.3641511,-0.16903849,-0.15356933,-0.07473149,-0.50954485,-0.41413844,0.17175964,-0.16417716,0.23291689,-0.24072818,-0.078593686,0.02537485,-0.06040231,-0.24023046,-0.57024646,-0.033132315,0.04155067,0.1525185,0.9004705,0.27872878,-0.3015973,0.35050508,-0.16476797,0.3269636,-0.38247022,-0.29236528,-0.031197587,0.04749053,-0.27046525,0.47423783,-0.0581344,0.18147631,-0.07594553,-0.21720092,-0.42522854,0.1382472,-0.095097765,-0.17529495,0.025976738,-0.0004051048,0.522697,-0.31473935,-0.36217937,-0.10910523,0.29144955,0.093569815,-0.55891675,-0.32135752,0.04740761,-0.1377068,0.16521305,0.7044347,0.25804523,-0.5611945,0.1475007,0.038524278,-0.3033562,-0.29954076,-0.16435257,0.6633444,-0.3715982,0.008452537,-0.38855717,-0.07877192,-0.49162403,0.48247865,0.14740741,-0.25128278,-0.31492108,-0.12639336,0.017804075,-0.440459,0.26727316,0.67007357,-0.02198034,-0.31251106,-0.36589235,0.13897654,0.46736875,0.19792445,0.06786975,0.28282377,-0.22078525,0.116590016,0.13176768,0.072109595,0.15228973,0.5735882,-0.07217457,-0.3862612,-0.57795465,0.41141295,-0.2702113,-0.72354233,-0.06643488,0.09126304,-0.2941622,-0.1545394,0.371703,-0.45226932,0.61105794,0.16222858,-0.21808219,-0.033608254,0.021913212,0.3317607,0.06610563,-0.09528547,0.10979467,-0.051295046,-0.101303056,0.6014914,-0.016485909,-0.2906614,-0.19133906,0.5754852,0.05642557,-0.25731668,-0.21491398,-0.61657184,0.3857275,0.0439607
random,-0.16594735,-0.07976066,0.0729718,0.09345328,-0.32026443,0.2873135,-0.22133872,-0.11595994,-0.14140631,-0.0071384427,-0.34928778,-0.3101841,0.09335723,-0.14016198,0.14584021,-0.13852187,-0.106044665,-0.037720222,0.009409437,-0.13702165,-0.35647976,-0.08989111,-0.0044338843,0.09473472,0.6701985,0.20318535,-0.17066592,0.2346783,-0.07574123,0.20676994,-0.2604556,-0.21653794,-0.014545901,0.03170961,-0.20548096,0.36783272,0.047236595,0.16157971,-0.051477563,-0.18717107,-0.3374627,0.06950156,-0.010791942,-0.23145215,0.029947406,0.072109714,0.3062399,-0.23867951,-0.25085658,-0.0996658,0.21924125,0.11066805,-0.36848012,-0.26521963,-0.056040585,-0.088623755,0.1367757,0.47501025,0.17370854,-0.29755658,0.1532398,0.026542258,-0.2475162,-0.22225077,-0.1466176,0.39129588,-0.23353769,0.069899224,-0.27181828,0.02216536,-0.29579604,0.31409827,0.12165658,-0.16466396,-0.2053523,-0.08067444,0.021862047,-0.27086142,0.23421659,0.49190292,-0.0049013468,-0.32265025,-0.28159624,0.136224,0.32423118,0.115284994,0.012048202,0.18949687,-0.18199518,0.078688055,0.14238033,0.019262606,0.15171772,0.36024827,-0.052096,-0.25604293,-0.38604936,0.33198455,-0.14768279,-0.5485797,-0.02294622,0.027490888,-0.14528498,-0.10976752,0.2584558,-0.30571938,0.35251915,0.12779242,-0.14435457,-0.013887105,0.044572614,0.27247882,0.035270806,-0.053415384,0.10479392,0.033931658,-0.061925378,0.38592207,0.020687358,-0.17059138,-0.12652814,0.39871645,0.06429123,-0.21670008,-0.117796,-0.34122124,0.26049504,-0.010897456
random,-0.21059695,-0.10963577,0.06938688,0.11109809,-0.25348842,0.2679183,-0.22067589,-0.132908,-0.07719799,-0.026108297,-0.3145229,-0.27964887,0.08923723,-0.10350755,0.11238988,-0.120868795,-0.06895177,0.010241371,-0.048135713,-0.14192729,-0.29982543,-0.011380535,0.026146088,0.0596883,0.5711688,0.17012009,-0.20112854,0.15097104,-0.066125296,0.19464782,-0.21427704,-0.17423165,-0.020471565,-0.025176426,-0.14909405,0.31241533,-0.0036758778,0.105060376,-0.02274869,-0.09929731,-0.24246891,0.049132466,-0.055074975,-0.17467113,0.0025037376,0.052658748,0.31464407,-0.23322196,-0.22320032,-0.1121663,0.14564548,0.09076412,-0.3348199,-0.22261378,0.0017757274,-0.10678394,0.10053006,0.46880263,0.15067181,-0.33263856,0.09634844,0.03865696,-0.24412699,-0.15273015,-0.119052835,0.36569783,-0.21955268,0.0019480706,-0.23904486,-0.075440116,-0.23248069,0.30115914,0.11780521,-0.123448715,-0.23943251,-0.089313984,-0.059706915,-0.29170293,0.14963886,0.4095279,-0.0060278117,-0.19464155,-0.20833127,0.13337463,0.31887165,0.09854972,0.03769618,0.13065778,-0.1636762,0.0762684,0.13106087,0.046326604,0.07568865,0.30415678,-0.010346484,-0.21016167,-0.36035773,0.25564674,-0.13232042,-0.44935894,-0.0124451,0.010426267,-0.17459263,-0.10330287,0.24044478,-0.22309071,0.34381974,0.15245336,-0.13313426,-0.020720132,0.031281546,0.23734123,-0.011786047,-0.08238354,0.058076266,-0.022971896,-0.030415663,0.39113474,-0.041524276,-0.15205655,-0.14229663,0.37685388,0.010474352,-0.16609393,-0.14077444,-0.36800826,0.19248673,0.050311476
random,-0.45701087,-0.20265466,0.15415567,0.20830232,-0.7880167,0.7820411,-0.65107787,-0.40961164,-0.41137066,0.028494377,-0.9206211,-0.87582743,0.43020064,-0.48752952,0.39232793,-0.44299015,-0.15477075,-0.016943516,-0.07432597,-0.50640166,-0.99822533,-0.108819164,0.06642431,0.22431457,1.6427112,0.5588295,-0.5169641,0.616378,-0.24978057,0.59536046,-0.65372884,-0.4928515,-0.039525334,0.11672033,-0.57625,0.96036553,-0.019396944,0.44436246,-0.11959377,-0.41936404,-0.761025,0.23965837,-0.17712958,-0.47722888,-0.057275735,0.006755841,0.9312199,-0.6633375,-0.762068,-0.33472407,0.5115037,0.11110414,-1.0696617,-0.60343444,-0.08728259,-0.1885338,0.30513754,1.3066336,0.3584657,-0.9903458,0.34725958,0.056947183,-0.5249167,-0.5663977,-0.37793583,1.3535374,-0.68036747,0.13917829,-0.7357672,-0.134714,-0.8879955,0.8879575,0.38088122,-0.50805193,-0.5618268,-0.17967075,0.08440545,-0.7885635,0.45140886,1.3026657,-0.096410654,-0.68128604,-0.7272175,0.35325798,0.88637024,0.3368684,0.05744396,0.52204096,-0.52148163,0.21096164,0.42845446,0.049040943,0.34465685,1.0967729,-0.12541428,-0.59283024,-1.1741652,0.75738156,-0.4430261,-1.3731974,-0.11060164,0.044978537,-0.644853,-0.23784432,0.7923991,-0.759261,1.0389974,0.40599316,-0.5112299,-0.10396569,-0.010263071,0.60085297,0.09418647,-0.1955717,0.15386622,-0.13457546,-0.101551645,1.1060295,-0.14121512,-0.56214815,-0.4359813,1.0299653,0.094516896,-0.5015698,-0.49963263,-1.1444728,0.64615124,0.030498547
random,-0.3979369,-0.26477826,0.27003485,0.28371805,-0.8526811,0.7080478,-0.52181673,-0.25760722,-0.36504745,-0.016207233,-0.9463109,-0.62517923,0.26135266,-0.3359919,0.29698333,-0.3086658,-0.24998666,-0.07763818,0.076463185,-0.25828287,-0.93217266,-0.1451129,-0.10284859,0.13558903,1.6044254,0.5083104,-0.3915734,0.633784,-0.16882147,0.40398285,-0.60281074,-0.56178343,0.0017280239,0.0011019541,-0.50015575,1.0195128,0.20320654,0.406213,-0.1643245,-0.4932022,-0.8584192,0.17981267,0.0029073125,-0.5272126,0.12804961,0.19242838,0.6802828,-0.5813571,-0.7956942,-0.15830293,0.67631036,0.2544863,-0.90072507,-0.74596286,-0.01676904,-0.2518153,0.35392433,1.1156487,0.44748262,-0.7603756,0.36928326,0.037285704,-0.54231906,-0.56192803,-0.30887592,0.78715396,-0.64674944,0.15986477,-0.6118635,0.071426846,-0.739026,0.69314426,0.25073636,-0.4583198,-0.49121583,-0.14609009,0.11719745,-0.6630497,0.6760715,1.159697,0.04791012,-0.9391913,-0.63405293,0.30036533,0.7641755,0.28297296,-0.02762812,0.48039642,-0.34224027,0.17003752,0.25725612,0.123729125,0.39903936,0.7823227,-0.12682305,-0.73950964,-0.8834977,0.7357925,-0.42628676,-1.4128736,0.006811985,0.19407132,-0.333254,-0.27656257,0.59664106,-0.77342594,0.9020301,0.3684036,-0.31231853,-0.060247354,0.15914181,0.70124537,0.081506155,-0.15125312,0.3127178,0.15336703,-0.18913795,0.99433154,0.12971205,-0.3803488,-0.1853484,1.0080472,0.21806473,-0.38873816,-0.2470372,-0.673802,0.68215597,-0.06920425
random,-0.2268792,-0.14436264,0.18705095,0.14166793,-0.5003947,0.49161372,-0.30054677,-0.21099344,-0.2659148,-0.024995416,-0.57567865,-0.40452406,0.19224341,-0.20272993,0.23766088,-0.2067931,-0.07302786,-0.037554346,0.09338515,-0.15830222,-0.6393923,-0.076652616,0.014717611,0.11894128,0.90686184,0.34135497,-0.32003766,0.43077973,-0.06936137,0.28576195,-0.3198978,-0.26394814,0.0071777073,0.027903924,-0.32083586,0.66163003,0.09457428,0.3028535,-0.08856107,-0.29893437,-0.48247406,0.12169926,-0.08186377,-0.31641647,0.005715491,0.112666436,0.5043473,-0.36831513,-0.51274663,-0.15548098,0.4078673,0.14125744,-0.6931599,-0.46654695,-0.028429769,-0.12754971,0.23122929,0.7278288,0.23550296,-0.5383204,0.19809707,0.034574747,-0.2720493,-0.30461735,-0.20193405,0.5958658,-0.3987412,0.15533747,-0.41511902,0.055583622,-0.4988195,0.365798,0.17020772,-0.29136163,-0.34962356,-0.09310061,0.1097001,-0.39886266,0.38857427,0.77418023,0.0041240663,-0.5446668,-0.4708262,0.24801023,0.46998113,0.22703719,-0.052234985,0.34240592,-0.21839671,0.09554239,0.16341981,0.010721214,0.20750917,0.53119904,-0.04787625,-0.411701,-0.65249944,0.4930298,-0.2698024,-0.91550547,-0.022473417,0.12547314,-0.30426395,-0.14312837,0.44299245,-0.48860493,0.62021005,0.28627795,-0.19794238,-0.04633757,0.032131735,0.44259107,0.03817414,-0.109836176,0.14620054,0.07474949,-0.06555741,0.66472167,0.05207467,-0.28188363,-0.22463804,0.65768343,0.12222847,-0.29466057,-0.28811142,-0.5319665,0.43720126,-0.059127275
random,-0.5054544,-0.2812525,0.4234321,0.10972715,-1.179437,0.9262111,-0.6294478,-0.30302125,-0.93049115,0.5296963,-1.2538961,-0.9946825,0.67680925,-1.0170711,0.44737285,-0.4616254,-0.7308086,-0.3371386,0.13785213,-0.56284434,-1.267207,-0.17821848,-0.48777193,-0.14028138,2.5435207,0.9331663,-0.14170882,0.9757902,-0.4855213,0.5054538,-0.8540659,-0.9351122,0.0055615813,-0.012210751,-1.1477896,1.7124832,0.19838046,0.8133213,0.110988036,-0.8695235,-1.4383333,0.18097816,-0.04723966,-0.64091575,-0.04374245,0.05462605,0.72862124,-0.9269381,-1.6770194,-0.465833,0.83063793,0.12384002,-1.2254175,-1.0459971,-0.4705962,-0.5464995,0.044992205,2.163506,0.12427769,-0.9666116,1.0086465,0.020801192,-0.48854065,-0.70494324,-0.4444893,2.0128956,-1.2446734,0.37015492,-1.1798735,0.28604123,-1.2527313,1.1395999,0.62666535,-1.1061715,-0.49177548,0.14384426,0.32275018,-0.63133216,1.0743059,1.8608772,-0.24611518,-1.2907141,-1.1440104,0.4790236,1.3587161,0.4718414,0.061033405,0.4709505,-0.6401426,0.32924145,0.308739,0.09447757,0.5123129,1.5311525,-0.4601074,-0.7496128,-1.9102082,1.0357826,-0.6720184,-2.3473933,-0.325797,-0.078669615,-1.3252155,-0.31094667,1.2223302,-1.000631,1.490376,0.23425823,-1.0112696,-0.43065372,0.555298,0.9449461,0.5856936,-0.53252983,0.47399604,0.51449186,-0.10954281,1.6695336,0.13121834,-1.0026155,-0.3897654,1.2282679,0.34996867,-0.7116788,-0.093271695,-1.1805536,1.3134137,0.07413767
random,-0.2434488,-0.1354701,0.10641681,0.055546824,-0.46715683,0.46794826,-0.35721898,-0.2009769,-0.23209001,0.00024683078,-0.5432458,-0.4679019,0.22020142,-0.24529703,0.26207557,-0.21044083,-0.12803553,-0.07111536,-0.025459697,-0.2468412,-0.58685434,-0.06921989,0.014722564,0.08911545,0.978848,0.33354568,-0.30092937,0.39942023,-0.15501778,0.32814157,-0.40021184,-0.28253657,-0.0035657098,0.0807105,-0.37271568,0.5116376,-0.005408379,0.22147031,-0.01563073,-0.27164844,-0.45758945,0.12555936,-0.08834578,-0.23963772,-0.010310009,0.02053231,0.5064677,-0.3430479,-0.49109,-0.18838479,0.35288274,0.084146895,-0.5787638,-0.33338064,-0.08365119,-0.119066946,0.154705,0.7697855,0.15297252,-0.56100327,0.18625644,0.04998055,-0.27567613,-0.28391165,-0.21952532,0.7366637,-0.4020187,0.077687785,-0.4728069,-0.018557522,-0.5373756,0.48108304,0.19817288,-0.29265374,-0.29953784,-0.08938888,0.08819894,-0.39080304,0.3213438,0.7462331,-0.025525425,-0.38978603,-0.4445992,0.20850466,0.49121082,0.2582089,0.030313464,0.33061227,-0.2703633,0.12444344,0.1630576,0.009054653,0.17792575,0.59473836,-0.06408538,-0.3455893,-0.6292813,0.45863292,-0.24081263,-0.76323026,-0.03399822,0.059601426,-0.34535915,-0.18305863,0.429065,-0.44882846,0.5971747,0.2034753,-0.23550312,-0.09503008,0.018121142,0.38464177,0.09734775,-0.111952946,0.13054094,-0.019992981,-0.086177856,0.6283572,-0.012616852,-0.29206422,-0.26288822,0.63543946,0.07762438,-0.34684086,-0.27707654,-0.6224995,0.37284482,0.012838503
random,-0.2741446,-0.15143636,0.09393158,0.1023615,-0.35637712,0.37653092,-0.27909154,-0.16252616,-0.13672478,-0.013971297,-0.42567372,-0.3722715,0.1704455,-0.18503822,0.2015934,-0.19556433,-0.11302183,0.0033655213,-0.06352567,-0.21963827,-0.4042476,0.02890448,-0.0052524586,0.08352498,0.82473564,0.21407351,-0.21652056,0.26435164,-0.17444266,0.2997101,-0.316279,-0.24581501,-0.025241317,0.03842114,-0.24392773,0.39398283,-0.042736012,0.13341254,-0.008660364,-0.14807612,-0.37709633,0.0896731,-0.11550699,-0.1873556,0.0036790054,0.017328037,0.41880488,-0.2800906,-0.3206281,-0.12221563,0.24212219,0.062140986,-0.46645495,-0.27187556,0.035239756,-0.12856072,0.11002906,0.6321529,0.13497335,-0.45656472,0.14096336,0.058735948,-0.3067111,-0.21432132,-0.14389446,0.5526968,-0.28899524,0.0047375346,-0.33854294,-0.097510666,-0.35348982,0.42147335,0.18244188,-0.22956495,-0.2855367,-0.09878217,-0.01726783,-0.3937461,0.23527557,0.5795698,-0.06910825,-0.25924265,-0.29840174,0.15507849,0.4103405,0.1408937,0.062352918,0.21770608,-0.18359104,0.11058336,0.12657976,0.0560701,0.0786067,0.44182658,-0.07754105,-0.30198285,-0.47861263,0.27469525,-0.20757884,-0.63969827,0.0025554467,0.027043976,-0.29752266,-0.15508308,0.36216813,-0.3308893,0.48023972,0.18190348,-0.18944883,-0.039847843,0.043812234,0.291973,0.034801267,-0.10684198,0.07692114,-0.023513865,-0.064719625,0.52181,-0.039383758,-0.22623955,-0.1686498,0.49676108,0.040957715,-0.20791845,-0.15645061,-0.47358054,0.2967678,0.07567832
random,-0.47304618,-0.27615035,0.34676576,0.38883996,-1.9120333,1.4771395,-1.1645405,-0.41674685,-1.0127609,0.26882678,-1.8910769,-1.4335512,0.7336482,-1.1919458,0.43133083,-0.19684376,-0.8095484,-0.51216424,0.31986305,-0.32084617,-1.8132763,-0.39141947,-0.3678852,0.08579549,3.269822,1.2334977,-0.606592,1.3244162,-0.40151685,0.48183313,-1.3769559,-0.9415809,-0.15257022,-0.21646586,-1.1755896,2.2121568,0.72453946,1.1524768,-0.16664068,-1.1082852,-1.85994,0.36837685,0.29267982,-1.3143601,-0.14256644,0.46851152,0.96929306,-1.0194801,-1.9817572,-0.015507215,1.680646,0.4454554,-1.6870784,-1.500295,-0.82295096,-0.56168664,0.6511079,2.2366486,0.8044727,-1.1062019,1.146063,0.10714343,-0.59397924,-1.20981,-0.73316723,1.8893021,-1.4886596,0.6621764,-1.4607234,0.35683045,-1.6352513,1.096683,0.27623817,-0.97312635,-0.5986038,-0.009959208,0.619471,-0.88015187,1.7604624,2.2971735,0.32787165,-2.2580388,-1.4342773,0.49073467,1.5057096,0.99805987,-0.19142488,1.0138497,-0.728623,0.42716032,0.7214413,0.29385594,1.3055042,1.4729179,-0.16647437,-1.2846048,-2.1607594,1.3271307,-0.7266696,-2.894164,-0.15611018,0.51789457,-0.75489056,-0.5521369,1.1334045,-1.4401791,1.6194971,0.95493233,-1.0143641,-0.2815214,0.40103796,1.3825791,0.37679833,-0.029601665,0.7806807,0.56679016,-0.32762095,1.8767147,0.059185058,-1.0965152,-0.40932807,1.8316542,0.68380326,-0.90466166,-0.5662656,-0.8597574,1.1105636,-0.33143982
random,-0.4245339,-0.18137096,0.27563673,0.15000032,-1.6862679,0.99553543,-0.8694557,-0.4258154,-1.1572496,1.0501256,-1.6816646,-1.508869,0.72876126,-1.4230114,0.31738803,-0.50495,-1.0599165,-0.36171857,0.3914452,-0.5920269,-1.550812,-0.9421407,-0.53334033,0.028563108,3.3779118,1.5465024,-0.2522728,1.0859787,-0.5159304,0.48559916,-1.1468253,-1.534208,-0.15134254,0.11948687,-1.5252283,2.4815254,0.8095767,1.2018653,-0.14020765,-1.2691457,-1.9370089,0.28587136,0.2984154,-1.213426,-0.05479562,0.19001274,0.854664,-1.5084263,-2.2728357,-0.8404884,1.2122234,0.3743892,-1.300733,-1.3716812,-1.215899,-0.6157494,0.214769,2.6459844,0.5529621,-0.8454823,1.3490176,-0.08910529,-0.8680793,-1.1749264,-0.66720855,2.349563,-1.5192928,0.6456661,-1.4647808,0.6284894,-1.3719885,1.6332312,0.96628004,-1.4165586,-0.60276926,0.14023516,0.36428288,-0.75041425,1.5517908,2.4856298,0.09720304,-1.9673162,-1.3687831,0.7514222,2.0766037,0.4742457,0.24485764,0.7232128,-1.2369139,0.2840423,0.8232706,0.021290444,0.9770186,1.7958598,-0.5661656,-0.7329272,-2.6547868,1.9031299,-1.0806466,-2.7323716,-0.446042,-0.2574374,-1.2125605,-0.45100686,1.4964776,-1.3325049,1.6134402,0.04179208,-1.5423086,-0.44212577,0.72495604,1.6086507,0.7670849,-0.31312585,0.77313626,0.7676883,-0.0113121085,1.7585962,0.21634659,-1.274714,-0.679794,1.7708662,0.533337,-1.2028432,-0.14448653,-1.2661933,1.5013806,-0.12834594
random,-0.441821,-0.22711751,0.29048178,0.23983893,-1.051442,0.9079738,-0.7002208,-0.3944692,-0.7012802,0.29530993,-1.2446779,-1.0267165,0.5065646,-0.7335621,0.4583287,-0.47772697,-0.48000994,-0.26027858,0.23147655,-0.3187528,-1.4329733,-0.3033314,-0.15004429,0.23305658,2.0352378,0.8307057,-0.52998024,0.9101519,-0.31082442,0.5650155,-0.85088956,-0.74864554,-0.025388232,0.14639568,-0.8916051,1.6029816,0.24790779,0.83955115,-0.060052827,-0.7943422,-1.2163885,0.33657795,-0.009836649,-0.63857037,-0.105629504,0.06554208,0.91335714,-0.9092587,-1.4361787,-0.39551112,0.9467042,0.27471414,-1.2349931,-0.9495247,-0.38733324,-0.3985811,0.43038872,1.84146,0.34838852,-1.0339091,0.7590424,-0.014006595,-0.45266414,-0.7413611,-0.52555656,1.5924698,-1.1841727,0.44418836,-1.1217722,0.17996307,-1.2939913,0.89946836,0.38720697,-0.823504,-0.5574364,-0.019119443,0.51266235,-0.70646244,1.017291,1.8534236,-0.13005297,-1.1971982,-1.1795049,0.48143908,1.2448424,0.5257097,0.005225857,0.6600473,-0.6829873,0.2704019,0.46733522,0.09086962,0.6682048,1.4732968,-0.3247129,-0.91419965,-1.6455432,1.1166012,-0.6021578,-2.0363934,-0.1532464,0.11637911,-0.8315738,-0.27019724,1.1429193,-1.0647346,1.4967033,0.37219164,-0.78689754,-0.20220509,0.21296796,0.9449073,0.30637652,-0.36539736,0.3487729,0.16138372,0.021598164,1.5869682,0.064085074,-0.81945336,-0.47416192,1.3335216,0.35191682,-0.6520677,-0.38657555,-1.1864449,1.0302402,-0.095166095
random,-0.13693157,-0.06976929,0.06718899,0.035121527,-0.19560675,0.20452224,-0.14400908,-0.06906153,-0.116130844,0.009778281,-0.25043216,-0.1830616,0.09755631,-0.09377948,0.10634526,-0.11009758,-0.06604698,-0.017087836,-0.008363243,-0.10883074,-0.27532682,-0.025934622,-0.012623158,0.03510237,0.41715807,0.13458292,-0.104699485,0.16836683,-0.07425297,0.11199783,-0.1716853,-0.14116104,0.001690238,0.005904676,-0.15608378,0.254854,-0.027084773,0.09796478,-0.0014949458,-0.13013434,-0.22143774,0.05732742,-0.036970958,-0.082555,0.008973025,-0.010620692,0.22667418,-0.15792352,-0.22467674,-0.0774222,0.13823652,0.038794085,-0.2582101,-0.1729657,-0.014722977,-0.07901477,0.042463526,0.37017885,0.070262715,-0.25400835,0.11597874,0.014312026,-0.124080494,-0.11683368,-0.08613499,0.33655757,-0.20247908,0.008697182,-0.20242754,-0.011502573,-0.23857692,0.21609454,0.074872725,-0.15990472,-0.13414164,-0.017828345,0.023494186,-0.1797468,0.14806947,0.3361291,-0.022851935,-0.1697391,-0.20290394,0.08104578,0.24282074,0.0873196,0.015497133,0.11077814,-0.11667711,0.057477172,0.043828778,0.014997783,0.05928897,0.27487263,-0.0556395,-0.16710547,-0.30170557,0.19366173,-0.13247687,-0.37396264,-0.036690403,0.022183679,-0.19115786,-0.054019973,0.19124126,-0.21529816,0.3087115,0.049382407,-0.124138415,-0.053198654,0.03853195,0.17733215,0.08222575,-0.09413997,0.06124632,0.015456121,-0.03865184,0.3165316,0.0010710126,-0.15223466,-0.083189294,0.25389436,0.03144709,-0.13950709,-0.078420855,-0.285837,0.20525351,0.03759351
random,-0.47374535,-0.29572943,0.28831777,0.2071788,-0.7851087,0.7023593,-0.49901807,-0.2661284,-0.5033489,0.17347269,-0.9455547,-0.64784676,0.3781625,-0.5200202,0.35531896,-0.3561092,-0.31925702,-0.08070103,0.08393847,-0.32384333,-0.9325403,-0.023008823,-0.16361454,0.045907725,1.7501063,0.54832923,-0.27618128,0.5810824,-0.35119024,0.45278746,-0.5837544,-0.62342936,0.0046588886,-0.009542434,-0.5653551,1.1662557,0.115231484,0.51072776,-0.03811924,-0.5187603,-0.9170286,0.19638476,-0.10609911,-0.3937735,-0.0019914927,0.03437101,0.7193816,-0.68073505,-0.9958134,-0.19242376,0.6490085,0.124626696,-0.9249943,-0.82337844,-0.03331661,-0.38659903,0.23437141,1.4435236,0.30305794,-0.8573108,0.48122612,0.02879277,-0.46816564,-0.47828928,-0.27564672,1.1085634,-0.8110207,0.1012783,-0.7422217,0.031939,-0.84450567,0.772072,0.34944305,-0.68759847,-0.48661184,-0.062459286,0.14090958,-0.63299656,0.7297948,1.308179,-0.11015956,-0.82584864,-0.684893,0.3148777,0.96376044,0.2681287,0.10059254,0.42038867,-0.33137852,0.19353107,0.19185947,0.16862024,0.32546607,0.99150294,-0.24972892,-0.7145783,-1.1891141,0.7184558,-0.51615435,-1.6028382,-0.12013217,0.10654207,-0.73438287,-0.25259775,0.8030586,-0.76481915,1.1648762,0.27113736,-0.542919,-0.16704358,0.2893048,0.71143943,0.2826476,-0.32068253,0.28093255,0.25211027,-0.056808732,1.1781232,0.093227826,-0.6194055,-0.23305988,0.99032915,0.22794026,-0.34368747,-0.1793063,-0.8314157,0.85549676,0.08108743
random,-0.590611,-0.37850595,0.4161182,0.61978143,-1.3326634,1.0086285,-0.9062813,-0.3688995,-0.57956094,0.10735119,-1.5048013,-0.9793127,0.46665856,-0.5846034,0.23075114,-0.49012098,-0.36633596,-0.10386664,0.1739862,-0.4124099,-1.6009284,-0.19658351,-0.20237029,0.090953805,2.4526577,0.93154454,-0.62364435,0.9574335,-0.24544558,0.53665644,-0.9602592,-0.9146988,0.004479645,-0.14539419,-0.8598836,1.7394965,0.49708778,0.77246696,-0.31920728,-0.8204279,-1.2431763,0.24658802,0.036026973,-0.82968134,0.18038341,0.14510596,1.0591602,-0.97087806,-1.4982642,-0.18294534,1.0814916,0.43259174,-1.3317398,-1.2537911,-0.12577029,-0.48857713,0.5337124,1.7993125,0.74161655,-1.2678403,0.6504127,-0.034264617,-0.74434537,-0.9626718,-0.4886223,1.3101503,-1.2085012,0.22867064,-1.0173736,0.13956387,-1.1954224,1.0988163,0.28837317,-0.8542085,-0.75012964,-0.072854415,0.29218057,-0.98866117,0.9968568,1.7918624,0.0009156005,-1.4932897,-0.969449,0.49458358,1.3110815,0.5857957,-0.06525123,0.7007267,-0.59695554,0.27875292,0.4236226,0.35693765,0.7392785,1.29103,-0.19406803,-1.0752449,-1.6659526,1.166915,-0.81239593,-2.3084636,-0.080200985,0.31741098,-0.63904333,-0.2789222,0.8669967,-1.0315573,1.4462454,0.56696004,-0.6436798,-0.23684105,0.24171762,1.0665348,0.20792632,-0.30649176,0.499133,0.32702407,-0.15176395,1.6603655,0.24004264,-0.5978283,-0.27144536,1.5733666,0.3530338,-0.5036865,-0.5018646,-1.0103881,1.0897651,-0.12540807
random,-0.19975819,-0.11082548,0.21165344,0.15182205,-0.59949756,0.6304067,-0.4345406,-0.28741246,-0.27359965,-0.020946946,-0.6932186,-0.6228184,0.19475847,-0.18087028,0.25254607,-0.29445857,-0.09913051,-0.026935404,0.14887916,-0.22848018,-0.9517081,-0.22496907,0.08784623,0.21381241,1.0841944,0.5098591,-0.5012763,0.6122508,-0.055277884,0.41492084,-0.4683227,-0.29257905,0.027529437,0.08665355,-0.48229995,0.7778635,0.121098764,0.417525,-0.11759342,-0.39477798,-0.48389536,0.17870434,-0.09977028,-0.41056016,0.043235797,0.121968396,0.6995034,-0.47534138,-0.6047427,-0.28393182,0.42347473,0.2786657,-0.83668774,-0.43627262,-0.13252531,-0.10523878,0.34528223,0.8753291,0.27031684,-0.7542836,0.23844615,-0.004779583,-0.3391795,-0.392628,-0.35388124,0.8730678,-0.51452833,0.29745856,-0.64622766,0.08053247,-0.72715336,0.48219582,0.17786959,-0.30977046,-0.4384574,-0.08724719,0.22342758,-0.48874503,0.41300428,1.0133886,-0.0035877973,-0.6278536,-0.7197122,0.28190956,0.57918453,0.40435636,-0.05176677,0.43569,-0.4176814,0.14786303,0.2333901,-0.012057044,0.29752198,0.7938641,-0.010582089,-0.46867725,-0.88148063,0.73148394,-0.33454826,-1.0771204,-0.053210523,0.11594329,-0.30351716,-0.13652809,0.49843103,-0.5891148,0.72502637,0.31660226,-0.24853411,-0.09446114,-0.08307027,0.544727,0.03816635,-0.11923559,0.1197487,0.009821713,-0.07653097,0.80937666,0.0997576,-0.34313473,-0.39647457,0.8146068,0.107001364,-0.5062235,-0.5152629,-0.83547586,0.5249844,-0.14867657
random,-0.30387786,-0.13971333,0.1476861,0.11909044,-0.4430033,0.4647602,-0.29286435,-0.15552606,-0.13686192,-0.08514709,-0.46906078,-0.4036494,0.17151716,-0.13114585,0.23438373,-0.19228654,-0.1025317,-0.025157638,-0.021248236,-0.20347942,-0.518918,-0.01659,0.02072423,0.119949065,0.8523958,0.2561934,-0.32488468,0.37519127,-0.14294071,0.29743317,-0.37073377,-0.26428598,7.758303e-06,0.05082598,-0.29388243,0.46710846,-0.036523692,0.16125026,-0.023926925,-0.1974019,-0.42645875,0.10835852,-0.110226765,-0.20538977,0.01803513,0.050521184,0.48401475,-0.2871961,-0.39898098,-0.11966237,0.33236867,0.13200617,-0.5848344,-0.3111841,0.0212459,-0.11968978,0.15197462,0.6697043,0.17285885,-0.5146076,0.15984689,0.082948156,-0.3029956,-0.26410288,-0.17004289,0.60361713,-0.34943154,0.05123752,-0.40698174,-0.039495315,-0.4562529,0.40553814,0.14745398,-0.24744867,-0.3226646,-0.11260408,0.04803802,-0.39965683,0.3006503,0.6675022,-0.02812222,-0.3403365,-0.4013201,0.18314207,0.4241632,0.24860124,0.024383599,0.28826904,-0.20634834,0.12965699,0.114088796,0.030473405,0.12342143,0.49712303,-0.055360585,-0.33940238,-0.55457604,0.3541926,-0.2529817,-0.7399641,-0.017656082,0.08402512,-0.3048709,-0.17854843,0.3975297,-0.42679587,0.567942,0.2332331,-0.16281518,-0.042515606,0.021372875,0.35784036,0.012692225,-0.10781306,0.11691267,-0.017963285,-0.08898577,0.6162621,0.009111062,-0.25474066,-0.22768563,0.6066984,0.059014693,-0.28305092,-0.22091097,-0.5381459,0.34961697,0.038026296
random,-0.66386455,-0.4482165,0.36470544,0.43329623,-1.2166655,1.0351413,-0.76637924,-0.6233998,-0.92664236,0.5615279,-1.5043628,-1.1570797,0.6922703,-1.0929439,0.34392393,-0.62141126,-0.43101472,-0.15692969,0.17654692,-0.49590924,-1.4309675,-0.016366445,-0.2530068,0.04077565,2.5879207,0.9831983,-0.47413325,0.8394324,-0.4664408,0.6454255,-0.79829687,-0.7870535,-0.035353042,-0.03043903,-0.8714943,1.9176235,0.37286097,0.9181508,-0.15021509,-0.77220106,-1.2694603,0.291177,-0.23191272,-0.83310866,-0.16139361,0.08382342,0.9904646,-1.1269567,-1.6975129,-0.4358183,1.0143801,0.19466354,-1.4361609,-1.2224706,-0.19696909,-0.4996936,0.40120894,2.144518,0.3510553,-1.2655221,0.78914165,-0.071463145,-0.59777355,-0.7466621,-0.44188446,1.8185956,-1.2583051,0.38139105,-1.0823122,0.020134829,-1.2606186,1.1138777,0.6202159,-0.9171178,-0.7813403,0.052493833,0.35560137,-0.99552685,1.0513095,1.9814914,-0.16809513,-1.3399585,-1.0668081,0.5870838,1.4208604,0.42924377,0.10097399,0.60071653,-0.619874,0.32314035,0.6245427,0.19356279,0.624778,1.5733709,-0.29830945,-0.9513273,-1.9526969,1.0457639,-0.63665223,-2.3644457,-0.06927375,0.07836323,-1.127999,-0.26966858,1.2641565,-0.96018535,1.589158,0.6171626,-1.0129628,-0.3482786,0.232932,1.018228,0.17277409,-0.46987954,0.34334886,0.09660578,0.0926974,1.8272241,-0.09230576,-0.9044944,-0.42788774,1.4621189,0.288225,-0.43620485,-0.5332009,-1.2723655,1.0298678,-0.006078969
random,-0.68184984,-0.39451197,0.33368474,0.5132179,-1.0219549,0.6341459,-0.68564886,-0.32692575,-0.49694526,0.0045741955,-1.2007757,-0.78955704,0.45195404,-0.4546042,0.104369,-0.5331359,-0.22830531,0.23695733,-0.1987534,-0.608723,-0.91367054,-0.10657344,-0.32420805,-0.0585267,2.2705317,0.57331145,-0.14045906,0.4691163,-0.24339376,0.46573827,-0.63203406,-0.93461376,-0.031017214,-0.2242383,-0.6122743,1.2148771,0.16660428,0.27713794,-0.27543402,-0.5702265,-1.0412387,0.090210624,-0.04136259,-0.6432603,0.35761505,0.089778565,0.9329097,-0.7510587,-0.7962356,-0.15936062,0.542849,0.16262892,-1.0091083,-1.0126958,0.16377671,-0.36648923,0.10075173,1.4172528,0.6923269,-0.9462321,0.4380604,0.092353836,-0.98799014,-0.7803891,-0.17191607,1.0781956,-0.67222726,-0.21777609,-0.4915203,-0.07612283,-0.59994876,1.1645099,0.45066974,-0.8276099,-0.6597023,-0.17090851,-0.37459052,-1.0240479,0.47475407,1.2326322,-0.037971217,-1.0379218,-0.3687305,0.3582922,1.1381625,0.0023042932,0.038347054,0.3563537,-0.52801126,0.16856566,0.28737926,0.34114075,0.23884927,0.8555413,-0.2024989,-0.7028694,-1.2409053,0.7631314,-0.7588425,-1.754689,-0.109316826,0.025581751,-0.68297803,-0.19316801,0.63521373,-0.774211,0.9637693,0.29718086,-0.43776998,-0.14209639,0.35787618,0.7428425,0.34896767,-0.30615452,0.4390108,0.31435844,-0.35086825,1.1571093,0.14094143,-0.39430854,0.03561725,1.034563,0.1096188,-0.27971777,-0.10830534,-0.83167684,0.985394,0.24277641
random,-0.1328099,-0.06768572,0.06696016,0.06956319,-0.23148364,0.24611595,-0.16477537,-0.07562816,-0.062568605,-0.04172751,-0.24576977,-0.2160334,0.07853438,-0.0755751,0.095612645,-0.10121333,-0.041761313,0.017199956,-0.013265067,-0.11973162,-0.26901448,-0.026271455,0.010577865,0.07915915,0.44917578,0.14524384,-0.14914677,0.19306673,-0.059509486,0.16414283,-0.167694,-0.11220246,-0.026587766,0.038599238,-0.12859991,0.19858618,-0.014100188,0.075835764,-0.05157362,-0.10800394,-0.1886388,0.0605309,-0.05719259,-0.12753096,0.0339659,0.044154007,0.24077244,-0.12516871,-0.14620256,-0.056044422,0.1286098,0.08211629,-0.27808198,-0.11670447,0.011150788,-0.06279623,0.08939632,0.28025043,0.11550077,-0.26288494,0.070634216,0.011838548,-0.16696426,-0.15876502,-0.080241956,0.3133582,-0.13737191,0.03986574,-0.18244734,-0.0401966,-0.21948656,0.21217212,0.06272866,-0.07529269,-0.16969353,-0.060858794,-0.008684329,-0.21087337,0.11761631,0.29438573,-0.0003421507,-0.17864387,-0.18965484,0.060987156,0.1693912,0.15072912,0.013950606,0.12534176,-0.108153135,0.06685153,0.08411006,0.014443587,0.079384975,0.2535444,0.00725719,-0.15539767,-0.2749288,0.17486203,-0.102809675,-0.35361463,-0.020076301,0.040703777,-0.10017655,-0.07706748,0.15065245,-0.19330628,0.22907014,0.12068808,-0.1038997,-0.0036198755,-0.006730834,0.14942329,-0.02034806,-0.016193364,0.04914443,-0.017875068,-0.07683153,0.26727542,-0.011600654,-0.1341434,-0.09535689,0.26931545,0.008887597,-0.15406221,-0.12417498,-0.287545,0.15947755,-0.014126786
random,-0.6241644,-0.48850253,0.5562392,0.8270232,-1.5491351,1.0123557,-1.1194073,-0.26691106,-0.51535344,0.11493353,-1.7327613,-1.1034616,0.36530948,-0.38360366,0.30859262,-0.43573692,-0.67802954,-0.32953343,0.40384677,-0.11150484,-1.9652535,-0.34199932,-0.46964738,-0.16618258,2.9848368,1.086552,-0.713212,1.1299021,-0.19138283,0.47846168,-1.3314571,-1.2485855,0.050936796,-0.38423538,-1.164644,1.9666547,0.7234149,0.76923823,-0.16084394,-1.0114315,-1.705517,0.14168066,0.38964194,-0.972458,0.38633606,0.36354172,0.9452279,-1.0593208,-1.9343721,-0.22046797,1.4952575,0.6517487,-1.3711578,-1.6041656,-0.3154736,-0.644924,0.57826257,2.2892566,0.7627934,-1.2458296,0.8284469,0.067255266,-0.8692721,-0.95817643,-0.7331062,1.0680286,-1.5689335,0.1311492,-1.4434992,0.3875354,-1.28607,1.2809349,0.2639082,-1.0336924,-0.8135247,0.04798429,0.2539953,-0.95107293,1.4355801,2.0440168,0.07479158,-1.8358017,-1.131981,0.71100914,1.6455612,0.5900212,-0.27247986,0.71706325,-0.7019849,0.34471026,0.07443699,0.5561339,0.87375224,1.3152831,-0.27777186,-1.368767,-1.6041695,1.6511865,-0.8946322,-2.6598973,0.023960643,0.3719723,-0.4992643,-0.42522085,1.0145898,-1.2447535,1.7073396,0.48742032,-0.43379498,-0.36719865,0.52675885,1.4748178,0.4147987,-0.49671802,0.7870277,0.686077,-0.17412901,1.9735105,0.6925402,-0.41896325,-0.22785367,1.9961137,0.43564084,-0.74182206,-0.33820683,-0.85658,1.3793235,-0.0875964
random,-0.43371606,-0.21806698,0.27254418,0.13863017,-0.864359,0.76614517,-0.44476876,-0.2501212,-0.48319143,-0.052990917,-0.8917346,-0.7412499,0.2481905,-0.34815365,0.47584274,-0.41884875,-0.29441836,-0.015270418,0.060282968,-0.4324075,-0.95251846,-0.33219725,-0.10420209,0.24161533,1.659824,0.5343884,-0.3021207,0.7273559,-0.20903222,0.504566,-0.5703064,-0.67347133,0.08610253,0.19562796,-0.5810819,1.2116184,-0.018596802,0.5014272,-0.099274024,-0.53120697,-0.99614686,0.27479154,-0.021980563,-0.56105995,0.19394623,0.23100445,0.8108686,-0.7157453,-0.67004347,-0.2881671,0.5310005,0.14233318,-1.0791755,-0.7985695,-0.06257386,-0.15672983,0.3364886,1.1481887,0.5589356,-0.7442512,0.5518049,0.093963146,-0.65359515,-0.6107038,-0.33168304,1.0393784,-0.58517194,0.26390946,-0.5508675,0.09880925,-0.8742382,0.91221994,0.47331244,-0.6418169,-0.46216443,-0.3163656,0.107645415,-0.75467956,0.7059502,1.402531,-0.017425107,-1.0532268,-0.8145869,0.28750607,0.8723249,0.10391463,0.07896272,0.61607003,-0.4917678,0.10222052,0.31469184,-0.049664028,0.3279141,0.9830482,-0.30317444,-0.82839733,-0.8857251,0.9207159,-0.5315556,-1.5552423,-0.13781062,0.12337599,-0.461252,-0.30794963,0.7381089,-1.0185548,1.0441005,0.17976381,-0.37028646,0.07586822,0.20236932,0.73904735,0.2142932,-0.24108598,0.2783802,0.1927076,-0.23919791,1.0025247,0.090192564,-0.5563983,-0.21972653,1.0145919,0.2590381,-0.57619405,-0.17162494,-0.9740407,0.8887715,-0.06090753
random,-0.15178825,-0.07695096,0.044669457,0.13729572,-0.43713728,0.38635293,-0.38860047,-0.19052792,-0.2918481,0.11487148,-0.57907164,-0.49349096,0.2109292,-0.33095676,0.21524021,-0.21557766,-0.16498598,-0.13604298,0.11025716,-0.09109976,-0.67512274,-0.14331707,0.012452642,0.1518264,0.8799723,0.38062876,-0.28936476,0.36562547,-0.10774174,0.24422519,-0.40504214,-0.2829607,-0.02060006,0.05417562,-0.32168835,0.6930068,0.15843607,0.40872368,-0.0705418,-0.34275806,-0.5097725,0.19018455,0.042163998,-0.32140502,-0.08791898,0.050253373,0.405514,-0.42671824,-0.5906462,-0.14525186,0.4820494,0.098743185,-0.5358315,-0.44518915,-0.21441174,-0.13186549,0.31061015,0.73029953,0.23235562,-0.45179564,0.30780208,-0.03163945,-0.16017821,-0.35142422,-0.29037666,0.64675707,-0.52497643,0.20198971,-0.47497487,0.07133866,-0.58393866,0.37593764,0.14495164,-0.2991303,-0.21046017,0.0030051202,0.27302983,-0.33930495,0.47204518,0.8449136,-0.0058053196,-0.56634974,-0.5050801,0.19573297,0.54035,0.19490096,-0.007178221,0.3412272,-0.2944565,0.12016778,0.2771644,0.06770659,0.4174378,0.63901716,-0.12666428,-0.47877955,-0.6179411,0.5339273,-0.19139387,-0.8262871,-0.038257588,0.12424547,-0.22929509,-0.12007735,0.46854725,-0.4878136,0.66035604,0.22495659,-0.34098783,-0.0566579,0.005910587,0.4006083,0.09031236,-0.12425587,0.14376612,-0.02092315,0.045589134,0.67125726,-0.023414304,-0.31051216,-0.20999764,0.61649793,0.15486795,-0.26875073,-0.25487497,-0.5103564,0.3285912,-0.10591433
random,-0.19722855,-0.10865714,0.07520228,0.09780952,-0.30035463,0.28971124,-0.22646812,-0.14317808,-0.16247714,0.02277406,-0.36704805,-0.29820365,0.17075846,-0.18869816,0.113628276,-0.17038341,-0.082064874,0.018299524,-0.04422532,-0.20566496,-0.35235372,-0.008230144,-0.01716243,0.04263673,0.667697,0.19618393,-0.14969447,0.21151094,-0.11169664,0.2078735,-0.23797077,-0.21684237,-0.015965804,-0.0043029683,-0.22325754,0.3816253,-0.0006137124,0.1483167,-0.037942998,-0.14673768,-0.316782,0.06824946,-0.07664383,-0.17896739,0.00934179,-0.009122797,0.3502689,-0.25978646,-0.30232185,-0.10912358,0.18794762,0.03938964,-0.38511473,-0.26110783,-0.0014556164,-0.10222055,0.08078326,0.5239536,0.13846761,-0.37416822,0.14856397,0.023182478,-0.22810864,-0.2148789,-0.11674164,0.49344772,-0.2556047,0.0070583667,-0.2554222,-0.050734956,-0.2790706,0.3386055,0.14527611,-0.23229294,-0.2167646,-0.051666655,-0.011551994,-0.30916804,0.17832257,0.46841067,-0.047341645,-0.2609121,-0.22751196,0.1321551,0.35735196,0.09509088,0.034478247,0.16133071,-0.17283438,0.07619734,0.12281835,0.048772134,0.0850136,0.3715618,-0.069460385,-0.23046388,-0.4595085,0.2499767,-0.2125205,-0.5520844,-0.037608635,0.0037057057,-0.28077772,-0.08324647,0.2875332,-0.26551268,0.38479412,0.13375077,-0.19657387,-0.057242136,0.043843314,0.2338442,0.06673473,-0.097074725,0.075699985,0.012690965,-0.049035385,0.43315685,-0.038255688,-0.19528915,-0.11064569,0.38112667,0.04395523,-0.1472154,-0.12768124,-0.38242528,0.2783099,0.055287186
random,-0.44200125,-0.22505741,0.24966213,0.46217933,-0.79759127,0.61236155,-0.66818345,-0.1662409,-0.092143096,-0.07415657,-0.842945,-0.843079,0.24281055,-0.11693935,0.16721915,-0.37384138,-0.25243917,-0.0484105,0.05259534,-0.19378552,-1.0219494,-0.12752645,-0.088821545,0.15687346,1.5462972,0.5624756,-0.6032855,0.5480709,-0.15253848,0.4560634,-0.7701979,-0.55200136,-0.05344122,-0.0045429454,-0.5914259,0.6941365,0.14880334,0.27250478,-0.11585888,-0.43252853,-0.654796,0.14462893,-0.0090778945,-0.44840503,0.20192452,0.14010733,0.7497941,-0.4318158,-0.72128326,-0.25131688,0.5959912,0.42886865,-0.8008866,-0.46533164,-0.12997867,-0.26814803,0.37557477,1.059463,0.36832458,-0.82357115,0.29972097,0.04640545,-0.6233588,-0.5589824,-0.39000425,0.87926805,-0.73625016,0.06282859,-0.8153459,-0.021750836,-0.7338666,0.723285,0.11033945,-0.3338461,-0.5826727,-0.018771142,-0.003924257,-0.66247356,0.45788437,1.0304596,-0.059016224,-0.6070851,-0.7207358,0.35424706,0.7218573,0.4992373,-0.064257845,0.32131818,-0.4840225,0.32783803,0.18470255,0.24544737,0.40994543,0.8854081,-0.06348674,-0.56161094,-0.8796316,0.7529013,-0.4083755,-1.2324061,0.010944229,0.11878617,-0.23591103,-0.16504703,0.55338645,-0.51615024,0.88010335,0.3540825,-0.2767607,-0.051019233,-0.068537086,0.6374706,-0.010005974,-0.1528058,0.22470891,-0.034834586,-0.079215616,1.0714185,0.15360054,-0.28259048,-0.33697224,1.0498103,0.009228763,-0.48378792,-0.43510985,-0.8440673,0.5361074,0.030080633
random,-0.29231337,-0.16719334,0.16555838,0.14867763,-0.5597524,0.50391805,-0.37998405,-0.16695057,-0.3093113,0.06320398,-0.6780933,-0.48691943,0.245636,-0.3010667,0.25740975,-0.2720718,-0.23065335,-0.07545823,0.052661076,-0.18158647,-0.70718974,-0.09937022,-0.08392559,0.1315493,1.1740136,0.37428802,-0.24054149,0.44605532,-0.18463783,0.29962024,-0.47529098,-0.41150072,-0.024749147,0.04072133,-0.38816434,0.72376573,0.076630175,0.344139,-0.05236839,-0.36631188,-0.63985497,0.1779688,-0.02134238,-0.30213708,0.016192608,0.045563936,0.50002646,-0.42249686,-0.60770077,-0.13365574,0.4669148,0.14132412,-0.61136085,-0.50997806,-0.091266,-0.21916446,0.22193058,0.9077024,0.24502268,-0.54774654,0.3297475,0.0019251059,-0.33608827,-0.39194176,-0.2526368,0.74826634,-0.539555,0.13594924,-0.5158673,0.046813738,-0.6019621,0.5092284,0.1877416,-0.38576388,-0.30953762,-0.02684835,0.16545303,-0.44608864,0.48337543,0.9174011,-0.044655427,-0.5943921,-0.5168321,0.19296502,0.6186258,0.2097753,0.014852341,0.31138623,-0.27659023,0.16237967,0.18346187,0.10128519,0.31709263,0.6959564,-0.17706081,-0.52142483,-0.7359261,0.5254225,-0.31605265,-1.0546004,-0.05458208,0.091168225,-0.37019774,-0.1380616,0.5154299,-0.56073934,0.7518154,0.19017798,-0.36122522,-0.075090036,0.11902679,0.4736203,0.15096022,-0.17152683,0.21033208,0.09826272,-0.07034026,0.7828835,0.058819428,-0.3849252,-0.18653032,0.6817855,0.152601,-0.31829488,-0.14434727,-0.5906433,0.5208387,-0.002545087
random,-0.680947,-0.45156494,0.5348351,0.44943407,-1.5775175,1.337489,-0.959991,-0.48694342,-0.71003485,0.06427552,-1.7468086,-1.228552,0.5649435,-0.72692513,0.51813865,-0.5486427,-0.56209075,-0.12000741,0.18610403,-0.6675763,-1.8153822,-0.35886097,-0.28118518,0.13451537,3.0758784,1.0266066,-0.6789565,1.3080602,-0.372476,0.74591947,-1.1371194,-1.0426954,0.024823029,0.017501932,-1.1449761,1.8700292,0.30359203,0.80254173,-0.21120094,-0.9705711,-1.5218991,0.28847995,-0.11792256,-1.0076867,0.30969158,0.19155084,1.3684642,-1.0510392,-1.5546428,-0.41540536,1.0317113,0.5352875,-1.6370625,-1.2391717,-0.18334274,-0.50458276,0.5021234,2.176863,0.68404084,-1.5577679,0.79173434,0.035264883,-0.9523964,-1.0560408,-0.663157,1.8002881,-1.2597783,0.3621529,-1.3339994,0.13847785,-1.4777328,1.4708068,0.44698173,-0.95000553,-0.9943951,-0.23462889,0.23836029,-1.1960915,1.1138453,2.157334,-0.015831402,-1.6957426,-1.2936387,0.55972093,1.482377,0.7383664,-0.019062575,0.84603834,-0.74499834,0.34565067,0.44550776,0.14684948,0.59621805,1.6196611,-0.1720329,-1.2015443,-1.9539906,1.3265991,-0.9282186,-2.6818066,-0.046109952,0.16741137,-0.8005225,-0.41498408,1.0218049,-1.2956103,1.5594639,0.5145571,-0.6717035,-0.22924499,0.26162115,1.2760919,0.3052159,-0.32085475,0.4965644,0.4440905,-0.3873077,1.8666592,0.26710853,-0.7988952,-0.44451848,1.8225791,0.3965535,-0.8847178,-0.5607379,-1.4387122,1.3739989,-0.121823795
random,-0.11615322,-0.050286118,0.056703787,0.038869902,-0.13719937,0.14956823,-0.11651378,-0.08157312,-0.08803658,0.039652556,-0.17494228,-0.17361131,0.09288956,-0.11151039,0.08507801,-0.11477207,-0.043715026,0.029403796,-0.029616656,-0.14248723,-0.18833941,-0.00402787,-0.011974078,0.020021474,0.368096,0.11086785,-0.06610642,0.109707735,-0.065515585,0.133679,-0.11103625,-0.13243817,-0.010845855,0.027602125,-0.120665535,0.19358994,-0.030096771,0.0788626,-0.018454222,-0.08660232,-0.14247602,0.040130097,-0.06571382,-0.06655433,0.017093914,-0.015710447,0.1793298,-0.13746159,-0.14449683,-0.09372928,0.04435432,0.018010803,-0.1902046,-0.10524836,0.014293016,-0.07341237,0.016913287,0.31061718,0.047559034,-0.22362421,0.08007315,-0.0021356037,-0.12691855,-0.10161477,-0.060424343,0.31782824,-0.14863555,0.011708552,-0.15219715,-0.051429424,-0.17134687,0.21883458,0.10897712,-0.116200395,-0.12145136,-0.029641552,-0.016337031,-0.17092061,0.056934588,0.25561538,-0.048618026,-0.10315858,-0.13947563,0.062556446,0.20262296,0.06360847,0.03868189,0.058320083,-0.11346986,0.0404934,0.06685215,0.015427768,0.032900803,0.256352,-0.03136166,-0.09206016,-0.26478988,0.15076199,-0.09831064,-0.28394186,-0.04896026,-0.03104381,-0.18569027,-0.040878948,0.17246903,-0.13671641,0.22950916,0.046623904,-0.13188517,-0.034990903,0.040631644,0.09471119,0.031132096,-0.080135144,0.020351164,-0.014295622,-0.024704019,0.24069501,-0.020383848,-0.1396947,-0.085842006,0.17174521,0.002586012,-0.102307394,-0.05434166,-0.28670135,0.17803763,0.030910568
random,-0.088907436,-0.04625189,0.060603026,0.05993172,-0.19958487,0.19423203,-0.13986209,-0.07684361,-0.065875955,-0.057269447,-0.21864712,-0.19461808,0.056641527,-0.03844804,0.08245597,-0.10445084,-0.03671547,0.0113937,0.009496041,-0.10135271,-0.2644,-0.081765905,0.011946347,0.07886957,0.36889932,0.13151483,-0.13847782,0.18305865,-0.017852925,0.13193399,-0.1550146,-0.12126939,0.0069009294,0.028230231,-0.14721769,0.2179323,0.0031947938,0.09426365,-0.049843717,-0.121769615,-0.18770319,0.051546972,-0.013952145,-0.147909,0.065006785,0.046859477,0.22927071,-0.13721119,-0.12751038,-0.080621235,0.11707318,0.07932,-0.26341584,-0.13988775,-0.01874767,-0.01955067,0.09762376,0.23619357,0.1341895,-0.21328104,0.076337196,0.017166626,-0.15869835,-0.1605918,-0.0930159,0.24455325,-0.12746207,0.05086774,-0.15659216,0.011609524,-0.19968754,0.21099035,0.06766568,-0.09570199,-0.14468086,-0.063962445,0.003989236,-0.19677891,0.110932514,0.2958596,0.008294567,-0.20940016,-0.18800159,0.08173091,0.17286925,0.08663772,-0.021650223,0.14554656,-0.12748218,0.043522928,0.0736053,-0.00510448,0.071420535,0.21520452,-0.017705124,-0.16115525,-0.22442535,0.21256854,-0.12571205,-0.32548925,-0.009930083,0.03801538,-0.058475945,-0.051947378,0.1267,-0.20347825,0.19692858,0.07049306,-0.056438483,0.0028577298,-0.0191839,0.1663245,0.013325239,-0.025179826,0.052758116,0.0053838696,-0.06868938,0.22279131,0.02688266,-0.07652056,-0.080021985,0.24983327,0.028895665,-0.15554559,-0.12231746,-0.24930786,0.17062265,-0.03117646
random,-0.19099115,-0.09227711,0.08406045,0.07426085,-0.26892,0.28248423,-0.18477507,-0.103161015,-0.08755571,-0.032967895,-0.28824705,-0.26599723,0.114724934,-0.108343,0.120453075,-0.12131701,-0.07780989,-0.0034083913,-0.04700502,-0.14493598,-0.28547674,-0.0012020417,0.007902145,0.06109113,0.5463672,0.15687571,-0.172262,0.20614812,-0.1080449,0.18850729,-0.21098498,-0.15373972,-0.034850646,0.024273993,-0.18073376,0.2509118,-0.030484166,0.08467375,-0.011822987,-0.109316505,-0.24010848,0.06331569,-0.08376992,-0.13357177,0.006685094,0.02201014,0.28859368,-0.16279025,-0.21628757,-0.07856943,0.15755923,0.08014433,-0.3375701,-0.15225138,0.007380907,-0.08679034,0.07026702,0.40800428,0.08490925,-0.31269565,0.10326921,0.03385748,-0.20169573,-0.15979932,-0.09083371,0.40531445,-0.1956443,0.018769968,-0.2412219,-0.054686714,-0.25901642,0.26556402,0.10180454,-0.13006675,-0.20066744,-0.06001666,-0.0034388232,-0.25616333,0.14267328,0.38056955,-0.028279426,-0.17283763,-0.22019325,0.10794354,0.25114956,0.16883637,0.031210238,0.14529385,-0.13570148,0.092207104,0.09073924,0.018492077,0.072326496,0.29618478,-0.022090197,-0.17356981,-0.35855958,0.1828343,-0.13576044,-0.43373424,-0.0075170263,0.025345765,-0.19766763,-0.114275165,0.22881003,-0.21996602,0.30448437,0.13797706,-0.13704844,-0.037552744,0.014017725,0.19383429,-0.004963504,-0.045843698,0.06192666,-0.028432518,-0.06479897,0.35818642,-0.03156458,-0.16271964,-0.13759598,0.33463317,0.012152049,-0.17417018,-0.13240723,-0.3385999,0.19142391,0.028649012
