title,0,1,2,3,4,5,6,7,8,9,10,11,12,13,14,15,16,17,18,19,20,21,22,23,24,25,26,27,28,29,30,31
random,-0.5321846,0.0033407868,-0.06391422,-0.25778297,-0.91536033,1.0447233,-0.9289073,-0.21003714,-0.68953675,0.07400464,-1.8592141,-0.7363233,0.81571114,-0.76051635,0.7995371,-0.89499295,-0.03923915,-0.29334074,-0.021632887,-1.020375,-1.787233,-0.83795774,0.105218835,0.39978936,2.328639,0.58453894,-0.93126214,0.88260335,-0.053557515,0.63914156,-0.6538227,-0.6485314
random,-0.2703327,0.22794478,-0.31625566,-0.6784597,-2.050274,1.6245617,-2.0319214,-0.10799711,-2.4167476,1.6629214,-4.0711007,-1.2502109,2.0381374,-2.9820483,1.6285759,-1.6986461,-0.4268446,-0.83952117,0.42593473,-2.117408,-3.303605,-1.3888949,-0.12663591,0.5590458,5.790274,1.2373968,-1.1696696,1.8246328,-0.44899565,0.5315667,-1.3364563,-2.318902
random,3.8356822,0.11284889,4.309567,-2.6927915,-3.6213543,2.2775078,-2.4177663,4.8425055,-0.9875607,7.552772,-12.295532,4.4857097,0.9824877,-6.971823,1.0408785,-0.73925984,-3.0267992,-4.8741627,0.07255061,-1.1412903,-3.220078,-1.7062362,-5.199774,0.43493044,8.494798,0.9625043,-2.4505534,0.57857794,1.7722452,-1.4466908,-6.637255,-3.4271226
random,-0.23843293,0.0058904006,0.09411917,-0.09644316,-0.31298262,0.45726258,-0.28431287,0.0020364693,-0.19430876,0.12378818,-0.60651827,-0.2642899,0.29791862,-0.24924542,0.27877524,-0.26831713,-0.06832506,-0.102509886,0.052121136,-0.30478463,-0.610371,-0.14918447,0.02619135,0.04959411,0.6915941,0.21123183,-0.33421558,0.28369826,-0.12884672,0.2280558,-0.22230215,-0.17959243
random,-0.30814776,0.06052266,-0.010159543,0.046400636,-0.76130056,0.65789694,-0.8407361,-0.12541059,-0.5451991,0.17566577,-1.5125673,-0.6702254,0.6889081,-0.55677956,0.54136217,-0.7258676,-0.07609119,-0.32131502,0.052723765,-0.6038901,-1.424965,-0.60101074,-0.06289088,0.38709196,1.9344876,0.4171335,-0.5918104,0.6344832,0.10794845,0.47768122,-0.58052707,-0.5763851
random,-0.4098098,-0.08681333,-0.06518145,-0.1199254,-0.47640935,0.52938867,-0.49794215,-0.07325897,-0.2410423,0.09381476,-0.9977418,-0.34198567,0.44729945,-0.37181276,0.3440084,-0.51949024,-0.0588285,-0.067235515,-0.08909101,-0.66362095,-0.89227784,-0.24007249,-0.035774235,0.0324758,1.305202,0.23008412,-0.468072,0.33961412,-0.17509693,0.48276535,-0.3408695,-0.47352055
random,-0.13506801,0.032719195,-0.06976964,-0.16702837,-0.5091061,0.5369556,-0.5505067,-0.0647569,-0.56356794,0.15860368,-1.0567126,-0.44000304,0.49021623,-0.6082342,0.5585141,-0.46827042,-0.047389783,-0.24545142,0.0596041,-0.51358324,-0.97195584,-0.32336834,0.037891593,0.2900869,1.3651792,0.31494358,-0.4199319,0.56322175,-0.049685907,0.3583378,-0.41649145,-0.45859635
random,-0.2814618,0.017332397,0.043478575,-0.16583243,-0.6674906,0.74358803,-0.65852916,-0.039087538,-0.4417229,0.15456586,-1.3855622,-0.5084758,0.6175873,-0.4999509,0.5457731,-0.65244085,-0.09436985,-0.2183127,0.099477,-0.60835195,-1.3793967,-0.45891917,-0.028642803,0.24256344,1.6621963,0.41811126,-0.64951533,0.69168055,-0.066715576,0.45398998,-0.5252475,-0.5772964
random,-0.37607145,0.01628837,-0.41639692,-0.046438847,-1.9554067,1.6849039,-2.8040257,-0.41241512,-1.1125586,0.77415067,-4.792884,-1.3768804,1.9939094,-1.4109462,1.7651143,-1.7535007,0.050808616,-0.97722554,0.68131685,-1.5583642,-4.5896263,-1.4769162,0.21837045,0.59070516,5.6169972,1.7570851,-2.601399,1.8577048,-0.2314413,1.1842843,-1.9819866,-2.0511448
random,-0.31946996,-0.103242114,-0.2544869,-0.1765808,-0.8392316,0.854506,-1.0816553,-0.15819885,-0.840202,0.43313417,-2.0801837,-0.749704,0.9124917,-1.0281178,0.8906999,-1.0636872,-0.1478139,-0.30464524,0.070865035,-1.0192165,-1.9232002,-0.5787231,-0.057268266,0.4640968,2.7808008,0.5371135,-0.71608937,0.7271584,-0.2323303,0.690612,-0.7635617,-1.0559242
random,-0.18019636,0.11367352,-0.14519121,-0.12028891,-0.36810267,0.38431907,-0.5917222,-0.055172212,-0.43175837,0.30839762,-0.9208103,-0.4239438,0.5359549,-0.7459846,0.42203575,-0.4490597,-0.12947641,-0.27560878,0.032406483,-0.4859175,-0.85636204,-0.37085047,-0.016261745,0.18257087,1.2000754,0.2766303,-0.28160226,0.2734134,-0.078938335,0.2424071,-0.4402169,-0.46019617
random,-0.64045864,0.27393702,0.025611902,-0.799531,-2.2266283,1.8673778,-2.0734293,-0.06766367,-1.6736565,0.3218903,-3.4251022,-1.7662543,1.7166343,-1.8280976,1.2729801,-1.7888182,0.00049721834,-0.4276973,-0.029451624,-2.0498807,-3.6943443,-1.9704547,-0.19804636,0.84444493,4.721312,1.345537,-1.2400655,2.1759427,-0.048411716,1.0136677,-1.3354663,-1.6576221
random,-0.16804443,-0.041170344,0.027483568,-0.060020875,-0.25005946,0.31986406,-0.17839576,-0.0488,-0.21936683,0.1479861,-0.48617652,-0.152938,0.26057833,-0.28803906,0.2520249,-0.30384645,-0.011143932,-0.0083557945,0.030726891,-0.3214779,-0.47321245,-0.10327472,-0.034968846,0.12152074,0.7066782,0.15253536,-0.18157992,0.23743068,-0.15397589,0.23966976,-0.14081576,-0.2204547
random,0.23860209,-0.40626463,-0.32519707,-0.8106638,-1.4194776,1.406789,-1.9390032,0.4521967,-2.5159934,2.4778109,-4.3782268,-0.6530263,2.2470157,-2.7475405,1.5081075,-1.6911308,-1.2107515,-0.65924454,1.0013297,-1.7114606,-3.7305057,-0.59787196,-0.15403764,0.14609158,5.9243956,0.84820944,-0.7762648,1.7154641,-1.0295937,-0.16204135,-0.90472174,-2.9817793
random,-0.35082975,-0.013814255,-0.074703306,-0.09631853,-0.5094901,0.5315858,-0.5328024,0.004215698,-0.29036617,0.18850762,-0.9806024,-0.44490582,0.4955136,-0.4840775,0.3376511,-0.38128698,-0.07296766,-0.123974,-0.034689482,-0.45149827,-0.8910464,-0.18252395,0.015926661,0.10701019,1.2471216,0.24307409,-0.4254088,0.37095365,-0.17547692,0.3333916,-0.40436852,-0.37645465
random,-0.20584194,0.09699688,-0.094052196,-0.1705997,-0.902001,0.76803833,-0.9517406,-0.04146453,-0.661137,0.2280048,-1.665204,-0.6347829,0.72286177,-0.700948,0.6742359,-0.70741975,-0.020118777,-0.28934935,0.15124005,-0.7495161,-1.6205093,-0.66454756,0.021747522,0.47192574,2.2077317,0.52660036,-0.7871692,0.89560264,0.0256501,0.44107443,-0.64501905,-0.81538904
random,-0.5111711,-0.025421767,-0.24120905,-0.46876705,-1.4061782,1.4105895,-1.5294088,0.04655373,-1.3451875,0.5451233,-2.9896355,-0.9496629,1.3707384,-1.5539678,1.297247,-1.319325,-0.34790656,-0.5274761,0.07379679,-1.4663131,-2.6789038,-0.7888528,-0.12127438,0.67972994,4.0490417,0.72569484,-1.1234134,1.5423801,-0.272761,0.73389417,-1.188063,-1.567352
random,-0.24110073,0.029694922,0.05394981,-0.004596947,-0.6046069,0.60605556,-0.5504173,-0.021048566,-0.39983112,0.20283112,-0.87384295,-0.5911868,0.5013226,-0.5235909,0.37651896,-0.41611624,-0.022623375,-0.1688167,0.09620838,-0.2973644,-0.9202589,-0.32116374,-0.0005616257,0.3431651,1.210256,0.35480183,-0.35902348,0.53449976,-0.052190788,0.25476637,-0.40678868,-0.22507963
random,-0.22535937,0.11751197,0.10267567,-0.12532286,-1.986941,1.5634104,-1.9694794,0.17344245,-1.7312161,1.1893864,-3.7095964,-1.2860128,1.9454441,-1.9205711,1.2162272,-1.4687839,-0.55319285,-0.80523604,0.37363303,-1.4345415,-3.3395622,-1.051809,-0.50434506,0.4563656,5.274108,0.9747024,-0.83476585,1.8960102,0.036209475,0.43638167,-1.3099982,-1.8627893
random,-0.6406793,0.45625752,-0.13688703,-0.8398532,-1.8326337,1.6512933,-1.7635926,0.14216392,-2.1486235,1.8064553,-3.8676422,-1.3759063,2.0643845,-2.6110358,2.2256954,-1.8506954,-0.21129002,-1.4287814,0.21934518,-1.5607994,-3.2809808,-1.36413,-0.0033948915,0.49744043,5.067665,1.400616,-1.5792218,1.4076481,-0.58646834,0.6145229,-1.642337,-2.1954992
random,-0.10184303,-0.024954632,-0.012781446,-0.5410682,-1.2142072,1.3799018,-1.157597,0.19723114,-1.4767085,0.99755204,-2.7581897,-0.93906504,1.3766543,-1.6428034,1.1877575,-0.9007339,-0.64377606,-0.7644681,0.53833383,-0.6976489,-2.3833103,-0.4066368,-0.15784235,0.44012454,3.4237614,0.8081555,-1.0344436,1.3183968,-0.23749483,0.2452791,-1.0509505,-1.293573
random,-0.3208434,-0.012675509,0.06711244,-0.21434915,-0.6007465,0.70619327,-0.58573854,-0.044197805,-0.5390999,0.1708403,-1.2451354,-0.4521467,0.6059428,-0.526916,0.56835246,-0.6171183,-0.08592562,-0.18605109,-0.031851713,-0.68177915,-1.168303,-0.40550256,-0.04394144,0.10632253,1.6802007,0.3631529,-0.47713622,0.5735787,-0.13490804,0.46560186,-0.41295204,-0.56056905
random,-0.4810346,0.071980074,-0.1520725,0.16396241,-1.3769978,1.3357642,-1.8223921,-0.070364594,-0.49161667,0.6774845,-3.5369136,-0.79749703,1.4247448,-0.78146887,1.2262701,-1.2766285,-0.4846077,-0.79251224,0.55902386,-0.9598252,-3.2844777,-0.8819645,-0.16567641,0.2784644,4.6350107,1.0284833,-1.8740582,1.3616672,0.0014847354,0.8652823,-1.4895767,-1.8548386
random,0.37684515,0.11999727,-0.34073925,-0.55342835,-1.6194359,1.5545359,-1.9289091,0.3504322,-1.976317,2.0290139,-4.18298,-1.0396394,2.040124,-2.516808,1.4521375,-1.2076,-1.0935687,-1.2819347,1.0856758,-0.5623099,-3.5911927,-0.64011836,-0.10825931,0.97353536,5.055387,1.1496029,-1.4030921,1.581326,-0.33116794,-0.08229508,-1.6987576,-2.0931385
random,-0.40829313,0.076096654,0.0626427,-0.3187109,-0.7278671,0.5492534,-0.90686226,0.4953069,-0.97817373,0.8250085,-1.7448633,-0.5847567,1.1122867,-1.0466162,1.0289918,-1.3062348,-0.437507,-0.29554546,0.20447178,-1.0079352,-1.8287977,-0.78342015,-0.39693078,0.445176,2.742919,0.3598305,-0.17096312,0.8106703,-0.45896098,0.24756607,-0.75096375,-1.5737103
random,-0.5280448,-0.0006403875,-0.16834682,-0.15120071,-0.94216436,1.074247,-1.1111889,-0.09875952,-0.9126356,0.41747707,-2.3009381,-0.7223987,1.0601839,-1.149148,0.815989,-0.8299698,-0.48324576,-0.54977655,-0.0074382164,-1.119022,-1.813666,-0.586986,-0.111527026,0.23973143,3.169864,0.5095658,-0.8133323,0.78746754,-0.14298664,0.5051914,-0.8997053,-1.0561754
random,-0.27198133,0.027839685,0.07289597,-0.16484222,-0.6837734,0.804986,-0.956309,-0.3132931,-1.1660686,0.86062264,-2.2303364,-0.7978094,1.2407359,-1.2572112,1.0989497,-1.4581536,-0.1852458,-0.20982741,0.22229633,-1.0801002,-2.05105,-0.5652274,-0.3217264,0.1792736,3.1083312,0.7135566,-0.6092254,0.71466607,-0.18249393,0.7959956,-0.7056708,-1.1906086
random,-0.18853329,-0.0007841274,0.0027553707,-0.049467906,-0.36462373,0.3497236,-0.3703346,0.013922174,-0.24159215,0.15292093,-0.7470753,-0.20950703,0.3868058,-0.26576233,0.3443044,-0.3609243,-0.054661814,-0.10336966,0.04890022,-0.35970828,-0.71510226,-0.20396471,-0.046214666,0.102399155,1.039135,0.17353362,-0.32230368,0.32837334,-0.0870128,0.26797417,-0.26147932,-0.39962533
random,-0.2757602,-0.034849085,-0.043295484,-0.10262084,-0.42388967,0.42261523,-0.47174352,0.036227968,-0.22618236,0.19515014,-0.8845144,-0.2506508,0.39884898,-0.36546817,0.26735926,-0.3410276,-0.08829093,-0.11416416,-0.025076468,-0.3693594,-0.78080297,-0.19157256,-0.043191183,0.0419292,1.1227505,0.19715597,-0.35871547,0.36620712,-0.102091156,0.20465708,-0.3565213,-0.4188063
random,-0.45574325,0.010887943,-0.052363344,-0.253548,-1.1089189,1.1469107,-1.1186401,-0.0505249,-0.9233111,0.31165844,-2.314683,-0.7904654,1.0278826,-0.99955213,0.9347357,-0.9681498,-0.13613896,-0.3826063,0.06473413,-1.0659863,-2.0582178,-0.63539714,-0.008107764,0.46381125,2.8434606,0.6188871,-0.93077236,1.092245,-0.13201615,0.614956,-0.8454877,-0.9705518
random,-0.35946128,-0.09653472,0.027591575,-0.13967071,-0.42881492,0.44029388,-0.38714877,-0.09645043,-0.46032405,0.3368491,-1.0205069,-0.3580982,0.59042877,-0.5495345,0.30452585,-0.6469837,-0.0036572467,0.017800307,-0.10065128,-0.6292443,-0.8508836,-0.22379288,-0.18153149,-0.026767276,1.4250953,0.34330943,-0.24995814,0.27263886,-0.13938951,0.37366152,-0.21185158,-0.4692451
random,-0.19909331,0.005322312,0.042624254,0.016135532,-0.2652513,0.26340666,-0.22176689,-0.06742509,-0.082516015,0.014047849,-0.48605785,-0.19481686,0.21111047,-0.11432386,0.1297822,-0.22931756,-0.015067894,-0.016594376,-0.014685186,-0.27773017,-0.4324581,-0.1748278,-0.052008756,0.022599759,0.6552393,0.14354321,-0.25204465,0.20517048,-0.0076738046,0.19044226,-0.15722036,-0.20747428
random,-0.672339,-0.03234257,-0.08031986,-0.28363928,-0.9697264,1.0990064,-1.2486252,-0.19557405,-0.9654841,0.6279799,-2.322049,-1.0285332,1.1159741,-1.235462,1.052546,-1.2609903,-0.164981,-0.37045497,0.00022997898,-1.2172023,-2.1156905,-0.62006277,-0.07744496,0.13702196,2.834478,0.6137614,-0.8884321,0.747133,-0.22756456,0.9464946,-0.8449929,-0.9920152
random,0.06410343,0.24570033,-0.11504902,-0.73176086,-1.1795624,1.2085518,-1.9457465,-0.19231923,-1.6591816,0.6446756,-3.4260836,-1.2787541,1.4733604,-1.6030324,1.9669061,-1.8423903,-0.3991756,-0.67310953,0.12298881,-1.6356816,-3.6027763,-2.0340931,-0.18558328,0.6861083,4.1227036,0.9555245,-0.7637533,1.5430747,-0.17689627,0.84870344,-1.3226023,-1.9454684
random,-0.25713223,-0.045336727,0.016349953,-0.066297606,-0.53626746,0.587374,-0.54611874,-0.09354313,-0.45582268,0.05773424,-1.0803133,-0.42228234,0.48560888,-0.39522144,0.45704362,-0.5907691,0.055420846,-0.109641746,0.05667483,-0.57248133,-1.0828091,-0.35750943,0.06990754,0.32129538,1.3132092,0.36848986,-0.52127934,0.5531558,-0.07609836,0.4524764,-0.31561592,-0.37846658
random,-0.14926277,0.032255795,-0.31668872,-0.5028153,-1.3902562,1.2843397,-1.1583486,-0.08868639,-1.2125901,0.6014072,-2.570725,-0.98368496,1.1371877,-1.5897206,0.92283386,-0.9017683,-0.40215704,-0.70614177,0.27412498,-1.0310467,-2.1272454,-0.7400438,-0.016246166,0.7280435,3.4423249,0.73294914,-0.93047875,1.2348841,-0.09042067,0.60718584,-1.0376902,-1.1906252
random,-0.59288144,0.06441712,-0.07029934,-0.19382183,-1.0675685,0.91149384,-1.0849837,-0.042752687,-0.70423377,0.2852494,-1.8380876,-0.84235936,0.8718832,-0.85361546,0.71108747,-0.97806513,0.071176454,-0.29563665,-0.12933984,-0.9946939,-1.7086958,-0.69380176,-0.09978857,0.30167615,2.5433197,0.46669933,-0.74897593,0.8181506,-0.1006718,0.6830064,-0.7518016,-0.84957975
random,-0.01870051,0.019383406,-0.0034842778,-0.025208998,-0.18570088,0.22192512,-0.1967766,-0.0051305117,-0.16315031,0.1005934,-0.47092658,-0.14859572,0.19335464,-0.1754881,0.1948316,-0.16824052,-0.10431104,-0.13742508,0.08735482,-0.12435748,-0.4371036,-0.108868584,-0.019795407,0.08623163,0.5205237,0.14022,-0.17912592,0.21641092,-0.0017445113,0.06012339,-0.16229522,-0.19804268
random,-0.53658736,-0.031500895,-0.05905691,-0.18461703,-0.6290848,0.71397376,-0.76776636,-0.0734186,-0.44532165,0.07132763,-1.4196196,-0.48811516,0.6127745,-0.4947892,0.61528933,-0.7316872,0.03503522,-0.070755005,-0.11163736,-0.7475547,-1.3631878,-0.39240694,0.018970791,0.22765799,1.7828603,0.3389835,-0.61358136,0.55776954,-0.230868,0.5684703,-0.5162815,-0.6061057
random,-0.2221868,0.023488069,-0.14112559,-0.06717751,-0.50513995,0.48345456,-0.49928755,-0.06811601,-0.31867018,0.116758145,-0.9830108,-0.4344504,0.33538228,-0.4339843,0.2903104,-0.4384142,-0.10970697,-0.23192336,0.070984825,-0.44221276,-0.8473651,-0.42465094,0.016899208,0.26949576,1.3594776,0.24114554,-0.46205607,0.39167464,0.013933517,0.2853566,-0.40858293,-0.42693698
random,-0.19446424,0.027942086,-0.120634094,-0.07992269,-0.41849637,0.4668954,-0.50077134,-0.08687468,-0.27681708,0.076230355,-0.9117484,-0.45405042,0.3214715,-0.4340318,0.37193143,-0.4005758,-0.1000849,-0.22749284,0.047881693,-0.35735467,-0.8551902,-0.4265095,0.005965974,0.28552094,1.1111543,0.25902718,-0.45634413,0.36456624,0.04196857,0.26922476,-0.420664,-0.3619371
random,-0.6854461,0.00353513,-0.10957689,-0.19444688,-1.2105055,1.3610501,-1.394966,-0.22972788,-0.88648874,0.52181095,-2.5755928,-1.1092448,1.2991155,-1.2950594,0.99637246,-1.3081548,-0.09025781,-0.32120994,0.00083412614,-1.3786494,-2.4750688,-0.77956724,-0.047705915,0.34535113,3.2377996,0.8690984,-1.1799762,0.99383044,-0.26610604,0.921162,-1.0088323,-0.9607976
random,-0.42386267,-0.033911917,-0.20340896,-0.30251807,-1.3776546,1.108564,-1.0785002,0.026307335,-0.9642621,0.26743808,-2.3834207,-0.7825182,0.897685,-1.0101357,0.9328434,-0.9140054,-0.22513333,-0.55604506,0.07987258,-1.0548726,-1.9286205,-0.68979913,-0.019834677,0.8266817,3.377113,0.5037099,-1.0377445,1.2425501,-0.024891464,0.6440202,-0.94110054,-1.247003
random,-0.27849466,0.022436438,-0.025415372,-0.19320104,-0.81243145,0.8251583,-0.7122129,-0.10624221,-0.6796542,0.21583566,-1.5694726,-0.5959351,0.7456869,-0.76555437,0.6067899,-0.6711196,-0.075031705,-0.2632776,0.07334268,-0.6827861,-1.39504,-0.44802138,0.0062591713,0.3272739,2.0038397,0.4597937,-0.6773338,0.74912554,-0.070922956,0.44445777,-0.5474799,-0.601793
random,-0.3962142,0.21530823,-0.02486261,-0.9484009,-1.7995183,1.787927,-1.811701,0.33005372,-2.1336403,1.6810985,-3.501218,-1.2655971,2.1811767,-3.0972216,1.4040638,-1.5784054,-1.1719807,-0.9663357,0.07514673,-2.0423622,-2.949992,-1.0556326,-0.79941994,-0.012373826,5.0585485,1.100238,-0.40307018,1.8375556,-0.5415438,0.44246012,-1.4578093,-1.9411775
random,-0.34699774,-0.04794827,-0.12899186,-0.30602595,-0.6319905,0.7588919,-0.75711405,-0.120207295,-0.61187816,0.24684763,-1.4912053,-0.562828,0.7118294,-0.7290832,0.6581319,-0.71394026,-0.034270473,-0.23306365,-0.019289836,-0.7809308,-1.361176,-0.40524992,0.08024052,0.17800616,1.7553076,0.40554506,-0.6902864,0.5448447,-0.18732381,0.59039575,-0.52921087,-0.55640596
random,-0.26417485,-0.028338825,-0.01824452,-0.15120792,-0.5099769,0.58639437,-0.5112859,-0.10380816,-0.5502291,0.16453138,-1.2244496,-0.44438308,0.5755193,-0.56314373,0.5161352,-0.59075844,-0.069198675,-0.22233056,-0.034083653,-0.6513524,-1.0176722,-0.254063,-0.018426511,0.16468512,1.5094875,0.35341626,-0.46846867,0.4463285,-0.07392243,0.5077391,-0.40440324,-0.49219608
random,0.77045316,0.39244357,-0.35220635,-0.7854996,-2.929328,2.5829659,-2.3219535,-0.031780228,-2.296482,1.2478037,-4.549179,-1.8129115,2.4034038,-3.1038046,1.4288629,-0.9258474,-1.0547384,-1.1907511,1.1316335,-1.5164884,-3.9347663,-1.5381397,-0.20304523,1.3001783,6.763518,1.4357054,-1.4787531,2.9988925,-0.12836847,-0.16798262,-2.0090644,-1.8655136
random,-0.23698898,0.55359745,-0.6373444,-1.1547865,-2.384145,1.9721683,-2.1158144,-0.0013427018,-2.3972342,2.6369703,-4.5358253,-2.1555629,2.4273608,-4.3120856,1.698603,-1.8790852,-1.7896982,-1.4973257,0.5988495,-1.7729064,-3.310004,-2.683539,-0.83103293,1.2502413,6.655831,1.8618712,-0.92067,1.8810263,-0.13796033,0.14720175,-2.3462029,-3.1570256
random,-0.20509622,0.17098539,-0.15056565,-0.48001575,-1.5245217,1.4443346,-1.8519231,-0.019504214,-1.9384762,1.3476452,-3.5447614,-1.3803899,1.7763411,-2.3392336,1.3738421,-1.5658959,-0.77715755,-0.99964756,0.41798583,-1.3663508,-3.2192855,-1.2928199,-0.26936087,0.81425273,4.21114,1.0634414,-1.1220003,1.5852305,-0.19004658,0.6277222,-1.369243,-1.7781757
random,-0.23564787,-0.024806282,0.04954601,-0.06108979,-0.31230834,0.37401292,-0.32704455,0.044993542,-0.26010144,0.14619754,-0.69307965,-0.24179253,0.3216161,-0.25680777,0.24972327,-0.3585256,-0.09121606,-0.099788465,-0.008068461,-0.38747332,-0.63531303,-0.20712648,-0.060265407,0.046801206,0.88016087,0.19770662,-0.2353547,0.2911205,-0.08511608,0.1912645,-0.23546535,-0.3287769
random,-0.13738628,-0.13259892,-0.035745054,-0.1938583,-1.1339945,1.1393037,-1.0873187,-0.1821077,-1.4330367,0.9310201,-2.6802511,-0.8676385,1.3197529,-1.4832779,1.123905,-1.1653419,-0.25264364,-0.494096,0.41732222,-1.044086,-2.1998017,-0.41575444,-0.1067268,0.46765578,3.6378756,0.7762995,-0.82970065,1.0962802,-0.34738302,0.7862131,-0.7455983,-1.2700665
random,-0.11324148,0.14404494,-0.0073301774,0.11401396,-2.0582323,1.7081634,-1.7040253,-0.17430203,-1.6334034,1.146931,-3.9597638,-1.001945,1.7776436,-1.751781,1.0290293,-1.3251848,-0.34595403,-0.6341688,0.5987068,-1.5337806,-3.3001387,-0.71698743,-0.22702649,0.76341605,5.2895956,1.3462937,-1.5350497,1.9128687,-0.0048873276,0.56141883,-1.1463928,-1.8937421
random,-0.099551894,0.09981128,0.13071258,-0.32858744,-0.84452873,1.1032658,-0.9986353,-0.17852555,-0.82064533,0.24275182,-1.9146509,-0.8054886,0.79920876,-0.64944774,0.8999691,-1.0425779,0.01772876,-0.43459603,0.30485117,-0.83301944,-2.168286,-0.88042563,0.1669289,0.44980767,2.1594894,0.83181185,-1.0972703,0.9813844,-0.022475868,0.746947,-0.73830867,-0.6896334
random,-0.4742363,-0.007849182,-0.011744688,-0.05533771,-0.6661091,0.6912296,-0.67149323,-0.077035144,-0.40231112,0.22703534,-1.3204752,-0.5169979,0.6189712,-0.5438999,0.46520767,-0.64991134,-0.04286084,-0.14270501,-0.05045917,-0.6683637,-1.2199414,-0.31451482,-0.08135323,0.16091418,1.7084883,0.34461874,-0.5525154,0.5376909,-0.122175515,0.52864194,-0.47562912,-0.5691444
random,-0.28129712,-0.09923726,-0.36875704,-0.55383927,-1.8953557,1.7306632,-1.7191468,-0.3021519,-2.426558,1.5395038,-3.9753127,-1.4823519,2.0616815,-2.9711273,1.3566154,-1.802589,-0.4346979,-0.8572856,0.37614492,-1.9153676,-3.0872955,-0.6773697,-0.22513923,0.69784236,5.0927114,1.2077128,-1.2683458,1.6511986,-0.39881238,0.9079045,-1.2698196,-1.7725775
random,-0.96811146,-0.15766828,-0.46406448,-0.048180815,-1.5685598,0.8990836,-1.3667741,-0.15717499,-0.8514308,0.4108079,-3.0721579,-0.8834039,1.410863,-1.2252389,0.22805348,-1.2056195,-0.033223074,0.20580368,-0.4044634,-1.5514774,-2.089186,-0.5886517,-0.5860359,0.2391974,4.6169596,0.6330746,-0.6631464,0.9177313,-0.15196237,0.51408535,-0.7444193,-1.6082939
random,-0.25984988,0.0065897224,0.03192403,-0.09305504,-0.29254788,0.3659828,-0.31098944,-0.018471316,-0.18428782,0.059066407,-0.6138943,-0.21150266,0.3136101,-0.21240847,0.2980371,-0.3502751,-0.0008023357,-0.022173619,-0.03469289,-0.3441691,-0.6113932,-0.2204994,-0.037649542,0.010210005,0.77584165,0.11784529,-0.24917474,0.28681785,-0.09169175,0.25252473,-0.20035294,-0.21119991
random,0.2805025,-0.11008037,-0.5798776,-0.014156666,-2.2851686,1.4461882,-2.2233875,0.3326516,-1.6846848,1.3501161,-4.887979,-0.97660387,1.8473403,-1.5613718,1.0961593,-1.072053,-0.98957366,-1.3865,0.97215414,-1.169544,-4.0680904,-0.8496031,-0.3741726,0.68725854,6.664341,1.2214359,-1.7743984,2.3743572,0.29057953,0.12814824,-1.7691177,-3.0192366
random,-0.29115477,0.019432472,-0.08775059,-0.563486,-1.2141216,1.0404611,-1.2086557,-0.006563118,-1.2400403,0.22982307,-2.4154592,-1.0401276,0.961228,-1.1983967,1.3936545,-1.4096597,-0.34291217,-0.43409508,-0.025302622,-1.5376709,-2.2753108,-1.3169886,-0.309836,0.6237314,3.470616,0.5932683,-0.72710514,1.3592284,-0.17203061,0.84094775,-1.0150566,-1.64969
random,-0.11990106,0.10574574,-0.078541785,-0.1261766,-0.7409209,0.74154323,-0.8464763,-0.033061262,-0.6915025,0.4550487,-1.5725871,-0.7344988,0.711226,-0.885543,0.62487274,-0.5377974,-0.28953722,-0.538071,0.19202356,-0.4147795,-1.4191426,-0.42466524,-0.046003714,0.3183336,1.9390124,0.49993294,-0.66883075,0.6806164,-0.0024872778,0.33962747,-0.7041305,-0.6746316
random,-0.35520542,-0.0030515813,-0.046824507,-0.17273815,-0.5038924,0.61096555,-0.4966621,-0.060658135,-0.3115459,0.08385906,-1.0021956,-0.4447053,0.48154807,-0.4413602,0.4289716,-0.5190958,-0.039133523,-0.119895495,-0.058510322,-0.5461399,-0.9395507,-0.3797071,0.01322018,0.1478815,1.2707821,0.2484967,-0.48090696,0.40223685,-0.16856861,0.35285872,-0.42456737,-0.36936167
random,-0.34837884,0.039653584,0.0022072974,0.11539657,-1.1973026,0.8952649,-1.3780442,0.16753232,-0.4532886,0.60878867,-2.3705974,-1.3033762,1.015657,-0.5241253,0.49334744,-1.1275883,-0.28895882,-0.4965771,0.5257214,-0.46297684,-2.486279,-0.75483423,-0.13438618,0.45677298,3.0085187,0.87167907,-1.1423784,0.7600429,0.06543104,0.5567161,-1.0408142,-1.2274234
random,-0.3448875,-0.039142493,-0.10229545,-0.23701197,-0.823962,0.9099155,-0.9210737,0.00791182,-0.75067353,0.5037888,-1.846471,-0.789027,0.8593128,-0.92270523,0.8271065,-0.85600877,-0.20547627,-0.44117945,0.06789291,-0.5621104,-1.6456269,-0.55948895,-0.0109520145,0.38248625,2.2994888,0.45400667,-0.637799,0.7026134,-0.18234651,0.38998678,-0.81890213,-0.7489002
random,-0.3116892,-0.10778554,-0.026207902,-0.37971303,-2.435299,2.2052815,-1.9602726,-0.33814135,-1.752389,1.0296973,-4.6646085,-1.3871763,2.0258167,-2.2936382,1.3831384,-1.6756067,-0.60281146,-0.60190743,0.6288466,-2.1600518,-3.8508615,-1.6004264,-0.3544706,0.94141287,6.2004957,1.3511864,-1.6480285,2.494247,-0.14718299,0.73330545,-1.3522601,-1.9916399
random,-0.22578108,0.024627132,0.027168628,-0.114992246,-0.21325575,0.29680985,-0.25337893,-0.06308852,-0.25173342,0.10203522,-0.5128871,-0.22238216,0.22235927,-0.28511614,0.30207136,-0.36621013,0.00053021446,-0.005997868,-0.02192968,-0.37085277,-0.5251326,-0.19779597,-0.048767753,0.07196479,0.6538382,0.15704314,-0.22710092,0.2037778,-0.052033495,0.27690464,-0.1468082,-0.25423625
random,-0.13602698,-0.0009359006,0.0070983563,-0.075530306,-0.2864681,0.33749536,-0.29572344,-0.0782628,-0.19072369,0.00900641,-0.5961997,-0.22796418,0.23311634,-0.21581195,0.25882682,-0.2770184,-0.03755219,-0.09655145,-0.015142651,-0.30627272,-0.54335314,-0.1828399,-0.014458878,0.105398364,0.7671562,0.16415738,-0.30659777,0.27177927,-0.035749763,0.2580294,-0.22933741,-0.23822406
random,-0.26802662,-0.0002095603,-0.03814649,-0.08358447,-0.36718073,0.4076491,-0.43384778,-0.05404541,-0.27867454,0.03094377,-0.7803009,-0.3340245,0.33915594,-0.32006568,0.33916602,-0.40319812,-0.017585611,-0.13521926,-0.081977494,-0.42875537,-0.727129,-0.25399953,0.02587921,0.12926921,0.93548423,0.20954001,-0.39394954,0.3219315,-0.083836436,0.33615732,-0.31695232,-0.30927637
random,-0.20022489,0.050587237,-0.024893686,-0.16378976,-0.34451246,0.4674146,-0.53926104,0.04673273,-0.2973627,0.17378461,-0.7902472,-0.39533243,0.40769756,-0.4134492,0.4627076,-0.36761245,-0.06048369,-0.24386804,0.024093833,-0.26259515,-0.8734218,-0.2926927,0.06880108,0.13618055,0.9140129,0.1972885,-0.39521506,0.35313225,-0.13652618,0.21537003,-0.4445444,-0.28176823
random,-0.40795967,-0.071110934,-0.2930568,-0.4066799,-1.4024268,1.4121794,-1.4615619,0.17450994,-1.1943268,0.7126461,-3.0001743,-1.0277814,1.3865253,-1.4955316,0.9891371,-1.0323288,-0.48474786,-0.566492,0.3681745,-1.0754024,-2.7433467,-0.69661456,0.03228457,0.74068373,3.7632124,0.76775354,-1.1797649,1.394405,-0.2775968,0.46005294,-1.1584226,-1.4295282
random,-0.952207,0.0106400605,-0.45352247,-0.52632093,-1.9877843,1.8490567,-1.9739648,-0.52358294,-1.1746985,0.9610213,-4.1541643,-1.7322168,1.9800702,-2.498372,1.1414022,-2.1531887,-0.3705773,-0.0014579307,-0.13025463,-2.2712712,-3.6434138,-1.7494146,-0.6109212,0.4915074,5.8555555,0.9349085,-0.81256855,1.6061286,-0.6214127,1.2883061,-1.4745224,-1.8746033
random,-0.5829679,-0.026732838,-0.065872975,-0.15818368,-0.87668186,0.9024712,-0.9150174,-0.06624533,-0.66524225,0.26833248,-1.9052353,-0.6750943,0.8767932,-0.7873514,0.6875873,-0.8817463,-0.10292349,-0.18920656,0.016827825,-0.8733735,-1.6717423,-0.4671261,-0.08448934,0.302493,2.4678185,0.49904412,-0.7990945,0.7867158,-0.20442566,0.57652426,-0.6829991,-0.8532683
random,0.15264788,0.6228709,-0.37079713,-0.8374493,-2.0315578,1.8193293,-2.1754262,-0.42769733,-2.026377,0.76568127,-3.715744,-1.7330186,1.8398608,-2.8419757,1.6524591,-1.9533277,-0.23716831,-0.7308983,0.26861775,-2.07623,-3.5779946,-2.0881221,-0.3867497,1.2360017,5.3644567,1.1579841,-1.0344065,2.1791403,0.08805463,0.79303443,-1.673548,-1.697666
random,-0.5008188,0.024715677,0.048690606,-0.24915864,-1.2333575,1.3533763,-1.3726168,0.006132673,-0.9560538,0.56045353,-2.7040105,-0.9203298,1.2722464,-0.97021073,1.2405046,-1.1565831,-0.100312166,-0.4891644,0.4209198,-0.9657608,-2.6988907,-0.78622055,0.070677474,0.47307312,3.4042945,0.7911305,-1.2382741,1.3504171,-0.23405746,0.70863795,-0.97792494,-1.1980603
random,-0.33012456,-0.009260309,-0.030930357,-0.11393489,-0.5830184,0.57608914,-0.7096975,-0.06922684,-0.5170426,0.11914082,-1.0692486,-0.6192495,0.50760424,-0.51771635,0.41502458,-0.6338231,0.017166307,-0.1752957,-0.031690344,-0.5126142,-1.1641382,-0.48025116,0.026497534,0.33300582,1.3800533,0.34537494,-0.44809893,0.52024657,-0.006558293,0.40356877,-0.46240664,-0.4043932
random,-0.62155694,-0.15012252,-0.3770517,-0.23226696,-1.0275803,0.8653661,-1.0209111,-0.23145118,-0.7461321,0.2648011,-2.3049047,-0.8519854,0.9803481,-1.0624123,0.6975333,-1.1620022,-0.26163507,-0.15241899,-0.18657106,-1.3532175,-1.8056376,-0.78742325,-0.2694008,0.30388525,3.2089045,0.36018813,-0.574736,0.7640063,-0.20559178,0.806839,-0.77277017,-1.2530403
random,-0.41375068,0.1111443,-0.10069765,-0.09745049,-1.0369415,0.80170816,-1.1088504,0.07268918,-0.90040326,0.59856576,-2.0603306,-0.6429915,1.1927923,-1.0567414,0.871703,-1.0216893,-0.1374964,-0.44752294,0.05481333,-0.97595173,-1.8148503,-0.5236182,-0.1818673,0.23573609,2.9443834,0.4792666,-0.6888763,0.8567145,-0.15125036,0.5344045,-0.8250433,-1.1624606
random,-0.5757823,-0.012412176,-0.098536715,-0.29392707,-0.94570607,1.0599061,-0.8946303,0.017847111,-0.88214356,0.37695384,-1.930461,-0.65441364,0.954175,-0.9786092,0.99229723,-0.8061445,-0.13370435,-0.47450963,0.0019223359,-0.92441505,-1.6850021,-0.3729347,0.021828044,0.36374387,2.5913467,0.47335988,-0.8503119,0.869954,-0.30525577,0.6316523,-0.8023362,-0.95597243
random,-0.25592732,-0.043476358,-0.16666526,-0.6542986,-1.1776593,1.140049,-1.2717639,0.1492298,-1.1519291,0.56721807,-2.6056721,-0.59756374,1.1738559,-1.2572935,1.073667,-0.85699683,-0.36093688,-0.55140644,0.123475395,-0.95846665,-2.218875,-0.58543134,-0.17588396,0.23486523,3.4493208,0.51511604,-0.8228479,1.2656212,-0.13394529,0.46721122,-1.0042796,-1.3308765
random,-0.53866845,-0.026650727,-0.061210543,-0.20411626,-0.77901584,0.8991246,-0.87582725,-0.07668493,-0.64762765,0.29628792,-1.7299919,-0.6464337,0.8441671,-0.76108044,0.7299225,-0.8644437,-0.08123999,-0.22092392,-0.021617193,-0.8687656,-1.6483794,-0.39811656,-0.010265894,0.2362418,2.2051806,0.41955087,-0.7115941,0.6889653,-0.20912237,0.64301294,-0.6503609,-0.73740226
random,-0.53263503,-0.05932313,-0.04592177,-0.37593913,-1.5293581,1.5106539,-1.5485954,0.12241982,-0.8896523,0.33733186,-2.8224702,-1.1737772,1.1244638,-1.0461969,1.0516858,-1.075788,-0.2545027,-0.58762944,0.08019369,-1.0889993,-2.6835063,-1.0279868,-0.05460891,0.6016896,3.5797331,0.8259713,-1.2681919,1.4179242,-0.19000725,0.68295896,-1.1642609,-1.2262099
random,0.883199,0.47477907,-0.302953,-0.58065563,-4.6517773,1.8154848,-2.4940994,1.0785006,-2.6223547,2.2638965,-4.838922,-1.5809852,2.1512012,-3.7013328,0.7170306,-0.97130764,-1.2661754,-1.6528499,1.1867378,-0.97663575,-3.7323725,-2.5557034,-1.3995924,1.9717805,9.19048,1.3360832,-0.9056457,5.2322683,0.6218477,-1.3707987,-2.2245383,-3.518848
random,-0.10766914,0.043033868,-0.0074199485,-0.12585917,-0.32533532,0.3586211,-0.3468802,0.01621109,-0.22476862,-0.0031470056,-0.5895142,-0.24321641,0.27843755,-0.18398483,0.3438772,-0.2735023,-0.003529016,-0.12381126,0.038655583,-0.23423614,-0.6528554,-0.26682904,0.0458745,0.19100508,0.7352899,0.18569613,-0.3060903,0.3766871,0.00080536236,0.16846862,-0.26316953,-0.24263598
random,-0.2373349,-0.08022867,0.12937352,-0.4086595,-1.3120847,1.1322452,-1.1483152,0.36959344,-1.1940633,0.9840632,-2.619129,-0.61825407,1.0742191,-1.272821,0.93945175,-0.9721374,-0.6215151,-0.48057237,0.44174096,-0.83452135,-2.37586,-0.44946668,-0.3625774,0.51237583,3.6615827,0.7035888,-0.8557306,1.4133967,-0.27707988,0.36700934,-0.9056757,-1.5971822
random,-0.12033037,0.030697156,0.027132047,-0.045605395,-0.2797274,0.23468092,-0.40285045,-0.009630557,-0.23786554,0.2099582,-0.71096444,-0.2396042,0.3021231,-0.26900375,0.27101797,-0.3784326,-0.04738346,-0.09059171,0.044912804,-0.27974674,-0.68418956,-0.23260042,-0.0977439,0.018450433,0.91721106,0.20230465,-0.25977904,0.28303105,-0.021381663,0.17374489,-0.26482767,-0.35329986
random,0.35144424,0.05350327,-0.41572246,-0.50812995,-2.1147285,1.4386154,-1.6152015,0.13862307,-2.0710955,0.9484129,-3.385979,-1.3005421,1.5251334,-2.3621254,1.3561677,-1.2141995,-0.5486082,-0.90909904,0.4473123,-1.13756,-2.7779617,-1.0509584,-0.3222645,1.4357021,5.0396686,0.84472084,-0.862,2.2402866,0.09378377,0.32874882,-1.4648538,-1.8525558
random,-0.19230191,-0.030047847,-0.011531428,-0.07830453,-0.2353589,0.28882354,-0.25132245,-0.03916138,-0.20734668,0.07046086,-0.60884607,-0.20611636,0.25388208,-0.23865367,0.26370212,-0.2727464,-0.041668005,-0.10277401,-0.053992435,-0.31471342,-0.45237336,-0.11314931,-0.019694993,0.039780136,0.7871114,0.10367245,-0.21758072,0.20822467,-0.113423966,0.23308942,-0.19324207,-0.2732329
random,-0.4620306,-0.055114362,-0.042465523,-0.3105105,-1.3481364,1.312413,-1.2882913,-0.026564816,-0.917888,0.35025254,-2.6019368,-1.051144,1.0883012,-1.0971224,0.91066045,-1.0755588,-0.23915714,-0.40613478,0.1436266,-1.085059,-2.3998888,-0.7943863,-0.13711827,0.5283898,3.313723,0.7039461,-1.0425668,1.288405,-0.20326933,0.69210064,-1.0249106,-1.1499126
random,-0.28040925,0.00045019155,-0.08079014,-0.29167956,-1.1294316,0.94878477,-0.8835514,0.15093364,-0.7473933,0.28855276,-1.5184239,-0.87184197,0.77249974,-1.015635,0.6223132,-0.66290855,-0.23292817,-0.32644394,0.03752318,-0.63474417,-1.4378406,-0.5127526,-0.15385698,0.53298604,2.3529704,0.3833446,-0.555654,1.0661854,-0.12746434,0.2992869,-0.83758837,-0.7717472
random,-0.083132796,0.053339496,-0.20357502,-0.07683619,-1.1741254,0.8209108,-1.2446519,-0.062414102,-0.926851,0.7124576,-2.3731146,-0.8501383,1.035959,-1.0966122,0.9409053,-0.773374,-0.25368136,-0.63564575,0.32857978,-0.5353318,-1.9494482,-0.6345941,-0.042408116,0.46306524,3.2700453,0.681418,-0.9308496,1.0490677,-0.0739759,0.3449272,-1.009608,-1.2460648
random,1.087714,-0.72286904,-0.6582523,-1.1952674,-3.756097,2.615319,-2.0691116,0.8149583,-2.5272887,2.0685496,-5.5708365,-1.8467245,1.6650114,-3.8723032,0.91991,-0.5946057,-2.275851,-1.9148432,1.4550384,-0.72427666,-3.2950568,-1.1860851,-0.49972743,2.2702904,7.710311,1.1011754,-1.4872996,3.6963143,-0.24867521,-0.9587956,-2.0936487,-3.036619
random,-0.24712008,-0.003862904,-0.10501856,-0.055123296,-0.30033213,0.30201447,-0.37499636,-0.04756857,-0.22494878,0.15096985,-0.6831385,-0.2833243,0.33056414,-0.36903158,0.2435216,-0.28558192,-0.060103353,-0.06757473,-0.063032985,-0.35203195,-0.5699388,-0.18348508,-0.05717258,0.012426636,0.9268937,0.12350235,-0.21226117,0.23988108,-0.06446793,0.21280536,-0.25537536,-0.3218271
random,-0.28354615,0.05851202,0.105373465,-0.057339557,-0.3953663,0.4793424,-0.3544617,-0.029813206,-0.23083045,0.09848449,-0.6973582,-0.36817786,0.3408293,-0.24993216,0.30861887,-0.42625335,0.04736553,-0.034048125,0.03364167,-0.29986134,-0.75052047,-0.29206738,-0.062057767,0.1874654,0.9199425,0.28513137,-0.32784176,0.35464287,-0.06405036,0.25145867,-0.254197,-0.23404643
random,-0.33135888,0.003161076,-0.042322386,-0.13341847,-0.7965867,0.77223307,-0.81774956,-0.071843356,-0.59024006,0.29547742,-1.6234921,-0.57483494,0.7463355,-0.685361,0.59753454,-0.74808115,-0.10057929,-0.23212567,0.033607636,-0.7057018,-1.4720079,-0.47954458,-0.08872066,0.28819886,2.1343856,0.44192526,-0.6740232,0.7254865,-0.11832792,0.5236984,-0.5978121,-0.7485863
random,-0.65873057,-0.076796,-0.112576045,-0.25029224,-1.0854459,1.1676837,-1.2324162,-0.017555818,-0.6951343,0.49830106,-2.4643803,-0.9214097,1.1067177,-0.8767797,0.8739874,-1.1068215,-0.14412704,-0.38971588,0.09852986,-0.9779648,-2.3176734,-0.7639632,-0.023995208,0.26359844,2.9772477,0.64323366,-1.0849421,0.93757665,-0.27475598,0.74549127,-0.9548923,-1.0565795
random,-0.19904853,0.009334581,-0.032855246,-0.058663473,-0.2790033,0.375925,-0.3424017,-0.071001835,-0.22783022,0.09994695,-0.71167547,-0.24154776,0.31962463,-0.3106874,0.2863069,-0.35393488,-0.08318122,-0.120664634,0.0066661662,-0.36979273,-0.64785457,-0.22346559,-0.013152617,0.14313368,0.83891314,0.16636364,-0.32428375,0.26142234,-0.10137964,0.22408138,-0.2469554,-0.30574557
random,-0.7109766,0.088423155,-0.10189127,-0.42800838,-1.3314348,1.3825314,-1.5153815,-0.11263881,-0.92620057,0.21658047,-2.5088472,-1.2276418,1.1992956,-1.1074878,1.0897739,-1.4357853,0.12281742,-0.4451452,-0.13053207,-1.481839,-2.6396034,-1.256226,0.11769596,0.52089393,3.0672975,0.770007,-1.1807129,1.118644,-0.20347185,1.0495739,-0.9987273,-1.0245873
random,-0.2745637,-0.09655326,-0.17533016,-0.22832705,-2.1646194,1.6234586,-1.6282924,-0.08941333,-1.5400748,0.7460946,-3.6285958,-1.2877856,1.4926523,-1.8156972,1.0209404,-1.205132,-0.47614443,-0.5947214,0.5933351,-1.1310887,-2.9500296,-1.0938014,-0.26342013,1.308497,5.127363,0.9235013,-1.3026893,2.1256268,0.043932382,0.40684205,-1.2942519,-1.6292753
random,-0.39203805,0.035222746,0.027484529,-0.29702568,-0.8072144,1.172562,-0.9239393,-0.08097411,-0.8250758,0.35065955,-1.9222813,-0.6950712,1.0284895,-0.9804385,1.090249,-0.82850754,-0.17743877,-0.49929875,0.1292202,-0.8515806,-1.7970004,-0.47366852,0.063104235,0.24660373,2.2672963,0.51727694,-0.8783141,0.8541988,-0.2826871,0.5782968,-0.84862053,-0.68012273
random,-0.47452635,-0.0067181946,-0.026330652,-0.16027099,-0.64001983,0.7627693,-0.76655775,0.03527623,-0.41311768,0.15612984,-1.3245653,-0.5689199,0.64479405,-0.5701265,0.60938275,-0.71508056,-0.07044218,-0.1862422,-0.03501203,-0.68893206,-1.3713715,-0.4637187,-0.01738863,0.284093,1.6919534,0.36487064,-0.5785046,0.59253705,-0.18098864,0.48868203,-0.57083607,-0.58406484
random,-0.6917938,-0.05186441,0.07568865,-0.24624349,-0.87456274,0.89933234,-0.7317131,-0.00876388,-0.60699606,0.087977156,-1.5666814,-0.7003824,0.7033211,-0.6163238,0.77509487,-0.9364718,-0.057479892,-0.14523163,-0.11958551,-0.9363286,-1.422269,-0.5607205,-0.09761284,0.36703566,2.2292252,0.3298044,-0.6428037,0.736563,-0.25900498,0.731593,-0.5910652,-0.75724864
random,-0.42909384,-0.43358833,-0.89007413,-0.6968145,-2.3687968,2.0377152,-2.2245204,-0.04884939,-1.3311158,0.911836,-4.886545,-1.3207806,1.5666804,-2.0995176,1.0529122,-1.228072,-0.72469914,-0.78830147,0.23702763,-1.7704772,-3.601338,-1.3201954,-0.06700609,0.89379877,6.329562,0.8383597,-1.6645154,2.0195706,-0.4264272,0.48219353,-1.7564366,-2.2399862
economics,-2.7866535,-0.13688637,-1.3813872,-0.22810337,-2.3437018,0.31297585,-1.3419273,-1.5563773,-3.488005,-0.3736832,-3.8070266,-1.6103054,2.0668347,-3.2542665,2.0227733,-5.110959,0.8436218,1.1904981,-2.7695093,-3.8586996,-2.2652736,0.3221054,-2.0203161,1.946775,8.888305,-1.5452012,1.9758509,0.7427116,-0.29323104,2.8009956,-0.14529863,-3.785985
economics,-2.2959461,-1.2470704,-1.9438528,-0.043801133,-2.5345604,0.3154951,-2.0588193,-1.576482,-2.412882,-0.41653246,-4.5675945,-1.4137838,1.7896914,-2.182456,0.55695415,-4.303138,1.4619645,1.6213048,-2.6038811,-4.852772,-2.2804024,-1.5064934,-1.4260148,1.2218398,8.137358,-0.023300547,0.37114084,0.24231845,-0.35332483,3.076597,-0.11758271,-2.9281938
economics,-3.631268,-1.1824269,-1.3521749,0.7452806,-1.0970675,1.045893,-0.7872971,-1.2328051,-2.3488584,1.0773758,-4.8919635,-1.3820609,1.3785386,-3.449128,2.4407399,-3.6117105,-1.5157535,0.340343,-2.2027106,-4.627469,-1.1671622,1.8981929,-1.3024832,2.0663004,7.4705215,-1.0138085,-0.57941806,-0.08391721,-2.4985528,2.6029305,-1.6457053,-4.2033596
economics,-1.123635,0.06094048,-0.8276707,-1.1220875,-1.4838434,1.0308841,-1.1010934,-0.6516815,-3.7226753,1.1366645,-2.9611652,-1.548196,2.2660472,-3.6799579,2.918999,-3.1866956,0.015289208,-0.16511358,-1.2897899,-3.6518698,-1.7245661,-0.14678475,-1.0700854,-0.08060566,6.7701974,-0.34869754,1.0041107,0.9392416,-0.78677183,2.5010595,-1.1332968,-2.6442082
economics,-2.953085,-0.54519284,-0.8177506,1.286265,-0.29392403,1.0513637,-2.2591746,-2.0085342,-1.9501464,2.2744043,-6.8837714,-0.6317556,2.7770848,-4.568656,0.7667334,-1.6787045,-2.8389199,-0.8843148,-1.7661365,-4.5943294,-1.9726791,2.688677,-2.0762792,0.11126895,7.2289786,1.0526258,-1.0396338,-1.181377,-2.2483487,2.9130988,-1.434599,-3.8571992
economics,-2.2935019,0.44647607,0.43675622,0.9857291,-0.8748446,1.1875255,-2.0721445,-2.8570895,-4.2303615,4.045,-6.649227,-2.0843792,2.318981,-5.50953,0.26337123,-2.3897932,-2.1017985,-1.1235205,-1.403743,-4.0409536,-2.6339338,2.3622003,-1.7993107,-2.0877883,5.8009663,1.7556516,-2.4215708,-0.8807312,-0.6535503,0.90933573,-2.234099,-3.582187
economics,-0.91634804,0.410373,-0.38699716,-1.4759566,0.85450083,-0.25447932,-1.0230564,0.34533945,-2.2511,2.2771556,-3.6920402,-0.81010747,4.0515647,-2.2862158,3.751953,-4.441986,-1.3114275,-0.61438924,0.55952185,-4.9225893,-3.4438028,-2.3965325,-1.2737494,-1.1382688,7.953325,0.4096191,1.8805786,-0.6271811,-2.37433,2.6605113,-0.8254017,-4.436295
economics,-2.1667986,-1.0256878,-1.3662353,1.5896122,-0.060664196,-0.025991924,-2.1891448,-1.5677294,-2.4235222,1.5517454,-7.109186,-0.21827586,2.409675,-3.3678598,2.7055862,-3.3686159,-2.228127,-0.267232,-1.8964067,-3.845799,-2.4857814,3.5746815,-1.1820226,1.2044865,8.19442,-1.0573112,-0.7592609,-0.8718077,-3.2668202,2.0666351,-1.9408958,-5.3158073
economics,-1.2920179,-0.9045863,-1.167001,-0.30853593,-1.6087143,2.2587883,-2.1973097,-0.87290984,-3.908337,3.057421,-5.348413,-2.930326,2.314066,-4.9492936,2.6962967,-1.75886,-0.86465925,-1.6925917,-0.19926806,-1.1217242,-3.6323607,0.32297584,-0.18470736,1.2186712,5.9582806,2.0607328,-2.629758,1.7487011,-0.2542383,0.9877995,-2.3143377,-1.386907
economics,-2.9486227,-2.6472385,-1.921155,-0.46032408,-0.4358408,1.9115437,-1.8125495,-1.2353201,-4.443587,6.544742,-7.7659645,-0.8396874,1.4289099,-6.30085,-1.1834688,-2.1725702,-1.7072148,-1.8422574,-2.9354262,-1.977462,-3.5150328,0.26964068,-2.292512,-3.2232528,6.6341224,4.0772786,-4.2288084,-0.5582214,1.4853117,0.0036077576,-0.7521032,-1.6074492
economics,-1.820949,-0.64901054,-0.33185786,0.10297851,-1.037727,1.6836195,-2.0966315,-1.4400791,-3.6308944,3.8114927,-5.592943,-2.5494466,2.42892,-4.5838504,0.71913975,-1.8118358,-0.33949468,-1.4472804,-0.46803913,-1.8157109,-3.2039645,0.18729049,-0.036122292,-1.7798183,5.4328213,2.4429517,-2.6562042,0.20296459,0.015078036,0.38159528,-0.93123764,-1.0672914
economics,-1.7983229,-1.3374068,-1.1358031,0.53129405,-1.9834794,2.0954626,-2.1348364,-0.42881235,-3.929009,3.651597,-6.061124,-2.5796525,1.8435756,-5.0620627,1.7692845,-1.02741,-1.9456078,-2.3355305,-0.29676664,-0.76381874,-2.683699,1.400572,-0.04980282,1.4090816,6.798327,1.6574457,-3.3919754,2.0189395,0.047946014,0.37789103,-2.4416807,-2.0955112
economics,-1.0190307,0.24300417,-0.36471847,-0.3163346,-1.7207122,1.0393873,-1.5188771,-0.68058187,-2.620103,0.3587143,-3.2955096,-1.8134189,1.6369483,-2.4688451,1.9072587,-2.4605105,0.05161687,-0.4410666,-0.84181076,-2.425465,-2.2618117,-0.9605165,-0.8999109,1.2987645,5.511389,0.7438864,-0.40012985,0.986029,0.19014794,2.0520399,-1.2165662,-1.851119
economics,-1.2039295,-0.24426736,-0.55345047,0.13944584,-1.442448,2.045207,-2.3614917,-0.8067015,-2.6593964,2.8562274,-5.036955,-2.2484648,2.64607,-3.790132,1.636229,-1.462886,-0.48538214,-1.5109035,0.11154248,-1.0385588,-3.7977993,-0.09205639,0.22743025,-0.11617683,4.9855824,1.987573,-2.5766306,1.0493932,-0.15239589,0.6570471,-1.7672045,-0.9969914
economics,1.3941767,1.4529076,0.8824831,-1.523607,-0.46758345,0.08455094,-0.87439895,-0.38042587,-1.0579712,0.06595406,-5.966524,-0.15805314,4.008115,0.005546281,2.9609084,-5.324426,-0.8145117,2.940048,1.1470417,-5.397707,-4.225963,-6.579543,-3.4255702,-0.6678084,9.854248,-0.2338815,4.2744846,1.4091878,-4.2633705,0.302917,-0.23844215,-4.2460756
economics,-1.2134042,-0.2681603,-1.5364116,-0.1510145,-1.3076327,1.2620862,-2.5188737,-1.078109,-2.2824764,2.8820164,-5.1353254,-0.22462803,2.8496268,-3.7703407,0.66153437,-1.1756202,-1.13137,-0.4610578,-0.44230914,-2.5872006,-3.2401938,2.2801366,0.021729844,-0.76048505,7.18096,0.3917616,-0.67979217,-0.16570294,-2.0718036,1.7689459,-1.148809,-2.8752158
economics,-2.5622354,-0.73852044,-2.1738293,0.45041746,-0.19952482,1.8279893,-1.5980978,-0.8497086,-3.0898192,3.1484618,-5.1341176,0.6898516,2.8753166,-5.227141,1.9424173,-1.0787938,-3.451317,-3.0428557,0.66774523,-2.643512,-2.8831449,4.278815,0.62088567,0.2078671,8.484702,-1.9256675,-0.23312867,0.57891864,-3.4833345,1.3293928,-2.6969268,-4.96744
economics,-2.2432492,0.3246012,0.3026145,0.6373446,-0.8413359,1.3371009,-2.0586147,-2.6585758,-3.9624686,4.164722,-6.5795884,-2.0384789,2.3647695,-5.5574946,0.16937293,-2.3169184,-2.2475524,-1.0400668,-1.3547271,-4.035452,-2.7411764,2.2903626,-1.6661608,-2.1739044,5.725563,1.6994705,-2.5968244,-0.9153628,-0.77150095,0.77433723,-2.112381,-3.4403002
economics,1.1156899,0.45313853,-2.3135722,0.47337365,-2.2727046,-1.1360592,-3.9899402,-0.102315955,0.042632744,2.8814144,-7.619336,1.3452139,3.286668,-1.1790849,0.29025322,-1.853074,1.2597269,0.27537543,-0.55883455,-1.4591247,-4.6733847,-1.7076008,-0.51198876,-2.4261432,9.01724,1.7646072,-1.9492059,1.1775535,-0.056554303,-0.91482925,-0.9589103,-3.4698615
economics,0.41520542,0.82803935,-1.6437782,0.35971606,-2.0814633,-0.27527723,-3.5169194,-1.3644309,-1.0290653,2.7155018,-6.5678315,-0.11377885,3.0948646,-2.183406,-0.06720653,-1.9839884,0.5316057,-0.2991096,-0.86039096,-1.9861233,-4.449262,-0.92141336,-0.67435753,-2.4687996,7.589506,1.7204901,-2.657209,0.9810131,0.7610147,0.39581564,-1.1647298,-3.1413972
economics,-0.92473555,1.661664,0.95380235,0.4013611,-0.54829884,2.0261145,-1.2187892,-0.9744577,-2.2831316,3.1462595,-4.2109823,-2.9543238,4.522784,-5.912424,1.4543593,-2.9132526,-3.7505033,-2.4434338,0.5523011,-3.522566,-1.8090795,1.0006771,-3.2760086,-1.992481,6.3183374,2.4646542,-1.3942392,0.18782423,-0.4271898,3.393756,-2.6340895,-3.0152743
economics,-2.0796642,-0.53554606,-0.34307232,-1.0281254,-4.468202,2.5077357,-1.661838,1.3919123,-5.1715956,1.6623969,-4.983495,-0.9826038,0.9681426,-5.7120814,2.4198432,-0.6264947,-3.260138,-1.9307973,-1.0562612,-2.339217,-1.2689033,3.3677585,-1.3239495,4.470658,6.827916,-2.3270874,-0.17063315,4.571937,-1.1166415,0.31353638,-2.3380833,-3.6568716
economics,-1.9222512,-0.8532034,-1.5943961,-0.3233599,0.03508684,0.38889864,-1.9584805,-0.86078644,-2.1424356,1.066359,-4.4500995,-0.69467753,1.5629325,-2.0876608,2.3754935,-3.2039301,-0.023914862,-0.029740449,-1.1553829,-3.76059,-2.986358,-0.40879482,0.09360757,0.2936944,5.5388684,0.20863254,-1.246055,-0.39179996,-1.716799,2.488439,-1.0389196,-3.0301764
economics,-3.0411983,-1.2433959,-0.9976887,1.2247432,-0.30035362,1.1309913,-0.9408114,-1.1023271,-3.6613529,1.1902351,-4.875342,-2.2026315,1.5817657,-3.2764049,3.2807765,-3.1024783,-1.4284092,0.24220368,-1.9503186,-3.944189,-1.8106916,1.6925166,-1.2230941,1.1868627,6.891557,-0.39540488,-0.3356447,0.03989411,-1.5111251,2.2234488,-1.2578721,-3.2043734
economics,-2.2394147,0.7920158,-0.75872874,0.3786899,-2.826722,1.0325043,-1.4395665,-0.31763318,-2.008222,2.5517423,-2.917243,-1.7769802,3.2248435,-4.835539,3.911013,-0.6306657,-0.71932536,-0.84147745,0.58311373,-1.1008148,-0.9743038,0.63950163,-0.82316434,3.314345,8.447389,0.5082775,0.11939102,2.013829,-0.97912395,3.2483094,-1.614226,-3.4602337
economics,-0.95095265,-2.117603,-0.21421868,-2.9910674,-4.1047363,2.492684,-1.066036,0.12246246,-3.3542433,0.1544074,-3.6040432,-0.7774846,1.7919148,-3.9247408,0.23385637,-3.331298,-0.71553004,0.09840056,-0.050258406,-2.7349136,-2.5313933,-1.9987028,-1.0059171,3.6544836,7.981743,-0.9924128,0.98328876,4.71244,0.47682714,0.110147856,-0.93444115,-3.2020156
economics,-2.0373976,-2.9247494,-1.3848948,-0.7051242,-2.9994073,1.7245812,-1.0060884,-0.89406395,-5.263106,2.4069245,-3.21298,-1.48867,2.658083,-4.507671,1.1248559,-5.145569,0.5579107,2.0493302,-1.5111439,-6.2736635,-0.6917364,0.49171364,-1.0136774,-1.0925233,7.93381,-2.7493134,0.5439542,2.607321,-0.26711756,-0.82859725,-0.85585606,-3.0378146
economics,0.16581447,0.3529213,-0.554614,-1.9350015,-5.2312207,3.6335313,0.27083978,2.9099002,-6.0384245,3.6151175,-3.8742445,-3.1855295,-0.06058735,-6.5403247,0.7994597,-1.8087586,-2.186509,-1.9374757,-0.3418821,-5.384901,-1.0237204,-0.05888728,-1.5578452,-1.3162462,6.036312,1.5030446,2.9440806,3.591662,-2.2817082,1.0782406,-2.0287402,-2.5896606
economics,0.1190104,0.757989,0.36823654,-1.7334026,-3.5168502,2.54727,-0.91483843,1.3316866,-4.611205,2.996603,-3.0505774,-2.2047372,1.9867253,-5.465415,1.3935893,-1.8436021,-1.5425103,-1.5614996,0.12991455,-3.4358997,-1.9575609,-0.76340383,-1.8971239,-0.5206983,7.2137656,1.2181014,1.4361033,3.007557,-0.111425474,0.9270658,-1.3326887,-2.643764
economics,-0.2968008,-0.8169919,0.25857067,-2.07787,-3.2464442,2.0329752,-0.6573433,0.41009274,-3.8028326,1.0532418,-3.8669508,-0.60234725,2.577091,-3.7335925,1.3220469,-2.2943766,-0.8645935,-0.37128305,0.25973192,-1.9674951,-2.4040096,-1.4776355,-1.4272617,2.63439,8.309299,-0.023725737,1.0478848,3.5895195,-0.06723848,-0.027822983,-0.9198037,-3.0847092
economics,-1.9147949,-1.2233896,-1.4359484,-0.58888227,-2.6933198,1.0151988,-0.84576577,-0.94514817,-3.0472114,-0.69987094,-3.7415104,-1.5360466,1.6818204,-2.5868213,2.2687314,-3.130787,0.50885946,0.8802101,-1.5014232,-3.365932,-1.674339,0.1294578,-1.1917915,2.8890376,7.4731164,-0.7492413,0.7151627,1.631386,-1.1288232,2.3491135,-1.127648,-2.6701093
economics,-1.0066582,-0.6461393,-0.56469184,-1.346598,-3.1363533,0.5840021,-1.0977327,0.061797403,-2.7649202,0.6215419,-2.9828303,-0.6874742,2.025933,-3.36349,0.8356721,-3.88753,-0.4596685,1.0647681,-1.2904749,-4.394396,-1.8239062,-1.143333,-3.1391065,1.2176167,8.704071,-0.24335678,1.21061,3.184886,0.48200196,0.9405786,-1.2570516,-4.349786
economics,-0.98429537,-1.5477799,-2.2803333,-0.5294661,-4.196377,1.2446749,-2.1931868,-0.66954017,-2.2808244,0.790668,-3.8561141,-1.9168929,2.200657,-3.1630604,-0.30573952,-2.7055438,1.6385005,0.57452315,-1.9313363,-4.188856,-2.2407868,-0.8515395,-0.6406014,0.31068158,7.56392,0.35947704,0.17449473,1.0853864,0.49367803,2.635365,-0.77874815,-1.5245899
economics,-1.6183045,-1.4938505,-0.8420741,-1.63766,-3.5137868,1.1622627,-0.8903084,-0.73226106,-3.1923478,-0.15029317,-4.3682766,-0.7189359,1.731425,-3.0295656,0.29560345,-2.5288696,0.43062115,1.7041144,-1.1665324,-3.6775258,-1.7112616,-1.1827693,-1.7514842,1.6891602,9.22156,-0.50685734,1.3604641,2.603823,0.39204133,0.86533,-0.018064506,-3.030032
economics,-2.4059908,-1.1734945,-1.3649664,-0.8358766,-2.9921274,1.9823066,-1.5972106,0.34828085,-3.718338,1.5779105,-5.2459054,-2.1576862,1.3785164,-4.487445,2.421601,-1.3657476,-1.8917536,-1.6763015,-0.6794364,-0.97777086,-2.2861142,1.4073371,-1.4164294,4.5308995,7.1288643,-0.27851865,-1.4305311,2.4828575,-0.7363027,1.2926158,-2.473423,-2.6832275
economics,-1.8431247,-1.3900763,-1.3646307,0.6130815,-2.6708298,1.4708974,-2.3876064,-0.30463296,-3.727997,4.1794295,-5.5192795,-1.975192,2.597664,-5.174353,1.4084747,-0.06604654,-0.91727126,-2.1525126,-1.0363193,-0.9104972,-2.3187351,1.3617623,-0.29003188,0.1285443,7.1477275,2.383046,-2.5510538,1.8915306,0.17606385,0.37805822,-2.182459,-1.7024451
economics,-0.582514,-0.112719275,0.0057284697,-0.1296138,-0.46529078,0.70305145,-0.45388624,-0.07054664,-0.5879097,0.3106484,-1.2591267,-0.45150223,0.68762577,-0.74369425,0.654929,-0.590462,-0.15995593,-0.16318682,-0.016718281,-0.70230716,-1.0056269,0.0004966487,-0.0892454,0.1397907,1.7158371,0.27209833,-0.49139348,0.40681517,-0.30350468,0.5220468,-0.41305995,-0.55846775
economics,-2.4117737,-0.82339394,-0.73880357,1.3977304,0.43517447,1.0305301,-1.2785671,-0.16847855,-2.447253,3.1263738,-4.6141486,-0.986965,3.010627,-3.5769913,4.3905573,-2.8632932,-3.1973622,-1.6482031,-0.30520543,-2.8601077,-2.2663536,1.8640758,-1.0574389,0.546915,6.8357234,0.3097913,-1.1047225,0.26381204,-1.4696323,2.7001553,-2.245141,-3.7598112
economics,-3.162991,-0.823605,1.8344375,-4.1353583,-0.044744298,-0.05037949,-0.5860428,0.07756645,-3.1638103,2.1574879,-6.4864955,-0.9420824,2.314976,-3.7817118,-0.40723655,-4.7742248,-3.3787441,-0.036569126,0.8353365,-4.692456,-2.4546928,-5.9907837,-1.9918303,-1.3886077,10.252939,0.47419155,1.1627775,-4.0075192,0.70398015,4.162543,3.7564697,-6.3285537
economics,-2.9742222,-1.6367092,-1.7351843,0.8419809,-1.2122438,1.3369373,-1.0012159,-0.74631864,-2.2764487,0.6273064,-5.3598356,-0.6945384,1.7529358,-2.9851756,2.9036772,-2.76255,-2.0261562,-0.46113876,-1.5329171,-3.1926756,-1.6886874,1.9196239,-0.6138274,2.6735487,7.3769917,-1.3422229,-0.5009001,0.37997925,-2.7502851,1.5864953,-1.7599635,-3.8304791
economics,-1.453424,-0.6094581,-0.9286573,-0.08271619,-0.99461627,1.5569202,-2.143399,-0.66317606,-3.2837532,4.575922,-5.312214,-0.6838588,3.6977947,-5.213967,1.9075549,-0.9679424,-1.3588315,-1.5221081,0.24326186,-2.081371,-2.614141,2.8308055,-0.6326404,-1.8074808,6.4357367,1.2669288,-0.8441278,0.02867133,-1.6313908,1.0031648,-1.2943681,-2.1374512
economics,-1.5458641,-3.8722212,-0.23676312,1.5009451,-0.7113315,0.27968037,-0.47113118,0.1816363,-3.3754988,1.6697421,-2.5895522,-2.1646943,-1.0532173,-3.2025425,5.431598,-4.7640147,-3.6106184,-0.6496977,-1.8578569,-4.6265,-2.6199384,2.5638485,-2.6211128,1.717824,7.7367125,2.636091,-0.12726486,1.412794,-3.6896698,-0.43861747,-3.7839644,-6.9003277
economics,-0.36385342,-0.060826663,-0.40134487,-0.22832794,-0.41170743,0.434704,-0.57503104,-0.283916,-0.5081986,0.119593054,-1.364811,-0.2583404,0.64132285,-0.64888334,0.6839977,-0.7096419,0.06483934,-0.10923362,-0.21536478,-0.75273186,-0.95588154,-0.29093456,0.13587059,0.16034569,1.5342677,0.021024564,-0.4902682,0.21172467,-0.22818102,0.3659189,-0.45409578,-0.5975008
economics,-1.7080568,-1.3762966,-2.4731646,-0.4577355,-1.1106677,0.12590578,-1.6631838,-1.7452374,-2.1965666,0.96791685,-6.4236083,1.392119,2.727601,-1.3454436,0.2595279,-4.728185,0.84304583,2.309827,-1.2006041,-4.6544914,-3.0340364,-0.9387122,0.09823614,-0.06674465,9.181527,-1.4893224,-0.09840708,-0.21372776,-2.0189342,1.0848813,1.194818,-3.7326188
economics,-0.7165427,-0.5236198,-0.7541878,0.13409378,-1.9405555,1.2208829,-1.6973785,-0.24007472,-2.0848997,1.3717166,-4.0213423,-0.8443617,2.018361,-2.2583084,0.7814959,-1.0976307,-0.16375275,-0.3620493,-0.13850544,-1.6914704,-2.4220185,0.5652321,-0.19625774,0.5494365,5.482311,0.97127825,-1.408453,1.2740419,-0.17938101,0.8198081,-0.968442,-1.8285263
economics,-0.89931655,-1.7716534,-2.0051908,0.45236275,-2.3211434,-0.41743857,-2.7051704,-1.2870898,-3.5543666,3.8839242,-4.8204894,-0.107234634,3.6845746,-3.4857614,0.37662712,-2.274189,2.219557,0.80742407,-1.9683391,-3.822681,-2.9480474,1.0793376,-1.3848753,-3.7518835,7.7988477,2.6187212,-0.99205726,0.8406517,-0.1456039,1.1024811,-1.5895388,-2.3022442
economics,-1.8500859,-0.64919454,-1.0228354,-1.8649812,-3.378462,2.0937066,-0.5975877,0.7593158,-2.3820186,2.3774772,-2.3635905,-1.2801027,4.45336,-5.368561,1.1956458,-2.2757206,-0.66207767,-0.5141123,0.8853315,-3.2220244,-2.0841234,0.57011276,-1.4455566,0.6631648,8.161646,-0.8200308,2.4614408,1.4736984,-1.2235653,4.091296,-0.43484622,-2.8982959
economics,-1.738658,0.32094148,-0.98605275,1.2105479,-1.0471383,0.07818329,-3.740399,-2.6276891,-2.485603,0.9286539,-6.049522,-2.4003804,1.4657985,-3.4783669,-1.2438359,-2.7412543,-0.1556634,-0.23577951,-2.8916879,-5.470514,-2.634744,-1.2106745,-1.798692,-1.9552969,6.6290975,2.0548348,-1.5141548,-1.2547913,1.9192338,2.806161,-0.5928879,-2.7810187
economics,-0.4848932,0.04674454,0.06187815,-0.16792351,-0.63026685,0.79445744,-0.6592965,-0.13230036,-0.5853582,0.23514768,-1.458121,-0.55344397,0.7070559,-0.6532305,0.5747479,-0.5997789,0.05417543,-0.2950929,-0.021367984,-0.68478817,-1.2516105,-0.21032341,0.060925987,-0.03188272,1.668474,0.47653404,-0.8122497,0.5131866,-0.10968058,0.4667627,-0.53531086,-0.49969625
economics,0.3418944,0.90890515,2.269949,-2.2539694,-0.4269886,2.6278195,-3.1603096,-1.6975415,-1.4783709,3.8541105,-8.281814,-2.680768,0.024469417,-4.4395185,-2.6697109,0.5313902,-4.076837,-2.858046,-5.469115,-4.1694474,-3.293527,-4.7509274,-6.1816554,-3.0991733,7.4636364,7.811322,-0.84107786,-4.0776834,2.6234014,1.3249416,0.9969737,-5.173155
economics,0.06816693,-1.431242,-4.327083,0.8908602,-2.724493,-0.8728678,-4.211456,-2.156105,-1.4756103,0.96360266,-7.854095,0.7790868,2.6014433,-1.2887211,-1.6598762,-1.7757621,2.629994,2.3376,-1.4135756,-3.7001195,-4.479327,1.0765524,-1.2101943,-1.6009455,9.253148,0.8350333,-1.9595202,1.1621699,-0.17886987,1.554596,-0.8455187,-3.4630504
economics,0.5163207,-1.4136837,-3.031571,0.19436139,-2.4712987,0.34657815,-5.323585,-1.5262061,-2.4964452,2.4578564,-8.7173395,0.19073561,3.3728619,-3.2450526,-2.2682967,-0.36182594,1.3501213,0.56131846,-2.4256933,-4.0899777,-3.9867263,2.0204988,-2.0008087,-5.763692,8.559393,3.1651573,-1.3735921,0.19609398,0.32962474,1.6770713,-0.2685019,-2.765376
economics,-0.6511557,-0.028190838,0.4325027,-0.6751972,-1.6969894,0.14119945,-1.47927,-0.42224905,-2.5558984,0.4799745,-3.823443,-0.43548784,3.1546423,-2.2808294,1.8294358,-4.9987545,-0.6014636,0.273432,-1.0596882,-4.464951,-2.9440532,-3.6676502,-3.00863,0.96061236,7.552182,-0.027653284,1.5178688,2.0627148,0.15499908,0.4680889,-1.606132,-3.6293206
economics,-1.3265942,-0.90218514,-1.679228,1.2789483,-1.9823709,0.42886308,-3.7339242,-2.0913749,-2.454737,3.5480227,-6.5678205,-1.5899351,3.0035288,-3.7043335,-1.9178288,-1.665336,0.36150175,-0.6885117,-2.1045396,-4.4440737,-3.5429573,0.22440505,-1.4201804,-4.275525,6.8764706,3.2467113,-2.3727655,-0.9461294,1.0164678,1.5626867,-0.87813497,-2.9191263
economics,-0.63541883,0.103909194,-0.6346504,0.0958938,-1.9269658,1.1330004,-2.3484943,-1.3697866,-2.618219,1.7410978,-4.1316338,-2.413305,2.5480201,-3.6606078,0.17987418,-2.2738461,0.26326203,-0.39137998,-1.4274191,-3.09299,-2.5208328,-0.9106697,-1.1091809,-0.67666453,5.7278028,2.0179918,-0.48755994,0.019085594,0.5273272,2.0580232,-0.6327234,-1.3898354
economics,-1.5801246,-0.5203603,-1.4190202,0.33099532,-1.1385115,0.55435956,-2.6378038,-1.227915,-1.335012,1.0231172,-4.530046,-1.1388254,1.9328518,-2.321035,0.45184475,-2.5630908,0.070264615,0.27642894,-1.3956077,-3.8334174,-3.0768826,-0.54363436,-0.70524764,-0.5042812,5.844983,0.89282984,-1.0851126,0.031235196,-0.32818332,2.2300348,-1.0957856,-2.5052752
economics,-1.8388314,0.64600253,0.28635478,-0.17668357,-0.31260982,0.80811,-1.836303,-1.1124281,-2.7107704,3.7647846,-5.313906,-1.7388427,2.267107,-4.342503,0.9948099,-1.9889083,-3.6120756,-2.00098,-0.41922867,-3.9103675,-2.1882374,0.69997495,-1.5621746,-2.452743,6.8632164,1.6321211,-1.5265771,-1.4554121,-0.05555554,2.7611928,-1.2082945,-4.0036883
economics,-0.55478734,2.4441736,1.428646,-0.6141597,-1.7913151,1.4431283,-1.5079278,-0.76912963,-4.202551,2.1573849,-4.577403,-2.8767428,4.409468,-5.723219,1.2728215,-2.6761243,-1.9071606,-1.022005,-0.13568166,-3.7457132,-2.5150173,-0.2773743,-2.845893,-2.3778074,6.0167866,1.1998625,-0.11357584,1.8818207,-0.5406358,0.6129287,-2.1489487,-2.923273
economics,-0.7418193,-0.077642664,-0.4139666,-0.73889136,-1.5128269,1.5518548,-2.2022142,-0.20802388,-1.6108994,1.1796873,-4.1329627,-1.4409509,1.9733167,-2.3077116,1.4814332,-1.6918242,-0.33993247,-0.8449953,-0.46887493,-2.1627488,-3.3451014,-1.1548058,-0.4278968,-0.36934972,4.668013,1.2041159,-1.3717827,1.0181942,-0.38515434,0.9955545,-1.5589342,-1.9115155
economics,-1.2200398,-0.31225988,-0.63262945,0.071538374,-0.9306781,0.90253043,-1.8774179,-0.466473,-0.9029731,0.62153304,-2.995006,-1.052591,1.2824883,-1.4044901,0.39653575,-1.1993742,-0.0662705,-0.27482015,-0.74238986,-2.1254637,-2.2517867,-0.13937235,-0.13478205,-0.48395073,3.4049282,0.9830311,-1.1845765,0.19491123,-0.38387948,1.4735732,-0.89622897,-1.2830229
economics,-0.9358513,-0.23463367,-0.9736151,-0.18979555,-1.0034474,1.0380621,-1.6467514,-0.70024306,-1.982351,2.0932093,-4.19055,-0.44626653,2.1456723,-2.7547514,0.89096355,-1.6186374,-0.67114395,-0.34588295,-0.12154944,-2.03991,-2.7314763,1.2060543,-0.16215867,-0.38971525,5.1863656,0.20578578,-1.1602905,0.48469117,-1.0120606,1.0519276,-1.1826111,-2.376078
economics,-0.75272113,-0.34490553,-0.685595,-0.23765716,-0.89048296,0.79196405,-1.343631,-0.40144953,-0.906213,0.52396053,-2.3843746,-0.65079707,1.2582685,-1.2335376,0.9423826,-0.8262822,0.092172556,-0.4121166,-0.35151258,-1.385929,-1.8656708,-0.13896692,0.061096024,-0.18972218,2.6491024,0.6836734,-0.9323739,0.49689686,-0.55934805,1.0834833,-0.90513396,-1.0487783
economics,-0.4195824,-0.22582176,-0.6283117,-0.77364695,-2.180286,1.837488,-1.8022063,-0.08339467,-3.263011,2.4615974,-3.1208634,-1.2750785,4.186143,-4.854505,1.3950347,-2.4694645,-0.8285854,-0.83130974,0.8166127,-2.5575423,-2.8904207,1.6094986,-0.76826143,0.18024656,6.8760858,-0.31251842,1.4734696,1.0818042,-1.0901341,3.2089224,-0.9266608,-2.9330828
economics,-1.0947746,-0.4626139,-1.0716604,-0.3684612,-0.9985287,0.53291243,-3.2403543,-0.8736923,-2.2642274,2.731165,-4.908476,-1.0989093,2.2488468,-3.6463091,-0.8443769,-2.133315,-0.5351449,-0.023298351,-1.6599915,-4.051578,-3.1969774,-0.13341004,-1.3159486,-2.827355,5.72091,1.6416045,-0.9293052,-0.6624421,0.24200237,1.6596514,-0.6440058,-2.3761473
economics,-0.66856,-0.0022196625,0.4927703,-0.81889206,-1.6205288,0.24706057,-1.4957745,-0.41382176,-2.509822,0.5300817,-3.8237298,-0.3749648,3.303808,-2.4147406,1.5974406,-4.918716,-0.601802,0.40420172,-1.0572667,-4.564955,-3.0952113,-3.7952497,-2.9160204,0.9228645,7.4491487,0.029917922,1.6912674,2.0314124,0.14086887,0.21976125,-1.5719342,-3.496367
economics,-3.232922,-0.7825285,1.758118,-4.22884,0.050554838,-0.08212908,-0.56343836,0.2585944,-3.144468,2.242005,-6.460476,-0.9409607,2.400832,-3.8245094,-0.40023568,-4.633694,-3.2769237,0.016085045,0.7354131,-4.666375,-2.4973161,-5.8322263,-1.9094187,-1.2974986,10.435295,0.60504425,1.3260028,-4.15916,0.8863404,4.025194,3.6996675,-6.2783856
economics,-1.3131727,-0.78393006,0.165828,-1.2760547,-0.11320403,0.120241605,-1.4342211,-0.16584867,-1.3651068,1.0518804,-3.8695138,-0.057017446,1.4472013,-1.3220567,1.1169007,-2.776877,-0.932014,0.32175234,-0.5155003,-3.559904,-2.9291093,-2.257978,-1.335641,-0.94384617,5.187983,0.78138787,0.1919209,-0.2065721,-0.95866317,2.223227,0.38630536,-3.3844876
economics,-1.9916278,1.0330188,-1.2949888,1.9981617,-1.5505815,0.61328083,-3.040381,-2.013727,-3.5231931,2.213172,-5.278673,-1.7797441,2.7482433,-3.823758,1.9978168,-2.279934,0.5236876,-1.3404757,-2.739939,-2.9394743,-1.631905,2.7865257,-0.90700495,-0.8670634,7.2149787,1.7284663,-2.7079685,0.5849554,0.23332363,1.9370126,-2.4813013,-2.1871648
economics,-1.4693999,-0.3665657,-2.1165125,0.98810536,-2.070503,0.1701195,-3.8732054,-2.038989,-2.6060069,2.2917078,-5.7288213,-1.546475,2.5902305,-3.5705936,-1.0902306,-1.8582371,0.70116997,-0.10603576,-2.8062491,-4.291286,-2.7169445,1.0854219,-0.89970094,-2.844658,6.92555,1.5921389,-1.775941,-0.82179374,0.70850265,2.1373515,-1.2214116,-2.661735
economics,-2.3655386,-1.9652022,-0.6868351,1.1422282,-0.6856176,2.5376053,-0.833723,0.39232475,-4.375809,3.468635,-3.4713092,-2.1194136,0.95658463,-6.0399604,4.2977633,-2.3640056,-3.8223903,-3.4754777,0.043683097,-3.0394635,-2.1386888,3.857253,0.49831086,0.47315368,7.937535,-2.339169,-0.48023114,3.5820615,-2.2811122,0.40440422,-2.9618995,-5.0134015
economics,-1.0457398,0.2910354,-0.97816974,-0.010162695,-0.5188922,0.3211111,-3.4455588,-0.36124396,-1.5344462,2.9440393,-7.6696033,1.4916842,1.8089103,-3.2972128,3.6891737,-1.2602112,-3.4646404,-1.1079469,0.7049104,-1.8830887,-3.1791587,2.98003,0.6991369,1.4447986,8.379145,-0.6739967,-2.400272,-0.95135134,-4.305701,0.97767544,-2.3983061,-5.7518015
economics,-1.3781941,-0.31589308,-0.67090577,-0.108153604,-1.7507491,0.870409,-1.7583207,-0.5224202,-1.516551,0.46677533,-3.3641672,-1.2454971,1.9390925,-1.9282578,0.6757457,-2.7595851,0.0711214,0.34749463,-0.8388824,-3.0309396,-2.5687475,-0.9290652,-0.7511739,0.62370586,5.785197,0.39500442,-0.23286307,0.73423904,-0.38712478,1.9649336,-0.7559362,-2.208306
economics,-0.55150396,-1.1848245,0.15311006,-0.9629461,-1.4042976,-0.044605378,-1.8076085,-1.2853138,-3.3322442,0.25247616,-3.911407,-1.890297,2.0652485,-3.1122131,1.3386153,-4.838432,0.09820924,1.3689591,-1.5046525,-5.850659,-2.8248425,-2.4786377,-3.7193336,0.03086505,7.2618785,0.7127011,1.3187959,2.298335,1.1648529,1.9154671,-1.4675193,-3.6325893
economics,-1.9006002,-0.7975209,-1.296095,-1.3266037,-2.4478424,-0.03564256,-1.0096588,-0.96325606,-2.4269667,0.043036513,-5.1962824,-1.6382443,1.581076,-2.6892993,-0.0013861852,-4.275836,-0.02426709,1.4054596,-1.4408727,-5.2036715,-2.1794462,-2.9175942,-2.2649922,0.22990042,9.387638,0.15744272,0.5179517,-0.6382201,0.7753914,3.1843224,0.9303319,-4.58031
economics,-0.65176666,-1.1800029,-2.022936,-0.8194858,-0.6306726,-0.78189534,-1.9696519,0.042937968,-2.0023437,1.8126194,-4.6073675,0.5249741,5.007948,-2.1538815,2.473317,-3.1364634,0.42577407,0.14732452,-0.08744149,-4.194709,-3.6990507,-0.014390835,-1.0602185,-1.6288228,8.280996,1.1212049,1.526366,-0.20416114,-3.805797,3.0992844,-0.99434966,-4.215803
economics,-0.86426926,-2.0616758,0.6164436,-2.283498,-3.1872108,2.3217428,0.114654765,-0.5144936,-3.4992614,2.3191125,-3.4412675,-3.0798879,0.48217046,-6.026583,0.35334444,-2.7588398,-2.0236518,1.5129424,-1.1233283,-6.667982,-1.6290933,-3.3263865,-6.3746285,-0.22808787,7.9607854,2.8396108,1.4729625,4.776678,2.9012303,1.1222305,-1.8115044,-4.7372575
economics,-0.7905306,-0.15262301,-0.6915903,-0.60962826,-1.6905361,0.45112595,-2.698231,-1.1918449,-2.3630288,0.6240798,-3.5977883,-1.8824501,2.5017283,-3.0533192,0.92183,-4.1316667,0.656559,0.30448446,-1.6348357,-4.8048015,-3.2513182,-2.1776478,-1.6838422,-0.27865124,5.664305,0.84670895,0.2146255,0.6158732,1.0709988,2.5412633,-1.0530431,-2.3743567
economics,-0.30548707,-0.056984786,-0.12619913,-0.18287347,-0.65457404,0.6119007,-0.6341536,-0.16518058,-0.3548432,-0.05711047,-1.1860864,-0.5662064,0.46932718,-0.39114395,0.5329361,-0.6095294,0.14067863,-0.11578446,-0.112416826,-0.63885087,-1.1181606,-0.4835639,0.03803473,0.27549747,1.5025314,0.2944354,-0.59100235,0.5081773,-0.03604912,0.5446007,-0.46817178,-0.40002045
economics,-0.7101607,0.29283836,-1.2178484,-0.5479722,-3.2059848,1.1926867,-2.5153832,-0.68790996,-2.5276272,0.4621623,-3.9999335,-1.0797154,3.6004198,-2.9328337,0.027003074,-2.992359,1.1505294,0.47814655,-1.9423077,-3.400341,-2.4940758,-1.6849666,-1.6195831,-0.016610982,8.156493,0.8397761,0.7904269,0.75356114,0.19392434,2.4395716,-0.5625172,-2.5254173
economics,0.009974316,1.136352,1.9269662,-1.1051701,0.017613309,1.2615905,-1.2492528,-0.19351837,-2.7090886,2.3721533,-3.9529862,-1.127321,5.04899,-2.6809192,4.280792,-4.2929325,-0.9957529,-0.87677634,1.3018569,-2.6139772,-4.122011,-1.5323557,-2.1824403,-2.5604217,6.3648577,0.9788206,0.7748294,1.5272678,-2.0071435,1.8713744,-1.5568553,-3.1983495
economics,-0.9574231,-1.1886641,-1.9501886,-0.73700625,0.20131631,-0.025623336,-2.2753534,-0.9380551,-1.2434328,0.3030982,-5.070588,0.54073477,1.7862314,-1.1024585,2.4622211,-2.7785501,0.20441227,0.76845336,-0.71919465,-3.6902237,-3.5835702,-0.5886152,-0.010918237,0.122729585,5.7318063,0.1449291,-0.81421316,0.036473818,-2.3219173,2.1877656,-0.7140635,-3.2831635
economics,-0.72602415,-0.43206322,-2.4963403,-0.7164022,-0.6095406,-1.1558061,-2.825543,-0.16107637,-1.6574559,1.0385774,-6.4187403,1.7509861,3.0376287,-0.5435318,2.2305806,-2.981476,1.5929853,1.6757504,-0.6740373,-2.9934897,-3.5665638,-1.433121,-0.20542951,-0.14436473,9.539943,-0.57725626,0.3248471,0.09878122,-2.5785651,0.16718116,-0.25722736,-4.6420274
economics,-0.28648403,0.15130202,-2.5242672,-0.3189508,-5.4868608,1.4111065,-3.100919,-1.3015964,-2.6014059,-1.6498936,-5.7692304,-0.2893964,1.581645,-3.2888281,-0.92520285,-3.6263356,3.5390706,2.748136,-1.9969423,-2.3961594,-3.124885,-1.2095506,-2.7865329,3.4213607,10.143901,1.2989205,0.36812508,4.119998,-0.1807877,0.54603374,-0.72676766,-1.9680482
economics,-0.9959796,-0.42683318,-0.9723703,-0.017153488,-0.9986283,0.8353868,-1.4425902,-0.42585984,-1.0599065,1.0323844,-3.6220922,-0.17000842,1.295545,-1.6058975,0.79463995,-1.2467926,-0.75308985,-0.33997416,-0.085345566,-1.6133347,-2.242491,0.26048383,-0.21245025,0.36826956,5.120206,0.066931225,-0.9486232,0.50927573,-0.7719472,1.0731906,-0.97198486,-2.2941813
economics,-1.9627464,-0.44995928,-1.5208613,0.23727736,-3.2650316,0.64526784,-1.2538867,-1.1004189,-3.1276877,-0.60376275,-3.8217819,-1.600656,1.848049,-2.4705396,1.8234193,-3.9127595,0.9024209,1.2010217,-1.5051315,-3.9225743,-1.7638113,-0.8486069,-0.7967277,3.1770394,8.507391,-0.7419109,0.40610504,1.5162965,-0.8818475,2.3271604,-0.72345334,-2.991883
economics,-2.5126495,-0.31278452,0.31048095,0.9045417,0.5402818,0.76843846,-1.006742,-0.7642568,-1.856927,4.0848765,-5.262504,-2.2863185,1.9312108,-4.127197,4.4394174,-1.9239656,-4.742531,-2.1963933,0.6651234,-3.1844306,-1.3273597,1.0108441,-1.269677,-0.78080255,7.8401685,0.53349394,-1.204867,-1.5819566,-1.0464219,3.7313986,-1.5509939,-5.194195
economics,-3.0320919,-0.20251894,-0.59852076,0.20457374,0.28281102,0.6206279,-0.9916682,-0.8561707,-2.3276355,2.5874264,-5.7979245,-1.3236711,1.7268405,-3.6120849,2.581672,-2.9262047,-4.048626,-1.2212529,-0.48695305,-4.158716,-1.3939686,1.6321713,-1.3085546,-0.41208652,8.151268,-0.76602024,-1.2427295,-2.2141488,-0.5217925,2.9830396,-1.2564485,-5.1420817
economics,-2.5519533,-0.99811333,-0.5810865,0.07546152,-0.36575314,0.7542647,-0.9794647,-1.2218564,-2.2499347,2.2711103,-5.2304463,-0.4932746,1.4030336,-3.3297102,1.9788835,-2.2149856,-2.313407,-0.5141396,-1.0393511,-3.9842882,-1.4182932,0.6450813,-1.4665737,-0.81598425,7.3913937,-0.15868488,-0.4914774,-0.8786097,-0.84659,2.1547558,-0.8212472,-3.9844027
economics,-1.2228082,-0.064567186,-0.17394575,-0.57830346,-1.3733897,1.6836985,-1.6002059,-0.15223032,-2.7281823,1.8127553,-3.38003,-1.9000697,2.274757,-3.5475528,1.7949327,-2.2750049,-0.93548286,-0.68406284,-0.3153615,-2.5989065,-2.3880935,-0.25888237,-0.7053837,-0.01622926,5.0957146,0.74401873,-0.36357337,0.8522708,-0.60913825,1.5363007,-1.2869395,-2.0711503
economics,-1.7990817,-0.68023014,-0.6102868,-1.8102841,-3.006717,2.4200869,-0.45780182,0.6760943,-4.4275966,2.286758,-2.8879828,-0.938023,3.1461475,-5.755537,1.8160055,-1.8323277,-1.7473783,-1.1077996,-0.022705147,-2.9104142,-1.3885165,2.4431698,-0.92788535,1.6646864,7.937825,-1.6348836,1.5045177,2.1916451,-1.0054249,1.9997942,-1.1263367,-3.4354227
economics,1.6653937,0.93809134,-1.0042264,-1.7621312,-3.2030387,3.6903758,-2.6670103,0.30446303,-1.6123173,3.2780397,-3.350841,-1.9294741,5.741362,-6.9338193,0.08361083,-2.200665,-0.6065679,-1.6000663,2.663311,-2.5544996,-4.2477174,0.4191906,-0.7193253,-1.0368416,7.085931,2.2931182,0.5694235,0.7278193,-1.1183807,4.6322784,-0.6154951,-0.8651483
economics,-1.7250602,-1.1090342,-1.2612727,1.1574962,-3.4390514,0.55031437,-1.050193,-0.8724175,-4.1182113,0.22261111,-5.221748,-2.8456495,0.7058504,-2.3738616,2.9347534,-3.2237763,0.502532,-0.021951592,-1.4421743,-2.0978162,-2.3675668,0.23449852,-1.4706384,3.6524765,8.022674,0.12727699,-0.08388826,2.3085089,0.1734119,1.5465004,-1.7531202,-2.7218683
economics,-1.9250362,-0.5285569,-1.4152535,-0.20525898,-3.622859,1.2537818,-1.2075596,-0.5420977,-4.128744,-0.402188,-3.4928896,-2.4064703,1.4105386,-3.3741112,2.1162179,-3.415647,0.19463083,0.41272363,-1.9164276,-3.9387782,-1.9175572,-0.73561406,-1.5977321,3.5264838,7.8991017,-0.25038567,0.78525877,2.5835986,-0.5282649,2.6528554,-1.4991698,-2.9782393
economics,-1.4751033,-0.04027339,-1.0903319,-0.18768834,-3.487906,1.1641229,-1.5546223,-0.2953181,-4.015286,0.6217955,-3.8494585,-2.0761423,1.9616147,-3.8168426,1.9825356,-2.4693055,0.16745001,-0.21915182,-0.9661195,-2.150552,-2.0665584,0.14565407,-1.3476139,3.6531594,7.5725718,-0.08325188,-0.2548445,2.802256,-0.07644285,1.861823,-1.7144083,-2.7252345
economics,-2.0990434,-1.087741,-2.981305,0.7612442,-1.0244781,-0.15879844,-2.5891948,-0.9576704,-2.0716205,0.074428156,-6.3455896,0.31435966,2.0596402,-1.2707865,1.4338382,-2.6745772,0.89028716,0.9109736,-2.0072293,-3.570829,-2.240547,0.90907073,0.03002482,1.8701127,8.510984,-0.2701655,-1.2296069,-0.059093405,-2.5249689,2.0809214,-0.7989651,-3.7117138
economics,-2.0522444,-1.19772,-0.8316763,0.19382004,-1.1290108,0.57533014,-0.92974246,-0.35275868,-1.4002713,0.2619417,-3.015808,-0.6229121,0.86759275,-1.2644227,1.6565157,-1.9091251,-0.4917984,0.05867004,-1.1746408,-2.6594615,-1.4778117,0.536294,-0.79490817,0.46034637,5.3203254,-0.12573506,-0.50539756,0.5880772,-1.2391951,1.5600431,-1.1226847,-2.8131194
economics,-1.272805,-1.4774783,-1.3041233,-0.1366411,-0.7986879,0.3019679,-1.4892013,-0.8246716,-1.1199745,0.10995688,-4.3496404,0.20342888,0.9398168,-0.7284123,1.1881974,-2.0818899,-0.003384337,1.0416539,-0.85620093,-3.023152,-2.34549,-0.45908317,-0.49900538,0.35701653,5.9091554,0.05643223,-0.6678306,0.574691,-1.4014022,1.3846473,-0.37322012,-2.893296
economics,-0.8289657,0.74051327,-0.70770764,0.08344342,-3.2985551,1.9684291,-2.4845622,-1.1528854,-4.4759116,0.86471385,-5.623275,-3.1805735,1.7205647,-3.9117985,2.0599954,-2.2502694,-0.07369907,-0.8579238,0.055317402,-2.2804482,-3.8644695,-0.9925891,-1.4798023,3.4115674,8.692793,2.0581794,-1.4803628,3.509528,1.0093158,2.3796902,-2.3154583,-2.4452884
economics,-2.077892,0.30026367,-0.6313807,0.25904065,-2.7897086,1.3526374,-0.74753845,-0.8595957,-3.6704795,1.7100224,-4.1039157,-2.3205414,3.2683208,-5.1567073,2.178861,-1.6683332,-0.84761673,-0.92909175,-1.0996952,-2.0942357,-0.86364585,0.6396088,-2.3347578,1.8052086,7.194964,0.4315713,-0.14034435,1.8929834,-0.01082271,1.6147726,-2.0003107,-2.6520066
economics,1.0799077,0.50438046,0.9706631,-0.77604115,-3.1780844,2.9338636,-1.4160888,-0.056608174,-2.9303463,2.4373856,-1.7356609,-2.1854417,4.651497,-6.0162783,1.3164239,-3.061026,-1.6163383,0.3649624,-0.2551457,-6.343833,-2.1952465,-0.3551051,-3.8747334,-2.147112,7.431241,1.4256579,2.6385818,2.7603223,-0.3898966,2.6906993,-1.532758,-2.6485069
economics,-2.318474,-2.7245564,-1.8786567,-1.0204623,-1.3037128,1.7521166,-0.67847866,1.6491581,-1.911996,3.2715309,-3.2093675,-0.41285178,5.276181,-5.0734305,3.989123,-2.7649915,-2.0690272,-1.606128,2.3031485,-3.6673255,-2.1672378,1.5851378,-0.8698809,0.87877554,9.5624275,-1.7656449,4.152355,-0.08491663,-2.4743533,4.923751,0.0297384,-4.9168215
economics,-0.11673009,1.8165468,3.0562716,-0.54356784,-0.6088201,-0.23370023,-0.92813295,-0.623609,-3.2434673,2.5072265,-5.529572,-1.7015245,2.7262437,-3.4036264,1.550906,-3.7540958,-4.24827,-0.048170324,-1.1445243,-5.7620115,-3.4749997,-2.7614055,-4.965866,-3.4505188,7.090515,1.1519642,1.352183,1.8425217,-0.8724028,-0.8351189,-2.5706856,-5.0667815
economics,-1.2209544,0.4747777,0.3950392,0.27796185,-0.8310739,1.3277575,-1.3681754,-0.9073245,-2.3901062,3.1965787,-4.6941776,-0.53757167,2.8037806,-4.192365,1.3911165,-1.381327,-2.996136,-1.2079748,0.007642774,-3.6232686,-2.146405,1.7543956,-1.4956391,-2.1749191,6.863671,0.93250215,-1.052114,0.45874897,-0.84235364,1.7164304,-1.3275129,-3.7547483
economics,-1.8746097,-0.30774522,-0.6037409,0.6922401,-0.47769177,0.55074215,-2.7086313,-1.56215,-1.956333,3.0120032,-5.908704,-0.94105184,1.7190721,-3.282207,-0.39578196,-1.7187955,-2.2698946,-0.40650347,-1.1549035,-4.261517,-2.9996161,0.6626479,-1.8494512,-3.0921023,6.7025695,1.9273609,-1.6521431,-0.64306295,0.1616085,1.7200319,-1.0205413,-3.9862158
economics,0.9903538,0.18039624,-1.2255623,-0.16860601,-0.52816004,1.7806674,-2.3081796,0.9567046,-1.1554494,3.545295,-4.5831766,0.13438256,5.1224756,-3.710259,2.421819,-2.6526837,-1.9842372,-2.0985627,1.0359615,-2.0154135,-3.5412726,0.91914135,0.3772035,-1.8920251,7.5594053,0.4147123,-0.10410783,1.0660622,-3.152982,1.7405169,-1.5448751,-3.1861594
economics,-1.3390056,-2.2496016,-2.730137,-1.2067645,-2.2688859,0.09071011,-1.584877,-1.1941105,-3.0191271,3.0744271,-6.3582063,0.7462003,4.1333466,-1.6078327,-0.7472615,-4.3313866,2.4960494,0.85770667,-1.6803994,-3.0866637,-3.0114503,-2.2133863,-0.51332533,-1.0689945,9.955023,-0.69979334,-0.81724185,-1.0869312,-0.6008317,0.9550246,1.7597656,-3.7556973
economics,-0.7126309,-1.7876716,-2.519071,0.28806138,-3.8341978,0.36962813,-2.3597023,-1.6804677,-3.3061297,0.77283657,-3.5493288,-1.8575288,3.0699153,-3.2688468,0.037955377,-2.9140892,2.6483026,1.3908875,-2.1965742,-4.521377,-2.1656032,-0.50213337,-0.6872339,-0.2340905,8.175439,0.8315856,0.5867667,1.4198599,0.026569244,2.7797344,-0.6787604,-2.3377903
economics,-1.091536,-1.3736135,-2.3126137,-0.623441,-4.1277733,1.2669656,-2.0884802,-0.58112204,-2.1702938,0.71038884,-3.908721,-1.9231535,2.527315,-3.1173403,-0.16807336,-2.6873384,1.639967,0.45628,-1.8591254,-4.2744136,-2.2677217,-0.7637173,-0.60483706,0.18685606,7.540991,0.30821967,0.30654958,0.9641726,0.5246883,2.7167203,-0.8457575,-1.5013524
economics,-1.2328144,-0.11576023,-1.3835608,0.49986738,-2.5583355,0.53257674,-2.363893,-0.951889,-1.6576954,0.55311555,-3.9522235,-1.2094012,1.7828125,-2.2642896,-0.1782352,-2.2344058,0.6811229,0.49621758,-1.5859581,-3.2441,-2.4550269,-0.95634973,-1.3149242,0.6444937,6.923749,1.0824759,-0.5405878,1.0567781,0.43822387,1.9370375,-0.9020506,-2.469586
